nep3 1 C 
cutoff 4.2 3.7 80 47
n_max 12 8
basis_size 16 12
l_max 4 2 1
ANN 100 0
  7.0166752e-02
 -9.3892241e-01
  4.3760157e+00
  1.2076513e-02
  2.5049269e+00
  7.6059252e-01
 -4.2269683e+00
  2.4619377e+00
  4.3384695e+00
  2.7196112e-01
  4.6425325e-01
  3.7318287e+00
  2.2020695e+00
  6.7508039e+00
  8.4443110e-01
 -9.8970616e-01
 -6.2494594e-01
  1.3780290e+00
  9.8168755e-01
 -2.7936902e+00
 -1.7929536e+00
 -2.4055109e+00
  3.4558117e+00
  6.1600882e-01
 -1.1473348e+00
 -1.3094040e+00
  1.0715948e+00
  2.7481372e+00
 -1.5966531e+00
 -3.6847355e+00
  4.2233853e+00
  2.8079121e+00
  5.7362586e-01
  1.3958845e+00
  6.7944634e-01
  5.2390399e+00
 -4.3254945e-01
 -1.1650240e+00
 -9.1629851e-01
  4.5023570e+00
 -1.0795599e+00
  5.2063298e+00
 -2.8085320e+00
  1.7364383e+00
 -8.3266938e-01
 -6.1677492e-01
 -1.9493131e-01
 -3.7184888e-01
 -1.8010846e+00
 -8.0543524e-01
  1.0533432e+00
  8.7148890e-02
 -2.7224368e-01
 -2.4100782e-01
 -1.3616000e-01
  1.1274846e-01
  1.6492953e+00
  1.3427221e+00
  2.2340773e-01
  4.3685770e-01
 -2.3941211e-02
  3.6355540e-02
  2.8386593e-01
 -3.2189712e-02
  1.2018889e-02
 -2.1032232e-01
 -2.3313846e-01
  8.5729742e-01
  5.8112866e-01
 -5.4094118e-01
 -2.9975100e+00
  1.1566553e-01
  3.1730425e-01
  3.9424741e-01
 -3.2614544e-01
 -1.0374645e-01
 -3.4068357e-02
 -2.6441947e-01
 -8.8511750e-02
 -3.2893628e-01
  6.0466990e-02
  2.7901681e-02
  1.8039827e-01
 -5.0674986e-02
 -1.9615705e-01
 -7.6218128e-02
  1.6267303e-01
  1.6949463e-01
  2.0999959e-01
  8.6697154e-02
  6.1304491e-02
  2.1563247e-01
  2.2527732e-01
  4.8347196e-01
  1.1133986e-01
  1.9994225e-01
 -3.8542893e-02
 -3.9169919e-02
 -7.3842615e-01
 -2.8103408e-01
  2.0188811e-01
  2.0698026e-02
  1.3482547e-01
 -1.9152854e-01
  1.3500035e-01
  6.3972950e-01
  9.2154011e-02
  1.6573930e-01
  6.0053870e-02
  1.0650603e-01
 -2.0212600e-01
 -2.7755401e-01
 -2.9499096e-01
  7.9875223e-02
 -2.3806887e-02
 -2.0107189e-01
  2.6819414e-01
  7.2107635e-02
  9.2779331e-02
 -2.4085170e-02
 -9.8194098e-03
  1.8108035e-02
  4.3776751e-02
 -1.4046021e-01
 -1.8475878e-01
  9.5180154e-02
  8.7527446e-02
 -5.9074895e-03
 -2.8111981e-02
 -4.7450658e-02
  1.7444680e-02
  2.4990514e-02
  4.9679484e-02
  5.4218397e-02
 -2.5351114e+00
  1.3404974e+00
 -2.5065269e+00
  2.0612302e+00
 -2.1059475e+00
  9.9851376e-01
  2.8524441e-01
 -8.5879058e-02
 -1.3563842e+00
  8.3584696e-01
 -2.8365302e-01
 -8.5138172e-01
 -6.4081222e-01
 -3.7218339e+00
  5.4467881e-01
 -3.5793233e-01
  2.1055871e-01
 -8.7925649e-01
  2.6884114e-02
 -2.9430416e-01
  1.2082162e+00
 -3.5652933e+00
  3.1012353e-01
 -2.5254395e+00
  1.4341143e+00
  1.5406271e+00
  6.2936962e-01
 -4.4975221e-01
 -4.4536307e-01
  5.0267425e+00
 -6.9442195e-01
 -2.4646974e+00
 -2.9721975e+00
  7.9160042e-02
 -1.8995445e+00
 -2.7976260e+00
 -7.0697200e-01
  1.2089818e+00
  2.4800036e+00
  1.2236651e-01
 -7.0899463e-01
 -1.6023798e+00
 -6.8619776e-01
 -2.7918053e-01
 -1.1145444e+00
 -1.2023040e+00
  6.4633697e-01
  3.1654801e+00
 -1.0351567e+00
  5.8546418e-01
  1.2811446e-01
 -2.9064658e-01
 -1.7175902e-01
 -4.8611045e-01
  7.6380873e-01
 -4.3549916e-01
  2.4624879e+00
  5.3718064e-02
 -3.4566209e-02
 -2.7556264e-01
  1.5482106e-02
  2.9967371e-02
  1.9438419e-01
 -8.9364856e-02
 -6.7784903e-03
 -6.3955337e-01
  7.5207581e-03
  1.3880757e+00
 -5.2631289e-01
  2.5836592e+00
 -6.5789232e+00
 -1.6061325e+00
 -1.6225070e+00
  5.1516920e-01
  5.4876375e-01
 -1.1765318e+00
  3.4948478e+00
 -5.5967081e-01
 -1.3938614e+00
 -6.4169759e-01
  2.2712054e+00
  1.9759103e+00
  2.6416409e-01
 -1.5099440e+00
 -2.7938070e+00
 -1.5948089e+00
  2.1513891e+00
  1.7627975e+00
 -2.8297424e-02
  4.7919783e-01
  3.3101141e+00
 -1.6860217e+00
  2.4108662e-01
 -4.1475444e+00
 -8.7710536e-01
 -4.1781873e-01
  2.9250538e+00
 -4.2656982e-01
 -1.1544849e+00
 -4.4151300e-01
  2.2626238e+00
 -7.5262415e-01
  7.5920753e-02
 -1.2504498e+00
  3.2215405e-01
  4.4867736e-01
 -1.6774254e+00
  1.3553342e+00
  9.7739190e-01
 -1.5896583e-02
  3.5152983e-02
  1.4812335e-01
  1.0898769e+00
  2.6883960e-01
 -2.6548970e-01
 -1.5881903e+00
 -2.0962462e-01
  1.4401686e+00
  1.1482127e-01
  5.1799005e-01
  1.3247886e+00
 -2.7722383e-01
  1.5662016e-01
  3.3014098e-01
 -5.0883198e-01
  2.7971858e-01
 -3.3523035e-01
 -1.1360189e-02
  9.8361254e-02
  1.0538042e-01
  9.0798244e-02
  4.7585201e-03
  5.9567577e-01
  2.5784746e-03
 -1.0744117e+00
 -8.0494279e-01
  1.7011942e+00
 -1.9285208e+00
  1.4486678e+00
 -3.9519837e-01
  1.7792640e+00
  2.1022232e+00
  3.0316767e-01
  5.4841596e-01
  1.0944561e+00
  3.8982532e+00
  1.3477331e+00
  2.8663311e+00
 -1.1395536e-01
 -1.1171889e+00
 -4.6783540e-01
 -8.9419019e-01
 -1.1909726e+00
 -6.4368427e-01
  2.1287458e+00
  3.1397545e+00
  1.9826332e+00
 -1.7132643e+00
 -2.3455024e+00
 -4.2851806e-01
  2.1079888e+00
 -1.0975231e+00
 -1.4844035e-03
  3.7507682e+00
  2.2012880e+00
  2.5736508e+00
 -2.0385057e-01
 -2.3880391e-01
  1.7683315e+00
  1.3390110e+00
 -3.1559417e+00
 -2.9854720e+00
 -3.3439775e+00
 -4.6404524e+00
 -6.2873341e-02
 -2.6086667e+00
  1.8251094e+00
 -1.9968892e+00
  2.5207443e+00
  2.3047128e+00
  2.4092085e+00
  3.0899382e-01
 -1.1243559e+00
  7.3178518e-01
  2.0186594e+00
 -5.8539480e-01
 -7.7004606e-01
 -9.3809068e-01
  4.2195347e-01
  1.8368874e-01
  1.5791076e+00
 -1.8124948e-01
 -1.7112583e-01
 -1.9117769e+00
  4.7282442e-02
 -2.9409242e-01
 -2.4422349e-01
 -1.6504399e-02
 -8.5843369e-02
 -2.7465087e-01
 -1.6155152e-01
 -1.3372655e-01
  9.1845560e-01
  2.6623089e+00
 -3.2562211e+00
 -2.6390636e+00
 -2.8165879e+00
 -2.1888351e+00
 -1.6406003e+00
 -1.5838963e+00
  2.5219953e+00
  2.4928829e-01
 -3.3632722e+00
 -9.0264058e-01
 -1.1699066e+00
  2.6984355e+00
 -8.6075294e-01
  1.1629839e+00
 -4.2787104e+00
  8.7980831e-01
  8.2904351e-01
  2.0836310e+00
  1.3348609e+00
  1.8184704e-01
  2.6715500e+00
  6.3496821e-02
  6.5736991e-01
 -4.2348213e+00
  1.8841360e+00
  2.5514832e+00
 -1.7804794e+00
  4.5291486e+00
  1.0431584e+00
 -7.8451926e-01
 -8.1281060e-01
  2.2301266e+00
  3.4486824e-01
 -5.7329097e+00
 -5.3501034e-01
  8.9178734e-02
 -1.0097362e+00
 -1.0608656e+00
 -4.4531557e-01
  1.3307661e+00
  3.9598161e-01
  1.4262371e+00
 -3.2655641e-01
 -5.7610109e-02
 -7.2352952e-01
 -1.5232233e+00
 -2.1997676e+00
 -4.8050952e+00
  3.6897576e-01
  2.9523078e-01
  1.4890250e+00
 -1.2039474e+00
  7.5012285e-01
 -2.0452244e+00
 -7.0011950e-01
 -5.8740783e-03
 -4.8762542e-01
 -1.5847069e-01
 -6.2441945e-02
  2.0609027e-01
  1.9434628e-01
 -9.5678624e-03
 -5.4979961e-02
 -1.7236745e-01
  3.2316818e+00
 -6.5953821e-01
 -1.7565434e+00
 -1.2474185e+00
  2.6869147e+00
 -1.7145374e+00
  1.5783447e+00
 -8.4277076e-01
  1.4533050e-01
  2.4668469e+00
 -2.0760651e+00
  5.5781033e-02
  1.1657482e+00
 -1.9387611e+00
  2.1554767e-01
  7.7466345e-01
 -1.6909600e+00
  3.2815950e+00
 -2.5567544e-01
 -3.7392694e-01
 -2.0823772e+00
  1.7692087e+00
  1.8193623e+00
  1.5478942e+00
 -1.0616124e+00
 -1.9179969e-01
 -1.3604391e+00
 -8.8721675e-01
  3.4898433e-01
  9.6078414e-01
  1.7853516e+00
  1.6741055e+00
 -2.9994201e-02
 -1.4805167e+00
 -7.7676579e-02
 -2.9229734e+00
 -5.4899603e-01
  9.4531113e-01
 -8.8676566e-01
 -2.4671988e+00
  1.0585338e+00
 -1.2615670e+00
  3.3254692e-01
 -7.5011230e-01
 -9.2074072e-01
  5.6820828e-02
 -9.3048006e-01
  1.4000024e-01
  1.1563743e+00
  1.1164936e+00
  2.5166390e+00
 -4.3994656e-01
  2.0562194e-01
  8.6561388e-01
 -8.9637434e-01
  1.4290030e-01
 -7.8893268e-01
  9.8579401e-01
 -1.0247839e-01
  4.5584360e-01
  1.5438929e-01
 -3.1897974e-01
  2.3892604e-02
  3.5842270e-02
  1.2115623e-01
 -2.2780048e-03
 -2.5876537e-01
  3.3018187e-01
  5.9318143e-01
  1.0427939e+00
 -5.7118144e+00
  1.5401614e+00
  6.3078594e-01
 -4.2198300e+00
 -1.4490273e+00
  3.7700479e+00
 -4.2057195e+00
  3.4984648e+00
  2.3266683e+00
 -1.4948419e+00
  5.3144002e-01
  1.3411165e+00
  7.6032709e-03
  5.6075144e-01
  2.4664779e+00
  2.7674515e+00
 -1.2048762e+00
 -2.3705251e+00
 -6.6063327e-01
  7.0845217e-01
  1.6574299e+00
 -4.7606406e-01
  1.2226346e+00
  1.5567484e+00
  3.0512173e+00
 -8.2161015e-01
 -2.4935427e+00
 -6.3840246e-01
 -4.1696196e+00
  9.7747460e-02
 -1.5792116e+00
  1.3607744e+00
  3.6645076e-01
 -1.8586875e+00
 -1.7446229e+00
 -4.1147275e+00
 -4.2267346e+00
 -3.9669514e+00
 -1.6653689e+00
  5.6427485e-01
  8.3070672e-01
 -3.5664615e-01
 -8.6361900e-02
  2.1309534e-01
 -4.2839726e-03
  1.2346679e+00
 -1.0753594e-01
 -3.7964144e-01
 -1.6635729e-01
  3.1962833e-01
  2.3272416e-01
 -6.7519236e-01
 -5.8027551e-02
  4.8257881e-01
  5.2594334e-01
 -1.9472128e-02
  5.4496691e-02
  1.5833184e-02
 -2.1038689e-02
 -1.3948020e-02
  2.1625873e-01
 -2.9281016e-02
 -3.6230072e-01
 -4.0112030e-02
  6.5522891e-01
 -1.6205630e+00
 -2.9507291e+00
  2.7152047e-01
  1.6061929e+00
  2.0351121e-01
  3.1257277e+00
  2.0751221e-01
 -1.8638440e+00
  5.4710937e-01
 -7.3977482e-01
  1.1798576e+00
  2.5553386e+00
  2.6709786e-01
 -3.6708398e+00
 -1.3550876e+00
  2.5881152e+00
 -6.7525171e-02
 -9.5849061e-01
 -2.5387673e+00
  7.2841579e-01
 -1.3775674e+00
  2.0478230e+00
 -3.4814781e-01
  2.8160447e-01
  5.2479786e-01
 -6.2553871e-01
  1.9819348e+00
  2.2602944e+00
  4.1337442e-01
  8.6833501e-01
 -1.8755448e-01
 -4.7450039e-01
  9.4186091e-01
  6.9441807e-01
  2.8708937e+00
 -1.7900836e+00
  9.1177249e-01
  2.3058259e+00
 -3.8864233e+00
  1.3257540e+00
 -3.6791773e+00
 -2.0000670e+00
 -7.1380578e-02
 -4.5275036e-01
  3.9747303e+00
 -4.2824466e-02
 -6.7951488e-01
  2.0260084e+00
 -2.5365131e+00
  5.0699580e-01
 -4.2082581e-01
  1.7000058e-01
  7.7593945e-02
 -1.7912706e+00
  5.4916054e-01
  1.1174761e+00
  9.5432454e-01
  1.5119673e-01
  2.3448537e-01
 -5.0687823e-02
 -5.1452611e-03
  3.5426849e-01
 -6.0764145e-02
  7.6431273e-03
 -1.1950105e-01
  1.1543881e-01
  4.9652016e-01
  1.8306993e-01
  1.2809148e+00
  1.7715857e+00
 -7.4167365e-01
  7.6486939e-01
 -5.8460444e-01
  4.4853706e-03
  1.8862894e+00
 -1.9093457e+00
  2.0541403e+00
 -4.1733251e+00
 -4.2976618e+00
  6.2395948e-01
 -1.7771450e+00
 -1.3200867e+00
 -1.1416571e-01
  2.6104629e-01
 -7.0321739e-01
 -1.5122391e+00
  9.9472523e-02
 -1.4843493e+00
  2.0737784e+00
  2.6246965e+00
 -1.4127108e+00
  3.9418361e-01
 -1.4988343e-01
  1.2635273e-01
 -4.1187146e-01
  1.1607957e+00
  9.6178490e-01
 -1.9937706e+00
 -4.7129610e-01
  7.4171507e-01
  4.2348847e-02
  9.9416786e-01
  1.0168060e+00
  4.5700079e-01
 -1.4538075e+00
  2.3010855e+00
 -1.9198842e+00
 -1.8618543e+00
 -5.0587374e-01
  2.0338433e+00
  6.0450208e-01
  2.2553267e-01
  4.7193897e-01
  7.1053082e-01
  6.0000297e-02
 -1.2644514e+00
 -1.9035529e+00
  6.1667189e-02
 -7.9173446e-02
  1.2632149e-01
 -6.0228312e-01
  4.4159923e-02
  6.3407391e-01
  2.3715411e-01
 -9.1980770e-02
 -3.5327551e-01
 -9.2014089e-02
 -1.2766868e-01
 -4.6181895e-02
  7.5922623e-02
 -4.3642066e-02
 -1.1064888e-01
 -1.1465870e-01
  1.7818383e+00
 -1.6281675e+00
  6.4289325e-01
 -1.2102898e+00
  3.4411642e-01
 -1.3368593e+00
 -2.0300264e+00
  1.2142928e-01
  4.3608251e-01
  6.9655104e+00
 -1.4090261e+00
 -1.1297408e+00
  7.3291719e-02
  6.5711759e-02
 -2.5353757e-01
  7.2400761e-01
 -1.3136942e+00
  6.7055893e-01
  2.0336080e+00
  1.0006717e+00
  8.3886757e-02
 -3.5845715e-01
 -2.2221880e+00
 -6.9667023e-01
  1.4517061e+00
 -7.5580496e-01
  6.0999411e-01
 -1.6715847e+00
 -3.5335761e-01
  1.3727652e+00
  8.6956334e-01
 -2.5284059e+00
  1.0254537e+00
 -9.5567858e-01
 -2.0847642e+00
  3.2388730e+00
  1.7921121e+00
 -7.4784982e-01
 -8.8977760e-01
  1.5677233e+00
 -8.2148796e-01
  1.7282265e+00
 -1.4901724e+00
 -6.5817028e-01
 -3.2255077e-01
 -8.4606534e-01
  5.1172894e-01
  6.6646829e-02
  1.3387258e-01
  2.8432364e+00
  4.4591618e+00
 -5.8563972e-01
 -2.9046568e-01
 -1.6974300e-02
  8.0807728e-01
  6.6876692e-01
  1.3289361e+00
  1.1351376e+00
  4.3813840e-02
 -3.6365213e-03
  2.2230932e-02
 -1.5795474e-01
  1.3867819e-01
 -1.1730497e-01
  4.2194098e-02
 -8.0513382e-01
  4.0215816e-02
 -4.5585865e-01
  4.2782717e+00
  9.9608970e-01
  5.1252670e+00
 -6.8513435e-01
 -1.2215993e+00
  1.1873684e+00
 -2.9617021e+00
 -1.4868708e+00
 -5.2601820e-01
  2.7764649e+00
 -1.6729310e+00
 -2.6577370e+00
  2.5927587e+00
  6.4209455e-01
 -3.2064035e+00
 -1.1616991e+00
  2.7559659e+00
 -1.6622589e+00
 -2.9980736e+00
  1.9521514e+00
 -1.0908704e+00
  5.1611547e+00
  2.0686507e-01
 -4.6457410e-01
  9.8931015e-01
  2.0866175e+00
  2.1927346e-01
  7.4223173e-01
  1.2144372e+00
  1.7590326e-01
  7.0615568e+00
 -4.0585842e+00
  2.0426714e+00
  2.7877927e+00
  1.1384050e+00
 -2.5682490e+00
  1.3689623e+00
  4.8511904e-01
  1.3475893e-01
 -1.2141045e+00
 -2.2285550e+00
  8.6526245e-01
 -7.8436974e-03
  1.9931063e-01
 -4.8437768e-01
  4.7925738e-01
  3.5856919e+00
  1.7393552e-01
 -1.6478235e+00
 -1.6529019e-01
  1.3423491e+00
 -1.1874806e+00
  9.9119645e-01
 -2.3972833e+00
  6.9683337e-01
 -2.1060853e+00
 -3.3599326e-01
 -7.7864373e-01
  4.9611965e-01
 -1.3412312e-01
 -2.6013696e-01
 -6.6787320e-01
 -1.2253189e-02
 -6.4655855e-02
  5.1518643e-01
  2.4359732e+00
  9.3898070e-01
  1.1621042e-01
  1.7871112e+00
 -1.5448586e+00
 -4.4704318e+00
  1.2257673e+00
  6.1169543e+00
 -2.2351506e-01
  1.1991406e-01
 -2.1288838e+00
 -6.2147641e-01
  2.2490424e-01
 -1.3797328e+00
 -7.1337754e-01
  1.8728386e+00
  1.1667864e+00
 -5.4680055e-01
  3.1220956e+00
 -1.7567692e+00
  3.2450584e-01
 -1.8933269e+00
  1.4018595e+00
  1.3699865e-01
  1.5276388e+00
 -1.0562095e-02
  1.0536492e+00
 -3.8859656e+00
  1.9314140e+00
 -3.8343993e-01
  4.2178595e-01
 -1.3803622e+00
 -1.8256550e+00
  1.5045485e+00
  2.9901845e+00
  1.2513081e+00
 -2.7534249e-01
 -1.2762184e+00
  1.0557227e+00
  2.2706904e+00
  1.9227666e+00
  2.1139512e+00
 -1.6349064e+00
  7.2281480e-01
 -2.3357377e+00
 -1.1358348e+00
  1.6867298e+00
  9.9192470e-01
  3.7943900e+00
 -2.3675373e-01
 -1.0405922e+00
  2.0003412e+00
 -9.1565704e-01
  9.7012371e-01
 -1.2021340e-01
  1.6838279e-01
  6.7877555e-01
 -5.8708102e-01
  1.2850956e+00
 -2.7535561e-01
 -2.5470808e-01
 -1.0091722e-01
 -6.3875496e-02
 -1.6177167e-01
 -1.6131169e-01
  7.4095614e-03
  9.7489357e-02
 -2.0996062e-03
 -4.1334128e+00
 -7.5134403e-01
 -1.2605711e+00
  2.4520972e+00
  6.2214952e+00
  1.1561439e+00
  2.2365105e+00
  5.2110119e+00
 -1.5369347e+00
 -7.8458538e+00
  1.9120409e+00
 -1.4613513e+00
 -1.7222008e+00
  1.8079512e+00
 -2.5423248e+00
  2.6768595e-01
  5.7278538e-01
 -3.8697326e-01
  1.5049077e+00
  1.7728453e+00
 -1.2233200e+00
 -1.7323685e+00
  6.0749717e+00
 -2.9026762e-01
 -3.1724310e+00
 -3.0964930e+00
  8.2868779e-01
  8.6955923e-01
  4.5464790e-01
  1.5244983e+00
 -1.7811124e+00
 -4.9143255e-01
  2.6443923e+00
 -7.5600916e-01
 -2.9302313e+00
  8.7840801e-01
 -2.0541518e+00
  1.1710744e+00
 -1.2575848e+00
  8.2219821e-01
  7.4691480e-01
 -3.5174745e-01
 -4.0103272e-01
 -1.7873554e+00
 -2.1071641e-02
  2.0859852e+00
  7.5885731e-01
  2.0002630e+00
 -2.7937942e+00
 -9.2656428e-01
  2.6555183e+00
 -1.7328957e+00
  2.5942203e-01
 -2.2982866e-01
  5.6997722e-01
  2.9369476e-04
  3.0370498e+00
  6.0975152e-01
 -4.1240782e-01
 -9.9276491e-03
  1.7097078e-01
  1.3604167e-01
  4.9337736e-01
  2.3701577e-01
  7.7986084e-02
 -1.0895326e-01
  2.7889913e-01
 -2.2597654e+00
  9.5809275e-01
 -9.8511463e-01
  2.1498668e+00
  1.1680559e-01
 -3.7781315e+00
 -8.5507458e-01
  7.0933294e-01
  5.4962265e-01
  5.4118609e-01
 -1.2037547e+00
  7.9453427e-01
 -7.7596831e-01
  8.2381904e-01
  2.3275974e+00
  7.7039325e-01
 -1.0708837e-01
  7.6512069e-01
  2.1990426e+00
  1.2742910e-01
  6.1037898e-01
  1.3714565e+00
 -2.8634781e-01
 -4.9599716e-01
  2.4251142e-01
  1.8916918e+00
 -2.2091639e-01
  3.8782910e-01
  1.2793507e-01
  4.2923623e-01
 -1.5405631e-01
  3.8073747e+00
  2.4135339e+00
  1.7749655e-01
 -5.1407045e-01
  1.0920820e+00
  1.4000531e+00
 -3.2298124e-01
  1.3994411e+00
 -6.5936887e-01
 -5.3381752e-03
  1.8823584e+00
  6.2179279e-01
  1.0937036e+00
 -5.1161986e-02
  3.1668726e-01
  2.8699702e-01
  1.0979568e+00
 -2.5702122e-01
  5.5635983e-01
  3.2376063e-01
 -5.6131345e-01
  3.7450191e-01
  1.9268532e-01
  7.7602133e-02
 -1.4835788e-01
 -3.3949068e-01
  1.4359756e-01
  1.7694876e-01
  1.9580382e-01
 -3.1296361e-02
  8.9551747e-02
  7.0719391e-02
  1.6986893e-02
  2.9293859e-02
  1.3594075e-01
  1.2616169e-01
 -1.1918972e+00
 -3.9465424e-01
  9.9202579e-01
 -1.4667822e+00
 -8.4336722e-01
 -1.6554092e-01
  1.3963810e+00
 -1.0643519e-01
  2.6721599e+00
 -8.1337428e-01
 -2.2166545e+00
  7.4660635e-01
 -5.7584333e-01
 -1.8467462e+00
 -2.5798829e+00
  2.3433874e+00
 -6.8426675e-01
  7.9487175e-01
  1.2726556e+00
 -5.1941371e-01
  2.1854292e-01
 -1.5717248e+00
  1.3017541e+00
 -3.7284172e-01
  1.3616903e-01
 -6.8737644e-01
  1.2266982e-01
  1.9987454e-01
 -6.6664815e-01
  1.9846928e-01
 -6.8611538e-01
  1.8404202e+00
  2.7783498e-01
  1.2310434e-01
 -5.2811438e-01
 -6.0414642e-01
 -1.5974178e+00
 -1.1978254e-02
  4.1509357e-01
  3.3931848e-01
  1.6257393e-01
 -1.0474697e+00
  6.0003704e-01
  6.5386432e-01
 -1.3849714e+00
  6.3042182e-01
  6.6637206e-01
  3.1185877e-01
  5.3538252e-02
 -7.4549079e-01
  7.1356142e-01
  9.1607706e-04
  8.3328807e-01
 -1.0953798e-01
  7.7759035e-02
  5.1330322e-01
  4.7849104e-01
 -1.0234163e-01
 -2.5677201e-01
 -9.3249574e-02
  2.5667131e-02
 -5.1468397e-03
  2.4293652e-02
 -2.1345157e-02
 -5.5473290e-02
  2.8383628e-02
 -8.8107593e-02
 -6.4938909e-01
 -1.5589029e-01
 -1.8960106e+00
 -1.3817728e+00
  1.8085293e+00
 -8.8559580e-01
  4.1351974e-01
  1.2810726e+00
 -1.5267172e+00
 -3.2477885e-01
  2.7816370e+00
  1.6127739e+00
  1.8001219e+00
  2.4284546e-01
 -8.3528590e-01
  5.7276976e-01
 -1.3720275e+00
 -1.3593134e+00
 -3.7860331e-01
 -3.5567147e-01
 -2.8894453e+00
  8.4138632e-01
 -1.1684881e+00
 -2.8967307e+00
  1.3793563e-02
 -1.0522823e+00
 -7.6546246e-01
 -1.0399410e+00
  2.3336118e-01
  2.9984975e+00
  1.4975766e+00
 -2.3814765e-01
 -7.3426638e+00
  3.9357367e-01
 -4.6750057e-01
 -2.0445733e-01
 -2.4350686e+00
  2.1587114e+00
  6.9902873e-01
  2.9505699e+00
 -1.8922055e+00
  9.3226677e-01
 -9.1337159e-02
  1.1773845e+00
  1.0091593e-01
 -5.6300604e-01
  7.6505035e-01
  1.1755109e+00
 -1.2802866e+00
 -3.5034230e-01
  1.4531757e+00
 -1.0481732e+00
 -1.0208095e-02
 -3.4085721e-01
  1.0691725e+00
  4.7131604e-01
  8.5206324e-01
 -1.7129576e-01
  2.2434799e-01
 -3.1925984e-02
 -1.2042528e-01
  2.4254946e-02
  8.8538155e-03
 -1.5643160e-01
 -9.1922134e-03
 -3.6136661e-02
  3.0909967e-02
  3.5071423e+00
  5.3461790e-01
  2.5572982e+00
 -2.3155227e+00
 -3.7256569e-01
  3.3177657e+00
  3.6910942e+00
  1.9997129e+00
  1.5171694e+00
 -2.7970774e+00
  1.2816685e+00
  2.8913515e+00
 -2.9522202e+00
 -6.2524182e-01
  1.2771814e+00
  2.1898517e-01
  9.9931538e-01
  1.1865336e+00
 -1.3631543e+00
 -3.0547583e-01
  1.9704541e+00
 -3.5091014e+00
 -1.8651056e+00
  1.8821232e+00
 -1.3374028e+00
  8.3947057e-01
  2.5262811e+00
  1.4084842e+00
 -1.3473508e-01
 -2.5415509e+00
  2.8392119e+00
  2.2175589e+00
  1.7294792e+00
 -1.6959295e+00
 -1.3683621e+00
  1.2608956e+00
  1.3638966e+00
  1.6220667e+00
 -2.4216454e+00
  2.7915025e-01
 -1.9038168e-01
  2.1731040e+00
  5.0631130e-01
  1.8576840e+00
  9.4844902e-01
  2.3431396e+00
 -1.7300888e+00
 -8.8482660e-01
 -1.3426136e+00
  1.0902314e+00
  3.3453398e+00
  5.9825498e-01
 -5.7631767e-01
  2.4702789e-02
 -5.1437360e-01
  6.6049892e-01
 -5.1187773e+00
  1.0012996e+00
 -1.4673985e-02
  5.4419905e-01
  1.3061532e-01
  6.0899150e-02
 -2.2733977e-01
  2.8939933e-01
  3.9245952e-02
  2.7884200e-01
 -2.6781148e-01
 -7.4777082e-02
 -1.6178538e-01
 -1.3013344e+00
  2.5578642e-01
 -8.4607840e-01
  4.8913068e-01
 -7.4696809e-01
 -1.2511203e-01
 -1.1485549e+00
  1.0277706e+00
  4.6055377e-02
 -1.5456726e-01
  3.7361091e-01
 -1.5186164e-01
  1.9797886e-02
 -2.5984922e-01
 -1.3956265e-01
 -3.2102916e-01
 -1.0162834e-01
 -1.6264729e-01
 -3.5545000e-01
  1.4321368e-02
 -2.3378620e-01
  2.5096175e-01
 -1.5414930e-02
 -3.7040767e-01
 -2.6584548e-01
 -5.2389417e-02
  7.5954393e-02
  3.7354007e-01
  4.1738052e-02
  8.9461690e-01
  9.2929959e-01
  1.0853119e-01
  5.4071408e-02
  2.4708715e-01
 -7.3931500e-02
  2.4768040e-01
  2.7727023e-01
 -9.4679251e-02
  5.0105321e-01
  1.0166278e+00
  7.0362812e-01
  2.7488589e-02
 -7.3346779e-02
  1.4975972e-01
  2.0744322e-01
  5.8386636e-01
 -1.2821917e-01
 -1.2000617e-01
 -7.7575888e-03
  7.8214407e-02
  4.3556284e-02
  1.7094480e-02
 -3.1400796e-02
  2.6357226e-02
  9.5439965e-01
 -2.4051860e-02
 -4.8691469e-01
 -1.1107568e-01
 -5.5853922e-02
  4.1494060e-02
 -5.7652514e-02
  1.7577993e-02
  5.6261523e-03
 -7.4716248e-02
 -4.0928394e-02
 -5.5605516e+00
  1.0053045e+00
  1.3880721e+00
 -2.7014585e+00
  3.4395877e-01
  1.1736116e+00
 -3.4207306e+00
  3.9690161e-01
 -2.0921676e+00
 -5.6125951e-01
  1.3995454e+00
  8.9665398e-02
  2.4756804e+00
 -2.8324950e+00
 -3.6494485e-01
  1.6066209e+00
  8.9188117e-01
  1.1378644e+00
  1.2887836e+00
  3.8779351e-01
 -2.9597929e+00
 -6.4309371e-01
  1.6804883e+00
  8.6718148e-01
  8.7406963e-02
  8.4655076e-01
 -1.6379802e-01
 -5.4778153e-01
 -1.1216125e+00
 -5.5559433e-01
 -1.5793287e+00
 -2.0959823e+00
 -2.7715287e-01
 -3.3493958e+00
 -1.0421180e+00
 -3.9323026e-01
 -6.0351813e-01
 -7.9378593e-01
  7.6095474e-01
  1.2515055e+00
 -3.1882126e+00
  3.3430042e+00
  2.5674912e-01
 -2.8761914e-01
  1.1323065e+00
  6.4092928e-01
 -1.3295975e-01
 -5.0576115e-01
 -2.8212512e-01
 -3.4496334e-01
  4.0193573e-02
 -8.0953932e-01
 -7.6172039e-02
 -4.5144957e-01
  3.0028144e-01
  4.7738522e-02
  7.9448366e-01
  1.9327654e-01
 -6.2883854e-01
 -5.0439876e-01
 -9.5210738e-02
 -1.0363416e-02
 -1.3270764e-01
  1.3800636e-02
 -5.1597910e+00
 -3.8179067e-01
  5.9199627e-02
 -1.0316275e+00
 -2.1936370e-01
  1.4197932e-01
 -2.7079644e+00
 -1.5750244e+00
  1.0524983e+00
  2.2234788e+00
  2.8641683e-01
  3.0862396e+00
  2.7312355e+00
 -3.3769524e+00
  1.4719974e+00
 -1.6730667e+00
  2.2761071e+00
 -8.8509995e-01
 -9.0212446e-01
 -1.3802414e+00
 -8.9364350e-01
  1.0952976e+00
 -1.2361298e+00
 -2.5694832e-01
  4.3699554e-01
 -1.3281846e+00
 -4.2262487e+00
 -1.6064847e+00
  2.3405464e+00
 -3.5896134e-01
  9.6297793e-02
 -1.2452357e+00
 -1.0452799e+00
 -1.3337580e+00
 -4.1090889e+00
  4.2178288e-01
 -1.6454859e+00
 -9.3589000e-02
 -4.8392066e-01
 -1.2002338e+00
 -6.7117488e-01
 -7.3815453e-01
  2.1187382e+00
 -2.0605855e+00
 -9.9477756e-01
  2.3240834e-01
 -6.4420432e-01
 -1.2356807e+00
  1.3779079e+00
 -5.7137609e-02
 -1.1880181e+00
  1.3925146e-01
 -4.5405808e-01
  9.4236821e-01
 -7.6979205e-02
  1.5712777e-01
 -3.7631433e-02
  5.6929833e-01
  8.8921554e-02
  6.8552238e-01
  1.0238346e+00
  3.5769798e-02
  9.4824089e-03
 -4.2537611e-02
  7.1776686e-03
 -9.7775131e-02
 -1.1433461e-01
 -1.7235400e-02
  1.2142058e-02
  5.6090813e-02
  1.9055072e+00
 -6.1958771e+00
 -2.6074412e+00
 -3.0641892e+00
  9.7454920e-02
  6.0734177e-01
 -8.9680582e-01
 -1.8806837e+00
 -4.5467172e+00
  2.3853450e+00
  1.1910560e+00
 -1.4511524e+00
  2.7805879e+00
 -1.7938176e+00
 -3.6849082e+00
  8.0414283e-01
  2.8982420e+00
  1.7349113e+00
 -8.5994273e-01
  1.2676841e+00
 -1.7003324e+00
  8.8453394e-01
 -1.9409194e+00
  1.8487056e-01
 -7.5453174e-01
  1.1791329e+00
 -6.5976775e-01
  3.9840969e-01
  3.5154970e+00
 -2.0144510e+00
 -2.9385656e-01
  1.0938129e+00
  5.9003871e-02
 -2.4082370e+00
 -1.2924747e+00
  9.9658519e-01
 -1.4607897e+00
  4.4206938e-01
 -2.5802314e+00
  2.8506479e+00
 -2.0465467e+00
  1.5012494e+00
  4.9290290e+00
  3.0857368e+00
 -1.9573364e+00
 -2.2225592e+00
 -1.5810101e+00
 -1.9875419e-01
  2.0741320e+00
  1.2052974e+00
 -1.9859952e+00
  1.8832999e-01
 -3.3557039e-01
 -1.3186264e-02
 -9.8024356e-01
 -6.8461967e-01
 -3.0419552e+00
 -1.2149552e+00
 -1.8645206e-01
 -3.8491884e-01
 -2.9460329e-01
 -4.5068407e-01
 -1.3202515e+00
 -4.0226507e-01
 -9.0479091e-02
 -4.0307019e-02
 -7.3430605e-02
  3.7612743e+00
 -2.3822558e+00
  1.6836542e+00
 -1.1148062e+00
  3.3568580e+00
  2.1905630e+00
  1.7918658e+00
  2.0814939e+00
 -4.6460896e+00
 -4.6325871e-01
  3.9975779e+00
 -2.2750388e-01
 -1.7778965e+00
  2.4053314e+00
 -4.3550811e+00
 -3.5615557e-01
  2.4032753e+00
  2.9712467e+00
  4.1079369e-01
 -1.2806633e+00
 -3.8664606e+00
  1.7609373e+00
  1.7685554e+00
  1.2867955e+00
 -1.5051711e+00
  6.5749276e-01
 -3.5272145e-01
  8.8449001e-01
 -1.1432480e+00
 -8.8862598e-01
  2.0172522e+00
  1.2840589e+00
 -2.5276310e+00
 -3.1225331e+00
 -1.3187103e+00
  7.7738905e-01
  1.3219837e+00
 -1.5066178e+00
 -5.6030853e-03
  1.8057586e+00
  2.4527512e+00
  3.6776331e-01
  6.0380906e-02
 -1.5855926e-01
  8.8715816e-01
  3.4676668e-01
 -2.7135944e+00
 -2.2824507e+00
  6.3758314e-01
 -1.7901926e+00
 -3.5738308e+00
  1.5983164e+00
  1.1216263e+00
 -2.4999362e-01
  1.6391740e+00
 -9.4044435e-01
  4.2663388e+00
 -2.5553006e-01
  1.6064894e+00
  1.5283282e-02
  2.4229495e-01
 -1.4264925e-01
  3.9960116e-01
 -3.7726125e-01
  1.5969661e-01
  1.5721647e+00
  1.7657138e-01
  1.5863348e+00
  1.6221017e+00
  9.9417830e-01
 -3.1599689e+00
  6.3933420e-01
 -6.2386996e-01
 -3.6689773e-02
 -1.0286522e+00
  4.4900885e-01
 -1.0708370e+00
 -9.7739893e-01
 -1.1919602e-01
 -1.1226553e+00
 -2.1059039e+00
  4.5298316e-02
 -4.9662974e-01
 -1.7741655e+00
 -2.2307968e+00
 -2.8858259e-01
 -1.3296292e+00
 -1.5242304e+00
 -7.3435384e-01
 -2.7787560e-01
  1.7805430e+00
  3.8238952e-01
 -9.4889802e-01
  1.3787154e+00
  1.4225233e+00
  6.0074049e-01
 -7.6979047e-01
  3.3587787e-01
  4.0186059e-01
  1.1101239e+00
  1.4027911e+00
 -2.3892103e-01
  7.8302711e-01
  8.7814462e-01
  9.5655555e-01
 -5.7637185e-01
 -8.0685711e-01
  1.0589436e+00
  1.0260473e+00
 -1.8213542e-01
 -5.7647270e-01
 -5.9713459e-01
 -1.5356914e+00
 -6.1657548e-01
  2.4305017e+00
 -3.2952848e-01
  1.0339479e+00
  6.7435139e-01
  1.0755044e-01
  4.9822694e-01
 -2.1421379e-01
  1.8197574e-02
 -1.6330753e-01
 -1.5604184e+00
 -2.1099342e-01
 -2.5521418e-01
 -8.3020739e-02
 -6.2017556e-02
 -1.2938616e-01
 -3.2262959e-02
  2.7933225e-01
 -1.1693843e-01
 -9.0371984e-01
  3.2074493e-01
 -1.5199559e+00
  1.7732500e+00
  2.2007918e-01
  2.0468488e-01
 -2.5843303e+00
  1.2871596e+00
 -2.9781201e+00
 -7.2071803e-01
  1.2608600e-01
  7.8107488e-01
  5.5943850e-02
  2.1611598e+00
 -9.0001410e-01
  2.5923753e+00
 -2.1493390e+00
 -2.5450382e+00
  3.3758354e-01
  1.3909754e+00
 -1.5104508e-01
 -8.6299592e-01
  1.6873013e+00
 -6.9849986e-01
  2.4045682e+00
  3.8598771e+00
 -2.7235866e+00
 -2.1578781e-01
  3.4888594e+00
  2.3637733e-01
  1.0828388e+00
 -5.0222248e-01
  5.8463812e-01
 -1.8535060e+00
  1.0990791e-01
  1.1420767e+00
  5.6180799e-01
 -3.3448064e-01
  4.1698895e+00
  2.0708802e+00
 -2.0450566e+00
  2.1510353e+00
  2.5142972e+00
 -1.1927201e+00
  7.9735297e-01
  1.4925268e+00
  1.0141704e+00
  1.6033676e+00
  3.0913205e+00
 -5.3645735e+00
  2.2835090e+00
  1.1865031e-01
 -6.4393883e+00
  3.8692629e-01
  2.7358207e-01
 -1.2725219e+00
  4.4651997e-01
  5.9259880e-01
 -3.4264746e+00
  4.6430773e-01
  3.8614362e-01
  7.5868738e-01
 -5.2617141e-04
 -9.6783437e-02
 -1.0920975e-01
  2.0496767e-02
  2.3329183e-02
 -1.2301839e-01
  3.2434496e-01
 -1.1108712e+00
 -6.6805965e-01
  6.2597591e-01
  2.3900790e+00
 -9.9321663e-01
  1.0197300e+00
 -1.8399268e+00
 -2.1235032e+00
 -3.7977609e-01
  4.5437458e-01
 -3.9098480e-01
  3.0226896e+00
  1.0651995e+00
  8.7874186e-01
 -2.2156229e+00
 -1.1615381e+00
  1.2974453e+00
 -2.7031329e-01
 -1.0232379e-01
 -1.4421606e+00
 -3.0711567e+00
 -1.3211106e+00
  4.7327605e-01
  8.8518195e-02
 -1.4494500e+00
 -6.7225426e-01
  2.1259565e+00
 -1.3175514e+00
 -8.3136070e-01
  7.7383214e-01
 -6.8992621e-01
 -2.0330699e-01
 -8.5942990e-01
  3.7497130e-01
  7.7707863e-01
 -1.6384117e-01
  1.9072864e+00
 -2.5857759e+00
  2.4961028e+00
  2.6793098e-01
 -9.8849964e-01
 -1.7062511e+00
 -9.8777646e-01
 -1.6133682e+00
  2.1305749e-01
 -5.2004349e-01
  1.2614419e+00
  3.7630727e+00
  7.7441370e-01
 -1.5758502e+00
 -1.4670240e+00
  3.2182997e-01
 -8.2818186e-01
 -5.8768231e-01
  2.5729400e-01
 -6.2016584e-04
  5.5699670e-01
 -2.1901129e-01
  2.6226822e-01
  1.5056227e-01
 -3.0800164e-02
  1.4862848e-02
 -1.3332395e-01
  1.1556403e-01
 -1.6126338e-03
 -4.6683180e-01
 -1.7855906e-01
  2.8224518e+00
 -2.1181417e+00
 -1.4989393e+00
  1.7309880e+00
  5.5723195e+00
  5.0028950e-02
 -5.9538484e-01
 -2.6696602e-01
 -1.3146312e+00
  4.7278233e+00
 -1.7281530e+00
 -1.3026819e+00
  2.6545403e+00
  3.7261614e-01
  1.4623897e+00
 -4.1028906e-02
 -1.6182884e+00
  1.0375038e+00
 -5.1211782e-02
  5.7812130e-01
  5.2816868e-01
 -3.3309838e-01
 -1.8036263e+00
  5.0984198e-01
  2.1073101e+00
  4.8929471e-01
  1.5818189e+00
  5.6917228e-02
  1.9912266e+00
 -7.5521970e-01
 -3.9627716e-01
  3.6698074e+00
 -2.7661650e+00
  6.8634868e-01
 -1.0132823e+00
 -9.0692055e-01
  1.4662364e+00
 -7.6636589e-01
  1.4601637e-01
 -4.6057680e-01
 -4.5315465e-01
  1.9122707e+00
  1.6065801e+00
 -6.6999924e-01
  1.3672851e+00
 -3.1179729e+00
  1.0472612e+00
  2.7848392e+00
 -1.1812706e+00
  3.8210541e-01
 -2.1161258e+00
 -1.8000382e-01
 -5.3210673e-04
 -6.5162861e-01
  4.0406927e-01
 -7.4711800e-01
  1.1966083e+00
 -1.6117183e+00
 -4.9204525e-02
  3.2198031e-02
 -3.3309862e-02
 -1.0681479e-01
 -1.3483314e-01
  2.6787601e-02
  1.6233994e-03
 -6.0106451e-03
 -1.3305208e-01
  6.2594157e-01
  1.3475639e+00
 -5.2339637e-01
  3.3375752e+00
  2.0517263e+00
  7.7468950e-01
 -4.9212637e+00
  5.3449357e-01
 -3.6783514e+00
  2.6088581e+00
 -7.0716423e-04
  2.4936163e+00
 -1.0311669e+00
  1.2890309e+00
 -1.8451144e+00
  5.7904738e-01
 -6.6816199e-01
 -1.8202239e+00
  1.9713926e+00
  9.1586858e-01
  1.1492308e+00
 -6.9048804e-01
 -1.4004719e+00
 -7.7881151e-01
 -1.8711791e+00
 -5.7066739e-02
  1.7347487e+00
  4.7250330e-01
  2.6273804e-02
 -3.8049812e+00
  2.6595294e+00
 -1.8915471e+00
 -7.3310554e-01
 -9.4204378e-01
 -1.4046167e+00
  3.6776156e+00
  4.1984482e+00
 -2.9431564e-01
  3.7412703e-01
  3.2081454e+00
  2.3110618e-01
  1.3697383e+00
 -8.7709807e-02
 -2.0512237e-01
 -6.2804574e-01
 -1.2630359e+00
 -4.9028581e-01
 -6.3010913e-01
 -8.7615943e-01
  8.3824021e-01
  7.0361578e-01
  1.5142818e-01
 -2.5031986e-02
 -4.4159675e-01
  5.6112498e-01
 -7.6927543e-02
  2.3792167e+00
  1.3198074e+00
  1.8726729e-01
  2.4723229e-01
  1.0041763e-01
  6.4778604e-02
 -1.4070766e-02
 -2.0165764e-01
 -9.3191387e-03
  1.8291509e-01
  4.3247776e+00
 -3.2609143e+00
 -3.6504312e+00
  3.2823043e+00
  4.2393098e+00
 -1.1963350e+00
  2.9910133e+00
  6.6701108e-01
  4.6580084e-02
 -6.2669425e+00
  4.5784670e-01
 -4.4062700e+00
  6.2383360e-01
 -1.0987781e+00
 -8.9501336e-02
  8.0777329e-01
  5.1110342e-02
 -4.5095128e-01
 -2.6192057e-01
  1.0716116e+00
  2.6398487e+00
 -7.4789059e-01
  1.1803737e+00
  5.5524331e-01
 -2.2825968e+00
 -1.2052541e+00
  3.4312657e-01
 -2.8652492e-01
  5.7922363e-01
 -6.1613673e-01
 -6.7232472e-01
  2.1912394e+00
  3.7397540e-01
 -4.9887910e-02
 -1.3909155e+00
  9.6531458e-02
 -7.3630029e-01
  2.0823523e-01
 -5.2047843e-01
 -6.8944567e-01
 -8.3525759e-01
 -6.2647057e-01
  5.6783998e-01
 -4.0523428e-01
  5.3402875e-02
  5.4302120e-01
  7.8577149e-01
  2.5395045e-01
 -9.1940105e-01
 -1.9799885e+00
  2.9067644e-01
  1.4733924e-01
  1.8400562e-01
 -1.2964204e-01
 -1.2558243e-01
  4.7975492e-02
 -1.4048655e-01
  1.0759379e-01
  1.3040587e+00
  3.8450975e-02
 -1.2065534e-01
  1.7456455e-02
  3.7373528e-02
 -8.6618535e-02
  1.9868379e-03
 -5.3399126e-03
 -6.9580272e-02
 -3.0297863e-01
 -1.8216470e+00
  9.1345556e-02
 -1.3812665e+00
 -1.2859864e+00
 -1.6597573e+00
  1.8820757e+00
 -6.0170684e-02
  1.2504250e+00
 -6.6730171e-01
  6.8589306e-01
  1.0271538e+00
  1.6263355e+00
 -9.2421204e-01
  7.1137470e-01
  9.8669827e-02
 -2.2434922e-01
  2.4325781e-01
  4.2018226e-01
  2.1875776e-01
 -3.9353375e-03
  2.6609384e-02
 -1.0451770e+00
  2.4994428e+00
 -1.4881984e-02
 -3.2830074e-01
 -5.1034343e-01
  8.1036115e-01
  3.6872563e-01
  1.3982289e-01
 -1.2793645e-01
 -3.4976038e-01
 -1.3613541e+00
  8.0989048e-02
 -5.5819893e-01
  7.8924455e-02
 -6.5928233e-01
  2.8326350e-01
  3.4300440e-03
 -1.6348800e-02
 -1.9865797e-01
  1.6469562e+00
 -1.7914263e+00
  2.7984577e-01
 -4.0442061e-01
 -4.5841628e-01
 -4.2331001e-01
 -2.5905848e-01
  5.8801931e-01
 -5.4397690e-01
 -3.9728951e-02
 -1.0072284e+00
  2.1154794e-01
 -2.1365631e-01
  9.3741223e-02
 -2.4946821e-01
 -8.3563067e-02
 -3.9663422e-01
  2.3220477e-01
  4.9670018e-02
  1.2334113e-01
 -1.1381524e-02
  4.1231655e-02
  1.7940120e-01
  3.5451509e-02
 -7.7580465e-03
 -3.4260835e-02
 -2.3988448e-02
  3.4124443e-01
 -1.0527520e+00
  7.2072702e-04
  1.8317823e-01
 -1.2927319e-01
  1.9402115e-02
  2.8114578e-01
 -2.0830236e-01
  8.8883626e-01
  6.5858021e-02
  2.1159057e-01
  2.4056892e-01
  5.1401180e-01
 -6.5448448e-02
  6.2474716e-01
  4.2306140e-01
  4.7555494e-01
  3.8456902e-01
 -2.7702603e-01
 -1.4194369e-01
 -3.7094954e-01
  6.0358775e-01
 -9.4314247e-01
  5.1167425e-02
 -3.1960987e-02
  7.4309486e-01
  2.1824908e-01
 -1.2110771e+00
 -2.2921042e-01
  3.4298623e-01
  1.9085027e-02
 -9.0946674e-02
  9.7627446e-02
 -3.6397827e-01
  5.4793501e-01
 -6.1860138e-01
  1.4027770e+00
  8.9474839e-01
  3.3761671e-01
  1.7768939e-01
  1.7673513e+00
  8.1136590e-01
 -1.5209413e-01
 -3.9515808e-02
  1.4827393e-01
  1.4247638e-01
  3.9086878e-01
 -4.2212650e-01
  1.9141278e-01
 -4.1461983e-01
  1.4783774e-01
  1.2519763e-01
 -4.8267832e-01
  2.8431866e-01
 -3.4766316e-02
  2.7206910e-01
  5.6944984e-01
  5.0362521e-03
 -1.8776403e-01
 -1.2642582e-01
 -8.6385541e-02
 -1.3069256e-01
 -2.4763490e-01
 -6.8805218e-02
  4.5595925e-02
 -1.6516517e-01
 -1.1300547e-01
  3.3776239e-01
 -2.5479579e-01
  3.5531402e-01
 -1.8942966e-01
 -5.9975767e-01
 -1.1295401e+00
 -2.9920909e-01
  1.3774738e-01
 -1.4463204e-01
  7.2416306e-02
  2.1807465e-01
  4.9120629e-01
  2.2116180e-01
 -1.5469156e-01
  2.0469166e-02
  6.9677770e-02
  1.1979239e-01
  4.1355672e-01
  2.2624844e-01
 -6.0220812e-03
 -1.7483072e-02
 -7.2238907e-02
 -7.9943404e-02
  1.6271904e-01
 -2.3400402e-02
  1.0532166e-02
 -4.5278590e-02
  1.0328148e-03
 -8.6504407e-02
 -1.2004360e+00
 -9.1379970e-02
 -2.2235528e-01
 -1.3892795e+00
 -4.4422600e-01
 -1.3528435e-02
 -3.1893015e-01
 -2.8650159e-01
  9.6013203e-02
  3.5022232e-01
 -1.9908627e-02
  3.3925933e-01
  2.7788174e-01
 -4.7334645e-02
  2.6902655e-02
  1.7507402e-02
  5.2556209e-02
 -8.3157839e-03
  4.0177208e-01
  3.8034245e-02
 -1.1142518e-01
  3.1052889e-02
 -1.2868217e-02
 -1.2320788e-02
 -7.9612313e-03
  5.6571282e-02
  6.9615386e-02
 -4.7020379e-02
  3.5597198e-02
 -4.6232119e-02
 -1.5903306e-03
 -4.2034350e-03
 -6.4429574e-02
 -5.6286594e-03
 -3.7006043e-02
  1.6501335e-02
  9.0789143e-03
 -5.5632726e-03
 -3.3753476e+00
 -9.3366528e-01
 -2.0520480e+00
  5.7592492e+00
  2.0213940e+00
 -9.9153382e-01
  6.1108184e+00
  8.1650060e-01
  3.4523964e+00
 -2.1050830e+00
 -3.4899965e-01
 -2.9031935e-01
 -9.8816240e-01
  7.4401510e-01
 -1.9890225e-01
  1.3176354e+00
 -1.4762340e+00
 -9.6609563e-01
 -2.8643270e+00
  1.1242471e+00
  6.7621999e+00
  1.5820469e+00
  1.5859572e+00
 -1.5085446e+00
  9.7243953e-01
 -1.5287549e+00
 -1.7225645e+00
  4.1880563e-01
  3.4152025e-01
  1.4592816e-01
 -1.7900400e+00
 -2.7651269e+00
 -2.7483461e+00
 -1.2784064e-01
 -8.4348142e-01
  7.5251746e-01
  1.8010139e+00
  1.0486828e+00
 -1.1432712e+00
 -1.0386666e+00
 -2.0617416e+00
  8.4056509e-01
  5.2433056e-01
  2.8684723e-01
  1.8273335e+00
 -2.8937447e-03
  7.7923310e-01
  2.9052711e-01
 -3.0643759e+00
 -3.9841652e-01
 -4.3186736e-01
 -3.5584802e-03
  5.4659918e-02
 -5.9170194e-02
  2.0612474e-01
  2.7550685e-01
 -2.0514843e+00
 -1.1853712e-01
  2.6963713e-02
 -6.7125612e-01
  8.3254859e-02
  2.4508640e-01
  4.0149620e-01
  2.3666060e-02
  4.9365982e-03
 -2.1630885e-01
 -2.2233841e-01
  8.9783251e-01
  7.5436682e-02
  3.6105713e-01
  1.9624627e-01
 -9.9231869e-01
 -1.8351620e-01
 -2.7288589e-01
 -3.6178675e-01
 -8.4414124e-01
 -6.1627501e-01
  2.1145581e-01
 -6.0658753e-01
  9.0994245e-01
 -2.6819799e-03
 -2.4319940e+00
  4.8074451e-01
 -1.1283166e+00
  8.5452013e-02
 -1.2137587e-01
  5.7937365e-02
  7.5233650e-01
 -1.5179199e+00
  1.0166768e+00
 -8.5274249e-01
 -1.0800802e+00
  1.0032459e+00
  1.0668612e+00
  1.8340756e+00
  3.0646333e-01
 -2.2927949e-01
 -1.5288491e+00
  1.6728657e+00
  1.7143801e+00
  5.4375350e-02
 -9.5624864e-01
 -5.7715809e-01
 -1.1618706e+00
 -3.9605632e-01
  2.4853392e+00
 -1.9025333e+00
  7.4918890e-01
 -1.2248623e-02
 -2.9167441e-01
  6.2744506e-02
  1.0792086e+00
  9.4889402e-01
 -6.4175385e-01
 -5.7914692e-01
 -2.0429442e+00
  8.9927006e-01
 -1.2163051e+00
  6.7724836e-01
  3.4406000e-01
  1.5886483e-01
 -3.9940909e-01
 -2.3003392e-01
  7.1230847e-01
 -4.5994380e-01
  6.3324749e-02
 -3.5576753e-02
  1.2195069e-01
 -1.0885254e-01
  1.7316580e-01
 -5.3027462e-02
  4.2845093e-02
  1.4123587e-01
 -2.1561056e-02
 -1.1853703e+00
  2.2552996e+00
 -1.7605475e+00
  5.4442821e+00
  1.0204828e+00
 -8.2300007e-01
  6.1503081e+00
  9.8848450e-01
 -1.3418720e+00
 -3.4109833e+00
  9.0770555e-01
 -8.1338540e-02
 -2.7705059e+00
 -2.7456968e+00
  5.6477368e-01
  8.9747924e-01
 -2.0448472e+00
 -4.2716188e+00
 -3.6861575e+00
  3.3942018e+00
  4.7576623e+00
 -7.7666867e-01
  1.9508646e-01
  9.1415542e-01
  9.6034390e-01
 -4.4677243e+00
 -6.3630657e+00
  7.5724483e-01
  7.0984125e-01
  5.4459081e+00
 -8.5605252e-01
  4.8560514e+00
 -2.6602736e-01
 -5.4751832e-02
  4.0554968e-01
 -8.2789660e-01
 -1.0975915e+00
  7.7505999e+00
  3.3123229e+00
 -1.2624121e-01
  3.8046176e+00
  4.6351039e-01
  5.9740138e-01
  1.4895743e+00
  1.3465358e-01
 -1.3978593e+00
  3.8030818e-01
  9.7557046e-02
 -1.8216436e+00
 -2.2412961e+00
  3.2349672e+00
 -8.8431925e-01
 -7.7407337e-03
  1.5720345e+00
 -2.5451779e+00
  1.5260211e+00
 -2.2351334e+00
  3.3876009e+00
 -4.5586190e-01
 -1.3560427e+00
  7.4428216e-02
 -1.5763383e-02
  3.6846125e-01
  4.9050637e-02
 -2.9518148e-02
 -1.7047784e+00
 -2.6319247e-01
 -1.9111686e+00
  6.9414389e-01
 -2.3655472e+00
  2.5003223e+00
  9.4803639e-02
 -8.6834431e-01
  2.1677890e+00
 -1.5406919e-01
 -5.1814592e-01
  3.2471864e+00
 -5.0429606e-01
 -1.1767770e+00
 -2.5119038e+00
 -3.0912790e+00
 -9.1321576e-01
  3.6667207e-01
 -1.1477966e+00
 -1.4929917e+00
 -1.9261317e-01
  6.7289674e-01
 -1.5018530e+00
 -2.6102765e-02
 -4.1093259e+00
 -3.4917734e+00
 -1.2219342e-02
  9.3415183e-01
 -4.0103382e-01
  1.0729124e-01
 -5.2186850e-02
 -2.8277871e-01
  1.4722668e+00
  2.3435315e-01
  9.2161483e-01
  7.5401396e-01
 -4.0571225e-01
  1.3565404e+00
 -5.5291120e-02
  4.6381760e-01
 -1.8928225e+00
  8.0002087e-01
  1.3305371e+00
  1.6277927e-01
 -5.3476965e-01
 -2.6810986e-01
  3.0242351e-01
  1.1088161e+00
  1.6927338e-01
 -1.8423045e+00
  2.7282915e-01
 -2.7763996e-01
 -3.9915851e-01
  1.9445972e-01
  3.5174596e-01
  3.0131400e-01
  4.9579835e-01
  8.8358782e-02
  1.3045890e+00
 -5.9026158e-01
  1.0741153e-01
 -3.0598024e-01
  4.7603571e-03
  7.7216625e-03
  6.7986660e-02
  5.9278574e-02
  1.0093466e-02
  1.6550440e-01
  1.3957734e-01
  1.0468444e+00
 -7.4403256e-02
  1.9651784e-03
 -7.7930093e-01
  9.9918924e-02
  1.7870539e+00
 -3.1275868e-01
  1.5853684e-01
  1.7517252e+00
 -1.3808149e-02
 -9.2543982e-02
  1.7705375e-01
 -1.7522903e-01
 -8.3377056e-02
  8.4648237e-02
  9.4150323e-03
  1.1468717e-01
 -1.4613929e-01
  4.5911722e-02
 -9.6172271e-03
  5.9089679e-02
  1.6302747e-01
  8.5158430e-02
  4.8800355e-01
  3.2248288e-02
  5.7235762e-02
  1.9070810e-02
  1.5945880e-02
  3.6409151e-02
  3.1062502e-01
 -9.9280149e-02
 -5.1778668e-01
 -5.4651541e-01
 -9.0905845e-02
 -6.2757306e-02
 -1.1112135e-03
 -3.4538436e-01
  8.9426033e-02
 -8.8849950e-01
 -7.7350780e-02
  6.5150470e-02
  2.2878365e-01
  5.2356638e-02
  2.2097883e-01
  2.5183743e-01
  1.3404635e-01
 -5.4224189e-03
  9.2120089e-02
 -1.5194097e-01
 -2.0168656e-02
  3.9526854e-02
 -2.8870950e-02
 -4.0902410e-02
 -6.1142002e-03
  3.4252916e-02
  2.3681393e-02
  1.0369585e-02
 -7.0844024e-02
 -1.6115636e-02
 -1.4246062e-02
 -1.7075183e-02
 -2.1987295e-02
 -1.0937861e-02
  8.7123271e-03
 -2.4098275e-02
  3.4002662e-02
 -3.4714546e-02
  5.8823711e-01
  1.4656320e+00
  1.2648132e+00
 -5.9436578e-02
 -1.1237863e+00
 -3.8926430e+00
 -7.3844552e-01
  1.1123671e-02
  5.8134031e-01
 -1.6291046e+00
  1.3799009e+00
 -8.5667908e-01
  1.9315773e+00
  8.6862510e-01
  4.3266517e-01
  1.7025664e-01
  2.5187125e+00
  6.5368938e-01
 -1.2283388e+00
  6.0821670e-01
  1.4476804e+00
 -2.3967164e+00
  1.9694539e-03
  5.7716948e-01
  2.0310459e+00
  2.0895822e-01
 -5.4301441e-01
 -1.0250731e+00
  1.4864482e+00
  2.6356175e+00
 -3.2061401e-01
  1.7219950e-01
  2.2831852e+00
  1.4601547e+00
 -4.3490192e-01
 -1.0925049e+00
 -3.2541761e-01
  1.1452481e-01
  9.1703093e-01
 -2.1580445e-02
  2.6452014e-01
 -6.9047695e-01
 -6.1115939e-02
 -1.2285398e+00
  1.0778294e-01
 -2.0707383e+00
 -2.7962321e-01
  1.0539583e+00
 -1.1494012e+00
 -4.6038687e-01
 -6.6671050e-01
 -4.6446513e-02
  6.8473452e-01
  1.0451913e+00
 -1.0331446e+00
  6.4623922e-01
 -2.5891805e-01
 -3.8239449e-01
  1.5837112e-01
 -4.3880275e-01
 -2.4529411e-03
  2.9376993e-02
  2.1038324e-01
  6.0936112e-02
 -1.6071612e-02
  5.7299906e-01
 -8.6515701e-01
 -7.2166109e-01
  1.4732046e+00
 -6.0997701e-01
  3.2021317e+00
  1.7063720e+00
 -1.2691295e+00
  7.0830780e-01
  4.7057354e-01
 -6.5922856e-01
 -3.0108705e-01
 -6.3500959e-01
  1.2524983e+00
  3.4116963e-01
  1.4793797e+00
  1.6450475e+00
 -1.2640558e+00
  2.5063417e+00
  1.1979928e+00
 -1.4663843e+00
 -1.0599738e+00
  1.0016174e+00
  1.3266135e+00
  5.1871855e-02
  4.7337383e-01
  2.3599090e-01
  1.0135219e+00
 -9.1295797e-01
  7.4626458e-01
  4.4477841e-01
 -5.1657069e-01
  1.3722405e+00
  1.0107697e+00
  2.3933365e+00
  3.8019754e-02
  2.7436182e-02
  1.3135639e+00
 -1.2980375e-01
  7.2921348e-01
 -2.8330160e-02
  7.0020568e-01
  5.4476315e-01
  2.2032831e+00
  3.5122897e-02
  1.2780666e+00
  4.4614035e-01
 -6.5980494e-01
  2.6609073e+00
  7.7892482e-02
 -1.6770293e+00
 -1.3880924e+00
 -4.2939952e-01
 -7.2768474e-01
  6.7620188e-01
  1.7197067e+00
 -2.0123720e+00
  9.4838709e-01
 -1.7091604e+00
  6.5700310e-01
 -5.2566248e-01
 -6.9310743e-01
 -1.9857977e-02
 -3.2099584e-01
 -5.6140119e-01
 -2.3096046e-01
 -8.6770222e-02
 -8.7970674e-01
 -6.9960064e-01
 -1.5648002e-02
  2.1573277e+00
 -6.6836905e-01
 -2.6219358e+00
 -4.5504670e+00
  2.6315429e+00
  4.7654214e+00
  4.5048222e-02
 -3.8918953e+00
 -1.5075808e+00
 -1.6151150e+00
 -1.8381103e+00
 -6.0357418e+00
 -7.4909496e-01
  5.2765644e-01
  8.9474213e-01
 -1.0851661e+00
 -6.6230679e-01
  1.1813521e+00
  6.6656470e-01
 -6.3850732e+00
 -3.6848869e-02
  6.4049906e-01
  8.3978647e-01
  1.0531957e+00
 -3.9227197e+00
 -4.1947441e+00
  3.7513307e-01
  2.7115779e+00
  1.4239083e-01
  7.4617523e-01
  9.1845284e+00
 -1.7027767e+00
  1.7694071e-01
 -1.2466758e+00
 -2.4423676e+00
 -3.5910916e+00
  1.3501661e+00
 -1.0256704e+00
  1.6863757e+00
 -3.0525141e+00
 -1.0081117e+00
 -8.1701714e-01
  1.7478261e+00
 -4.1514680e-01
 -3.9195859e-01
  1.4122037e+00
  3.8445432e+00
  6.8976551e-01
 -1.8219651e+00
 -3.5615179e-01
  2.1808948e-01
 -8.3615494e-01
  1.3605232e+00
 -5.4552794e-01
  7.1249895e-02
  2.2491307e+00
  2.5496552e-02
 -8.0092862e-02
 -2.3795104e-01
  1.3833714e-01
 -1.5334184e-01
 -5.4605767e-02
  5.6957532e-02
 -6.3029770e-03
 -8.0158241e-02
  3.4024653e-01
 -3.1722767e+00
 -4.1488153e-01
 -1.6728534e+00
 -3.1192672e+00
 -3.2557303e-01
  6.3965046e-01
  1.9524280e+00
 -2.1959054e+00
 -4.5381312e+00
  5.6343979e-01
  1.6949540e+00
 -2.5755005e+00
  8.8686305e-01
 -1.5437884e+00
 -1.3466651e+00
 -2.0118035e-01
  5.3129494e-01
 -4.1569248e-02
 -7.3358315e-01
  9.9852674e-02
  3.5819298e-01
  1.2652214e-01
  2.2784364e+00
  3.5715635e+00
 -1.3956491e+00
  1.5640831e-01
  2.5163729e+00
  1.0835104e+00
  7.8056133e-01
 -6.7943692e-01
  2.4289114e+00
  2.8389020e+00
  3.4214468e+00
  2.7768749e-01
 -2.4924065e-01
  2.3308432e+00
 -4.6964984e+00
  4.9590650e-01
  1.7845641e-01
  1.4888600e+00
 -5.6625772e-01
 -9.2262194e-02
  3.8269040e-01
 -1.0913289e+00
  7.0124799e-01
  2.3234348e+00
 -2.5546041e+00
  1.7247425e+00
 -1.1564327e+00
 -7.7420110e-01
  5.9908187e-01
 -9.8205888e-01
  7.6643980e-01
  7.4137378e-01
 -2.0743139e+00
  8.0355339e-02
  1.4205548e+00
 -6.5056646e-01
 -7.2626606e-02
  3.8605538e-01
 -6.2249254e-02
 -8.1041239e-02
 -2.6782218e-01
 -2.2414958e-01
 -8.2395419e-02
 -1.1539051e-01
 -3.6641198e-01
  2.2772267e+00
 -7.2189736e-01
 -9.9545020e-01
  3.9135048e+00
 -5.0242954e-01
  2.7071218e+00
 -1.8869969e+00
 -3.6254182e-02
 -2.7789932e-01
 -1.2924353e+00
  8.7177837e-01
 -1.4291219e+00
 -4.1945856e-02
  2.1165164e+00
 -2.3564858e+00
 -7.8635430e-01
  2.9651998e-03
  1.4223807e-02
 -1.2434497e+00
 -1.5564837e+00
  2.5197823e+00
 -2.0581241e+00
  1.2019053e+00
 -5.4016620e-01
  3.4331141e+00
 -1.6181720e+00
 -1.9271747e+00
 -2.4030137e+00
  4.7607913e+00
  1.7449850e+00
  5.0304437e-01
  5.4939216e-01
 -1.2377027e-01
  1.2988906e+00
  1.1670432e+00
 -1.9987830e+00
  1.5086967e+00
  7.0363086e-01
 -3.7219152e+00
  7.5632221e-01
 -1.6579440e-01
  8.7236153e-04
  2.1595840e+00
  2.1995468e+00
 -1.4352139e+00
 -2.7078714e+00
 -5.4142398e-01
  1.5943781e+00
 -4.3616265e-01
  1.8614600e+00
  1.9381639e+00
  1.2858601e+00
 -1.5510002e+00
  1.1911916e-01
  2.2475243e-01
  9.5545703e-01
  1.8455038e+00
  1.5849040e+00
 -5.3445242e-02
  2.0609921e-01
 -7.0597582e-02
 -1.7814502e-01
 -5.0535870e-01
 -4.5906860e-02
  9.9250702e-03
 -2.2225158e-01
  5.3368133e-02
 -2.3498662e-01
 -2.1790396e-01
  1.8008959e+00
  1.9354661e+00
  2.0983906e+00
 -7.2377855e-01
 -2.7499239e+00
 -2.9554620e-01
 -8.1914598e-01
  1.1064439e+00
  4.5730300e+00
  4.6748552e-01
 -1.3108022e+00
 -2.9849583e-01
 -8.1399685e-01
 -6.2581533e-01
  1.2685616e-01
  1.5797807e+00
 -1.6459850e+00
 -2.3662050e-01
 -6.1350650e-01
  4.9437639e-01
 -1.3211598e-01
 -4.0109611e+00
 -5.0033963e-01
  6.4309561e-01
 -1.4000580e-01
  8.7687624e-01
 -9.4210702e-01
 -2.5753760e+00
  1.0935169e+00
  1.5408145e+00
  5.0280505e-01
 -9.3747419e-01
  3.9084909e+00
 -8.0469452e-02
 -4.6125216e+00
  3.6085576e-01
  9.3971163e-02
  1.1733191e+00
  1.9534203e+00
 -1.6389800e+00
 -2.2349492e-02
  2.0342711e-01
  6.2281437e-02
 -1.8381250e-01
 -9.4695061e-01
 -3.5784322e-01
  1.5160418e+00
  5.3051865e-01
 -3.7528822e+00
  1.1561316e+00
 -4.5400832e-02
  8.2871062e-01
 -9.3084008e-01
 -2.6909444e+00
 -2.2436379e-01
 -6.6775702e-02
  3.0038966e-02
  6.4100981e-01
 -2.3539096e-02
 -2.2048911e-01
 -3.7457043e-01
 -9.2961267e-02
  3.0081758e-02
 -4.1892126e-01
  1.0280629e-01
 -2.0523249e-01
 -1.0309663e-01
  2.1350664e-01
  6.7883223e-02
 -3.1808996e-01
 -1.7926884e-01
  3.5237020e-01
 -6.7065883e-01
  2.3520100e-01
 -4.0211800e-01
 -1.1928144e-01
  5.7049572e-01
 -2.9191035e-01
 -7.3686415e-01
 -7.8310889e-01
  1.5847224e-01
  1.3302382e+00
  2.0067975e-01
 -7.1188152e-01
 -3.2116780e-01
 -7.3796594e-01
  2.5340047e-01
 -5.5657458e-01
  6.7272526e-01
  5.3097308e-01
  3.4236431e-02
  1.7484622e+00
  1.9252756e-01
  7.4737728e-02
  8.1270069e-02
  4.9019030e-01
 -1.7189037e-02
  7.6980524e-02
 -3.5974044e-01
  1.8115053e-01
 -4.8109910e-01
  1.8001786e-01
  3.9290619e-01
  1.3232888e-01
  3.3471888e-01
 -7.6217867e-02
 -4.5600069e-01
 -5.9869868e-01
 -2.2544214e-01
  5.6678486e-01
 -1.5424477e-01
 -1.1205732e+00
 -5.3391969e-01
 -2.3329864e-01
 -1.6116458e+00
 -9.0480918e-01
 -2.1702649e-01
 -1.5228316e-01
 -3.2061478e-01
  7.9712969e-01
  8.6319074e-02
  8.4317529e-01
 -3.3410946e-01
  2.6273695e-01
 -8.9597982e-01
 -1.2189540e-01
 -7.0328792e-03
 -2.1898870e-01
 -1.4386629e-01
  2.3640027e-02
 -7.7242278e-02
 -1.3825081e-01
  6.5308583e-01
  1.2737638e+00
 -3.4273389e-01
 -3.3828609e+00
 -7.5753820e-01
 -1.7490939e-03
 -1.3992376e+00
 -9.7432369e-01
 -7.8606755e-01
  4.3546107e-01
 -1.4830384e+00
  2.2449424e+00
  1.1842116e+00
 -2.3091641e-01
  3.0700874e+00
 -3.4275466e-01
 -5.8048224e-01
  6.3045788e-01
  4.4688754e+00
  1.0911033e+00
 -3.7896969e+00
 -1.4087092e+00
 -2.9565389e-03
 -2.5666094e+00
 -1.4847808e-01
 -5.0936776e-01
  1.4441246e+00
  6.9080436e-01
  2.7962940e+00
 -8.4124792e-01
  6.3620749e+00
 -2.1262338e+00
 -3.5501902e+00
 -6.3527006e-01
 -4.9223578e-01
  1.8234370e+00
 -4.5682299e-01
  2.0484729e+00
  1.2496638e+00
 -9.8269302e-01
  1.6262963e+00
 -1.3684859e+00
 -9.4427842e-01
 -1.7369806e+00
 -2.8064203e-01
  1.4459455e+00
 -2.1486667e-01
 -8.2116073e-01
 -9.8722708e-01
 -1.7588295e+00
  1.0865106e-01
  3.4533229e-01
  1.9841512e-01
 -7.3483519e-02
  1.2158824e-01
 -2.1137973e-02
  9.2583984e-01
 -1.0413191e+00
 -2.4156342e-01
 -7.7902628e-03
  1.0304205e-01
 -9.1258965e-02
 -1.2841760e-01
 -5.8042862e-02
  6.7729928e-02
 -6.7364424e-02
 -3.2616898e-01
  1.7103733e+00
 -2.5211046e-02
  2.9523625e+00
 -3.2374911e+00
  1.6592165e+00
 -1.4253664e+00
  2.5787673e+00
  3.2833535e-02
  2.3816862e+00
  1.2182467e+00
 -2.4207611e+00
  1.8004464e-01
 -1.7823036e+00
 -3.0799821e-01
  6.9850844e-01
 -9.0797216e-01
  1.5946604e-01
 -7.4641377e-01
  3.1889036e-01
 -5.4542041e-01
 -2.5018358e-01
 -4.7851515e-01
 -4.5249394e-01
  7.3834276e-01
 -7.0292825e-01
  7.3411560e-01
  2.5269256e+00
  1.7137159e-01
 -2.9718858e-01
 -1.5931723e-01
  1.3228375e+00
 -5.2405798e-01
  1.6744854e+00
  7.7764040e-01
 -5.6850608e-02
  8.6247367e-01
  4.8560834e-01
  1.3810202e+00
  6.6340846e-01
  1.5434164e+00
  2.3025651e-01
 -1.2144239e-01
 -1.1375324e+00
  2.4228577e-01
 -9.6055835e-01
  3.0116942e+00
 -1.4382187e-01
  8.8637698e-01
 -1.7025766e-01
  4.1428232e+00
  1.2585064e+00
 -1.3790488e-01
  1.3489401e-01
  1.2472121e-01
 -1.0351396e-01
  2.7100277e-01
 -1.1835588e+00
  3.3334959e-02
  2.9582676e-02
  1.9085121e-01
 -1.2457611e-02
  5.5305408e-03
 -1.1253787e-01
  1.4893311e-01
 -7.6630741e-02
  1.6270548e-01
  5.5316597e-02
  1.4156210e+00
  1.2908362e+00
 -3.2002785e+00
  1.1468550e+00
  2.4820232e+00
  3.4794323e+00
  4.0765438e+00
 -1.0144131e+00
 -4.0949699e-01
 -4.1230151e-01
  3.9899379e-01
 -1.3859564e+00
 -3.2599230e+00
 -7.2556597e-01
 -2.3198547e+00
  3.3395569e+00
  1.0208617e-01
 -2.2258274e-01
 -1.1529815e+00
  1.1015102e+00
  1.6738418e+00
  1.9358891e+00
 -1.4455329e+00
  9.7649294e-01
 -6.0949814e-02
  7.7754259e-01
  1.0300414e-01
 -1.9585873e+00
 -1.8531573e+00
 -4.3585043e-02
  2.3474858e+00
 -2.6980345e+00
  3.8271565e+00
 -1.9367210e+00
  2.3045580e+00
 -2.1060185e+00
  1.1602363e-01
 -1.3920203e+00
 -1.0595223e+00
 -1.2094275e+00
 -1.3015581e+00
  1.6915960e+00
 -2.5700384e-03
  7.9171604e-01
 -1.3304521e-01
 -1.0149920e+00
 -4.1471291e-01
  3.5429409e-01
 -6.9932657e-01
  3.1561983e+00
  1.7625728e+00
  8.2016897e-01
 -7.4910417e-02
 -7.1980022e-02
 -6.5199453e-01
  3.1015936e-01
 -3.4370093e+00
  1.8779860e-01
  3.1924778e-01
 -3.1815228e-01
 -4.0488884e-02
  3.2989446e-02
  1.4252609e-01
  1.8615007e-01
 -2.7006701e-02
 -1.3069063e-03
  1.5272737e-01
 -4.3890393e-01
  1.4355823e-01
 -2.2649622e-01
  1.7863238e-01
 -5.8383799e-01
 -1.3358182e+00
 -1.0617789e+00
  2.3652013e-02
  1.0584340e+00
 -1.0911534e+00
  1.1353840e+00
  2.9575822e-01
  6.7109418e-01
 -2.8993899e-01
 -6.3239729e-01
 -1.0224866e-01
  5.7220280e-01
 -1.8377614e-01
 -2.7950254e-01
 -1.4713931e-01
  3.9114463e-01
 -4.5777965e-01
  3.6932695e-01
  1.5481684e+00
  8.4414649e-01
 -2.5198486e-01
 -2.4284968e-01
  4.2337331e-01
  5.2345031e-01
  9.4429225e-01
  3.8651818e-01
 -2.4581947e+00
 -2.9418883e-01
 -1.0703298e-01
 -7.3872602e-01
 -2.2587846e-01
  3.1074181e-01
 -2.8397274e-01
 -1.6848209e+00
 -3.6211476e-01
  1.2266356e+00
  6.1504841e-01
 -5.8733159e-01
 -3.2456148e-02
 -1.8019062e-03
  9.1636205e-01
 -5.2213705e-01
  9.3959153e-02
 -3.5757322e-02
  3.3778483e-01
  6.7965573e-01
 -6.4316839e-02
 -1.3999551e-02
  1.6439791e-01
  1.7218681e-01
  9.7633764e-02
 -5.1336646e-01
 -6.7707181e-02
 -4.2133763e-02
 -6.7638502e-02
 -3.7696544e-02
 -4.4259146e-02
 -3.7389815e-02
 -4.6931863e-02
 -1.5977774e-02
  3.5487649e-03
 -4.3480162e-02
 -6.9102055e-01
 -1.1577730e-01
  1.4704679e+00
  1.7066538e-01
 -4.3996658e-02
 -5.9464365e-02
 -3.9028266e-01
  8.8814065e-02
 -2.8484827e-01
  5.8423489e-02
 -8.4077972e-01
  1.0141238e+00
 -6.3492560e-01
 -6.5074039e-01
 -1.3830047e+00
 -7.8854054e-01
  3.0716324e-01
 -1.3805636e+00
 -6.5325153e-01
 -6.0246527e-01
 -3.5411102e-01
  1.0571674e+00
 -1.5100268e+00
 -5.6076777e-01
 -1.6575338e-01
 -4.6762136e-01
  5.4188883e-01
 -1.2157537e-01
  1.6344035e-01
 -1.4081676e-02
 -3.2350650e-01
 -3.7533131e-01
  1.4331335e-01
  3.7180686e-01
  1.1463863e-02
  4.9502665e-01
 -4.5434377e-01
 -3.9102161e-01
  4.7192889e-01
  2.1101241e-01
 -2.1392751e-01
  1.5616195e+00
  1.7916123e+00
 -1.7310016e-01
  1.6751907e+00
  8.7005961e-01
  2.0791449e-01
  8.1826031e-01
  2.0502800e-01
 -1.9912127e-01
 -3.7372839e-01
  2.0838030e-01
  7.0947390e-03
 -1.4921797e-02
  1.1554023e-01
  1.0142908e-01
 -6.4882673e-02
 -6.7428821e-01
  1.3517638e-01
 -1.5122479e-01
  5.2876016e-03
 -9.2457533e-02
 -5.5423684e-02
 -6.9191866e-02
 -1.5416307e-02
  9.9096067e-02
  5.1024582e-02
  2.6124537e-01
  7.7171344e-01
 -2.5889535e+00
  6.6855031e-01
 -2.7160482e-02
 -3.4115180e-01
  1.4848956e+00
 -1.2140170e+00
 -1.1838812e+00
 -5.9948909e-01
 -2.2969248e+00
 -4.2250724e+00
  1.7614028e+00
  4.4131398e-01
  2.2699211e+00
  3.3878514e-01
 -1.1744392e+00
 -8.3150440e-01
  4.5441902e-01
  1.4551179e+00
  1.0369917e-01
 -1.7952145e+00
  2.5706565e+00
 -1.1104381e+00
 -7.6744235e-01
  6.9285083e-01
 -2.5636783e+00
  1.4260768e+00
 -4.0016416e-03
  5.5491819e+00
 -1.4561603e+00
 -9.4628292e-01
  4.3836683e-01
  4.1395947e-01
 -3.5194974e+00
 -1.6526951e+00
 -6.3466477e-01
 -1.7543741e+00
  3.1498456e-01
  1.0309923e+00
 -2.9327366e+00
  1.8993111e+00
  5.1219076e-02
  1.0344197e-01
  1.2004701e-01
 -5.7116616e-01
  1.1439054e+00
  9.0446097e-01
 -8.2953483e-01
  7.4930680e-01
  9.0602994e-01
 -1.3602354e-01
 -4.1710347e-01
 -2.3398440e-01
 -1.0144149e-02
 -9.1052197e-02
  3.0496025e+00
  6.4892447e-01
 -3.3098157e-02
 -3.8685289e-01
  3.8060378e-02
  1.4163162e-01
  2.8909701e-01
 -4.9500992e-03
 -4.5115434e-02
  2.4161527e-02
  1.5490028e-01
 -4.9605775e-01
 -2.0582933e+00
 -3.1483018e-01
 -2.0558329e-01
 -4.5825702e-01
  1.0251696e+00
  6.3283902e-01
 -8.0673283e-01
 -1.2620230e+00
  1.6276401e-01
  8.4433186e-01
  3.7171212e-01
 -3.6821127e-01
  9.4557661e-01
 -7.7533418e-01
 -2.3669016e-02
 -1.5673716e+00
 -1.1648620e+00
 -4.2214438e-02
 -1.8979070e-01
 -2.8657056e-02
  1.7019374e+00
 -6.3980901e-01
 -4.1118163e-01
  1.0802356e+00
  1.3341206e+00
  1.1860683e+00
  1.3323586e+00
  6.5321124e-01
  1.6028184e+00
  2.6014807e+00
  1.1678355e+00
  6.6504282e-01
 -6.9975507e-01
  4.4891387e-02
  1.2482005e+00
 -8.1401542e-03
 -1.9751698e+00
 -1.3518065e+00
 -9.7906274e-01
  4.6896696e-01
  1.9243612e+00
  2.3614402e-01
 -5.8825314e-01
 -2.7979767e-01
  2.2133146e-01
  8.1414020e-01
 -3.5417998e-01
  1.1817551e+00
  7.3235577e-01
  8.6287796e-01
  9.5527649e-02
  2.8321195e-01
 -2.3801087e-01
  8.1141949e-01
  5.5335605e-01
  3.5495031e-01
 -5.5460733e-01
  4.2552742e-01
  2.0138384e-01
  3.3762600e-02
 -6.2619366e-02
  6.4314440e-02
  1.1984023e-01
  4.2185355e-02
  2.7658352e-01
  2.5833359e-01
 -2.8562558e+00
  6.8618226e+00
 -3.0977097e+00
  2.4774628e+00
  2.1365571e+00
  2.3053659e-01
  3.5166388e+00
 -2.1985896e+00
 -1.9801518e+00
 -4.1647263e+00
 -2.6879771e+00
 -2.8053796e+00
 -4.1772485e+00
  2.4294395e+00
  3.0286438e+00
 -2.1511083e+00
  6.5789437e-01
 -5.0213542e+00
 -1.8526412e+00
  1.0048052e-01
  7.2812061e+00
  2.7224808e+00
  2.3236122e+00
  2.7949498e+00
 -2.0831015e+00
 -2.7399063e-01
  1.8766138e-01
 -2.6408718e+00
 -1.4534421e+00
  3.5466566e+00
  1.4116286e+00
 -7.3776670e-02
  2.5621591e+00
  1.2316135e+00
 -8.7676972e-01
  1.8508040e+00
  4.5441034e-01
  1.9356867e+00
 -3.9105167e+00
 -1.3385460e+00
 -8.0243123e-01
  1.6038855e+00
  9.7187090e-01
  1.2240381e+00
  3.0369034e-01
  1.9909718e+00
  8.6190468e-01
 -1.7337368e+00
 -2.3796499e+00
 -3.7019081e+00
 -1.7347809e+00
 -1.4227566e+00
  3.8671285e-01
 -4.7337812e-01
  1.5658360e+00
  1.4087404e-01
  6.5595627e+00
  1.9564597e-01
 -1.5911640e-01
 -4.7234374e-01
 -1.6613209e-01
 -9.9791445e-02
 -3.0482438e-01
  3.0389646e-02
 -4.0985323e-02
  1.4650466e-01
 -5.1796608e-02
 -6.6784680e-01
  4.7721684e-01
  3.2049441e-01
  3.1207424e-01
 -1.1540625e+00
 -5.4665737e+00
  4.1675820e+00
  3.2538381e-01
 -3.9966609e+00
  1.6448456e+00
  3.4868550e+00
  7.3105204e-01
 -1.2673887e+00
  2.6903191e+00
  2.1337228e+00
 -3.0111161e-01
 -8.9642286e-02
  1.1570221e+00
  1.3189263e+00
  6.1926026e-02
 -1.3853035e+00
 -1.1609000e+00
  3.7169423e+00
  2.5606792e+00
  5.4710007e-01
  3.9025879e-01
  1.1694878e+00
  2.1218810e+00
  1.5027307e-01
 -1.5361598e+00
 -3.5485113e+00
 -4.0936217e+00
  2.7677639e+00
  5.9489524e-01
 -5.3031647e-01
 -2.6779056e+00
  1.5977648e+00
  2.4513397e+00
  2.7261755e-01
  1.0815506e+00
  2.6839356e+00
 -1.8859563e+00
 -3.5684463e-01
  4.6917903e-01
 -1.1397407e+00
 -1.9364499e+00
 -2.9772389e-01
  1.5273981e-01
 -1.7427490e+00
 -8.6776626e-01
 -1.9754230e+00
  4.2413887e-01
 -1.8452367e-01
  2.8061676e-01
 -5.0521988e-01
  1.1281648e-01
 -7.2173232e-01
  1.1846978e-01
 -4.7267281e-02
  4.1035545e-01
  5.3706728e-02
  4.6489902e-02
 -4.1237716e-03
 -2.2213450e-02
 -1.0572769e-02
 -1.1436615e-01
  3.1234939e-02
  3.0950580e+00
 -2.3611860e+00
  3.2372668e-01
 -7.0904789e+00
  3.3330946e+00
  4.8316846e+00
  2.8476222e+00
  5.1035273e-01
  4.4106659e-02
  2.9546139e+00
 -1.4419954e+00
 -3.6666772e+00
  2.8810316e-01
 -1.7870449e+00
 -4.4022856e+00
  1.8858646e-01
  1.3517184e+00
 -7.7517670e-01
 -1.1676329e+00
  1.1584553e+00
  1.1987165e+00
  7.6724517e-01
 -4.9361682e+00
  3.4489892e+00
  2.2039292e-02
 -4.2091510e-01
  8.6004531e-01
  9.5558083e-01
 -1.8814765e+00
 -4.1275680e-01
  2.7267108e+00
  1.2683266e+00
  9.7918010e-01
  1.3162310e+00
  9.5618612e-01
 -1.2667013e+00
  2.4324605e+00
  2.9380145e+00
  2.3079433e-01
  2.9613659e+00
  2.7046065e+00
 -3.0169642e-01
 -6.6578662e-01
  4.4443309e-01
  1.3245269e+00
  2.8837276e-01
  7.1182698e-01
 -9.4882578e-01
  1.7050073e+00
 -1.2287377e+00
 -5.4420650e-01
 -1.7529070e-01
  3.9633152e-01
 -4.3950981e-01
  1.0768095e+00
 -2.0344727e-01
  3.1595447e+00
  3.5241190e-01
  2.9217395e-01
 -6.7462480e-01
  4.3820469e-03
  1.5419301e-01
  3.4079283e-01
 -5.8548898e-02
  7.6812871e-02
  2.9617429e-01
  1.2098187e-01
 -7.3899323e-01
  4.6063948e-02
 -2.5825715e+00
  1.0857937e+00
 -1.3339397e+00
  3.3331046e-01
  1.7462157e+00
  7.6938188e-01
 -1.0759029e+00
  1.9808227e+00
  1.8608900e+00
 -1.6606870e+00
  4.2052215e-01
 -7.7469897e+00
  2.3926406e+00
  2.4237318e+00
 -1.2715499e+00
 -2.4676034e+00
 -3.1491876e+00
  3.1555181e+00
  2.1710403e+00
  1.5485462e+00
 -7.6402197e+00
  9.4525754e-01
  7.0064694e-01
 -9.3917221e-01
 -2.2111204e+00
 -3.5946136e+00
  1.6379044e+00
  4.1509418e+00
 -8.6962056e-01
  2.2692325e+00
 -2.2087116e+00
  1.6881472e-01
  1.7393106e+00
  2.0983539e+00
 -4.5496659e+00
  1.7994674e-01
  1.5748426e+00
 -3.1556392e+00
  6.2531585e-01
 -1.2667098e+00
 -1.5125978e+00
 -1.0196062e+00
  2.0533736e+00
 -1.6848462e+00
  6.9354467e-02
  1.7346169e+00
 -2.7472754e+00
  4.3511658e+00
  4.7321281e+00
 -5.9285641e-01
 -2.8583854e-01
  2.2463237e-01
  1.0970356e+00
 -2.0877066e-01
  5.1790953e-01
 -5.2307206e-01
  2.0336002e-01
 -3.3413154e-01
  9.5542356e-02
 -4.7518943e-02
 -1.5679279e-01
  2.2811382e-01
 -2.2407215e-02
  8.4219283e-01
  3.3689442e-01
 -1.1251876e+00
  1.0867709e+00
  7.6602119e-01
  3.2486410e+00
 -2.2210474e+00
 -1.7747732e+00
 -2.7353272e-01
  1.3039878e-01
  3.0601792e+00
 -6.6195399e-01
  3.3369098e-02
 -1.6588742e+00
  2.6904681e-01
  1.8135077e+00
 -1.2252496e+00
  8.1356736e-03
  1.2626077e+00
  5.4137421e-01
 -7.6815331e-01
 -8.2733899e-01
  1.9426079e+00
  2.8861973e-01
 -7.1154940e-01
 -1.8787347e+00
 -1.7654966e-01
 -2.6188454e-01
 -7.5053459e-01
  2.6405326e-01
  2.8346959e-01
 -1.5614959e+00
  3.0746874e-01
  3.5945436e-01
 -1.3038819e+00
 -4.0187183e-01
 -1.0090705e-01
 -2.8378406e-01
  6.9953489e-01
 -8.8961327e-01
 -5.4581568e-02
 -8.1718266e-01
  2.0685020e-01
  1.1032363e+00
 -5.2570999e-01
 -9.2539001e-01
 -1.0546966e+00
  3.4826124e-01
 -1.5701352e-01
 -2.0406775e+00
  2.4201775e-01
 -9.2698562e-01
  1.1798485e-02
  1.8326063e-01
 -2.5195312e-01
 -7.8931399e-02
  3.8772383e-01
  2.8669366e-01
 -4.2424133e-01
  2.8548792e-01
  1.2199040e-01
  5.7149872e-02
  4.6442401e-02
 -1.3563610e-03
  7.8620397e-02
  1.9952990e-02
  3.7408791e-02
 -1.2801424e-02
 -4.5575935e-02
  5.8128881e-01
  7.8773528e-01
 -1.6123807e+00
  1.4826380e+00
  2.4551246e+00
  1.0365040e-01
 -6.4501986e-02
 -3.8461497e-01
  2.3506610e-01
  4.8997837e-01
 -1.5431528e+00
  3.8873380e-01
 -2.8737509e-01
 -6.8224065e-02
  4.5078230e-01
  8.8131821e-01
  1.3641162e+00
  9.6487123e-01
 -6.4612830e-01
  1.2798761e+00
  1.0207140e+00
  8.0479145e-01
 -1.2769402e+00
 -4.8696667e-02
 -6.5531641e-02
  7.4314791e-01
  1.4619049e-01
  8.2751632e-01
 -2.4413438e-01
 -9.9209011e-02
 -1.0855217e+00
 -3.5512251e-01
 -4.3277726e-01
  1.7768852e+00
  1.5745914e-01
  1.1526167e+00
  2.4898028e+00
  6.1383247e-01
 -7.4871838e-01
  1.5072100e+00
 -7.4818665e-01
 -3.1020303e+00
  1.2433206e-02
  6.8669450e-01
  7.7019250e-01
 -8.8787824e-02
  6.4961135e-01
 -1.9856325e+00
  1.9149994e+00
 -3.4056294e-01
 -1.3185775e+00
  1.0928735e-01
 -1.2676877e-01
 -3.0985406e-01
  4.2878547e-01
 -8.6109757e-02
  1.2477882e+00
  1.5059890e-01
 -5.2550599e-02
 -2.4244632e-01
 -1.6538942e-02
  5.6100495e-02
  9.7352058e-02
 -3.7436370e-02
  5.5754274e-01
  2.2078397e-02
  8.3702452e-02
  3.3017993e-03
  8.9748926e-02
 -1.1751153e+00
  3.3727062e-01
  1.3431604e+00
  2.3945682e+00
  6.5264040e-01
  3.3096967e+00
 -1.2226092e+00
  1.6676744e+00
  1.4059547e+00
 -1.9441639e-01
 -6.6757160e-01
  9.6582139e-01
 -2.3755350e+00
 -6.2936258e-01
  9.4895095e-01
  1.7723151e+00
 -2.1573663e+00
 -4.0859917e-01
  9.1341507e-01
  6.2953341e-01
  5.9695584e-01
 -9.1895765e-01
 -6.5886354e-01
 -7.0464724e-01
 -4.2175606e-01
  1.3547950e+00
  1.4779949e+00
 -3.2545624e+00
 -1.5663819e-01
 -1.8364233e+00
 -6.7924672e-01
  1.3803570e+00
  2.9814012e+00
 -1.5372504e+00
  1.0127318e+00
  2.1872849e+00
  9.1572493e-01
  1.4578212e+00
  1.9388256e+00
  1.4262668e+00
 -2.5329167e-01
  2.3863351e+00
  7.0530809e-02
 -1.7819133e+00
 -1.5904316e+00
 -3.9208486e+00
  1.6121527e+00
 -2.7136660e+00
 -2.7245049e+00
 -1.2725972e+00
 -6.2419355e-01
  6.5904766e-02
 -1.7799135e+00
  3.1955808e-01
  2.3863703e-01
  1.5305752e+00
 -3.1492358e-01
  1.3333718e-01
 -1.1299109e-01
 -3.5260528e-01
 -7.4400413e-01
 -1.7745718e-01
  4.5370203e-03
 -5.6621921e-01
 -3.7999365e-01
  1.3685017e+00
 -2.6692209e+00
 -1.7822670e+00
  1.3002563e+00
  4.7904205e-01
  1.1302484e+00
 -3.6003559e+00
  5.0089293e+00
  3.6372926e+00
 -1.2122216e+00
 -3.9018485e-01
  4.0937376e+00
  2.2418067e+00
  2.6151774e+00
  4.0893664e+00
  2.8088372e-02
 -1.4660320e+00
 -5.1205616e+00
  3.9313912e-01
 -7.9809064e-01
  4.3039080e-03
  8.6554962e-01
  2.0108511e-01
 -6.5932679e-01
  2.9211164e+00
  1.7627729e-01
  1.5203377e+00
 -6.7436421e-01
 -2.8371074e+00
 -5.0527447e-01
 -2.5724430e+00
 -1.3477243e+00
 -2.9968512e+00
  2.1470308e+00
  1.5323507e+00
  1.9547714e-01
 -2.9757140e+00
 -3.5376308e+00
  3.4201503e+00
 -2.8878272e+00
  1.6067330e+00
 -2.1238289e+00
 -1.3735476e+00
 -1.9549099e+00
  1.4435885e+00
  1.2243552e+00
 -1.9967339e+00
 -3.8795161e+00
  4.1417651e+00
  7.5213003e-01
  8.5846025e-01
 -9.7333604e-01
  4.3983158e-01
 -4.6330057e-02
 -1.8601613e-01
 -1.5755285e+00
 -4.5094469e-01
 -3.8613095e+00
 -7.2524153e-02
  4.8356465e-01
  5.0591689e-02
  2.6476739e-02
 -1.5372692e-01
 -1.6470653e-01
 -8.7672874e-02
  1.4262298e-02
 -4.5711061e-01
  8.5613430e-01
 -2.6861084e+00
 -1.9180541e+00
  3.5522661e+00
  1.7806035e+00
  3.0780692e+00
 -6.3491911e-01
  7.5774276e-01
 -8.0719054e-01
  3.7453456e+00
 -5.5860559e-04
 -7.5635660e-01
 -9.3424529e-01
  7.1504021e-01
 -5.6125909e-01
  1.1410778e+00
  2.7025335e+00
  3.8229487e+00
  1.5818369e+00
 -1.6026608e+00
 -6.1331755e-01
  1.1778588e+00
 -1.4186451e+00
  2.8724098e+00
 -1.0539559e+00
  1.4965963e+00
  8.9121741e-01
 -2.3096280e+00
  8.1427789e-01
  4.7180676e-01
 -1.1988187e+00
 -3.9580965e-01
  9.7387093e-01
 -4.7022882e-01
 -1.5672861e+00
 -7.1263534e-01
  2.5455739e+00
 -2.0482635e+00
 -4.6728010e+00
  1.9430054e+00
 -1.3533174e+00
 -2.1379399e+00
  1.3048229e+00
  7.9982287e-01
  3.7811598e-01
  1.7564442e+00
 -7.2836292e-01
  2.4222158e-01
  4.4602799e+00
 -6.2364811e-01
 -2.7186775e+00
 -9.7790554e-02
  6.0934222e-01
 -7.7345163e-01
  4.9131945e-01
 -1.6373733e+00
  6.5636635e-01
  1.9720595e-01
 -7.4510711e-01
 -6.6591674e-01
 -1.7807235e-01
  2.5666479e-02
 -8.7626117e-01
 -6.3454425e-01
 -6.2062349e-02
 -3.5901761e-01
 -3.7693849e-01
  4.8087940e-01
 -4.2418405e-01
  8.0621397e-01
  3.4228535e+00
  1.3088945e+00
  4.6161205e-01
 -3.5400987e-01
  1.5010373e-01
 -7.5675350e-01
 -9.0188158e-01
  2.0428982e+00
  2.8600425e-01
 -1.7215712e+00
 -3.0377182e-01
  1.6138675e+00
 -5.5888295e-02
 -2.4021236e-02
  1.0931484e-01
  2.9513165e-01
  2.8030065e-01
 -1.3918714e-01
  7.8812569e-01
  1.3832785e+00
 -1.6693002e-01
  3.8274047e-01
  4.4152606e-01
  5.2760625e-01
 -9.2727786e-01
  9.0910816e-01
  3.5753667e+00
 -1.9443828e+00
 -2.2742205e+00
 -1.0116082e+00
 -4.7068380e-02
  3.0002542e+00
  7.1330220e-01
 -5.6799811e-01
  8.2775766e-01
  1.3798579e+00
  1.2918590e+00
 -1.3211722e+00
 -1.2319734e+00
 -6.4315116e-01
  3.6731312e-01
 -1.2726004e-03
 -9.1361892e-01
 -3.1057012e-01
  1.0635836e-01
  1.3456960e+00
 -8.0493426e-01
  1.1300423e-01
 -2.9532206e-01
  4.1672373e-01
  2.0111667e-01
  6.2745683e-02
  4.6736732e-02
  8.9155644e-01
  2.7029505e-02
 -7.7642515e-02
  6.5241501e-02
 -5.7310466e-02
  7.5351320e-02
  1.2704547e-01
 -4.8000693e-02
 -2.6723854e-02
  9.9847361e-02
 -3.6902897e-02
  5.1540923e+00
  9.3289214e-01
  2.4696305e+00
 -1.7769643e+00
  3.7230875e-02
  8.7657064e-01
 -8.8766587e-01
 -6.1603332e-01
 -1.9335558e-01
 -3.9989071e+00
 -1.2643489e+00
 -8.3393395e-01
 -2.6172280e-01
 -1.5120220e+00
  1.1003561e+00
 -1.9460656e-01
  1.4901119e+00
  4.4235215e-01
  1.9258819e+00
 -3.1448078e-01
 -2.1093144e+00
  6.5269941e-01
 -2.5326431e+00
 -2.1395903e+00
  1.8500535e+00
 -5.6057595e-02
  1.7044783e+00
  4.3566489e-01
  1.7846933e-01
 -1.2007712e+00
 -2.2439528e+00
 -8.3515453e-01
 -4.2314324e+00
  1.0524429e+00
  1.6933020e+00
  2.2672659e-01
  1.3809204e-01
 -2.5844209e+00
 -2.3376498e+00
  6.8120557e-01
 -1.1128687e+00
  3.5243857e-01
  2.7998507e-01
  9.9633008e-01
  4.2819968e-01
 -3.1049696e-01
 -9.5094353e-01
  1.1784087e+00
  1.6154075e+00
 -4.7640532e-01
 -4.3579087e-01
 -4.1004866e-01
  6.3590246e-01
  9.0918058e-01
 -1.5877122e+00
  1.3152589e-01
  8.2677031e-01
 -1.9087946e-01
 -5.8678903e-02
  5.8443408e-02
 -1.2096227e-02
  6.4415321e-02
 -7.0423447e-02
 -8.9195110e-02
 -6.8425559e-02
 -2.3547904e-01
 -9.6133657e-02
  1.0998321e+00
  4.7020927e-01
 -2.6037986e+00
  2.9201810e+00
  2.2612863e+00
 -3.0584350e-01
  2.5685933e+00
 -2.9392698e-01
  1.0349288e+00
  1.9622338e-01
 -1.2391686e+00
 -1.3376081e+00
 -3.1129146e+00
  2.1628466e+00
 -2.6854491e+00
 -2.4474592e+00
 -6.8885794e+00
 -1.4236183e+00
  1.0968109e-01
 -3.2280767e-01
  6.4263253e+00
  2.0849140e+00
 -2.2622235e+00
 -2.8278205e-01
  1.3695805e+00
 -4.4520025e+00
  1.3962552e-01
 -3.9247492e-01
  3.1623631e+00
  2.3492913e+00
 -2.8842655e-01
 -1.8396709e+00
  1.6189067e+00
 -1.6058137e+00
  3.3867881e-01
 -1.0185106e+00
 -3.0430147e-01
  7.8443550e-02
  7.3419541e-02
 -3.6228039e+00
  1.8730437e+00
 -1.6112822e+00
 -2.8565255e-01
 -1.6679592e+00
  1.3089343e+00
  8.6209017e-01
 -1.9305971e-01
 -1.3688403e+00
 -3.7261777e-02
 -7.7563548e-01
  3.9022975e+00
  2.5242319e+00
 -1.7712997e+00
  1.3674330e+00
 -2.7119043e+00
 -1.2079387e+00
  6.2741339e-01
  7.0594579e-01
  7.2590061e-02
 -8.3078396e-01
  3.2830045e-01
  6.6318429e-01
  1.5628436e+00
  5.6635851e-01
  7.3620174e-03
 -1.4679133e+00
  8.2635887e-02
 -1.1402255e-01
 -3.3440754e+00
 -7.1645403e-01
 -1.7669932e+00
 -3.7605840e-01
  1.2621952e+00
 -1.8665181e+00
  6.8973951e+00
  2.9685637e-01
  2.7029796e+00
  1.3787175e+00
 -9.9679035e-01
  1.7931284e+00
  1.4622764e-01
  2.6088457e+00
  3.3834362e-01
 -8.9539391e-01
  2.2486015e-03
 -1.1518344e+00
  1.0749753e+00
 -1.9184659e-01
  9.6965504e-01
 -3.2259593e+00
 -1.9299592e+00
  1.6307710e+00
 -3.3660406e-01
  1.9637343e+00
 -2.9851313e+00
 -8.5864013e-01
 -8.1556535e-01
  8.8443345e-01
  1.0373113e+00
  4.9918213e-01
 -1.1120951e+00
  3.4185514e+00
 -2.8114957e-01
  4.8594353e-01
  1.8721625e+00
  4.8956311e-01
  6.3796586e-01
  3.7065834e-02
 -9.9814206e-01
 -1.7002783e+00
  2.1385054e-01
  1.3170676e+00
  4.0729988e-01
  8.4244683e-02
  4.8597321e-01
  5.0628197e-01
  1.1369640e+00
  1.3578190e-01
  9.8546034e-01
 -7.1458733e-01
 -4.2874825e-01
  2.5631273e-01
  5.1216301e-02
 -1.1985902e+00
  4.2238068e-02
  8.9185447e-02
  5.4055423e-01
  1.9383559e-02
 -1.2754972e-01
 -1.6705683e-01
 -8.9526579e-02
  2.1920517e-02
 -4.9748059e-02
  4.5390952e-02
 -3.1533735e+00
 -7.5972331e-01
 -4.2005558e+00
 -4.9707381e-04
 -2.1036170e+00
  1.1568220e+00
  2.8750303e+00
 -1.6404966e+00
  9.0521693e-02
  9.1265523e-01
 -1.0793515e+00
 -1.0280123e+00
 -1.3804020e+00
  1.3146948e+00
 -8.8786626e-01
  7.7673841e-01
  2.1619501e+00
  2.0800207e+00
  2.9873478e-01
 -2.1577344e+00
 -1.9663161e+00
 -1.1595219e+00
 -1.3918567e-01
 -1.5788558e+00
 -5.4781467e-01
  5.3680807e-01
  2.0663559e+00
 -7.8486226e-02
  4.3970671e-02
  4.4077473e+00
 -1.5045729e+00
  4.6839786e+00
 -7.9142642e-01
  2.3595848e+00
  1.0605612e+00
  1.1369182e+00
 -1.3515244e+00
 -3.7414479e-01
 -6.3540328e-01
  1.7047051e+00
 -6.0937160e-01
  3.6313206e-01
  1.2178043e-01
 -5.6871559e-02
 -8.8581097e-01
 -4.6759731e-01
  7.4946666e-01
 -8.5530001e-01
 -1.1593833e+00
  7.5184637e-01
  1.9099514e-01
 -1.2341172e-01
 -2.9028766e-02
 -3.8916060e-01
 -3.8780135e-01
 -5.2521443e-01
 -6.1434907e-01
  2.1110408e-01
 -2.2929448e-01
  2.0297712e-01
 -5.8302045e-02
  1.3384148e-01
 -1.8031949e-01
 -3.7375987e-01
 -1.8104909e-02
 -7.4435186e-01
 -2.8107874e-02
 -2.1732905e+00
 -3.3063231e+00
 -1.2417363e+00
  2.7699119e-01
  1.2929362e+00
  3.3449187e+00
 -6.5075216e+00
 -7.1277338e-01
 -2.1548963e+00
 -8.9380753e-01
 -1.5093529e+00
  2.6279089e+00
  5.7423550e-01
  8.7844020e-01
  9.3176800e-01
 -3.0946895e-01
 -1.6194731e+00
  1.6689869e+00
  1.1758499e+00
 -1.2924371e+00
  1.2148682e+00
  2.3435941e+00
  3.6675065e+00
 -2.9499541e-04
  4.4496506e-01
 -2.8549752e+00
  2.6680222e+00
  4.3626711e-01
 -5.6990492e-01
 -4.2398691e+00
  1.6281934e+00
  1.8974100e+00
  1.5668746e+00
 -2.2387488e-01
 -1.1299889e+00
  4.2586341e+00
 -1.1259003e+00
  1.5092753e+00
 -1.4412144e+00
  7.6252377e-01
 -2.1460724e+00
  1.2883284e+00
  9.3680143e-01
 -7.6001811e-01
  1.4137334e-01
  2.0260706e+00
  5.5046862e-01
  1.3786123e+00
  1.2477311e-01
 -2.2400838e-01
 -7.7129310e-01
  4.3578136e-01
 -6.3407272e-01
 -3.0356038e-01
 -7.5332052e-01
  5.9892774e-01
 -1.3893902e+00
 -4.1431615e-01
  3.9802778e-01
  9.0966433e-01
  1.3942848e-01
  5.0314409e-01
  1.2375685e+00
  5.2081287e-01
  1.6173830e-02
 -3.4836984e-01
  8.1039029e-01
 -7.1731601e+00
  1.7005509e+00
 -1.1503357e-01
 -2.6404879e+00
 -2.5318389e+00
  1.6865718e+00
 -4.1667891e+00
  1.6476163e+00
  1.6713518e-01
 -5.6961241e+00
  1.3313654e-01
 -2.8417687e+00
 -3.7007020e+00
 -3.6878307e+00
 -2.1487315e+00
  4.5095897e-01
  1.3536544e+00
  8.6192220e-01
  3.9091116e-01
  5.3954893e-01
 -1.0026784e+00
  1.5290283e+00
 -2.9267521e+00
  2.5649650e+00
  1.4742086e+00
  1.3384236e+00
  8.6342996e-01
  3.3567771e-01
 -4.8705745e-01
 -4.3395457e-01
 -3.4947193e+00
  8.2285428e-01
  6.2330121e-01
 -1.7600517e+00
  5.0741029e-01
 -4.6889358e+00
 -9.3324226e-01
  8.6776018e-01
 -2.4555185e+00
 -8.1288069e-01
  1.8833930e+00
 -1.9615258e+00
 -1.1039987e-01
  4.6783227e-01
  1.0287052e+00
  1.3671834e+00
  4.6341725e-02
 -3.4598818e+00
 -5.2300835e-01
  2.5942209e-01
 -7.1631789e-01
 -1.8921569e-02
  5.1021481e-01
  4.9576399e-01
  5.2108996e-02
 -7.2683417e-03
 -4.9828115e-01
 -9.1227567e-01
  2.6175648e-02
 -4.7040379e-01
 -6.3048050e-02
  2.4627784e-02
 -1.8857520e-02
 -8.3244316e-02
 -1.9801721e-02
  2.0336099e-01
  6.8736747e-02
  6.1312735e-01
  5.0162768e-01
 -8.1031120e-01
 -7.3390372e-02
  1.2298730e-01
  4.3645197e-01
 -1.9145491e+00
  1.4532165e-01
  6.4602590e-01
 -3.8629019e-01
  1.8427625e+00
 -5.5569160e-01
 -4.3874946e-01
  4.3192141e-02
 -1.7167026e-01
  3.0000981e-02
  3.1247744e-01
 -8.8569663e-02
 -3.1872877e-01
  2.9408446e-01
  3.2777238e-01
  8.0836803e-02
  2.0948687e-01
  5.5115658e-01
  2.4120839e-01
 -2.2977495e-01
  1.8944807e-01
  2.0441446e-01
  2.6182124e-01
  3.6334875e-01
  3.7340546e-01
 -8.5550326e-01
 -1.6633757e+00
  2.2760719e-01
 -4.5761008e-02
  1.7425145e-01
  1.0174280e-01
 -1.2121884e-01
 -3.6990970e-01
 -9.7502813e-02
  1.8284994e-01
  3.3354634e-01
 -1.8235933e-02
 -2.1729176e-01
  1.3080461e-01
  2.6543400e-01
  1.0113823e-01
  2.0528140e-02
 -1.4968552e-01
  1.4350599e-01
  7.0279561e-02
 -2.5103243e-02
  5.8837980e-03
 -1.8992726e-02
  1.3050275e-01
  1.0897959e-02
 -1.2997445e-01
 -8.2074150e-02
 -4.1705918e-02
 -5.8194507e-02
  1.7507209e-02
  4.6044372e-02
  4.3245334e-02
  2.4901086e-02
  1.9212920e-02
  7.9330333e-02
  2.9040128e-02
  4.4559485e-01
  7.5530469e-02
  3.1264111e-01
  5.7977664e-01
  7.1383929e-01
  2.4550214e+00
 -5.8614463e-01
  5.1223236e-01
  5.4568052e-01
 -2.6515131e+00
 -1.7255536e-01
  1.7602114e-01
 -6.3179862e-01
 -7.4246663e-01
  2.5971016e-01
 -1.4731525e-01
  8.1388652e-02
 -2.4676342e+00
 -4.1751307e-01
  1.3975003e-01
  5.4554689e-01
 -5.7313365e-01
  6.7317879e-01
  1.2663189e+00
 -2.7955014e-01
  9.0080120e-02
  2.2022958e-01
 -4.0109533e-01
  2.0761013e-01
  7.7666682e-01
  4.7045049e-01
 -3.5919130e-01
 -1.0929742e+00
  3.1005031e-01
 -4.8746616e-01
 -2.9804772e-01
 -4.2839330e-01
  5.2203822e-01
 -3.1469461e-02
  5.8320504e-02
  3.3203551e-01
  3.6631683e-01
  1.9166666e-01
  1.0704266e-01
  1.1404219e+00
 -1.2781946e-01
  1.1978041e-01
  6.0862559e-01
 -2.4244365e-01
 -2.6571482e-01
  1.5825918e+00
 -6.5501773e-01
 -4.9254712e-02
 -2.7973470e-01
  3.8066018e-01
  2.9176003e-01
  1.8035947e-01
  3.7823942e-01
 -7.7513263e-02
 -2.6221278e-01
 -3.0275520e-02
  7.2174654e-03
  1.7805904e-01
  1.4342172e-03
  1.3428315e-02
  1.0511223e-01
 -1.2833589e-01
 -2.3468697e-01
  2.1188810e+00
 -5.6713253e-01
 -5.0469160e-01
 -1.9453605e+00
  1.4677864e+00
 -8.7309599e-01
  1.0079942e+00
 -7.9315156e-01
 -1.8901039e+00
 -4.7452483e-01
  2.9046099e+00
  3.1645188e-01
 -3.3004723e+00
  3.4892175e+00
 -1.7350113e-01
 -4.7744765e+00
 -4.9415670e-02
 -1.4211011e+00
 -4.8632523e-01
  4.0088015e+00
  1.3737892e+00
 -4.1882486e+00
  4.7313576e+00
  2.3466331e-01
  1.6319010e+00
 -3.6243854e+00
  8.3409965e-01
  1.8808846e+00
 -2.0743921e+00
  1.0614561e+00
 -2.7901189e+00
  1.7780806e+00
  3.9496553e-01
  1.6388123e+00
  1.6645724e+00
 -1.4052967e+00
  2.0868375e+00
  9.2930627e-01
 -1.7717214e+00
 -1.8249091e+00
 -7.3826665e-01
  2.4289651e+00
 -1.7315265e+00
  1.3564944e+00
  5.6167668e-01
  7.6171654e-01
  2.4200559e+00
 -1.1211963e+00
 -2.2916665e+00
 -7.4173832e-01
 -1.7359998e+00
  7.1938527e-01
  4.1675385e-02
 -7.8088611e-01
  9.6903712e-01
 -1.1505300e+00
  1.2227155e-01
 -2.5988573e-01
 -1.5840632e+00
  1.6922971e-02
  1.3911712e-01
  2.5623053e-01
 -2.6929677e-02
 -1.3658223e-01
 -7.8620419e-02
 -1.5833113e+00
 -1.0580766e+00
 -6.9603097e-01
  1.5741795e-01
 -2.4462192e+00
 -1.5591477e+00
 -3.0618434e+00
 -1.1322573e+00
 -1.8988266e+00
 -6.5263987e+00
  2.8115489e+00
 -4.6969706e-01
  6.1906034e-01
 -9.6635360e-01
 -4.5678873e+00
  2.5003192e-01
 -2.8018349e-01
  2.1208572e+00
  1.1593781e+00
 -2.5651388e+00
  1.7960802e+00
 -1.1496031e+00
  3.1622123e-02
 -1.4184519e+00
  4.9773973e-01
  7.2034258e-01
 -6.2019968e-01
  1.0660888e+00
 -2.8799176e+00
  8.5218549e-01
  1.8390776e+00
  6.4372492e-01
  1.6665071e+00
  1.5108157e+00
 -1.0110744e+00
 -2.5804111e-01
  1.3797423e+00
  1.4696227e+00
 -9.8683327e-01
 -4.2745419e+00
  3.4049925e-01
  1.4460658e+00
  2.2743633e+00
 -6.9753224e-01
  2.0119488e-02
  1.0183760e+00
 -3.6829782e-01
 -1.4776647e+00
 -1.9102116e+00
  9.5777982e-01
 -3.5833600e-01
 -1.3869530e-01
 -9.0046600e-02
 -6.7353833e-01
 -5.2669913e-01
 -5.4123357e-02
  1.3378654e-01
 -4.2950767e-01
  7.5409937e-01
 -9.6807384e-01
 -4.4886515e-01
 -5.4325439e-02
  1.3384362e-01
 -8.9256810e-03
  4.7237895e-02
  3.5539217e-02
 -2.9879302e-01
 -7.9359494e-02
  1.2018192e-01
  3.4886980e-01
  1.5662118e+00
 -3.3112159e+00
 -2.5815923e+00
  2.4230924e+00
 -2.3310952e-01
 -8.9629102e-01
 -1.8816115e+00
  1.7740960e+00
  6.9199258e-01
 -1.8471514e+00
  2.3816590e+00
 -4.9605947e+00
 -4.0525489e+00
 -1.4233114e+00
  6.5305696e+00
 -5.8587819e-01
  1.2346873e+00
  1.1561152e+00
 -2.9395535e+00
 -5.3583241e-01
  4.3467638e-01
  3.9309525e-01
 -1.2355593e+00
  4.2520320e-01
  3.5948865e+00
 -3.0389647e+00
  2.2572420e+00
  1.3597325e+00
 -9.0337318e-01
 -6.3704616e-01
  1.6957211e+00
 -3.6050785e+00
 -2.4274814e+00
  1.7118396e+00
  3.7909210e+00
  8.3562261e-01
  2.1202043e-01
 -1.0331624e+00
 -1.0428096e+00
  1.6161340e+00
  6.3762414e-01
 -1.3562018e+00
  2.1021166e+00
  2.0033961e-02
 -2.0871937e+00
  7.5709087e-01
  3.3747160e-01
  2.6562812e+00
 -1.4865808e+00
 -4.1973833e-02
  5.6172895e-01
 -5.5678970e-01
  3.6469394e-01
 -1.2268723e+00
 -4.0966773e-01
 -1.3607171e+00
  1.1663079e+00
  3.4507638e-01
  1.8201384e-01
  1.0589126e-01
  1.5126593e-01
  2.1814462e-02
 -9.1741374e-03
  8.3101135e-01
  3.3519810e-01
  3.7175782e+00
 -1.3051965e+00
  5.6903291e-01
  5.6310982e-01
 -1.5221107e+00
  3.1222006e-02
 -1.5720537e+00
  1.3151544e+00
 -1.9374487e+00
  2.4106054e+00
  1.5283183e+00
  6.1309528e-01
  2.3440323e+00
  2.9848878e+00
  1.6019804e+00
  1.0325713e+00
  6.2159270e-01
  1.7689240e+00
 -1.0336535e+00
  6.4833426e-01
  1.5326635e+00
  1.2662475e+00
  1.7026113e+00
  1.9392481e-01
 -2.3262784e+00
 -1.6825964e+00
 -1.2256389e+00
 -2.0966446e+00
  2.7055183e-01
  9.1207165e-01
  6.9136477e-01
  1.2846327e-01
  2.7318249e+00
 -1.1758116e+00
  1.2628691e+00
 -5.5205379e-02
 -2.0894516e+00
 -4.9673769e-01
  1.8750670e+00
 -1.6522279e+00
 -3.6745603e+00
  1.4460852e+00
 -5.1924869e-02
 -4.4680782e-02
 -1.1715039e+00
  9.1986930e-01
  1.2023130e-01
 -2.1659194e-01
 -1.8599539e+00
  2.3390900e-01
  1.3937349e+00
 -4.9833131e-01
 -3.6336055e-01
 -1.4403093e-01
  1.9803941e-01
 -2.5093722e-01
  1.2314928e+00
  2.4893840e-01
 -1.5710184e-02
  7.0293629e-01
  1.0225176e-01
  1.0345253e-01
  2.5593844e-01
  1.1509608e-01
  4.7173087e-02
  3.4619921e-01
  1.3718215e-01
 -8.2362103e-01
  9.6694648e-01
 -8.2329029e-01
  3.7409925e-01
  7.3752993e-01
  7.9188454e-01
  3.3086741e-01
  2.9989055e-01
 -3.0286282e-01
  7.2168636e-01
 -4.0633970e-01
 -1.1155044e+00
 -8.8576907e-01
 -1.4993508e-01
 -1.1994573e+00
  2.1671672e-01
  1.3096288e-01
 -5.3049829e-02
 -7.6163995e-01
  4.0363386e-01
  7.4946249e-01
 -5.9621894e-01
  3.0405356e-02
  5.1013827e-01
 -1.6732110e-01
 -9.9041468e-01
  2.9313987e-01
  4.0455401e-01
  1.9101381e-01
 -9.1489953e-01
  6.5438086e-01
 -1.8499399e+00
 -4.3646976e-01
 -1.6913128e-01
  1.4552031e-01
  8.2099313e-01
 -6.6821796e-01
  2.6576564e-01
 -2.7449024e-01
  5.8992440e-01
  1.0350362e+00
  1.1769348e+00
  4.4986787e-01
 -9.8842680e-02
 -2.5516227e-01
 -1.5116514e-01
  6.8680036e-01
  1.1117598e+00
  3.0883422e-02
  7.2733539e-01
  7.6307398e-01
  2.6124352e-01
 -9.6123271e-02
 -1.2527826e-01
 -2.0332145e-02
 -1.2515720e-02
 -4.4150725e-01
  4.1585323e-01
  8.3564110e-02
  1.0658234e-01
  7.0996314e-02
  3.7726387e-02
 -3.9171603e-02
  5.5231549e-02
 -1.7466728e-02
 -1.4151384e-03
  3.4920461e-02
  8.5012037e-01
  1.3959501e+00
 -6.6271010e-03
  1.0596317e+00
  1.2017630e+00
  2.4882283e+00
  7.4075232e+00
 -4.4418994e-01
  1.7831424e+00
 -2.8419838e+00
  2.9500180e-01
 -9.8037070e-01
 -4.8114505e+00
  3.3678195e+00
  3.3369484e+00
 -1.4417720e+00
  1.3240495e+00
 -2.3835288e-02
  1.8152471e+00
 -3.8628346e-01
  3.7654321e+00
 -1.4389318e+00
  1.0450888e+00
  2.6751297e+00
 -6.8516058e-01
  2.2594947e-01
  7.8399128e-01
  3.2919106e-01
 -4.4292101e-01
  3.6155316e-01
  8.0066615e-01
 -3.8446450e-01
 -1.6281232e+00
  2.2852335e+00
 -6.9280970e-01
  1.3135074e+00
  2.1565225e+00
  8.7514054e-03
 -3.4278047e+00
  3.6668105e+00
 -8.9122081e-01
 -3.0240211e-01
  1.4297378e+00
  1.0072269e-01
  1.5243360e+00
  2.4103255e+00
  1.5010052e+00
 -1.3664472e+00
  2.1017311e+00
 -2.6465046e+00
 -5.3343072e+00
  5.6756455e-01
 -9.8909356e-02
 -1.4958826e-02
 -7.9998320e-01
 -3.9492300e-01
  2.4050088e+00
 -3.3235705e-01
  2.0668526e-01
  6.5596521e-02
 -1.1395423e-01
 -3.2553650e-02
 -1.9581385e-01
  9.4912387e-03
 -3.3460889e-02
 -9.6963775e-01
  5.6013566e-02
 -1.1208608e+00
 -3.7759633e+00
  2.7311152e-01
  1.3271064e+00
 -1.1264765e+00
  1.0866116e+00
 -1.1952773e+00
 -7.0391786e-01
  1.9669178e+00
  6.3883485e-03
  2.8466782e-01
 -1.2461336e+00
 -2.1440008e+00
  1.5748100e+00
  4.2658082e-01
  8.7313578e-02
  3.2090473e+00
  1.2023584e+00
  2.4662492e+00
  1.4087577e-02
 -1.9600192e+00
 -4.9257879e+00
  9.5339251e-01
  3.5006895e+00
  2.4653053e-01
  4.0593386e+00
  1.9116231e+00
  2.0139272e+00
 -2.3684385e-01
 -3.3918848e+00
  1.9857687e+00
  1.8123795e+00
 -1.6169424e+00
  2.3251660e+00
  2.7243087e+00
  1.1601695e+00
 -1.3480399e+00
 -1.3650542e+00
 -3.8134685e+00
  5.6870756e+00
 -2.2208691e+00
 -1.2216835e+00
 -2.9125664e-01
 -2.4109313e+00
 -2.2284501e+00
  2.8776414e+00
  5.9953308e-01
  2.6148221e+00
  2.0750775e+00
 -2.0685325e+00
 -3.4651406e+00
  1.6151330e+00
  1.6227102e-01
 -3.5833645e-01
 -4.1971809e-01
  2.7085522e-01
 -2.6554883e-01
  1.0510764e+00
  1.3614863e-01
 -3.5451469e-01
 -1.1340791e-02
 -1.0438204e-01
 -3.5649244e-02
 -3.2486162e-01
 -1.5133649e-01
 -3.2530004e-01
 -3.4699652e-01
  1.9863327e+00
 -9.4212526e-01
  7.5591975e-01
  1.8696461e+00
 -2.2190251e+00
 -5.1923866e+00
 -2.6637135e+00
 -5.1234674e+00
  2.7753456e+00
  1.3387100e+00
 -4.3491697e+00
  3.7978235e-01
  5.2664399e-01
 -2.9395535e+00
  8.8995802e-01
  4.1876128e-01
 -1.0841011e+00
 -2.4192019e+00
 -9.0539806e-02
  7.8997350e-01
 -5.2753717e-01
  7.3317826e-01
 -1.0185937e+00
  1.2608868e+00
  4.5068512e+00
 -3.1499469e+00
 -3.8133521e-02
 -1.2857077e+00
  6.9449800e-01
  5.7139964e+00
  5.3669125e-01
  4.3554769e+00
 -3.1554153e+00
  1.0160000e+00
 -1.6186475e+00
  2.0337353e+00
  2.3769374e+00
 -1.0510187e+00
  7.1329278e-01
 -2.1115060e+00
 -8.8634443e-01
  1.0858581e+00
  2.5400117e-01
 -4.1640607e-01
 -4.3780735e-01
  2.3743737e+00
  4.9879812e-02
 -1.8780799e+00
  9.9379194e-01
 -1.2749319e+00
 -2.1415219e+00
  5.4403478e-01
  1.6262156e-01
  4.9019614e-01
 -8.2524645e-01
  2.5644526e-01
  2.5025371e-03
  1.3025023e-01
 -1.9513561e-01
 -2.7054876e-01
  1.3405018e-02
  2.6554529e-02
  3.5669133e-01
  8.0422424e-02
 -1.2777169e-02
  1.1083452e-01
  3.3245627e-02
  2.8136225e+00
  4.4114962e-01
  9.6324360e-01
  3.6833868e+00
 -3.5698789e-01
 -1.2139690e+00
 -3.6056471e+00
 -2.7551982e-01
  6.5995795e-01
 -1.4016206e+00
  1.0809149e+00
  3.0107028e+00
 -5.7902879e-01
  1.5720483e+00
 -1.3423325e+00
  2.8029399e+00
 -1.3896739e+00
  2.5098760e+00
  8.0661580e-02
  6.5223731e-02
 -3.3825393e+00
 -2.0693557e-01
 -1.2396455e+00
 -5.2031116e+00
 -1.0668168e+00
  3.2186130e-01
  8.1051177e-01
  4.4062442e-01
 -2.1953049e-01
 -1.2472667e-01
 -1.4228165e-01
  1.8485701e+00
 -1.5713959e+00
  3.1398824e-01
 -2.7066462e+00
 -8.6271763e-01
  1.0514184e+00
 -1.2369188e+00
  4.9748844e-01
  9.8076481e-01
  2.2125719e+00
  1.6159881e+00
 -1.3714541e+00
 -8.1033087e-01
 -5.9877491e-01
 -3.4375446e+00
  2.7373889e-01
 -5.5188781e-01
 -3.7556772e+00
 -2.6493274e-02
  1.8604137e+00
 -1.0857875e+00
  2.6698695e-02
 -3.2974237e-01
  3.7531379e-01
 -1.9822069e-01
 -9.8760229e-01
 -2.1626899e-01
  1.7265121e-02
  8.0903314e-02
  5.8822870e-02
  1.2112359e-01
  3.5595286e-01
 -3.3141229e-02
 -7.2989009e-02
 -5.5292863e-02
 -1.1415245e-01
 -4.0878706e+00
  7.3830914e-01
  8.6132753e-01
 -1.5747671e+00
 -2.1079745e+00
  2.1576824e+00
 -7.8435105e-01
  1.4917123e+00
  2.3499930e+00
  6.4315462e-01
 -1.6543096e+00
  2.5574148e+00
 -8.9205146e-01
 -4.9736732e-01
  7.7493507e-01
  1.1213311e+00
 -2.7480340e-01
 -1.0981447e+00
  2.8367999e-01
  1.5457323e-01
 -1.5842433e-01
  2.7173221e-01
  3.0026491e+00
  7.9785788e-01
 -1.0376643e+00
 -1.1097283e+00
 -3.8265392e-01
 -2.2143856e-01
 -4.6374330e-01
 -6.1144829e-01
 -2.9623737e+00
  1.0522479e+00
  1.4500085e+00
 -4.4027588e-01
  1.8960232e+00
 -1.0297694e+00
  1.9656794e+00
  1.5344247e+00
 -1.8758370e+00
  8.4334701e-02
 -2.2764657e+00
  1.5456169e+00
 -3.4876192e-01
  4.7586054e-01
  3.7278321e-01
 -2.0420740e+00
  1.8995537e-01
  6.2552825e-02
  1.5631706e+00
  2.4041848e+00
  2.2735929e+00
 -7.8630012e-01
  1.2262707e+00
 -1.3344361e+00
  1.1813926e+00
 -3.0919397e-01
 -8.5719186e-01
  6.2409323e-01
 -2.1240750e-01
 -6.8640977e-01
 -8.9982659e-02
  3.7015233e-02
 -3.2422701e-01
 -2.9682145e-01
 -7.0493653e-02
 -1.7386742e-01
 -3.8259229e-01
 -1.5322465e+00
 -1.4612581e+00
 -1.2426925e-02
  1.5454930e+00
 -2.1062248e+00
  1.5562936e+00
  2.8752537e+00
  1.7715435e-01
  1.0598083e+00
 -3.5845754e-01
 -5.3859407e-01
  7.0572799e-01
  3.5635200e-01
  1.8774697e+00
  1.9533602e+00
  2.7611119e-01
  1.4173443e+00
  7.8340417e-01
  3.9734811e-01
  5.4899228e-01
  7.0915139e-01
 -3.2253841e-01
  1.3399180e+00
  1.6202377e+00
  1.1230785e+00
  4.9183186e-02
  8.3859366e-01
  1.2394196e+00
  4.7770822e-01
  7.0140761e-01
 -1.4566495e+00
  1.3268850e+00
 -2.0127234e+00
 -1.4148099e+00
 -5.4152822e-01
 -2.6152306e+00
 -2.1663892e+00
 -1.3861671e-01
  1.0445703e+01
 -1.3803837e+00
 -1.6637087e+00
 -7.4505597e-01
 -7.5129086e-01
 -3.0573039e+00
 -9.5681804e-01
 -4.0098634e-02
 -1.0802246e+00
  3.7892938e-01
 -5.1704902e-02
  1.0515780e+00
  1.7555513e+00
 -7.2528506e-03
  2.7973110e-02
  3.3491086e-02
 -5.4790091e-02
  2.0510985e-01
 -2.5142922e+00
 -3.9158739e-02
  1.2885083e-01
  1.6315956e-01
  3.8520608e-02
  9.6589543e-02
  9.5887609e-02
  1.4925355e-01
 -1.2695725e-02
  2.3853181e-01
 -1.8145440e-02
 -2.9879663e+00
 -6.2029564e-01
  1.7766451e+00
 -1.5271336e+00
  1.0131105e+00
 -2.3022964e+00
 -1.5875400e+00
  5.3010136e-01
 -1.4520886e+00
 -1.9764448e+00
  2.2074783e+00
 -1.3438885e+00
 -1.5122335e+00
  1.2287657e+00
  2.3696110e+00
  1.6280181e+00
  1.4652214e+00
  9.9275403e-02
  9.5782566e-01
 -3.6140181e-02
  1.0278041e-01
  1.9975196e+00
  3.4579876e-01
  3.0512506e-01
  1.7713746e+00
  2.3235323e+00
  1.0362181e-01
  9.4611251e-01
  3.2947736e+00
  6.8393570e-01
 -3.6707940e+00
 -7.3473835e+00
  4.7980475e+00
  1.0318260e-01
 -4.5985234e-01
 -1.6589012e+00
  1.4059207e+00
 -1.5749444e-01
 -2.6095870e+00
  9.3980712e-01
 -2.8087695e+00
  2.8555915e+00
  5.2985525e-01
  6.9548637e-01
  4.1401821e-01
 -1.8877616e+00
 -2.6331353e-01
 -1.9381142e+00
 -1.7469063e+00
 -1.0767032e+00
  2.3515484e+00
  4.0586377e-04
 -3.2651034e-01
  6.0768347e-02
  3.5549337e-01
 -3.5938349e-01
 -1.3728698e+00
 -1.6801274e+00
  1.7420819e-01
  1.7034609e-02
 -7.1734942e-02
 -1.5771009e-02
 -2.0668054e-01
  1.4928326e-01
  2.7482631e-02
  7.3271799e-01
 -9.8808832e-02
  3.6328130e+00
 -3.7205756e-01
  3.2896116e+00
 -4.3556446e-01
  7.7919328e-01
 -5.1347580e+00
 -4.8625050e+00
 -5.2176809e-01
 -7.2201258e-01
  4.1004519e+00
 -4.7869039e+00
  1.7587646e+00
 -1.0977001e+00
  5.0257788e+00
  1.0500557e+00
 -4.1049171e-02
  1.4612868e+00
  7.1668172e-01
 -8.4570944e-01
 -3.2613239e-01
  6.1851954e+00
 -6.0055864e-01
  4.6401982e+00
 -2.8553655e+00
 -3.3517370e-03
 -1.5358374e+00
  1.3100770e+00
 -6.8539000e-01
  1.4311878e-01
  3.2874310e+00
  3.1425455e-01
  2.8663363e+00
 -8.9904886e-01
  6.4824468e-01
  4.1974217e-01
  2.6937838e+00
  6.5798920e-01
 -4.2257142e-01
 -1.2637423e+00
  1.5644393e+00
 -2.0495182e-01
 -1.7867234e+00
  9.0011537e-02
 -7.2692907e-01
  3.8404617e-02
  2.0386469e-01
  1.1674978e-01
 -5.9492707e-01
 -2.0975499e-01
  5.4852575e-01
  1.6869701e+00
 -2.5739688e-01
 -8.0719846e-01
 -8.6023432e-01
  5.3606099e-01
 -1.2562028e-01
 -3.1349516e-01
 -5.3856045e-01
  5.3367931e-02
  3.2656556e-01
 -5.7895437e-02
  3.3079885e-02
 -8.0816314e-02
 -1.1256616e-01
 -5.3004697e-03
  5.9435956e-02
 -4.6194848e-02
 -9.5580792e-01
  5.3241706e-01
 -2.9793623e-01
 -1.0915688e-01
  1.4265531e-01
  1.2988030e+00
 -5.7238585e-01
 -5.0400347e-01
 -3.2388300e-01
 -1.0834498e+00
 -3.7294465e-01
 -4.5369342e-01
 -3.5864928e-01
 -3.3966026e-01
 -9.9727255e-01
  1.7502682e-01
  4.8155192e-01
  2.3096102e-01
 -1.2943207e-02
 -2.3642366e-01
 -1.4772700e-01
 -2.2248337e-01
  8.1450039e-01
 -9.5421481e-01
 -3.5945293e-01
  3.0530024e-01
 -6.9060057e-01
  4.0700819e-02
 -9.8407373e-02
 -1.2280858e-01
  1.2056389e-01
 -5.0083619e-02
 -1.1169678e+00
  5.0151217e-01
 -6.6441429e-01
  5.7451433e-01
 -5.1586491e-01
 -6.1810511e-01
  1.4412054e-01
 -5.1032251e-01
 -1.6916771e-01
 -2.9420899e-03
 -1.0629392e+00
 -7.7242786e-03
 -6.9698048e-01
 -8.1998503e-01
 -5.3881520e-01
  3.2033455e-01
  4.1277876e-01
  1.7378390e-01
  4.2329410e-01
 -8.2420552e-01
  6.0146105e-01
 -3.1470656e-01
  2.7119517e-01
 -2.2810917e-01
  9.8520584e-02
  5.2315027e-01
  4.0343411e-02
  2.0187016e-01
  8.6896501e-02
  2.0787847e-01
  1.7158064e-01
 -1.2243176e-01
 -1.0472639e-02
  7.9399548e-02
  3.7259001e-02
 -5.5590168e-02
  1.8632727e-02
 -2.1679593e-02
  1.4955740e-01
  5.2070484e-02
  1.4783378e-01
  9.0100050e-02
 -5.7319128e-03
 -1.7775348e-01
  4.1433491e-02
 -2.1515016e-01
 -3.7579961e-02
 -1.2142142e-01
  6.1434330e-03
  3.3305638e-02
  8.5082084e-02
 -9.4280660e-02
  4.4134833e-02
 -9.5009403e-03
  5.3360794e-02
  3.2861374e-02
 -2.8488226e-02
 -1.1124835e-01
 -1.0716148e-02
 -9.8819718e-02
 -4.5535069e-02
  3.6352169e-02
  1.9984033e-02
  4.9920645e-02
 -9.2664346e-02
  6.5971911e-02
 -1.5427195e-01
 -2.0288602e-02
  3.6542777e-02
  9.2939502e-03
  8.5890129e-02
 -1.0056006e-01
 -1.2397345e-01
 -3.7937593e-02
  1.9894205e-02
  1.8022716e-02
  4.2321477e-03
  3.5991661e-02
 -1.0501597e-01
 -6.5214112e-02
 -5.9111970e-03
  1.4107939e-02
 -9.3197949e-02
  1.1432580e-01
  6.0859527e-02
 -9.8303400e-02
  1.0588218e-03
 -7.6935901e-03
 -2.5637294e-03
 -8.0908863e-03
 -3.7682772e-02
  1.2926767e-02
  5.4558087e-02
 -5.9119374e-02
  2.0572143e-02
 -1.1072091e-03
  4.9614593e-02
  1.5694702e-02
 -1.2345762e-02
  2.4516447e-02
  5.4360591e-03
  2.0129671e-02
 -1.2920231e+00
 -4.9537411e+00
 -6.9488895e-01
 -2.1002059e+00
 -9.1559494e-01
  1.6504687e+00
 -3.0789192e+00
  4.0131650e+00
  7.4771726e-01
  4.5408487e+00
  3.9760613e-01
  5.2332604e-01
  3.6960108e+00
 -2.1204481e+00
 -4.2042904e+00
  6.8639702e-01
  3.0002086e+00
  4.1158710e+00
  1.1777611e+00
  2.3448339e+00
 -5.4254684e+00
 -2.1408772e+00
 -2.2813950e-01
  1.7863777e-01
 -2.7251999e+00
 -3.1027862e-01
  4.4240189e+00
 -1.2757905e-02
  1.5951034e+00
 -1.6220440e+00
  2.6869819e+00
 -8.8121176e-01
  2.3919568e+00
 -3.6677773e+00
  3.9598446e+00
 -1.0767562e+00
 -2.6487379e+00
 -1.1452496e+00
 -3.0710521e+00
  7.5385100e-01
 -3.0795846e-02
 -6.8500578e-01
  1.5635115e+00
 -1.9170710e+00
  9.0754086e-01
  2.7185991e+00
 -1.0321326e+00
  9.5791750e-02
  1.1684721e+00
  5.4056889e-01
 -2.9009383e+00
 -3.3799011e-01
 -8.3156210e-01
 -4.6723640e-01
 -5.9922040e-01
 -9.5347953e-01
  2.6421545e+00
 -2.2331166e+00
  8.7227780e-01
 -6.0859597e-01
 -2.8514531e-01
  1.7448196e-02
 -1.0798708e+00
 -1.0974375e-01
 -7.2164327e-02
  1.6142255e+00
  2.2302417e-01
  4.1761905e-02
  4.8028965e-02
  5.6508824e-02
 -1.9629158e-02
 -1.6752820e-02
  3.3009017e-03
  9.1077229e-03
  1.6229011e-02
  7.1608715e-02
 -5.5533364e-02
  1.7228199e-02
  7.2272100e-02
 -1.3770072e-02
  2.1089813e-02
  1.9387534e-02
  2.4473877e+00
  2.0292113e-02
 -5.7354863e-03
  7.4549764e-03
 -1.2973577e-02
 -4.7854938e-02
 -5.5448849e-02
 -1.6414680e-02
 -1.5214851e+00
  2.8614365e-03
 -4.1210111e-02
  3.8306121e-02
  1.0529020e-02
  2.7225852e-02
 -2.0572457e-02
 -6.2014908e-02
  3.5199787e-02
 -1.0287765e-02
  1.5373762e-02
 -2.3867199e+00
 -3.4466095e-02
 -8.3897701e-03
  1.3218977e-02
 -5.8783065e-03
 -9.5464289e-04
 -7.7714650e-03
  1.6110713e-02
  3.6548153e-02
  5.5685356e-02
  5.2647937e-02
 -2.7638111e-02
 -4.0934933e-03
  1.0958640e-01
 -3.1743184e-02
  2.0632032e-02
 -5.1067356e-02
 -7.4529611e-03
  1.3506370e-02
 -1.0936483e-03
  6.0111971e-04
  7.2463518e-03
 -3.2300919e-02
  1.7614707e-02
 -2.5195187e-02
  4.5537492e-03
  1.9836852e-02
  2.8083827e-03
  5.9246561e-03
  5.2112527e-02
  1.3877914e-02
 -9.3845390e-03
  3.0682966e-02
 -7.1104538e-01
  1.7994757e+00
  6.1545491e-01
  1.0129875e+00
 -1.3170364e+00
 -1.3750856e+00
 -2.2412491e+00
  3.7822711e+00
  2.2100222e+00
 -2.3660276e+00
 -6.1530903e-02
  7.7006006e-01
  2.5005405e+00
  3.3703059e-01
 -1.0847980e+00
  3.9197707e-01
 -7.3472881e-01
 -1.8693740e+00
 -9.2358226e-01
  2.0249730e-01
  1.1885349e-01
  7.7304524e-01
 -1.7966485e+00
  1.6528654e+00
  9.8497361e-01
 -7.6511002e-01
 -1.0482614e+00
 -3.5029819e+00
  5.3736913e-01
  2.6608765e+00
 -3.6223583e+00
  5.4792720e-01
  6.0805511e+00
  1.3406684e-01
 -2.5026298e+00
 -1.6918446e+00
  3.5568941e+00
 -2.3165393e+00
 -2.8161936e+00
 -8.9644396e-01
  6.3602567e-01
  4.5544165e-01
  1.5007862e+00
 -2.3584250e-01
  7.6551475e-02
  2.2571828e-02
 -2.8687960e-01
  1.5224591e+00
  4.3606007e-01
 -4.4403017e-01
 -4.0160270e+00
  7.5205678e-01
 -5.9983426e-01
 -3.6375931e-01
  1.3607574e-01
 -6.8442100e-01
  1.7838131e+00
 -9.4934255e-01
 -2.3171438e-02
  4.0882140e-01
  1.0912450e-01
  1.8021015e-02
  1.6306430e-01
  2.1631924e-02
  3.5693593e-02
  1.3591248e-02
  1.1481854e-02
 -6.9115400e-01
 -4.2446051e+00
 -3.9924045e+00
  3.5688453e+00
  2.5301735e+00
  1.6339142e+00
  2.2812343e+00
 -3.2057760e+00
 -2.3044682e+00
  7.8783834e-01
 -1.0028351e-01
 -1.8376652e+00
  6.9818622e-01
 -1.8742833e+00
 -3.9381814e+00
 -1.4807466e-01
  4.8024278e+00
  1.8955188e+00
  2.1839752e+00
  5.1201928e-01
  3.1353333e+00
 -7.6489264e-01
  1.3765242e+00
  2.2556708e+00
  6.7010498e-01
  2.7042003e+00
  3.1568832e+00
  4.8577714e-01
 -9.3928838e-01
  3.4509847e+00
 -2.6464896e+00
  2.2155042e+00
  2.5665560e+00
  3.2338777e+00
 -3.7834487e+00
 -3.5317886e+00
 -2.4663675e+00
 -3.6427789e+00
 -7.9621053e-01
  3.5416653e+00
 -3.0737035e+00
 -9.1878645e-02
  1.3881691e+00
  1.4021219e+00
  1.1935089e-01
 -2.0859849e+00
  2.5623903e+00
  3.2897389e+00
 -2.3069906e+00
 -3.5114312e+00
 -5.0260172e+00
  8.6107165e-01
 -4.6024996e-01
 -7.4200332e-01
  9.7882926e-01
  7.8148104e-02
 -1.5891218e+00
  1.8850771e-01
  1.1287088e-01
 -3.7510338e-01
  4.9484771e-02
  2.1747473e-01
  1.0045410e-01
  3.6767557e-01
  3.6532339e-02
  4.1901925e-01
  2.2312298e-01
 -5.8039267e-02
  2.8666574e-01
 -8.1178230e-01
  1.1189900e-01
 -2.8318810e-01
  2.1522563e+00
  2.8366593e-01
  4.9700070e-02
 -1.6335280e-01
 -1.1234531e+00
  3.4424055e-01
 -9.4986165e-01
 -1.1602530e+00
 -5.7493758e-01
  1.5378115e+00
  1.4721913e+00
 -1.0121316e+00
 -3.6072776e-01
  5.5677468e-01
  1.2069223e+00
 -1.9945692e-01
  1.6219766e+00
  7.0260972e-01
 -6.3226908e-01
 -1.0488857e-01
  5.4842919e-01
 -4.1939056e-01
 -3.9548275e-01
 -8.0936658e-01
  7.6958001e-02
 -4.6750048e-01
  1.7393978e-01
 -1.2834594e-01
 -4.7646758e-01
 -7.1362168e-01
 -5.5786878e-01
  5.6544548e-01
 -1.8564321e+00
 -2.4091549e+00
 -9.2348802e-01
 -1.3131875e-01
 -6.1864918e-01
 -4.6402285e-01
 -3.3266014e-01
 -4.6609208e-01
 -5.2860773e-01
 -2.9514775e-01
 -5.1602685e-01
  4.0974307e-01
  2.6758349e-01
  2.4493450e-02
  4.9120912e-01
 -1.7741504e-01
  1.8289457e-01
 -2.3288988e-01
  3.0819300e-01
 -8.8115320e-02
 -4.7572738e-01
  7.6421630e-03
 -8.6732155e-01
 -5.1932731e-03
 -1.4481254e-01
 -4.6853438e-02
  1.8504454e-01
  1.7100276e-02
 -3.3296149e+00
 -4.6463389e-02
 -2.5966141e+00
  6.2192780e-01
  1.5277846e+00
 -1.3265125e+00
 -1.5987865e+00
 -1.5095474e+00
  2.8319097e+00
 -1.0798823e+00
 -2.9951954e-01
  1.7022453e-01
 -3.0711191e+00
 -3.3373003e+00
 -1.5313996e+00
  6.8314153e-01
  3.8733902e+00
 -1.1869365e-01
  6.2279731e-01
  1.2003609e+00
 -1.0111773e+00
 -7.8066047e-03
  8.5721332e-01
 -1.2108080e+00
  9.3089002e-01
  1.2290418e+00
 -2.0850005e+00
 -2.5860450e+00
  8.6085904e-01
 -1.3813180e+00
 -3.7080199e-01
 -3.0063858e+00
  6.9308080e-02
 -1.8884848e+00
 -2.3043010e+00
  2.2276576e-01
  1.4244666e+00
  1.1471965e+00
 -2.0700142e+00
 -4.2532387e-01
  1.0776606e+00
 -2.1072817e+00
  6.9868827e-01
  1.5527586e+00
 -2.4205020e-01
 -1.3148431e+00
  5.1672071e-01
 -1.4052916e+00
  1.8197817e-01
  1.1441468e-01
 -2.1665726e-02
  5.7289094e-01
  1.0548762e+00
  6.9801503e-01
  7.0995665e-01
  9.8018283e-01
 -1.4174000e+00
  7.4380755e-02
 -1.7110071e+00
  2.9867375e-01
 -2.6643896e-01
 -2.6224643e-01
 -2.8637422e-02
 -1.5656023e-01
 -6.3362822e-02
 -7.7392146e-02
 -4.0381502e-02
  6.6081092e-02
  2.9695696e-01
  6.4263082e-01
 -7.7325958e-01
 -9.5503438e-01
  1.1364394e+00
  1.5733247e-01
  3.2161860e+00
 -4.5909725e-02
 -5.1172009e+00
 -4.3146234e+00
 -8.5292584e-01
 -1.9551218e-01
 -2.7166870e+00
 -2.0291349e-01
 -3.7953122e+00
 -2.0308318e+00
 -4.7389567e-01
  1.6880054e+00
 -1.0319120e+00
 -2.6665921e+00
  2.0656819e+00
  2.8241255e+00
  3.2279620e+00
  6.9605553e-01
  1.3668346e+00
 -1.1239212e+00
  9.9968821e-01
 -5.1457953e-01
 -4.8203354e+00
 -1.8099464e+00
  1.5141038e+00
 -1.2847192e+00
  3.7476029e+00
 -3.2274241e+00
  1.9954573e+00
  1.8296102e-02
  1.5935448e+00
  2.4740162e+00
 -7.5857735e-01
 -1.6817137e+00
  1.7422055e+00
  2.3783734e+00
  6.8605828e-01
  4.7034708e-01
 -6.6558325e-01
  2.2799923e+00
  1.5827490e+00
 -7.3027122e-01
 -5.6901107e+00
  5.5916947e-01
  5.4432398e-01
 -1.3869543e+00
  2.4770300e-01
  2.7817240e-01
 -8.4049457e-01
  1.6563531e+00
 -3.5469061e-01
  8.7395656e-01
 -7.6410836e-01
  1.3181497e-01
 -2.8054988e-01
 -2.5621928e-02
  1.2799149e-02
 -2.0191719e-01
  5.3534210e-02
  1.0516667e-01
  3.2702708e-01
  2.5474238e-01
  3.8465853e+00
 -3.8370337e+00
  5.3771335e-01
 -2.6245501e+00
  7.0939082e-01
 -2.3624441e-01
 -2.1640251e+00
  1.2117937e+00
 -1.2501163e+00
  1.6633439e+00
 -1.2649576e-01
  2.8355513e+00
  3.5606042e-01
  2.3642991e+00
 -1.1580840e+00
  1.2813599e+00
  2.3458774e+00
  3.6380059e-01
  2.6102635e-01
 -3.0712132e+00
 -5.5649443e+00
  4.9537605e-01
 -3.1069212e+00
  2.0720315e+00
  9.0157789e-01
  4.3248579e-01
  4.0635434e-01
  1.5461553e+00
 -2.4340065e+00
 -3.0054951e+00
  1.0154951e+00
 -1.6019772e+00
 -1.3830032e+00
  1.4586697e+00
  1.5159093e+00
 -2.9492548e-01
 -2.4319021e-01
 -7.3681897e-01
 -9.1212094e-01
  2.8448799e+00
  1.3915415e+00
  9.9182850e-01
 -6.5345719e-02
  1.6722853e-01
 -1.2261055e+00
  2.3850042e-01
 -1.7982296e+00
 -2.5717454e+00
 -4.8318040e-01
  1.4297223e-01
 -7.6206193e+00
  1.5260835e+00
 -8.2982212e-01
 -3.6603507e-01
 -6.0619205e-01
  1.3005029e+00
 -1.0413530e+00
 -1.1992151e-01
  3.5271928e-01
  2.7778413e+00
 -2.8739050e-01
 -5.2521002e-01
 -1.6655397e+00
  1.1803328e-01
 -2.4099365e-01
  1.9259419e+00
  4.1269714e-01
  9.2642587e-01
 -2.9155533e+00
  4.1619658e-01
 -4.6085474e-01
 -3.9132965e-01
 -6.1002195e-02
  2.9013431e+00
 -2.1698381e-01
  1.0444840e+00
 -7.1838123e-01
  4.5946622e-01
  1.3782939e+00
  6.2298346e-01
 -2.4682604e-01
  1.0565431e+00
  4.7235316e-01
 -5.7275021e-01
  4.0155116e-02
  1.6600634e-01
 -1.5617485e-01
 -6.4069980e-01
  3.0228323e-01
  8.1301844e-01
 -3.0995303e-01
 -8.4585643e-01
  2.0125790e+00
 -1.1036105e-01
 -1.3538890e+00
 -8.7717009e-01
 -4.2499530e-01
 -5.9294927e-01
  7.1687591e-01
 -3.1053966e-01
 -4.2125660e-01
  2.6782316e-01
 -1.4938920e+00
 -4.4605907e-02
  8.8551813e-01
  6.9558553e-02
  1.1298739e+00
  1.4908619e-01
  1.0627662e+00
 -4.5647815e-01
  1.1139649e+00
 -7.4284591e-02
  2.2191338e-01
  1.2829578e+00
  5.7843882e-01
 -4.0390131e-01
 -9.3059011e-02
  5.5379099e-01
 -1.6664517e-01
 -7.9478793e-02
 -2.0648227e-03
  3.4574074e-01
  3.9209151e-01
  8.3381456e-01
  4.3734631e-01
 -5.3153951e-02
  4.7610076e-03
 -8.5512869e-02
 -9.7918808e-02
 -1.7990966e-01
 -6.4267121e-02
  1.4599535e-03
 -1.5747790e-01
 -1.2205754e-01
 -5.2202053e-02
  1.6507383e-01
 -1.5388079e-01
  1.3356854e-01
  1.3695800e-01
  6.5763324e-02
  5.5575603e-01
 -4.8043318e-02
  7.8904338e-02
  4.1869771e-02
 -2.2788301e-01
 -1.6633490e-01
 -2.3233138e-01
