nep3 1 C 
cutoff 4.2 3.7 80 47
n_max 10 8
basis_size 10 8
l_max 4 2 1
ANN 100 0
  8.8268900e-01
 -8.0818343e-01
 -3.5087838e+00
  3.3553421e-02
  1.3848140e+00
 -1.3327082e+00
  2.4215662e+00
  3.4478002e+00
  6.0324967e-01
  3.1501657e-01
  2.3044381e+00
  1.3488677e+00
 -1.2273125e-01
 -2.7234396e-01
  9.2353243e-01
 -8.2454728e-03
  7.9519653e-01
  7.2356403e-01
 -1.3145418e+00
 -9.3904613e-03
 -7.8393829e-01
 -1.5731510e+00
  1.4007456e+00
  2.4272578e+00
  1.9196291e+00
  4.4429609e-01
  2.8306670e+00
 -8.2049209e-01
  4.1336897e-01
  4.1785421e+00
 -4.7149715e-01
  1.1178077e+00
  2.5875571e-01
  7.8194328e-02
  6.7878389e-01
  2.5654754e-01
 -3.8581886e+00
 -1.1948887e+00
  2.0938797e+00
  4.2619556e-02
  4.5413497e-01
 -1.2112179e+00
  8.1815138e-02
  3.5206869e-02
  3.4854707e-01
  3.7364495e-01
  1.1634939e+00
 -1.5446297e+00
  9.2241426e-06
 -1.6038978e+00
 -7.8927183e-01
  2.2627620e-04
 -6.3217747e-01
  1.1398263e+00
  5.1704955e-01
 -8.2656192e-03
  3.1266217e-03
 -2.6082239e-04
 -3.2759833e-01
  3.7961260e-03
  7.6039461e-05
 -4.3826000e-04
  3.1804605e-04
 -4.5626282e-05
 -6.7295383e-05
 -7.8282517e-01
  2.2885656e-02
  1.5183201e+00
  2.6734734e+00
 -1.6795537e-03
 -1.1502578e+00
  2.1103725e+00
  2.4619226e+00
 -7.4051660e-01
  3.4445684e-04
  9.1720283e-01
 -1.9948483e-01
 -1.1259220e+00
 -7.5275861e-06
  1.1968429e-02
 -3.0432081e-01
 -1.3632822e+00
 -4.8927358e-01
  4.9960573e-04
 -4.7674173e-04
 -4.2119977e-04
  3.4013149e-01
  2.3065388e+00
 -1.8082392e+00
 -4.7809248e+00
 -2.0652974e-01
 -1.0728785e-01
  1.4274834e-04
 -9.9078268e-01
 -3.0735657e-01
  9.2376128e-02
 -6.6675127e-01
 -5.2668613e-01
  2.2194436e+00
 -8.5021645e-01
  1.9574460e-01
 -1.4023035e+00
 -7.8130525e-01
  8.2726938e-01
 -3.5904577e-01
  1.8339782e+00
  1.5470150e-01
  1.2965316e+00
 -4.0615377e+00
 -6.8369454e-01
 -3.7846621e-02
 -5.1348197e-01
 -8.1083803e-05
 -9.1851056e-05
  2.4337142e+00
 -9.1392075e-04
  5.0819927e-04
 -3.6867537e-02
  9.7318531e-05
  1.0018535e-05
  2.6497504e-04
 -1.6452276e-04
  1.9096064e-04
  4.8262809e-05
 -5.8836258e-06
 -2.0906691e-05
  4.5576849e-06
 -3.0170137e-04
 -2.9096260e-05
 -2.1761868e-04
 -2.8871343e+00
 -5.8902645e-01
  7.1197724e-01
 -3.6929402e+00
  9.4336730e-01
  3.1854835e+00
 -2.2500029e+00
 -2.0720892e+00
 -2.6602807e+00
  1.8842245e+00
 -4.9711838e+00
  1.2732271e+00
  1.8846001e-01
  2.6841073e+00
  7.8366756e-02
 -1.3892041e+00
 -5.5978537e+00
 -9.6375100e-02
  2.5478845e+00
  5.0309937e-02
  3.6785748e+00
  1.5735118e-01
 -5.1722074e-01
 -5.9687716e-01
 -3.3288145e+00
 -1.3317128e+00
 -1.8274155e+00
  3.9167581e+00
  2.2144277e-01
 -6.5740585e+00
  1.7744603e-03
  1.4781066e+00
  5.6127696e+00
 -2.9783599e+00
 -8.3924925e-01
 -1.5240151e+00
  9.6058592e-02
  4.2686811e-01
 -1.4136952e-01
  7.5019372e-01
  1.1570505e+00
  4.5336065e-01
 -1.4035704e+00
 -1.3490988e+00
 -9.4295728e-01
  8.6068964e-01
 -1.1273807e-01
  1.5512487e+00
 -1.1811387e-01
  2.4015427e+00
  8.1748687e-05
 -2.8503473e+00
 -1.1752254e+00
  1.7316918e+00
  2.7072236e-03
  1.2204256e+00
 -6.6818757e-06
 -1.3324280e-02
 -6.9925132e-05
 -6.2252808e-01
  4.6418591e-06
  2.2892969e-05
 -1.4045210e-04
  5.7949397e-05
 -6.8909379e-05
  7.6562093e-05
 -5.8367150e-05
  5.0842203e-04
 -1.2239287e-04
 -2.5453707e-04
 -3.6453912e-05
 -2.3718521e-05
 -2.0923355e-05
 -1.2502351e-04
  7.1172581e-05
 -1.5539546e-04
 -3.3519865e-04
 -6.0243043e-04
  1.0518872e-05
 -3.3645946e-04
  3.3326120e-05
 -1.7524381e-04
 -1.3240300e-04
  9.6839667e-06
 -8.5218526e-05
 -6.0404869e-05
 -1.1353450e-05
 -9.3041087e-04
  1.7130375e-05
  3.4474736e-04
 -1.7524551e-04
  1.6441187e-05
 -8.6782107e-05
 -1.3417401e-04
 -1.6535682e-04
 -8.9780578e-06
 -1.9373138e-04
 -1.1665170e-04
 -9.9910292e-05
 -4.4008153e-05
 -2.1103839e-04
  5.6186906e-05
  1.0015264e-04
 -2.0306303e-04
  5.5376836e-04
 -1.4850136e-04
  8.1353573e-05
 -1.6648297e-06
 -3.1627289e-05
 -9.3263232e-05
 -8.5035339e-05
 -1.7810328e-04
  5.2226475e-04
 -2.0589259e-04
 -5.2751157e-06
 -2.0514055e-04
 -3.7090147e-05
 -1.7878384e-04
 -2.0632845e-06
  5.9249149e-05
 -1.4677069e-04
  1.6403490e-03
  1.8214683e-05
  1.8702503e-04
 -1.4683884e-04
 -1.0376360e-04
  1.2564953e-04
 -9.3306240e-05
  8.9840716e-05
 -5.1903160e-04
  1.4032081e+00
 -5.7664692e-01
  4.8493943e-01
 -2.4306209e-01
  4.1383374e-01
 -6.9355571e-01
  2.1811488e+00
  3.1212917e-01
 -5.6281501e-01
 -4.8440936e-01
 -1.1080317e+00
  1.3060504e+00
  9.7621787e-01
  3.1066868e+00
 -1.5206666e+00
  7.8015053e-01
  4.2496899e-01
 -3.4446590e+00
 -7.1795040e-01
 -6.8101329e-01
  9.8984390e-01
  1.1955769e+00
  2.9429278e+00
 -9.6948773e-01
  8.1613892e-01
 -1.3333590e+00
 -6.9778800e-01
  9.1526844e-02
  1.8415259e+00
 -1.7082106e+00
  4.3733463e-01
 -1.2764180e+00
  3.5420230e-03
  2.3824008e+00
 -7.1281379e-01
  6.2241489e-01
 -3.7045836e-01
  6.3056070e-01
 -1.6945435e-01
 -4.3206325e-01
 -1.2721832e+00
  1.3657081e+00
 -4.2507815e-01
  7.5504476e-01
  1.4771264e+00
 -2.4242640e-02
  8.6857218e-01
  2.4051884e-01
 -1.3500731e-03
  2.9367585e+00
  4.4651465e-03
 -2.5654681e+00
  1.5701233e+00
 -2.0135105e+00
  4.8635222e-02
  4.8395779e-02
  2.6480051e-05
  7.5740530e-04
  4.5968313e-04
 -1.2795422e-02
  4.5196102e-05
  2.8813287e-04
 -1.3190637e-05
  2.0996395e-04
  4.8228381e-03
 -1.3366677e+00
  1.0295765e+00
  3.2981628e-01
  7.8083193e-01
  1.1059532e+00
  4.0812320e-01
 -1.6226092e-01
 -5.3639095e-02
 -1.9384987e+00
 -4.5820197e-01
  2.7384245e+00
  2.1005261e+00
  7.0087570e-01
 -5.4807611e-02
 -2.1794192e-01
 -9.9620384e-01
  1.9006728e+00
 -4.7285034e-04
 -1.2080562e+00
 -1.6469146e-01
  1.9785316e-01
 -5.4589652e-02
 -2.4709156e+00
 -1.7580515e-01
 -1.4200504e+00
 -2.6334947e-01
 -1.2998017e+00
 -1.7202330e+00
 -1.7728376e-01
 -1.1525432e+00
  1.3604223e-02
  1.0514416e+00
 -1.0357724e+00
 -2.2257811e-01
  2.1433656e+00
 -1.6692282e-01
 -1.0371315e+00
  3.8799146e-01
 -7.7307145e-03
 -7.2352163e-02
 -1.1183274e+00
 -6.3515431e-01
 -1.6524655e-01
  1.3544463e+00
 -5.0666535e-01
 -4.6054927e-01
 -2.1770117e-03
 -3.2244287e-02
  7.3657284e-05
 -1.0725111e-03
 -3.2300704e-05
  2.9112616e-05
  1.3275763e-01
 -6.0131564e-03
  5.9661358e-03
  2.2807475e-03
 -2.4146000e-05
 -1.2036729e-04
 -2.2270589e-05
  2.1089832e-04
  2.8175244e-03
 -1.6286678e-04
  3.7545679e-04
  3.9813714e-04
 -9.5485784e-06
  8.3752302e-06
 -6.3228619e-04
  5.8181596e-04
  1.9641577e-04
 -1.3890442e-05
 -1.6191301e-04
 -2.3365849e-04
 -6.3028529e-05
  4.4163634e-04
  2.5535337e-07
  4.4857158e-04
 -8.1077036e-05
 -4.9506914e-05
 -6.9236691e-04
  4.2980951e-06
 -4.1682135e-05
 -1.8976953e-05
 -1.1003106e-05
 -4.2217973e-04
  4.1850271e-05
  1.0924847e-04
 -6.3155632e-05
 -1.5418301e-04
  2.7299812e-04
  2.5213067e-04
  3.6020203e-05
 -1.2702766e-04
  2.3899809e-05
  5.1690987e-04
  2.4361684e-04
  4.3187443e-05
  5.8671995e-04
 -6.0155191e-05
 -8.9438881e-06
  4.6759986e-05
 -3.1103089e-04
 -2.0432739e-04
 -1.9515981e-04
  2.6262118e-04
 -2.8646877e-04
  6.3753600e-04
  1.2018372e-04
 -6.7697016e-05
  5.1916119e-05
 -4.0694853e-05
  2.1496709e-05
 -1.7858621e-04
 -5.7859641e-05
 -6.5612272e-05
 -4.4030285e-06
  2.8884542e-04
 -2.0295869e-05
 -2.2213846e-04
  1.9933776e-05
  1.2582980e-04
  1.4455296e-04
  1.2805509e-04
  1.4368165e-04
 -3.3637341e-05
  3.0071157e-04
 -3.1867734e-04
  2.2896143e-04
 -1.0114286e-04
 -4.5737928e-05
  6.7979054e-05
 -1.9303201e+00
  3.7335625e+00
  1.4685155e+00
 -1.0230207e+00
  4.2361894e+00
  3.5206003e+00
 -4.0208474e-01
 -1.9713767e+00
  2.3316594e-02
  3.4830347e-04
  2.8503847e+00
  1.5934054e-03
  5.4188985e-01
  3.4023860e-01
  1.0187515e+00
 -3.6348829e+00
  2.2853494e-01
 -9.8021495e-01
  4.1425804e-04
  4.4758845e-06
 -1.2357997e+00
  2.9614512e-03
  1.2590438e+00
  5.9813070e-01
 -1.3084853e+00
  7.6941103e-01
  4.5938367e-01
  7.2049868e-01
  1.5150866e-03
 -3.5663624e+00
 -1.6125559e+00
 -2.1439247e+00
  3.0682323e+00
  2.7671728e+00
  3.9415531e+00
  1.2787104e-01
  1.9798353e+00
  6.1447769e-01
 -5.4567675e-03
 -3.1218897e-05
 -7.4886864e-01
  1.0965748e+00
  1.8539786e-01
  3.0208974e+00
  7.8258985e-01
  4.5679986e-01
  1.7040247e-01
  6.9417153e-04
  2.6692334e-04
  7.6309554e-02
  1.1682098e-04
 -1.5407080e-02
 -3.7869237e-02
  2.6264787e-04
 -2.9961908e-05
 -4.0141975e-05
 -3.3565672e-04
 -2.5358205e-04
 -2.7752832e-05
  1.4957083e-04
 -1.2094656e-04
  1.3097528e-04
 -6.0558803e-05
  5.1588681e-06
 -6.0131947e-06
 -3.6862879e+00
  3.0748327e+00
 -1.5605600e-01
  1.0977156e+00
  4.0848570e+00
  5.8955564e+00
 -8.2070196e-01
  2.3916580e-02
 -1.1005318e+00
 -3.1449451e+00
  1.5869380e+00
 -1.8321791e+00
 -5.6476365e-03
  2.0247169e+00
 -1.1690799e+00
 -8.9488685e-01
 -1.4499763e+00
  2.5896664e+00
  8.8602817e-01
 -1.0822510e+00
 -1.5929663e+00
 -4.2189097e-01
 -3.9678255e-01
  7.0128977e-01
  4.5727769e-01
 -4.4222918e+00
  2.3614329e-01
  7.3468864e-01
  7.3836046e-01
 -4.0550218e+00
  4.6939857e-02
 -9.6926606e-01
  2.9421201e+00
 -3.6785672e+00
 -4.4950137e-01
 -3.4182250e-01
 -6.3970143e-01
  4.3763507e-02
  1.0296053e+00
 -4.7255796e-01
 -1.5607629e+00
  1.2421222e+00
 -5.8169856e+00
  1.8481447e+00
  1.7043356e+00
  1.0973126e+00
  1.4705646e-01
 -1.4451281e+00
 -7.6967682e-04
 -1.1428797e+00
  2.1118047e+00
  2.8788214e+00
 -8.5348326e-01
 -3.6433092e-01
 -1.3797516e+00
  3.7489775e-01
 -2.9818629e-04
  1.3733062e-05
  1.6310199e-01
  6.5724162e-05
  1.8515404e-04
  2.7899284e-04
  3.6349313e-04
  3.6314811e-04
 -1.0895723e-05
  2.4251538e-04
  2.8169726e-04
 -1.5118823e-04
 -1.5218156e-04
 -1.6216157e-04
 -2.5253366e-05
  6.8137859e-05
  1.8587046e-04
 -4.2123542e-05
  3.3497531e-04
  3.4476502e-04
  1.8807534e-04
  2.0999191e-04
 -1.1211789e-04
  7.3472370e-06
 -6.2984123e-04
  1.4944910e-04
 -1.1594522e-04
  6.2756430e-05
  1.4035885e-04
 -1.2073034e-04
  1.3373667e-04
  3.3795447e-04
 -6.8973408e-05
 -6.7439119e-05
  1.5445387e-03
 -5.5983146e-05
  4.2986881e-04
  9.5152958e-05
 -3.0404728e-04
 -7.5742100e-05
  1.6677748e-04
  4.0981708e-05
 -5.5187491e-05
  8.3058323e-05
 -3.5582336e-05
 -1.4915469e-04
  9.6706790e-05
  7.1194700e-05
  1.4789298e-04
  1.6543323e-04
  1.0618387e-04
  3.4973702e-05
 -9.6548865e-05
 -1.2635579e-04
  1.6391855e-04
 -7.5162068e-05
  8.8566834e-05
  1.6334983e-05
  2.4783800e-04
 -2.0650831e-04
  1.8873443e-04
 -1.4238300e-04
 -1.1912711e-04
 -1.3356883e-04
  3.3581746e-05
 -1.0000067e-04
  2.3761815e-04
 -6.6800807e-05
  7.3886855e-05
 -1.1705767e-04
 -4.3195192e-05
  7.7281466e-06
  1.0091730e-03
 -5.5228110e-04
  1.6098606e-03
  8.8556262e-04
 -6.8257511e-01
  1.1343888e-01
  3.2422377e-04
  1.2327036e-03
  4.2361394e-03
  1.1616711e-04
 -1.4624673e+00
 -4.8514139e-03
 -2.6684960e-05
  1.0959212e-04
 -4.3750565e-02
 -2.0422786e-01
 -2.4634928e-03
 -5.6374222e-01
 -3.0430057e-05
  3.2342211e-03
 -5.3215056e-04
 -1.2739965e-03
 -6.5768964e-04
  3.3621432e-04
 -3.6259176e-04
 -2.8908804e-01
 -2.1817720e-02
 -5.6713138e-02
 -6.1560339e-01
 -2.2408143e-03
 -5.4019856e-01
 -2.1217226e-04
 -3.5705091e-04
  7.9380527e-02
 -1.3084570e-01
 -1.5458936e-04
 -8.3633560e-01
 -6.4997945e-04
 -5.0544780e-02
  1.6109626e-03
 -4.5161243e-04
  3.0483315e-02
  5.8129084e-01
 -3.5904350e-03
 -4.3441770e-03
  2.5081081e-02
  4.2775983e-04
 -6.0789458e-05
 -3.7347548e-02
 -8.0780860e-04
 -1.6859836e-05
 -5.5352005e-04
  4.9784721e-04
  3.2081143e-03
 -8.1128150e-04
 -1.5318820e-03
  1.2863152e-04
  1.1589308e-04
 -9.9164776e-05
 -2.1541621e-04
  1.8423537e-03
  2.7791096e-04
 -9.1728805e-05
  1.0483179e-03
  1.7202193e-04
 -4.2972049e-05
 -1.4785447e-04
 -1.2905870e-04
  1.3521200e-03
 -2.1034153e-05
  4.7935515e-05
  1.0683908e-03
  6.4898988e-05
 -2.2413132e-04
 -2.3746619e-05
  1.7371924e-01
 -2.6304711e-04
 -1.6549334e-04
  2.2258118e-05
 -1.4607301e-04
 -1.2382607e-04
  1.6166452e-04
 -2.5865738e-04
 -2.4904570e-04
 -3.3326734e-05
 -6.4454391e-05
 -8.1358194e-05
 -8.4739579e-05
  2.9323765e-04
  8.5977888e-05
  9.8918870e-05
 -1.2572403e-03
  1.9111839e-04
  5.5017135e-05
 -1.9989235e-04
  5.5388609e-05
 -2.2816570e-03
  2.4297317e-04
  4.4274741e-05
 -1.7799358e-04
 -4.0578945e-03
  2.3504192e-04
  5.9970207e-05
 -1.8355953e-04
  1.6799542e-05
 -4.1768092e-04
 -1.3008076e-04
  2.2955061e-04
 -6.6880195e-05
 -2.1993498e-04
 -4.8965443e-04
  5.8807058e-05
  6.8199943e-04
 -2.4572195e-05
  5.3619926e-05
 -1.0334593e-04
 -1.3939104e-04
  7.7950950e-05
  7.9095742e-05
  5.0622861e-05
  4.7870566e-05
  1.4698777e-05
  1.6152648e-04
  1.2524366e-04
  1.1279722e-05
  2.7100570e-04
  7.7987432e-05
  5.6696230e-05
 -7.2015020e-05
 -2.7881368e-05
 -2.4622606e-05
 -9.2951581e-05
  7.4113479e-05
 -5.0788414e-05
  1.2558814e-04
  1.6420151e-04
  1.3289333e-04
 -1.4223783e-04
 -1.9670554e-04
  3.7225014e-05
  1.6472086e-04
  3.9871662e-05
 -3.7956488e-05
 -7.2925926e-05
  1.6813591e-04
  2.9571026e-04
  4.5076731e-04
 -1.1845339e-04
  8.3410878e-06
  3.1983709e-05
 -9.5956129e-05
 -1.5339507e-04
  8.5696542e-05
  3.0189112e-04
 -9.6826669e-05
 -5.9949660e-05
  2.2566547e-04
  8.7983521e-05
 -2.2133502e-04
  5.3024036e-05
 -2.1667847e-04
 -1.0656245e-06
 -1.7967481e-04
 -1.3825063e-04
 -9.3851850e-05
 -2.4421723e-04
 -1.1148632e-04
 -7.1412046e-04
  5.0595176e-04
 -3.7230911e-05
 -3.2188694e-04
 -7.8873985e-05
 -7.1781059e-04
  5.9412498e-05
  7.8848825e-06
  2.5309648e-04
  4.2451975e-05
  3.2093507e-05
  5.2858984e-05
  3.1585576e-05
 -4.3004495e-04
  1.4586982e-05
  9.8072167e-05
 -4.1604806e-05
 -3.2793454e-04
 -1.8550147e-04
 -1.1534424e-04
  4.8812908e-05
 -7.0865040e-05
 -5.5719054e-05
  3.8998576e-05
  2.4685991e-04
  2.6402278e-05
  2.3952640e-04
  3.3106146e-04
  3.9081904e-05
  1.1935966e-04
  2.5028829e-02
  9.1544896e-01
 -4.1055700e-01
  1.0687218e-01
 -4.5470707e-03
  3.4370390e-01
 -2.6570225e+00
 -4.7871089e+00
  1.0030361e+00
  6.2086030e-05
 -6.3838953e-01
 -1.6559473e+00
 -6.8170965e-01
  4.8789452e-03
 -1.2384886e-01
  3.5248544e-02
 -1.3657932e+00
  1.9750038e-01
  7.4404401e-01
 -4.2388709e-03
 -1.8076314e+00
 -3.6940631e-02
  2.4066749e+00
 -1.9150114e+00
  6.5771617e-02
 -4.6691114e-01
  9.9196327e-01
  4.4180486e-02
 -2.9775580e-02
  8.4759921e-01
 -6.7835552e-01
 -1.0895333e+00
  3.2242985e+00
  7.5766504e-01
 -8.6180337e-02
  2.6078916e+00
 -2.5886886e-03
  3.5957956e-01
  1.7941290e-01
 -4.8110737e-03
  2.4256132e+00
  3.0218753e-01
 -3.1262207e-01
  2.3801313e-01
  2.0005497e-01
 -1.8871002e-01
 -1.3109826e+00
 -1.0030629e-03
  1.0369442e-03
 -1.2887003e+00
 -4.0895239e-04
 -5.5285313e-05
  4.4321762e-03
  3.1481805e-04
 -1.4830891e-03
  5.2517524e-05
  4.3380386e-04
  3.5334742e-05
 -8.4643147e-04
  1.5645220e-04
 -2.5319937e-04
 -8.9898975e-05
  2.6976915e-05
  2.9831912e-04
 -3.4984184e-04
 -1.5683625e-04
  1.5078691e-03
  1.3894114e-01
  2.0794114e-04
  1.1228933e-02
 -1.2721488e-03
  1.0513904e-03
 -1.3044873e+00
  2.8247264e-01
  8.3732069e-01
  2.2255160e-02
 -1.8129115e-04
 -1.5070601e-04
  3.5942933e-01
 -2.5682237e-03
 -1.0285680e-04
 -2.8066061e-04
 -3.3269249e-04
  4.3684567e-04
  1.0645338e-03
 -9.2876388e-04
 -1.0694740e-02
 -1.0408976e-03
  5.7407748e-04
 -1.4775677e-03
 -4.0888874e-04
  1.3251094e-02
  4.3825383e-04
 -6.4771617e-04
 -4.2220715e-02
 -2.0384939e-05
 -5.9502870e-01
  1.4300671e-03
 -2.4333958e-02
 -2.8961015e-01
 -1.3160837e-01
  1.3574815e-03
  8.9597219e-04
 -4.8220277e-04
  7.8060490e-05
 -1.5945215e-02
  6.1124498e-03
  1.2345661e-03
 -3.1934913e-02
 -9.0059593e-02
 -7.2603943e-03
 -3.7464495e-03
  2.9019619e-04
  1.2971318e-04
  4.8017182e-04
  1.3736729e-04
  1.8860099e-05
 -2.7569360e-04
 -7.7090296e-04
 -2.5842732e-04
  3.3545497e-05
  1.9978992e-04
  4.7910269e-04
 -3.1527996e-04
 -4.6439407e-05
  3.2405100e-05
 -6.5662345e-05
  2.0081799e-04
  3.1819451e-05
  1.9596278e-05
  1.0082893e-04
  2.1708754e-04
  2.1563737e-04
 -4.3132477e-05
  7.4405252e-05
  2.0489859e-04
  1.8779740e-04
 -2.3683847e-04
 -1.2978166e-04
  2.7684035e-04
 -2.8239894e-05
  1.6234166e-05
  6.1892333e-06
 -6.5121435e-06
  9.9634970e-05
  1.1241724e-04
 -2.4716983e-06
  1.6466943e-04
  1.0957558e-04
 -5.4946715e-05
  3.0232372e-05
 -3.3219435e-04
 -1.1235641e-04
 -3.0170220e-06
 -3.4446075e-05
  3.7975694e-04
 -1.1784643e-04
 -2.1008596e-04
 -9.9434430e-05
 -9.3336617e-05
 -1.7054558e-04
  3.0954950e-05
  2.8059204e-04
  6.5174024e-04
 -1.9231632e-04
 -5.4273623e-05
 -1.3149489e-04
  8.8647575e-06
 -2.0955117e-04
 -7.2681109e-06
  2.1044738e-05
  9.3207360e-05
 -1.3123109e-04
 -1.7622027e-05
 -2.9104040e-05
 -8.4136111e-05
  1.4539887e-07
  9.8033219e-05
  6.5523345e-05
 -1.6969130e-05
 -4.4989478e-04
  1.5736524e-04
  5.4207206e-04
  1.4122066e-04
  9.9509802e-05
  6.7156216e-06
  2.2942681e-04
  5.0954215e-05
  3.8593708e-04
  1.4940632e-04
  1.3723684e-04
  3.3354555e-04
  1.1291832e-04
  1.3334789e-05
  2.1048146e-04
  9.7417164e-01
 -1.8755420e+00
 -2.1480107e+00
 -1.0177468e+00
 -1.0291467e+00
  4.3043455e-01
 -3.3389315e-01
 -5.9396297e-01
  3.4121871e+00
  2.7931444e-04
  1.1919318e+00
  1.7013694e-01
  1.7926472e-03
 -3.7948886e-01
 -1.5930733e-02
 -1.0813654e-04
 -1.6341473e+00
 -7.6644637e-02
  8.8706923e-01
  1.0944643e+00
  1.1854588e+00
  9.2686154e-05
  1.9123328e+00
 -2.7376172e-01
 -9.8069972e-01
 -1.3154346e+00
  1.6346829e+00
  7.3793541e-05
 -4.7182400e-02
  3.8685086e+00
 -3.8178831e-01
  1.4972869e+00
 -1.2001886e+00
 -1.0116887e+00
  4.3223615e+00
  3.4332073e-01
  1.2995523e+00
  6.6590708e-01
  4.5352405e-01
 -5.5530290e-03
  1.1431134e+00
 -6.9486594e-01
  1.3700967e+00
  4.2409527e-01
  6.6190183e-02
 -1.0459223e+00
  9.2424210e-03
 -7.5290445e-04
 -1.7647746e-01
  3.7953246e-01
 -3.0819461e-05
 -6.3134247e-01
  7.7627301e-02
  2.1095372e-04
 -4.3835331e-05
 -5.5038538e-03
 -2.2404559e-04
  1.3569572e-04
 -1.4220536e-04
 -9.8243821e-04
 -1.1288672e-04
 -3.4284825e-04
 -2.0445259e-04
 -9.9140510e-05
 -1.6326412e-05
 -2.4663272e+00
 -2.9750994e-01
  1.9769677e+00
  9.2416748e-02
  1.8816943e+00
  5.6135187e+00
 -7.9204196e-01
 -1.3238534e+00
  6.1033398e-01
  4.2517021e-02
  2.0428383e+00
 -1.9251950e-01
  8.5296428e-01
  6.9789648e-01
 -1.2855555e-03
 -1.0623299e-01
 -2.7521207e+00
  1.1351520e+00
  1.8551202e-01
  9.7521257e-01
  5.8738710e-03
 -3.8966764e-02
  1.7605221e-01
  2.7745676e+00
 -7.5901449e-01
  1.4903417e+00
  5.3020589e-02
 -1.8591798e-05
 -1.7808942e-04
 -1.8186338e+00
  1.3202193e-01
  9.7932059e-01
  1.5586559e-03
 -2.3994198e-01
 -1.0120783e-01
  6.9580102e-01
  8.9410976e-02
  5.6408327e-03
 -1.2972257e-01
  3.0621493e-04
 -1.2379935e+00
 -7.7431124e-01
  3.6086807e-01
  3.4535749e+00
 -6.1036044e-01
 -2.0951189e-03
  1.1207203e-03
 -6.1822153e-04
 -2.5229387e-03
  8.7605840e-01
 -3.2622726e-03
  8.1431429e-04
 -9.2026764e-01
 -4.2333887e-03
 -1.1753296e-03
 -7.0139056e-04
  1.7593072e-04
  6.7324640e-04
 -4.2046784e-05
 -3.3275530e-04
  8.6825181e-05
  4.7351932e-04
 -7.8947196e-06
 -5.6920861e-05
  1.5314245e-04
 -7.1413165e-01
  8.5135716e-01
 -1.9262707e+00
 -2.7291119e-01
  8.6767012e-03
  1.5407301e-01
  1.8302877e+00
 -1.0718025e+00
 -1.4186475e+00
  3.3189343e-05
 -2.3093038e+00
  8.1254882e-05
 -5.5461406e-04
 -1.7085305e-01
 -2.7055309e+00
 -4.6303311e-01
  2.0426765e-01
 -1.1398972e-03
  8.1399434e-05
 -3.1987303e-01
 -1.5161379e-01
  1.4823084e+00
 -9.1044895e-02
 -8.1848508e-01
 -4.5854884e-01
 -1.8644750e+00
  1.2578969e+00
  7.5358734e-02
  1.2836181e-02
 -1.7709301e-01
 -1.8896885e-01
  7.7588308e-01
  3.5455024e-01
  3.1268871e-01
 -2.3798530e+00
  7.3895437e-01
 -1.6282256e-03
 -8.7830114e-05
  2.8410366e-01
 -5.3004020e-01
  1.9702834e+00
 -5.6374598e-01
  8.4925294e-01
  2.9682289e-03
  4.7159102e-03
 -8.8837445e-03
 -1.4180249e+00
  5.7918560e-02
  2.6286699e-04
  2.4843054e+00
 -2.2965761e-01
  1.3505867e-04
 -3.6306322e-01
  6.5027660e-04
  2.6490411e-04
  2.3147867e-04
  5.9640198e-04
 -1.1899360e-04
  3.2769333e-04
 -1.9252511e-04
 -7.8329860e-05
  4.4138920e-05
  1.2438781e-04
  4.7503097e-05
 -1.8555696e-05
 -1.2570795e-03
  2.5679476e-03
 -7.3414150e-04
  9.6305259e-05
  2.1918316e-04
 -9.8497731e-05
  1.7389468e-05
  3.1617077e-04
  9.0363741e-01
 -2.3722653e-04
 -1.4199867e-03
  1.9802977e-04
  9.2167225e-05
  6.2871171e-04
  3.0428305e-04
 -1.2945730e-05
  5.4099229e-03
 -2.3590440e-04
  2.3548941e-05
  7.5195298e-05
 -1.4367208e-03
  5.9880543e-04
 -2.4458372e-03
  2.0959959e-04
 -3.4347039e-03
  1.9794320e-01
  1.2156497e-04
 -1.9973412e-03
 -1.8265386e-03
 -1.8134090e-03
  3.3847793e-04
  1.0736820e-01
 -5.0926111e-03
 -1.8808449e-03
 -1.2110580e-03
 -1.9456454e-03
 -1.3373657e-02
  8.2931470e-04
 -1.0522696e-04
 -3.9662846e-04
  1.4394728e-04
 -1.1710471e-04
  1.0929988e-04
 -1.6571692e-04
  1.8977422e-04
 -4.5123126e-04
 -2.9872070e-05
  4.1524887e-05
 -3.0978330e-04
 -9.9181139e-04
 -1.4206250e-04
 -1.7803714e-04
  3.4016666e-05
 -1.2396934e-04
 -6.2663878e-07
 -1.6897106e-04
  2.0214975e-04
 -6.4884685e-04
  1.0945353e-04
  2.3002622e-05
  3.8582191e-05
 -2.6823141e-04
  2.5342137e-04
 -3.0294746e-05
 -1.1981654e-04
 -6.9244701e-01
  1.0663289e+00
  3.5929565e+00
  4.7630725e+00
  5.6041789e-01
 -2.0152409e+00
  1.0263357e-01
 -2.9217963e+00
  1.5231489e+00
 -6.2085527e-01
  2.6224043e+00
 -4.9428090e-05
  1.9356531e-04
 -1.7585652e+00
  1.8808223e+00
 -1.9807049e+00
 -1.4219394e+00
 -1.2221730e+00
 -2.2806883e+00
  3.8799815e-02
 -4.2075641e-03
  7.2292912e-01
  7.6999955e-02
 -7.0087266e-01
  1.0658822e+00
 -5.6016974e+00
 -2.0341198e-01
  3.6106970e-02
  3.7112069e-01
 -5.2114528e-01
  1.4061694e+00
 -2.7932794e+00
  6.7301989e-02
 -1.0433562e+00
  3.3555472e+00
  1.1770358e+00
  1.5392680e-01
 -3.0803511e-01
 -1.1878250e+00
 -4.2554984e-04
  1.6241628e+00
 -5.4650962e-01
 -3.5353713e-02
  8.5509628e-01
  5.4494488e-01
  1.0194472e-01
 -1.2067770e+00
 -3.1883073e-01
  1.0716361e-04
 -9.0955207e-03
  5.1878142e-01
  1.7559236e+00
  3.4177389e-03
 -8.4662572e-02
 -1.4006597e+00
 -3.1785929e-04
  1.2056359e-04
  1.7195866e-04
 -2.7759885e-03
  9.5451906e-05
 -2.5873116e-05
 -2.2278697e-04
 -5.3202573e-05
  2.3588338e-05
 -9.6612603e-05
 -4.9539593e-01
  2.1871076e+00
 -2.9184201e+00
  1.0973549e-02
  2.3815796e+00
  4.5703828e-02
 -7.2518748e-01
 -1.5448354e+00
 -1.3836330e+00
 -1.2669369e-03
 -2.3669953e+00
  2.4210438e-01
  3.1729493e-01
 -1.5396975e+00
 -3.6731232e-02
  3.8557635e-03
 -2.0371625e+00
 -2.6811526e+00
 -1.0890449e+00
 -1.9712967e-01
 -6.3536680e-01
  2.1935022e+00
 -5.9235859e-01
  6.5164119e-03
 -1.3463519e+00
 -2.1392488e+00
  1.5040627e+00
  3.5004658e-01
  5.8195305e-01
 -4.7977076e+00
 -1.6366607e+00
 -3.9489267e+00
  4.1048613e-01
  3.1000738e+00
  6.9483095e-01
  2.7504041e+00
 -4.7842357e-01
 -8.0621779e-01
  1.9498692e+00
 -5.0528936e-02
  1.3247290e+00
 -4.4843403e-01
 -7.3823529e-01
 -2.2281168e+00
 -3.9914213e-04
 -4.3175080e-01
  2.1846685e+00
  2.6776595e-04
 -2.0744177e-03
  3.1403925e+00
 -1.4086294e-01
  1.9435476e+00
  1.1739838e+00
  1.9591174e-04
 -1.4653608e-04
  8.7863189e-04
 -1.6152429e-05
  3.6978087e-04
  2.7680302e-01
 -6.9669069e-04
  4.0595885e-04
  1.1044304e-03
 -2.9060029e-05
 -9.3541114e-04
 -2.0916220e-04
  2.8817180e-01
  6.3703012e-01
  1.1948618e-03
  7.2269607e-04
  1.5537625e-03
 -3.1922660e-03
  1.4065628e-04
 -2.1678938e-04
  4.0013879e-04
 -9.3098215e-06
 -4.6321094e-01
 -5.8668235e-04
 -3.7892626e-04
  4.7804613e-02
  1.4485652e-03
  1.7947244e-04
 -4.9320504e-04
 -9.6084346e-05
  5.6883955e-04
  4.1043552e-04
 -8.2179159e-04
 -6.7475211e-04
  1.8207252e-04
 -1.8054603e-04
 -2.4102698e-01
  3.7721893e-01
  3.9080190e-03
  1.3454084e-04
 -7.3289516e-04
  3.1162470e-04
  8.0954822e-05
  1.1597344e-01
 -2.8677341e-01
 -5.9802276e-03
  1.1373345e-03
 -2.1755495e-03
  7.3535054e-04
  1.0709008e-01
  3.4444683e-06
  2.1309900e-04
 -7.6547891e-05
  1.3020262e+00
  1.3853800e-04
 -1.6986573e-03
 -7.1916455e-01
 -8.0924440e-04
  5.5991368e-05
 -4.3355583e-04
 -4.4555513e-06
  4.7023236e-04
 -5.4044962e-05
 -2.8678560e-05
 -4.2001504e-04
  1.2920218e-04
  1.0695246e-03
  1.0163918e-04
 -6.5536078e-05
 -1.8199191e-05
  9.6455056e-05
  1.8827865e-04
  2.4741713e-04
 -1.1382208e-05
  2.0178175e-04
 -1.4832622e-04
  1.8279905e-04
 -1.6666527e+00
 -1.4493730e+00
 -3.9908721e+00
 -2.6679838e+00
  5.4797524e-01
 -2.7156579e-01
  1.4233940e+00
  2.5007234e+00
  5.6538773e-01
 -3.5913044e-03
  1.9742550e-01
 -1.7534534e-04
 -8.9261711e-01
 -5.0470955e-04
 -5.9894961e-01
 -3.8560593e-01
 -1.0735060e+00
  2.3319225e-03
 -5.2637863e-01
 -2.6699823e-01
 -1.2421073e+00
  4.0745795e-02
 -4.1845620e-01
 -8.9045443e-02
  8.2955164e-01
 -4.9893951e+00
  1.6335045e+00
 -1.4822315e-04
  5.1827908e-01
  2.2776190e-02
  6.2737465e-01
 -2.2865639e+00
 -1.6103605e+00
 -4.0852165e-01
 -1.6857843e+00
 -1.3294743e+00
 -9.8785441e-03
 -9.8580742e-01
 -1.5538372e+00
 -1.6407749e-01
 -1.0042819e+00
 -6.0072434e-01
  8.8700681e-04
  1.7805283e-01
  1.3459526e+00
 -6.2138557e-01
  2.4130400e-01
 -4.0287867e-01
  6.7673420e-04
  3.5083565e-01
  2.6997661e-02
 -8.0668891e-05
 -1.7666173e+00
 -3.9297249e-04
  4.1894167e-05
 -9.8632220e-03
 -5.0325176e-05
  9.9770899e-05
 -2.5973108e-04
 -3.2413074e-05
 -8.6304281e-06
 -1.6583642e-04
  2.0372533e-04
  1.1455187e-04
 -1.6716574e-05
  6.5226769e-01
  1.1832268e-01
  4.7871628e-01
  2.9962754e+00
 -3.1269104e+00
  3.3251488e-06
 -2.3440235e+00
  5.6829274e-01
  5.4210651e-01
 -2.8919287e-02
 -8.6408283e-04
 -9.6246065e-04
 -2.6943949e-01
  6.6577131e-01
  1.0012670e+00
 -6.8140948e-01
 -2.7472725e+00
 -2.6624522e-03
 -6.3287455e-01
  2.5441298e-01
 -4.7034743e-01
 -1.1345011e+00
  1.7177887e-01
  2.9972365e-01
 -8.9053303e-01
 -9.4988048e-01
 -7.9949594e-01
 -6.8382031e-01
  3.3251616e-01
 -9.9845186e-02
 -2.1693966e+00
  7.2145671e-01
 -3.1557357e-01
  1.2647098e+00
 -2.2931473e-01
 -2.5226036e-01
 -1.0686994e+00
 -1.4628412e+00
 -4.3998840e-03
 -1.4640820e-02
 -1.5396957e+00
 -1.4926346e-02
  2.1522400e+00
 -8.5645908e-01
  1.7492814e+00
  2.0880049e-01
 -2.5364393e-01
 -2.0680286e-01
  3.4224709e-06
  1.0067726e-03
  8.6934632e-01
  2.4958408e+00
 -4.8231858e-01
 -6.9609803e-01
 -1.9473304e-03
 -7.1277941e-04
  6.6552911e-06
  8.9255009e-05
 -1.0262619e-03
  2.9758253e-04
 -3.1384308e-04
  6.9476831e-05
 -4.6814623e-04
 -2.4476247e-05
  1.9651480e-04
  2.2503650e+00
  4.5880785e+00
  1.8113050e+00
  8.8266283e-01
  1.6864558e+00
 -3.6581204e+00
  1.3538269e+00
  7.1609068e+00
  2.3045514e+00
 -1.5169460e+00
 -1.6832167e+00
 -1.1625898e+00
 -1.3570216e-02
 -2.0479441e+00
 -1.1968066e-02
  2.7878497e+00
 -1.3093426e+00
  3.4911799e+00
 -2.0115669e-01
 -3.4041135e-03
  5.8239847e-02
 -4.7105521e-01
 -3.8242962e-02
 -3.7603366e+00
 -1.7603816e-01
  2.5413425e+00
  2.8230872e+00
 -2.8837654e-01
  4.6695643e-03
 -8.4432417e-01
  8.8961959e-01
 -2.2053160e-01
  3.1380820e-01
  4.2744718e+00
 -9.0339494e-01
  1.7062011e+00
 -5.9887979e-02
 -3.1911595e+00
 -1.2031527e+00
  6.5795583e-01
  7.4784732e-01
  7.6243885e-02
  1.0546712e+00
 -2.3240044e+00
 -1.7936255e+00
  1.1110755e+00
  8.4082282e-01
  1.3652140e+00
  7.4527287e-01
  2.1351385e+00
 -5.7731606e-05
 -3.5597494e-01
  5.4930080e-02
  6.1764218e-02
 -7.4215907e-01
  8.4483463e-01
 -7.2234092e-05
  1.6023334e-05
  4.8888783e-04
  3.8416080e-02
  9.5382471e-05
 -9.4681382e-06
  1.7816570e-04
  5.9709093e-04
 -1.2330443e-04
 -1.4188981e+00
 -7.3593175e-01
 -2.3309519e+00
  1.2178791e+00
 -6.5160197e-01
 -1.3666061e+00
  3.5358465e+00
  7.7657777e-01
  9.7149974e-03
 -3.9640556e-05
  3.2623019e+00
  1.1729733e-01
 -1.1829020e+00
  7.0360827e+00
 -1.9478086e-01
  9.5316709e-04
  9.2312336e-01
  2.2034320e-01
  2.0338090e-03
 -1.4639430e-02
  1.3735951e+00
 -1.2886916e-01
 -1.6935711e+00
 -2.2689004e-01
 -1.5265734e+00
  5.3933060e-01
  3.4800795e-01
 -5.6798464e-01
 -1.0089506e+00
 -1.6479580e+00
  8.1256397e-02
 -1.7392988e+00
 -2.3466751e-01
  2.9417011e-01
  9.7780216e-01
  7.3658007e-01
 -1.0725048e+00
 -9.6224815e-02
  2.7501467e-01
  1.0202396e-02
 -1.3561398e-01
 -6.3785654e-01
 -2.9381836e-02
 -2.5523719e-01
  1.5218669e-04
 -3.0458668e-01
 -1.4486010e+00
 -2.3338814e-04
 -1.7875627e-04
  1.8504882e-01
 -9.6585345e-04
 -1.4346717e-01
  4.4256046e-01
  1.2673080e-04
  2.5524138e-04
 -2.6891820e-04
 -1.2787913e-04
  3.2858195e-04
  3.3718208e-03
  7.7529927e-05
 -2.2138467e-04
  7.8883831e-04
 -9.7191478e-05
 -1.1669067e-04
  1.4972039e-04
 -1.8521324e+00
  6.2200999e-01
 -4.8204234e-01
  4.7850255e-02
  5.4196049e-02
  2.2871688e-01
  2.6263714e+00
 -1.8136078e+00
 -4.8768687e-01
 -1.8389633e-02
 -7.8262776e-01
 -5.9869075e-01
  1.9567357e+00
  2.3043416e+00
  9.0346342e-01
  1.4869175e+00
 -9.6474305e-02
  1.5400174e+00
  4.7622716e-01
  4.1594398e-01
  1.0816091e+00
  3.5222198e-04
  3.7699828e+00
  2.0456262e+00
  1.9049094e+00
 -2.8609037e+00
 -1.4897464e-02
  9.8982655e-02
  3.6935544e-01
 -1.3487823e+00
  1.7209538e+00
  3.6813709e-01
 -1.3582469e+00
 -1.3850815e+00
 -8.0404133e-01
 -3.3119911e-01
  2.3792949e-01
  1.0489081e+00
 -1.1419618e+00
  5.3528535e-01
 -1.0337894e+00
  3.0784321e-01
  4.9945542e-01
 -1.8906261e+00
 -8.3962992e-02
  1.1140163e-03
 -2.4786441e-01
 -7.9271907e-04
 -1.4363250e-03
 -4.0504649e-01
  4.4938225e-02
  4.4757909e-01
 -1.2590104e-03
 -2.9514250e-04
 -2.6840516e-04
  2.0836927e-03
 -6.2499275e-05
 -9.0099165e-06
 -1.8718449e-05
  3.8610178e-05
  1.8572315e-04
 -1.9530847e-04
  9.4454495e-05
 -6.8425798e-05
 -1.6804173e-04
 -3.8968733e-01
  1.8678282e+00
 -2.8402276e+00
  7.5762051e-05
  1.4910849e+00
 -7.6780927e-01
  4.8839591e-02
 -2.8928752e+00
  1.0663273e+00
 -3.6878517e-04
 -6.4777857e-01
 -9.6653980e-01
 -6.7349385e-05
  1.2842901e-01
  1.6108054e-01
  8.1081009e-05
 -3.8770612e-02
  3.3742347e-01
  1.1826770e+00
  6.1968803e-01
 -2.3529212e+00
 -4.4922340e-01
  1.6884431e+00
 -5.6717446e-04
 -3.8747627e-01
 -3.8017371e-01
  1.0045374e-04
  1.0564789e+00
  1.0537219e-04
  1.6514746e+00
  3.9625379e-01
  1.6408226e+00
  1.1425384e+00
 -6.9754434e-01
 -9.4118447e-04
  4.9931339e-05
  3.8605198e-02
  5.3523854e-05
 -1.0979024e-01
 -5.4629939e-03
  1.5275933e-01
  1.5460652e+00
 -4.4739594e-05
 -1.0362214e-03
 -6.6156324e-04
 -8.6318189e-04
  4.3572054e+00
 -1.7627882e-02
  1.6524647e-04
  4.1653111e-04
  3.0046504e-02
  4.6339735e-02
  1.3626581e-05
 -3.1754843e-04
 -1.0815018e-03
 -4.0287795e-04
 -1.1016997e-04
  5.5233326e-05
  3.5587669e-05
 -1.5276051e-04
  1.9844340e-06
 -1.3186753e-04
 -4.5587080e-05
 -1.0590706e-04
  1.5321776e-04
 -4.2241293e-01
 -2.0544411e-01
 -1.0971407e+00
  1.4665481e-01
 -3.9939228e-01
 -1.3550204e+00
 -3.5191253e-01
  2.5354750e+00
  7.6935977e-01
 -6.1821485e-01
  1.1571325e+00
 -1.5532945e-02
  6.7988902e-01
 -5.3325760e-01
  2.3784494e+00
 -1.1862761e+00
 -3.8627155e+00
 -1.6556839e+00
  1.9348103e-04
 -3.5116026e-01
 -1.2889800e+00
  8.3120167e-02
  6.6182777e-02
  2.2522349e+00
  9.3302166e-01
 -1.0227755e+00
 -4.2163890e-02
  2.8989301e+00
 -1.2178131e-01
 -1.0340558e+00
  1.7012052e-01
  2.1591887e+00
 -1.0070223e-01
 -3.6672467e-01
  7.6195282e-01
 -8.8222760e-01
 -2.0403892e-02
 -4.0523043e-01
  9.6682839e-02
  2.5364688e-01
 -2.0821744e-01
 -1.0554503e+00
  1.5158172e+00
 -7.2035199e-01
 -8.9178324e-01
  1.2079605e-02
  8.4762424e-01
 -6.3321280e-01
 -1.5111435e-04
 -1.1387899e+00
 -8.4984052e-04
  5.7598174e-01
 -6.7664398e-04
 -1.0192215e+00
 -2.2215666e-03
  2.6545621e-04
 -1.5771865e-04
  2.6376048e-04
  2.6622217e-04
 -3.9528813e-03
 -8.5441268e-04
 -7.1235299e-05
 -2.6941838e-04
  9.9760201e-04
  1.3831355e-04
 -2.0735690e-01
  1.7997481e+00
 -2.3272254e+00
  2.4323488e-02
  4.4220853e-01
  9.1918916e-01
  4.3015063e-02
 -9.1545455e-02
  2.0592544e+00
  1.6019634e-04
  1.1870865e+00
  4.0627688e-01
  3.5976669e-01
 -1.4065786e-01
  6.6243910e-04
 -2.0568001e+00
  2.6039741e+00
 -1.8141288e+00
  3.0882320e-01
 -1.3062824e+00
 -6.9670868e-01
  1.7175311e-01
  4.7538114e+00
 -3.4876209e-01
 -2.5113311e-01
 -3.6708409e-01
 -2.1280974e-01
  8.6248362e-01
  5.1512969e-01
 -1.5613595e+00
  1.0325747e+00
 -8.8554144e-01
  1.5670336e+00
  3.7155261e+00
  1.4753855e+00
 -1.4742808e-02
 -1.0297874e-03
  4.3058485e-01
  1.1869214e+00
  3.0303258e-01
 -5.2568085e-02
  7.8826690e-01
  1.4127731e-02
  9.6178241e-04
  1.3202806e-02
  3.8090673e-01
  1.7643952e-01
 -3.6777647e-03
  3.8092023e-01
 -3.8360450e-02
  3.4975383e-04
  1.6859797e+00
  2.0489721e+00
  2.0430793e-04
  1.2275975e-04
  1.8205479e-04
 -5.6283560e-04
  3.1660165e-04
  5.0471723e-03
  1.3750972e-04
 -1.5489483e-04
  5.6239739e-03
  1.1728139e-04
  1.3772809e-03
 -2.4539378e-04
 -3.1020945e-01
 -8.1649148e-01
  6.1180717e-01
 -7.1606207e-01
  3.5048742e-02
 -1.0793178e-03
  1.1250938e-01
  2.2484582e-02
 -4.1874021e-02
  2.2463026e-03
  5.2461541e-01
  5.2704763e-05
  1.3306935e-01
 -6.4141333e-01
  5.5376440e-01
  4.9321666e-01
 -2.9160483e+00
 -7.5695860e-01
 -2.2793987e+00
 -3.9544404e-03
  2.1796671e-03
  2.2502600e-01
 -9.1335058e-01
  9.4582677e-01
  1.5103196e-01
 -2.7997115e+00
 -1.8604998e-01
 -1.1309170e-01
 -6.4861208e-01
  1.3745077e+00
 -5.2207924e-02
  3.0773058e+00
  1.2798094e+00
  2.9473429e-04
  1.6207397e+00
  2.3635581e-01
 -4.4792378e-01
 -7.2373092e-01
  9.0112340e-01
  8.3140254e-02
  2.7307370e-01
 -2.1377666e-01
 -5.4566950e-02
 -7.4027139e-01
  3.8697577e-01
 -4.5172516e-02
 -5.2711149e-03
  1.6375855e-04
 -2.5771634e-04
 -1.9075280e+00
 -4.4018857e-02
  1.9085864e-03
 -6.8794056e-03
  1.8084276e-05
 -5.3122995e-04
  2.6983202e-01
  6.5578257e-05
 -8.0014463e-04
 -4.8166548e-05
 -2.1922798e-04
 -2.4682775e-04
 -2.7163338e-04
 -3.2610208e-04
  4.8565111e-05
  6.4936437e-05
  4.5805678e-04
 -2.9958004e-02
  4.9881011e-05
 -1.0350036e-03
 -9.1292599e-04
  3.0846622e-05
 -9.0613699e-04
 -6.4696954e-04
 -7.3106331e-03
  3.8446051e-06
 -4.8217544e-04
 -9.1298344e-04
  4.6722933e-05
 -5.0000544e-06
 -1.3345857e-04
 -3.7846659e-04
 -5.4552947e-05
  1.8605727e-03
  6.2641135e-05
  6.9660498e-05
  2.0978812e-04
  8.4702414e-04
  1.8888044e-04
 -1.6541181e-04
  1.6819828e-03
 -2.4130162e-04
 -6.0551763e-05
  1.6269246e-04
 -2.3418032e-04
  1.2194989e-03
  7.7581947e-04
 -1.8595138e-01
  3.7767168e-05
 -2.3156778e-04
 -2.0918178e-06
  7.7163591e-04
  1.2889583e-04
  1.3928626e-04
 -1.3065703e-04
  7.5562915e-04
  4.0571019e-04
 -6.6880527e-04
 -1.6159827e-03
 -3.2748601e-05
  2.0136596e-03
 -5.2800875e-05
 -3.4542412e-05
 -1.0767527e-04
 -3.1986921e-05
 -5.0399161e-04
  2.3665022e-04
 -2.6723731e-04
 -6.4128384e-05
 -1.2676274e-04
  3.4579807e-07
  3.3646871e-04
  1.8699581e-04
  5.5246615e-05
 -1.6369902e-04
 -1.6131897e-05
 -4.8436268e-05
 -2.0437699e-04
 -1.1730764e-04
 -1.5558221e-04
  1.8677491e-04
 -3.2260408e+00
 -1.1658791e+00
 -1.0324918e+00
 -2.3502868e-03
 -2.1307051e+00
  6.2658894e-01
 -4.9134623e-02
  1.8398659e+00
  7.3780578e-01
  1.4145176e-05
 -3.6050549e-03
  2.0124245e+00
 -4.6162633e-04
  4.8259306e-01
 -1.0295066e+00
 -7.1313669e-04
 -2.2846952e-03
 -5.9286693e-05
  3.8748072e-04
  3.6839626e-04
  9.0913498e-01
  6.1449140e-02
  4.1808624e+00
  1.8794448e-03
 -9.7832535e-06
  2.5578891e-04
  4.0470445e-06
  3.1278294e-01
  1.4266944e+00
  6.5715992e-01
  2.8456148e-05
 -4.8996987e+00
  1.8028713e+00
 -7.3053545e-01
  1.5203136e+00
  2.5081441e+00
 -1.0281794e-03
  3.1224824e-03
  2.1923568e+00
  1.7100888e+00
 -4.0946136e+00
  1.3242763e+00
 -3.5357653e-04
 -5.6911834e-02
  1.0107515e-04
  1.7846955e-03
 -6.5934575e-01
 -7.0805681e-06
  5.8799712e-03
  6.8394059e-01
 -4.2811030e-04
  1.5867542e-03
  3.2801050e-05
 -2.9137842e-05
 -5.9303133e-05
 -2.2069280e-04
  1.8141582e-04
 -1.1395348e-04
  2.6938180e-04
  7.4130388e-05
  3.2695156e-05
 -2.6645406e-05
  9.5260315e-05
 -1.4711326e-04
  1.8901966e-04
 -1.2144399e+00
 -2.3862849e-01
  9.3064904e-02
 -1.3692502e-04
 -9.6235878e-04
 -1.2028735e-04
 -7.9483382e-02
  2.5967888e-03
 -2.8186804e-01
 -1.0590923e-04
 -5.4371965e-01
 -4.8712453e-05
  2.3412157e-04
 -2.8667095e-01
 -1.1481229e-01
  7.8047381e-04
  1.1881439e-04
 -3.8300487e-03
 -2.2928815e-04
 -2.9032142e-03
 -9.3098577e-05
 -1.9640227e-05
 -7.1243074e-04
  5.3012854e-04
  5.9166934e-02
 -1.2779355e-03
 -6.0456705e-06
 -4.0274981e-04
 -1.7378767e-03
  1.9086404e-03
 -1.0576408e-03
 -1.2590315e-02
  4.6846126e-03
  2.6188374e-03
 -1.3760518e-03
  2.2230679e-03
 -1.2389800e-03
  3.2846837e-03
  1.6665851e-03
  4.2539948e-04
 -6.9904602e-01
  1.9662220e-03
 -1.3678882e-01
  5.1444116e-05
  1.3175976e-04
  2.4774599e-01
 -6.4846023e-04
  1.3388752e-04
 -8.6611792e-05
  1.9932723e-04
  1.2170701e-04
 -7.3340663e-04
 -2.1300849e-04
  1.8200783e-04
 -1.5140211e-04
 -6.6392671e-04
 -7.0657761e-06
  9.1676584e-06
  6.8872862e-07
  1.2685140e-04
  1.8321919e-04
 -2.0435335e-05
 -3.3570782e-04
  3.5987364e-04
  6.0877403e-05
 -1.5514576e-01
 -8.7256759e-01
 -1.1894277e-01
 -1.2131874e-02
  1.0989108e-01
  1.6036320e-05
  1.4882363e-01
 -1.2686147e-01
 -4.4095504e-01
 -9.3643583e-04
  2.2017135e-01
  2.4908237e-01
 -3.1498232e-04
  1.1182427e-01
  1.1727104e-03
 -2.2118499e-03
  1.5260708e-01
 -2.6751815e-03
  1.5926962e+00
 -1.3415570e-03
 -7.4547142e-02
 -4.0884815e-02
 -1.0354845e-01
  8.0857784e-02
 -1.4973379e-02
  2.8360328e-02
  2.6398882e-02
  2.0036449e-01
 -1.4207196e-02
 -2.9514056e-01
 -1.0941462e-03
  9.0780616e-02
 -1.2686189e-01
 -3.9680899e-04
 -1.0609821e-01
 -2.8599187e-04
  1.7516324e-02
  1.2564991e-03
 -3.2801388e-04
  3.5311838e-04
 -1.3284513e-01
  4.1270521e-03
  3.9894713e-04
 -4.7119919e-02
 -8.6186285e-04
 -4.3813943e-05
  3.1084383e-03
 -1.5128904e-04
  2.6468968e-04
 -3.6884244e-03
  1.7184427e-04
 -3.9655674e-02
  3.0185198e-04
  9.9757228e-05
  8.6221837e-05
  1.9229262e-06
 -2.7890145e-04
  1.5437631e-04
  1.3608735e-03
  1.4220626e-04
 -4.1549883e-05
 -1.3892769e-04
 -3.8649287e-04
  1.4840731e-04
 -2.0354333e-04
 -2.8920727e+00
 -9.4077295e-01
  2.5044637e+00
  5.2088398e-01
 -4.1098337e+00
  3.3878496e+00
 -1.8294502e+00
  1.4338796e+00
 -1.2932031e+00
 -2.7289958e+00
 -2.5591686e-01
 -3.2791236e-01
 -8.2980037e-01
 -7.3078227e-01
 -2.1362605e+00
  2.1181896e+00
  2.6592424e+00
  8.7197894e-01
 -1.7783382e+00
 -1.4551271e-01
 -1.7018702e+00
 -1.7484074e+00
 -2.1325033e+00
 -2.1301088e+00
  3.2421541e+00
 -3.6076516e-01
  1.9045104e+00
 -1.7740145e+00
  2.2402447e-01
 -1.4764439e-01
 -1.7745355e+00
  3.2720301e-01
 -5.9649348e-01
  6.3521457e+00
 -5.5243194e-01
 -1.4776318e+00
 -1.2884642e+00
 -1.4010584e+00
  1.2919518e+00
 -1.1120062e+00
 -3.3722401e-01
 -7.6258618e-01
  2.5369787e+00
 -4.4034928e-01
 -4.4038114e-01
  1.0767081e-01
 -6.0315752e-01
 -2.9533358e-05
 -8.2422746e-05
 -7.3314824e+00
 -6.2758952e-01
  1.9618311e+00
  2.0215841e-01
 -1.5994989e+00
  7.3123397e-04
 -5.3932040e-04
  1.0453018e-05
 -8.3639909e-04
 -1.5005871e+00
  1.8202072e-02
  1.4862370e-02
 -3.0022040e-03
  7.0421194e-04
 -8.9208531e-04
 -4.9657456e-04
 -1.1076547e+00
  2.9388261e+00
  1.1741993e+00
 -1.7748852e+00
  2.5274861e+00
  1.2974080e-01
 -3.0500603e+00
  8.1311262e-01
  4.8806539e-01
  3.6104831e-01
 -1.5991186e-03
 -2.6363707e-01
  7.3455024e-04
  2.6866242e-01
 -1.2494330e+00
  1.3102705e+00
 -6.4116955e-04
  1.0306527e-01
 -1.7349901e+00
  6.8693238e-01
 -1.1518417e-03
 -8.8735711e-04
  1.1524352e-01
  2.9960766e-01
  2.1630290e-03
  1.4242707e+00
  1.8648973e-01
 -1.8470550e+00
  1.6624758e-01
  3.1547762e-02
  1.9367304e-02
  3.1120780e+00
  8.9066321e-01
 -1.1470428e+00
 -1.2367298e-02
 -3.3313687e+00
 -1.4263108e-01
  1.3054063e-02
 -1.7559038e-01
  1.1331131e-01
 -5.2964922e-02
  1.1200260e+00
 -5.2406287e-01
 -4.3286437e-01
 -2.3166482e-01
  1.7677447e+00
  4.4718400e-01
  4.8845476e-01
 -1.2601173e-04
 -5.5942155e-04
  2.8127499e-04
  9.2811324e-03
 -1.9535515e-01
  7.1566659e-03
  5.9606894e-03
  2.5522611e-01
 -1.3394916e-05
 -7.5325879e-05
 -1.3858304e-04
  1.7392577e-03
 -3.8803549e-04
  1.0043628e-04
  1.5673303e-04
 -5.8585792e-03
  2.4273971e-04
 -1.9451019e-03
 -2.1562661e-01
  7.2661096e-01
 -1.8792178e-02
 -1.9649677e-03
 -3.6656851e-01
 -5.0407755e-01
  1.4129155e+00
 -1.1588637e+00
  1.8449556e-02
  1.1356427e-02
 -3.8292874e-06
 -5.6325709e-05
  3.4469537e-02
  1.8058681e-01
  1.2919260e-04
 -1.6963924e-04
  8.9164847e-01
 -2.6014585e+00
 -1.2272055e-04
  4.5240736e-01
 -1.0074168e-04
  2.2365718e-01
  1.1920468e+00
 -1.2760806e+00
  9.2144036e-01
  4.7706079e-01
 -1.1011392e+00
 -4.6416727e-04
 -9.7609521e-04
  3.1265080e-02
 -5.3215617e-01
  1.5363116e+00
 -2.0969307e+00
 -2.3261100e-01
  1.8232920e-03
 -2.2524683e+00
  2.7161211e-01
 -9.0074376e-04
 -2.7846191e-03
 -1.0072267e+00
  8.8707811e-01
 -1.1970968e+00
 -1.6623599e-03
  5.9566097e-05
 -1.8579774e+00
 -1.5147385e-01
  1.5089796e-04
 -8.3659143e-05
  2.9481307e-04
  3.1266036e-04
  2.3527583e-03
 -7.9698875e-05
 -5.4204976e-04
  2.4903519e-02
 -1.7868787e-04
  3.7450775e-06
 -8.5786400e-05
  2.5876434e-05
 -1.1686115e-04
 -8.1971062e-05
 -1.0547824e-05
  4.6922061e-05
 -5.0192702e-01
  4.7474321e-05
  1.4545604e-04
  1.3612841e+00
 -5.6783174e-04
 -1.5593396e-04
  1.4485308e-03
  5.8356669e-05
  2.2573259e-03
 -4.2315865e-01
  7.5655532e-01
  2.0553402e-04
  1.8252387e-05
  3.7278802e-05
  2.1001963e-05
  1.3015659e-03
 -8.2602532e-04
  2.0713882e-04
  9.5086731e-04
  1.0645964e-05
  4.8482968e-04
  1.4687639e-04
 -2.5077784e-04
 -7.7952852e-04
 -4.4204000e-05
 -3.5429557e-03
 -2.9167088e-04
 -3.3389631e-05
  6.0014270e-04
  2.8938823e-04
  4.5591882e-05
 -2.5078052e-04
  2.2837860e-04
  2.3012967e-01
  4.9161096e-04
 -3.9012239e-03
  9.3236525e-04
 -6.8845082e-05
  1.3230446e-04
  4.7201320e-04
  1.3921228e-03
  1.4819500e-04
  2.0170879e-01
 -1.4836234e-03
 -3.6497007e-04
 -6.5740818e-01
 -1.6197959e-03
 -9.2468554e-06
  2.0658196e-04
 -5.1207043e-04
 -4.9732669e-05
 -8.8259031e-04
  3.4845183e-05
 -4.3151595e-05
 -1.3264640e-04
 -2.1703861e-05
 -1.7070227e-04
 -2.1194361e-04
  6.4030188e-05
  3.4681430e-05
  9.7966331e-05
  3.3827475e-04
  4.2005160e-04
 -2.5633068e-04
 -4.4419276e-04
 -6.1175914e-04
 -4.3127948e-05
  1.7164968e-02
  5.9110910e-01
  1.5942473e+00
 -1.6992250e-01
  2.1935932e-01
 -5.7862414e-04
 -5.0932842e-01
 -1.7411962e-01
  1.2433218e+00
 -1.3824878e-04
 -8.0426818e-01
  1.3170023e+00
  3.3027381e-01
  2.4134622e+00
 -3.1930897e-01
  2.2877934e+00
 -5.3637844e-02
 -8.4522474e-01
 -6.2708116e-01
  3.9983642e-01
  9.9788941e-02
 -3.5343254e-01
 -1.1967798e+00
  1.1156723e+00
 -1.0067301e+00
  2.2513516e-01
  5.5901378e-01
 -4.9913350e-01
  1.0095990e+00
 -1.3749641e+00
 -2.6012021e-01
  9.2980238e-03
  5.8826172e-01
 -1.3563699e+00
 -1.0694365e-01
  1.4337385e+00
  8.5041869e-01
  4.5119461e-01
  1.9341347e-01
 -2.1814868e-01
 -2.8638715e-01
  9.9779844e-02
  1.0484726e+00
  7.1628028e-01
  6.1084032e-01
  2.3553453e-02
  1.6714934e-01
  7.3389024e-02
  8.8366214e-05
  5.2905118e-01
 -4.5488194e-01
 -1.4273454e-01
  9.9332434e-01
  1.4164424e-01
 -4.4060135e-03
  7.0218216e-03
  1.6003975e-03
 -4.7365902e-05
 -2.0378496e-01
  3.4943132e-05
 -5.1651294e-03
 -3.8135558e-04
  4.0937442e-04
  4.0635892e-05
 -8.4608799e-04
 -6.8303603e-01
  1.2124822e-01
 -4.1128322e-01
  1.2902771e+00
  2.9886174e+00
  5.0944984e-02
 -6.9006258e-01
 -1.0697036e+00
 -4.4046330e+00
 -5.5159093e-05
  7.7899799e-02
  4.6659964e-03
 -2.7743489e-03
  1.3764209e+00
 -7.0104849e-01
  1.1462695e-01
 -1.8749480e+00
  6.9876796e-01
 -2.9682054e-03
  1.4560499e-03
 -2.4316914e-01
 -1.1954356e+00
  1.5688711e-01
  4.0747541e-01
 -2.6427801e+00
 -7.4366814e-01
  3.4915200e-01
  7.4189645e-01
  7.8058416e-01
  5.3119164e-02
  3.6320221e-01
  1.0827339e-01
  4.4802779e-01
 -6.7174187e+00
  6.0148177e+00
 -4.1126418e-01
 -3.7932584e-01
  1.9508969e-03
  5.3646411e-03
 -2.5009781e-03
 -2.0383201e+00
  4.1285464e-01
  5.4045516e-01
  1.2226216e+00
  4.1397664e-01
 -3.5715991e-01
  3.9663311e-05
 -3.5009071e-01
  2.8946917e-04
  5.1086640e-01
  4.4840306e-01
  1.4846214e+00
  3.3494078e-03
 -1.8701490e-02
  4.6262627e-05
 -2.6369415e-04
 -2.1828462e-05
 -1.6781556e-05
  5.9674276e-05
 -3.0868006e-05
  1.1960358e-04
  1.8470072e-04
  1.0784024e-04
  2.1264610e-04
  4.9103535e-05
  2.2482333e+00
  2.9067361e-01
 -3.3182240e-01
  2.0376952e+00
  4.5338993e+00
  1.0345944e+00
  2.2633892e-01
  6.8400204e-01
 -9.7675115e-01
  2.8320682e-01
  1.5141913e-02
 -5.9692609e-01
 -1.1839406e+00
  1.6733328e+00
  3.6489747e+00
 -2.6723775e-01
 -1.2195607e+00
  5.9376159e-03
  2.0064402e-01
  2.5356948e-01
 -3.8232809e-01
 -9.6654189e-01
  1.8021677e+00
  7.1136540e-01
 -3.9942712e-01
 -6.6971844e-01
  2.0811687e+00
  1.1295254e+00
 -2.9425059e-02
 -2.2331781e+00
  7.0656329e-02
  2.0408304e+00
  4.6138835e-01
 -5.6889963e-01
 -2.0327288e-01
 -2.1071963e+00
 -1.1563011e+00
 -7.3306888e-01
  8.8851142e-01
 -5.7094085e-01
 -1.1656917e+00
 -2.1384482e+00
  9.8251557e-01
  3.2352790e-01
  1.5951008e+00
  2.5121403e-01
 -3.1949210e-01
  3.2834888e-01
  1.0267314e-04
 -1.5061439e+00
 -3.7834290e-01
  1.0663055e+00
  3.1389172e+00
 -1.3441042e-03
 -1.1757453e-02
 -7.3619762e-05
 -1.7735746e-04
  5.1560119e-04
  9.2041642e-05
  9.7273871e-05
  6.1915089e-05
 -1.5309470e-04
 -1.5253173e-04
  3.3525317e-05
  2.6995693e-03
  1.9636981e-01
 -2.2255247e+00
 -3.1679571e+00
  8.8164288e-01
  4.7962090e-01
 -5.6425536e-01
  1.5484369e+00
  1.9702929e+00
  6.2521979e-02
  8.9600799e-05
  1.0930094e+00
  7.4941605e-01
 -1.4977881e-01
 -2.1089540e+00
 -9.1270381e-01
 -4.9474742e-02
 -1.5304526e-02
 -6.8494193e-03
 -2.5535709e-01
 -1.8063310e-01
 -4.7099957e-01
  6.5198791e-01
  4.7794690e+00
 -1.7308087e+00
 -4.5725675e-03
  2.4541730e-01
  1.9008445e-04
 -6.0133326e-01
  1.2813654e-03
 -1.5946782e+00
 -1.5567435e-01
  1.1991529e+00
 -2.2835763e+00
  1.5515630e-04
 -3.9512816e-01
  2.0348747e+00
 -1.9541003e-04
 -1.8242823e-01
  8.7147921e-05
  1.1206353e-01
 -2.3901626e-01
  7.5897767e-04
  1.4770857e+00
 -5.0357962e-01
  1.7081600e-03
 -7.5183713e-01
 -1.4069445e+00
  5.5313772e-05
  2.5902318e-06
  5.9360094e-02
 -1.7809758e-03
  1.0871315e-04
  5.0107954e-04
 -1.7760356e-04
  6.5447524e-04
 -1.4472520e-04
  3.9787532e-04
 -1.0107373e-04
 -1.4446492e-04
  3.9298585e-04
 -5.8359047e-04
 -2.4752368e-04
  1.3556475e-04
 -4.7692778e-05
 -5.6724850e-05
 -9.1057969e-04
 -8.4342621e-02
 -9.1687751e-01
 -1.0666798e-02
 -7.1606715e-05
  4.5191082e-03
  8.6844429e-02
  1.4430003e-01
 -4.0437007e+00
  4.7028821e-05
 -8.2224911e-01
  3.3903154e-05
  2.2376087e-03
  2.3224007e-01
  2.2152592e-04
  2.9165757e+00
  5.4277782e-03
  4.1107464e-04
  2.0024423e-04
 -8.3156774e-05
  1.2291274e-04
 -2.4712350e-05
 -2.4606526e-02
 -2.6605319e-05
 -4.4938514e-01
 -1.8869352e-03
 -3.7460868e-05
  7.3212694e-04
 -1.1059619e-04
  4.0221051e-03
 -1.8738952e-03
  1.3967381e+00
  5.4659689e-04
 -7.0660269e-01
  3.0751368e-03
  3.4494039e-03
 -4.8338975e-06
  1.6020292e-04
  6.0355258e-03
 -2.0502611e-04
  4.8079336e-01
  2.8936601e-01
 -1.8521782e-04
  9.0582740e-01
  5.3804315e-04
 -1.5721795e-04
 -3.9065644e-04
  2.1078120e-05
  1.5150048e-04
 -3.3010005e-05
  3.6604091e-04
 -7.3466304e-05
  9.3659844e-05
  1.1589580e-04
  3.3990382e-05
 -9.4389659e-05
 -1.1318969e-03
 -1.0637651e-04
 -3.4959475e-04
 -9.3982802e-05
  2.2646014e-04
 -1.2893179e-04
  4.2099762e-04
  6.0678165e-05
  3.2559375e-04
 -1.4449035e-04
 -2.0081353e+00
 -1.6368879e-04
  1.3235130e-04
  3.0979245e-05
 -5.8093981e-05
 -4.1914781e-04
 -5.5405393e-04
  8.9835119e-04
 -1.9148485e-05
  5.8453350e-04
  2.3271731e-04
 -2.1313712e-05
 -8.9584290e-05
 -3.1006442e-05
  1.7969985e-04
  4.9982329e-05
 -2.6436945e-04
  7.1078204e-05
 -5.8279598e-05
 -8.1475737e-06
 -4.5874636e-05
  4.0055146e-03
  3.9926716e-05
  1.0467661e-02
  7.1943575e-04
 -1.9228657e-05
  1.7664692e-05
  4.9185968e-04
 -1.2847284e-04
  1.2139758e-04
 -1.9251314e-01
  2.0844935e-04
  1.9462734e-04
 -1.8162222e-03
  1.4674186e-04
 -2.5501108e-04
 -2.3754388e-04
  7.0873561e-05
  1.2491501e-03
 -6.6380651e-04
 -7.3919049e-04
  3.4741797e-03
  3.8441297e-04
  4.9799745e-04
 -1.0941458e-04
  2.3298779e-04
  1.3345786e-05
 -3.8204298e-04
 -5.6932076e-05
 -1.5291918e-04
 -6.0843959e-05
  2.0853941e-04
 -3.8613245e-04
  3.4924696e-04
  8.3622430e-04
  4.3683762e-05
 -1.0646518e-01
 -3.7227015e-05
  1.5851778e-04
  9.3634168e-05
  1.8186791e-05
  2.6128229e-05
 -8.6587876e-05
 -5.9442478e-05
  1.0053692e-04
  2.4411969e-05
 -2.0866843e-05
  5.0676004e-05
 -1.9135874e-05
  8.8000997e-05
  2.1821818e-04
  1.5100566e-04
 -6.0198898e-04
  4.5132646e-04
  8.5640786e-05
 -4.7316644e-07
 -1.1848780e-04
  5.9233431e-04
  4.1504228e-04
  3.4527482e-05
 -1.4082022e-04
  1.4268633e-04
  5.2685745e-04
  8.3926105e-05
  1.3261884e-04
  6.0915598e-05
  2.8373837e-04
  9.4820285e-04
 -9.3789662e-05
 -3.5781668e-05
  1.1200772e-03
  5.0894229e-04
 -1.3534368e-04
  1.3861721e-04
  5.3715466e-05
 -6.3421432e-04
  1.3663278e-04
  7.3890912e-04
  1.1588742e-04
  2.0668922e-04
 -1.3093257e-04
 -8.9317787e-04
  6.4120679e-05
 -5.4591703e-05
  1.2885492e-04
  1.6775247e-04
 -2.5305188e-05
  1.3815064e-04
  3.0466728e-05
  4.7863254e-05
 -4.8136244e-05
  1.8248062e-05
 -8.4876301e-06
 -2.7909653e-05
  6.9825670e-05
  3.0343168e-04
  3.3285025e-05
 -1.8937371e-05
 -4.1159085e-05
  6.7486893e-05
 -1.7284176e-04
  1.8188218e-04
  3.5141340e-05
  7.9921170e-05
 -2.7679297e-04
 -2.3227111e-04
  9.9548042e-06
 -3.7319376e-04
  9.6703254e-05
  1.3420578e+00
 -1.3504368e+00
  1.1781069e+00
 -3.8365270e-03
 -7.3074180e-01
  3.6653497e-03
 -1.8370966e+00
  1.5010098e+00
 -2.2687254e+00
  2.3865962e-02
  7.2992671e-01
  7.1717447e-01
 -4.7106266e-01
  2.1563349e+00
 -1.7238723e-03
 -3.2715580e-01
 -3.7379939e-02
  5.9627092e-01
  1.9625956e+00
  2.8155395e-05
 -1.3312460e-04
 -1.9693333e-01
  4.4243500e-01
  1.5847926e+00
  7.9479522e-01
  2.2749643e-01
 -1.0064447e+00
  4.1814816e-01
  9.8513269e-01
  1.5231574e-01
 -9.1423374e-04
 -3.4427056e-01
  1.1397575e+00
 -9.2043215e-01
 -1.7069976e+00
  2.1251096e-01
  4.3522385e-01
  2.2398965e-01
  4.9386433e-01
 -6.7461973e-01
 -5.4243523e-01
  2.7807444e-01
  4.0447453e-01
  8.7477565e-02
 -4.7865123e-01
  2.3936300e-01
  2.8766251e-01
 -2.3075224e-01
 -7.2974658e-01
 -1.1232003e+00
  7.3900335e-03
 -2.8874761e-01
  3.8806936e-01
 -9.9165909e-02
 -6.9923158e-04
 -6.5899658e-04
  1.2458915e-04
 -1.3123773e-04
 -3.0456667e-03
  6.1590190e-04
  4.2285505e-05
 -1.6245279e-04
 -2.8777975e-04
 -1.4824179e-04
 -5.2772062e-05
 -8.2499605e-01
  1.6284280e+00
 -3.1439510e-01
 -9.4156295e-01
  3.0282183e+00
  1.6395619e+00
  2.4508052e+00
 -2.5862114e+00
 -1.8270266e+00
 -1.4948914e+00
  1.0855746e+00
  5.6753868e-01
 -4.9541542e-01
  4.7257042e-01
  7.8726703e-01
 -3.4506989e+00
  1.7097335e+00
  1.0964785e+00
 -5.6927484e-01
  2.9660755e-01
  7.0800394e-01
  4.1739437e-01
 -2.2203510e+00
  2.9948301e+00
 -5.8325636e-01
 -2.7298214e+00
 -1.8125548e+00
 -9.6401733e-01
  1.4735893e+00
 -1.6513231e-01
 -4.0210754e-01
 -2.3430941e+00
 -2.7639756e-01
  1.2497308e+00
 -9.7159791e-01
  6.4844325e-02
  2.0391960e+00
  4.6659309e-01
  1.1981706e-01
 -1.7950465e-01
  7.6679140e-01
 -1.1063242e+00
 -1.7003609e+00
 -8.1459558e-01
 -2.5632251e-02
  9.0567684e-01
  1.8004478e+00
  1.3849027e-03
  4.6182635e-01
 -7.5732410e-01
  4.3870725e-05
 -1.1658240e-01
 -2.4299873e-01
  1.2099445e-01
  3.6717718e-04
  3.3026436e-01
  1.3688173e-04
 -1.0598494e-04
  4.1755929e-04
  2.0758768e-04
 -5.2130106e-04
  8.8695095e-05
  2.8541233e-04
  1.0237898e-03
  4.0689109e-05
  7.8899093e-02
  4.9580339e-01
  1.8701283e+00
  1.2248985e+00
 -1.2960205e+00
 -3.8114133e-01
 -8.3095223e-01
  2.4026458e+00
  4.2276624e-01
  4.9647397e-01
 -1.2387363e+00
 -1.0834398e+00
  7.0638746e-02
 -1.1502676e-01
 -1.0759845e+00
  1.6511043e+00
  2.1621461e+00
  1.4742563e+00
 -8.9556408e-01
 -2.7082643e-01
  1.2067097e+00
  4.1590691e-01
 -1.8793215e-01
 -1.7481004e+00
  2.0364583e+00
  1.5585357e+00
  9.3331909e-01
  7.2593158e-01
 -7.8521818e-01
 -2.6450799e+00
  1.8163786e+00
  6.3441306e-01
  3.3448887e-01
 -4.7858033e-02
  1.5045685e+00
 -1.0457296e+00
 -2.1609467e-01
 -1.8982168e+00
 -2.0343192e+00
  5.0139982e-01
  6.8996781e-01
  2.5140896e+00
 -2.1206243e+00
 -7.2740042e-01
  1.4656137e+00
 -3.6601727e-03
  9.0732837e-01
  1.0512317e+00
 -1.1004248e-01
  5.5617613e-01
  4.8026353e-02
  5.5704959e-04
  1.5144394e-01
  1.4416500e-03
  1.9467525e-03
  1.0379441e+00
  1.0927695e-04
  3.4725372e-06
 -3.1519754e-04
  9.8698854e-02
  1.6513093e-04
 -4.1749934e-04
 -4.2785559e-04
 -1.7131874e-04
 -1.0087322e-03
  1.8507704e-03
 -1.0611318e-01
  1.1641258e-01
  1.2600517e-02
 -1.1038850e-04
 -4.1549010e+00
 -6.1169709e-04
  2.0485356e-02
  2.5156207e+00
  6.0318253e-04
  1.2925662e-01
  8.9495926e-04
  8.6110038e-01
 -9.0551721e-03
 -5.0401705e-04
 -6.0996058e-04
  6.6084013e-04
 -2.8965392e-03
  1.3955710e+00
  2.7704652e-02
 -8.5907355e-03
 -5.3050568e-05
  2.6243777e+00
 -6.2027860e-01
  3.4914720e-01
 -8.5154265e-01
  1.2584809e-03
 -1.2717878e-02
  4.4736963e-02
 -1.5170090e-03
  8.3633429e-05
 -1.3682195e-02
 -3.3535668e-01
  5.6100468e-04
 -3.7687782e-02
  1.1069597e-04
 -2.9780688e+00
 -1.8934939e-03
  4.7411988e-03
 -4.1343947e-04
  1.1886348e+00
 -1.1963738e-01
 -1.2195655e-03
 -8.4476188e-02
  1.0290602e-03
  1.1895503e-04
  1.0250417e+00
  9.1579475e-04
 -1.1495422e-03
 -1.1177330e-01
 -8.4813666e-03
 -2.1853055e-01
  4.0713383e-04
  7.4496688e-03
  5.3815608e-04
 -5.0660681e-05
 -1.2436783e-04
 -9.4948455e-06
 -1.7381790e-04
 -1.3398218e-04
 -4.6844085e-05
 -7.0200424e-04
  6.4784032e-04
  2.9208619e-05
  3.8052339e-04
  1.6087904e+00
  1.8884799e-03
  2.8847926e-04
  1.3346954e-01
 -6.0600573e-01
  2.0047140e-03
  3.0770623e-03
  1.3292208e-01
  1.9909074e+00
 -1.8157312e-05
  1.6156718e-04
 -1.3286629e-04
 -7.1992830e-04
  3.5908758e-03
 -1.4957326e-04
 -3.7695662e-04
 -1.4014833e-04
  1.5776807e-02
  1.4158556e-01
 -1.0429423e-03
  8.8575650e-03
 -8.8459259e-04
 -4.0229720e-01
  5.2578962e-01
 -2.2879385e-03
  9.6768737e-01
 -5.2869361e-02
  7.2336066e-01
  3.9923187e-05
  2.0658910e-05
  1.2846686e-03
  3.8812172e-01
  3.2215673e-04
 -5.6071454e-01
 -6.3360050e-02
 -5.2203732e-03
 -1.0283537e-03
  2.6724273e-03
 -2.4842398e-05
 -6.4104015e-04
  3.6008190e-03
 -2.8590401e-04
  1.7061237e-03
  1.8480634e-04
  1.0316420e-04
  4.9015704e-01
 -1.5174205e-03
 -2.1236933e-04
 -3.8720063e-05
 -1.3630779e-03
  2.4845055e-04
 -9.2876588e-05
 -1.7669371e-04
 -6.0957629e-04
 -5.4244942e-04
 -5.6530605e-04
  1.7258037e-04
 -1.5503538e-04
  1.8533826e-04
  3.3146964e-05
 -5.8569323e-05
  3.6226239e-04
 -9.3956601e-07
  1.2460047e-04
 -2.9383353e-05
 -7.2135433e-04
  1.7123903e-01
 -2.6342573e+00
 -7.9872912e-01
 -6.5787636e-02
  2.3277214e-05
  1.0559000e+00
 -3.5643238e-01
 -2.6635420e-01
  4.7684258e-01
  5.2784985e-01
 -1.1087521e+00
 -3.5573375e-01
 -6.5337729e-01
 -2.3152168e+00
  1.2431893e+00
 -2.7589986e-01
  7.2510252e-03
  8.6963230e-01
  8.7915659e-02
 -3.9809682e-05
  3.9078969e-01
 -9.6427584e-01
  2.1146025e-01
 -4.1841125e-01
 -7.4162960e-01
 -4.2387578e-01
  1.1876829e+00
  3.8326767e-03
 -3.6196214e-01
  9.6715999e-01
  4.9478722e-01
  6.0685468e-01
  1.1997230e+00
  6.7133978e-02
  3.2155458e-02
  9.1943163e-01
 -1.2040447e+00
 -2.7047467e-04
 -5.0669625e-02
  1.2035496e-01
  2.1274622e-04
 -1.2119289e-04
 -1.1848786e+00
  4.8704058e-01
  8.4440017e-01
  2.1499827e+00
  1.1401596e+00
 -2.0115841e-04
 -2.2295475e-05
 -3.8097182e-01
 -1.9746405e+00
  1.0029607e+00
  1.2710816e-01
 -5.8446862e-03
  4.4002375e-03
  2.0981744e-04
 -1.5116447e-05
  6.9920016e-03
  1.1408334e-03
  4.9029110e-05
 -2.9817168e-04
 -3.4398177e-05
  1.3420876e-04
 -3.4047465e-04
  2.5218401e+00
  4.0324897e-02
 -2.2324467e+00
  4.0392636e-04
 -1.9987973e+00
  7.3363924e-05
  1.3121411e+00
  3.3249518e-01
 -8.4882183e+00
 -5.0777727e-04
 -1.2684742e+00
  1.3951035e-01
  1.9395446e+00
 -4.5797387e-01
 -9.4545037e-05
 -1.0945135e-02
 -3.0345634e-01
 -4.8883299e-05
  8.0858940e-01
  4.0615407e-05
  1.9469842e-03
  7.1955997e-01
 -1.5587923e-01
 -1.6393870e+00
  1.3826451e-05
 -3.8119484e-02
  3.3895229e-04
 -6.7264700e-01
  3.6640760e-01
  1.4692032e+00
  8.2120985e-01
  7.0923370e-01
 -5.0076818e-01
 -6.3640444e-05
  1.1249612e-01
  2.8521541e-05
 -2.8520676e-01
 -4.1591463e-04
  4.9579015e-01
  3.8092974e-01
  1.0773468e-02
 -2.5184113e-01
  1.5775082e-04
  9.3413705e-01
  5.4267081e-03
 -3.9665771e+00
  2.1948792e-01
  4.6230594e-04
  2.5779298e-05
  3.5518540e-05
 -4.1576073e-05
 -6.6507338e-05
  2.2351636e-04
  4.0300867e-05
  1.5015572e-03
  3.1613515e-04
 -5.5597688e-04
 -7.6021755e-04
 -3.0118576e-04
 -8.9163921e-05
 -1.0689630e-04
 -1.8640944e-04
 -1.3360886e-04
  5.5246800e-01
 -1.6497121e-04
  8.0410117e-01
 -1.8747076e+00
  4.1460404e-01
 -2.3529623e+00
 -3.3325417e+00
 -6.1995977e-01
 -2.9687133e+00
  5.4867819e-02
  3.2019145e+00
  4.3108109e-01
 -5.8057237e-01
 -1.1591181e+00
  2.8996301e+00
 -1.5695881e+00
  1.4136425e+00
  2.3921361e+00
 -3.7235279e+00
 -4.1756894e-02
  1.2666436e+00
 -6.2944216e-01
 -2.2408397e+00
  1.2912767e+00
  3.8396804e+00
  1.2489672e+00
  3.1618002e-01
 -6.4076281e-01
  1.4280182e+00
  1.4273092e+00
 -1.1796757e+00
  2.0452764e+00
  3.0231295e+00
  1.2778218e+00
 -3.5845405e-01
 -5.3746862e+00
  1.4594349e+00
  6.6273314e-01
  1.5334793e+00
  9.3623292e-01
 -4.3074378e-01
 -5.1074799e-02
 -2.0785506e+00
  8.8168126e-01
  9.6057916e-01
  2.2166283e+00
  1.0152601e+00
 -2.8327928e+00
  5.7658565e-01
  1.2174995e-03
 -5.0779581e-01
  4.4102240e+00
  1.2011888e+00
  5.3330094e-02
 -2.0774951e+00
  1.8256220e-04
 -2.8079131e-04
 -9.8128200e-01
  2.5838817e-04
 -1.2816377e-04
 -7.0324657e-04
 -9.7378966e-04
 -2.4635124e-06
 -3.1064072e-04
 -7.5495016e-05
 -7.5811549e-04
  6.4310536e-04
  5.3319240e-05
  2.2354865e-04
 -1.7122757e-04
 -1.4786885e-04
  1.6776490e-04
 -6.5616878e-06
 -9.7495140e-05
 -1.0838945e-04
  1.4315208e-04
  4.1753994e-04
  3.6580823e-05
 -8.6915279e-05
  3.4592485e-05
  2.6114834e-05
  5.9679907e-05
 -2.9103705e-04
  1.9823913e-04
 -2.2383014e-05
  1.1001553e-04
  4.9439248e-05
 -4.2587531e-06
 -1.7948952e-04
 -3.5697213e-04
  5.1969028e-04
 -1.9911221e-04
  2.5154784e-04
 -8.5335480e-05
 -1.3024321e-04
 -1.1817031e-05
 -1.1084043e-05
 -1.3908047e-04
  1.4046489e-03
  3.2543569e-05
  1.8310997e-04
  2.3290388e-04
 -4.9923098e-04
 -1.1893227e-03
  4.9417402e-04
  3.7270939e-04
  1.5126960e-04
 -3.3113836e-06
  5.4319193e-05
  9.0154230e-05
  3.9838596e-05
 -1.3325925e-06
 -2.7477942e-04
  5.0025567e-04
  1.2605905e-04
  3.1348161e-04
 -1.1940356e-04
 -2.7752138e-05
 -9.1221055e-04
 -2.1393585e-04
 -2.2700847e-06
  2.0346150e-04
 -1.4910875e-05
 -1.4491231e-04
  6.6665758e-04
  2.3014630e-04
  1.2843600e-04
 -4.2420364e-05
 -8.7155589e-05
  2.3920575e-05
 -1.4469810e-04
 -1.7448873e-04
  2.6022050e-01
 -2.4909459e-01
 -2.9163587e-01
  5.8863908e-02
 -2.4883619e-02
 -4.0170041e-01
 -9.2519844e-01
  2.2393586e-01
  4.8747870e-01
 -7.7319093e-02
  1.3679296e-01
 -3.1150832e+00
  5.7204705e-01
 -6.4806372e-01
 -1.6636245e+00
  6.8803839e-02
 -1.5896398e+00
  5.5233464e-02
  3.6991557e-01
 -8.4755741e-02
 -1.0212535e-01
  4.4176263e-01
 -6.1629381e-02
 -5.7781253e-02
 -7.5323708e-02
  1.3978482e+00
  1.1546594e-04
  3.4928396e-01
 -6.5703022e-01
  8.0773592e-01
  4.2044405e-02
  3.8070531e+00
  5.1696273e-04
 -1.1303882e-01
  1.5348314e+00
  3.1305816e-02
  1.8034698e-01
  5.5482592e-02
  7.1746809e-04
  7.7858782e-01
 -3.2111219e-01
  1.3875782e-02
  9.2943537e-01
  3.7577420e-01
  1.6463813e-01
  3.8350518e-03
  2.9994908e-03
 -4.8170447e-01
 -2.4927624e-05
  1.3214282e+00
  7.7505422e-01
  4.1042544e-02
 -2.7051907e-02
 -4.9001074e-01
 -1.4866852e-03
 -7.9247385e-01
 -3.9297732e-04
  5.0111269e-03
  1.6238206e-04
  1.0027803e-04
  4.0493518e-04
  1.7667978e-04
 -6.9591901e-05
  2.0101453e-04
 -5.6679753e-05
 -2.4608979e-02
 -1.3873546e+00
  1.5904602e-01
 -2.6219308e-01
  1.3133954e+00
 -5.9049493e-03
 -4.4241861e-01
  3.3197086e-03
  7.6248461e-01
 -1.2997204e-05
 -2.1846900e+00
  6.4447738e-04
 -3.5877903e-03
 -2.8475378e-02
  6.1855145e-02
 -3.0776270e-04
 -5.2796245e-01
  6.2198851e-05
 -1.3785899e+00
 -1.7636984e-03
 -1.7946321e-01
 -1.3740276e-03
 -1.1603218e+00
 -3.0192628e-04
  8.8612604e-01
 -7.3949330e-02
 -1.0564173e+00
 -1.9572589e-01
  1.3207960e-03
  1.6764313e+00
  2.3575479e-02
 -6.0399804e-02
  5.7267403e-04
 -6.0954932e-02
 -1.7224535e-03
 -8.7694474e-04
  3.8440554e-05
 -1.5241428e-03
 -2.5010922e+00
 -1.3906785e-03
  1.4453125e+00
 -1.4252236e+00
  8.6894715e-01
  3.4141209e-04
  5.5511218e-01
 -1.0175788e-05
 -4.1949833e-03
 -3.7259140e-04
  3.2040797e-04
 -1.6407329e-03
  3.9779142e-02
  1.1611551e-02
  1.6801660e-04
  1.5458801e-04
  2.9097643e-04
 -1.2120596e-04
 -1.7523633e-04
 -5.3887797e-04
 -4.8346064e-05
 -1.4273234e-04
 -2.3781073e-05
 -6.0837807e-05
 -1.0848723e-04
  4.2628244e-04
  4.8313581e-05
  1.7875450e+00
 -3.9151251e+00
  1.9653140e+00
 -1.1472041e-06
 -6.2671018e-01
 -1.4421225e-01
 -1.3199238e+00
 -4.2257700e+00
  4.7843003e-01
 -2.1124915e-05
  2.6699994e-03
 -2.6019060e-04
  6.2603282e-04
  1.9149415e-03
  9.9510062e-01
  3.8316520e-03
  1.5839703e-03
  5.4634386e-04
  1.0705774e-02
 -1.4055965e-03
  6.3024366e-01
 -8.3669339e-04
  9.4114995e-04
  1.7664480e-01
 -4.7418132e-01
  2.0356114e+00
  1.8397607e-01
 -3.1931125e-04
  1.2083236e-01
 -2.7811441e-01
  5.6927729e-01
 -3.1449971e-01
  5.7919711e-01
 -8.8579483e-02
  9.4583231e-01
  1.3144551e-01
  4.1756216e-01
 -3.8647547e-01
  5.0268573e-04
 -1.8523157e-01
  1.0023375e-02
 -6.2345034e-03
 -1.0975526e-03
 -1.0257166e-01
 -9.9175889e-04
 -1.9412630e-05
  1.3518412e-01
  1.0963406e-04
  1.7232858e-04
  4.1974080e-04
 -5.0523656e-04
 -2.8384777e-04
 -5.5807256e-03
  6.4559199e-04
 -1.9022509e-05
 -8.6698146e-04
  1.1972433e-04
  1.0997992e-03
  4.7262735e-04
 -5.8479671e-04
 -4.0132050e-05
 -1.9647719e-05
  4.4897155e-05
 -2.4700223e-04
 -3.5132548e-06
  1.7013788e-05
  5.8713231e-05
 -9.6875323e-05
  1.0052379e-04
  7.5098840e-05
  8.2161554e-05
  1.0001024e-04
 -1.5960628e-05
 -9.8553486e-05
 -3.9139122e-06
 -4.3917316e-04
  5.9712667e-04
  4.7332545e-05
  8.4916258e-04
  1.0732553e-04
 -5.3230950e-05
  1.2588189e-05
  2.8224831e-06
 -2.2523949e-05
  4.2644664e-05
  1.6833121e-04
  1.9017876e-04
  1.8502159e-04
 -2.5173606e-04
 -1.6144899e-04
  5.4249562e-05
 -2.6659378e-05
 -2.5995880e-05
  1.9540383e-04
 -8.2401733e-05
  2.3606152e-04
 -6.7356764e-04
  1.3387409e-05
  3.5943140e-04
  3.2094377e-04
  1.1680763e-05
 -1.0576603e-04
 -3.5271421e-04
  2.8482056e-04
  2.4409813e-04
 -3.7193159e-04
  9.0836700e-05
  1.0148843e-04
  3.7217433e-05
 -1.1089408e-04
 -6.9074049e-06
  1.7245485e-04
  3.5561847e-05
 -6.7516536e-05
  6.9473131e-04
 -2.5466969e-04
 -1.8081949e-04
  4.0692659e-05
 -1.8767903e-05
  3.4575485e-05
 -1.4297467e-05
  8.6853666e-05
 -2.5637702e-05
  4.5028364e-04
 -8.1216567e-05
 -1.1728496e-04
 -3.8173050e-05
 -7.0737755e-05
 -3.3226825e-05
 -2.5716092e-04
  1.1443184e-04
  2.9943601e-04
 -4.5191590e-04
  5.2115851e-04
 -5.2178148e-06
 -7.2037742e-06
 -8.2517159e-05
 -1.0834849e-05
  6.3848647e-04
  1.1444009e-03
  1.1000921e-04
 -5.3984660e-04
 -3.2830889e-05
 -1.7318309e-04
 -5.3431948e-05
  1.2570852e-04
 -4.5901837e-05
 -2.8692493e-05
 -1.4536279e-04
  1.4579114e-04
  2.3503750e-04
  2.7316170e-05
  5.9711281e-05
 -1.3202221e-04
  4.6518584e-05
 -1.2378649e-04
  1.1515202e-03
 -2.2553018e-05
 -2.6072023e-04
 -1.6717687e-04
 -2.3913208e-05
  1.0688992e-03
 -4.2398991e-05
  2.3478713e-04
 -1.7704377e-04
 -4.6474110e-05
 -1.0330618e-03
  1.6643394e-04
 -8.1041624e-04
  3.1665966e-04
  4.0439435e-04
 -1.9931830e-04
  1.1162960e-04
  2.7171933e-05
 -6.7911902e-04
 -8.6391439e-05
  1.8264647e-04
  2.8910389e-04
  3.5868774e-04
  2.2552249e-05
 -1.5307913e-04
  7.6628377e-05
  1.1333902e-04
  3.4598427e-04
 -5.3824573e-05
  6.4392877e-04
 -1.3256755e-04
 -1.0007294e-04
  1.0190620e-03
 -2.5053123e-07
 -4.6447301e-05
  3.2271267e-04
  2.2027214e-04
  1.9407806e-04
 -3.0146618e-04
 -1.8121095e+00
 -1.7711176e+00
 -2.4999843e+00
 -4.5819526e+00
  1.1222246e+00
 -6.3404065e-01
  3.6536160e+00
  1.4302245e+00
 -9.4566351e-01
 -3.4400371e-01
 -1.7473371e+00
  1.8206313e+00
 -1.9323692e-01
  1.9597208e+00
  1.7463015e-01
 -2.7526596e+00
 -1.9489841e+00
  3.2344349e-03
 -1.1955910e+00
 -6.9579482e-01
  1.5075499e+00
  2.7472565e+00
 -3.1798787e-02
  5.3233302e-01
 -3.5402162e+00
 -2.3699725e-01
 -3.5993359e-03
  1.1267245e+00
  8.2488544e-02
 -1.8987359e+00
  1.1190790e+00
 -1.6177765e-01
  2.5294678e+00
 -1.8701919e+00
 -1.9017435e+00
 -6.2416553e-01
 -4.8308179e-01
  1.3588468e-02
  9.4603270e-01
  2.8360328e-01
 -2.8856939e-01
  6.9654971e-01
  6.6241948e-03
  1.0439703e+00
  3.4213698e+00
  1.2216243e+00
 -1.5115798e+00
  8.1653118e-01
  1.1351893e-01
 -5.0160605e-01
 -1.2856345e-01
 -6.0049289e-01
 -6.3823694e-01
  1.1393584e-04
  4.9487711e-04
  2.1324879e-02
 -8.2866660e-05
  1.6397641e-04
  2.8825068e-04
  1.7799137e-04
  5.0136739e-05
  1.3726125e-04
  1.6024846e-04
 -1.8315641e-05
 -2.8360268e-04
 -7.5007014e-02
  6.1528546e-01
 -6.4703119e-01
  9.4330156e-01
  1.1335435e-01
  1.2322402e-03
 -3.1063595e-01
  1.0917949e-01
 -4.2707183e-05
 -5.9870947e-02
  7.2617024e-02
  5.6744564e-01
  6.2822628e-01
  8.0461793e-02
  7.0291865e-01
 -5.3828871e-01
 -1.8363738e-01
  9.5712267e-02
  1.1039759e+00
  7.2701037e-01
 -6.6778362e-01
  1.7939284e+00
 -8.2131205e-03
 -7.0576710e-01
  2.9909227e-02
 -1.7953613e+00
  6.6723791e-04
 -2.5293332e-01
  7.1889883e-01
  7.0439376e-02
  1.8626430e+00
 -2.5216460e+00
 -5.9273094e-01
 -1.3068012e-02
  8.4726781e-01
 -4.5913973e-01
 -3.4332905e-02
  1.6949385e-01
  6.1950177e-01
  4.3908814e-01
 -6.8126357e-01
 -5.1137596e-01
 -1.3687991e+00
 -7.2761875e-01
  1.8840286e-01
 -1.8225405e-02
 -4.1260126e-01
 -1.2749414e+00
  1.5124799e-01
  2.3717079e-01
 -1.2624778e-03
  2.5115305e-01
 -7.5984657e-02
 -1.2853259e+00
  3.0413836e-05
 -1.3785738e+00
 -2.6397589e-05
  7.4081846e-02
  8.2268190e-01
 -1.0242483e-03
  3.2667390e-03
 -7.8860248e-05
  3.0681854e-03
 -4.3978773e-05
 -2.6775835e-05
  4.8245668e+00
 -2.0491219e+00
  1.2191576e+00
  2.1532345e+00
 -5.8397913e-01
 -3.3667619e+00
  1.3310790e+00
  2.3685775e+00
  1.8974934e+00
 -2.6126361e-01
  1.9729370e+00
 -1.7527699e+00
  1.2757359e+00
  1.1242923e+00
 -1.7165953e+00
  3.6362729e+00
  3.0711348e+00
  3.4746478e+00
  1.9146714e+00
 -2.1079348e-01
 -5.0880706e-01
  2.9917756e-01
  1.8763660e+00
 -4.5553374e-01
  2.5243442e+00
 -1.5732333e-02
  4.0594225e+00
  1.5388919e+00
  8.5894535e-06
  3.2325104e-02
  1.4949895e+00
  1.3706414e+00
  2.2449393e+00
 -4.8608842e+00
  1.4354721e+00
  1.5796937e-01
 -3.0919272e-01
 -5.0793213e-01
  1.6105878e+00
  1.0080582e+00
  1.2519686e+00
  1.0905663e+00
 -2.0690792e+00
 -5.8394420e-01
 -3.4641268e-04
 -1.2900241e-03
  6.8350619e-01
 -1.1009462e+00
  3.7295935e-01
  4.7153139e+00
  6.2499028e-03
  3.9131982e+00
 -8.6691827e-02
 -1.1834722e+00
 -5.0749481e-05
 -4.8230802e-05
 -3.6480993e-05
  2.7442846e-04
 -1.6398257e-05
 -5.8491138e-04
 -3.8882863e-04
 -9.0477050e-05
  2.6521756e-04
  1.1167728e-04
  5.1223044e-04
 -3.7195645e-05
 -4.9782171e-05
 -7.1520422e-05
 -3.6475984e-05
 -1.9873024e-04
 -5.6155204e-05
  3.7136464e-04
  9.0501242e-05
 -1.0080238e-04
  1.3136092e-04
 -2.5451367e-05
 -5.8137800e-04
 -1.0705546e-04
  1.1672478e-04
  1.7607459e-04
  2.2725584e-03
 -4.2800739e-04
  2.6397209e-04
 -6.6707371e-04
  2.1362015e-05
 -7.0806986e-05
 -1.1172520e-04
  2.0328203e-05
 -1.2102012e-04
 -1.0709201e-04
  1.5473473e-04
  8.8601832e-05
 -2.3277749e-05
  3.5964929e-06
  2.2105193e-04
  7.8738504e-04
  4.5709301e-05
  6.7117238e-05
  3.4497312e-04
 -3.8020717e-05
 -9.0893198e-05
  2.3360130e-06
 -5.5465032e-05
 -7.6018921e-05
  1.1538922e-04
  1.1649507e-04
  2.5355148e-05
 -5.8631220e-05
  2.5362211e-05
  5.7793706e-05
  1.9740666e-05
  1.4651706e-04
 -6.7807991e-06
 -1.2151153e-04
 -1.7676884e-04
  5.9916256e-06
 -4.7898724e-05
 -6.3936395e-04
  3.6052326e-04
 -1.3480877e-04
 -1.6179115e-06
 -2.1776812e-04
 -9.1996488e-05
 -5.8538157e-05
  5.3993146e-05
  2.7335633e-04
 -1.5325722e-04
 -5.5506211e-05
  2.7660510e-04
 -8.3751051e-04
 -9.5539749e-01
  2.1866124e+00
 -8.6348045e-01
 -6.6884130e-02
  4.8856735e-01
  2.1778680e-03
  9.1495334e-05
 -5.3649467e-01
 -1.5977116e+00
  9.5057127e-05
  9.8568898e-01
 -1.4627144e-04
  1.3453532e-03
  1.9323103e-01
 -7.5236909e-05
  8.4482663e-04
  1.7903505e-02
  5.6683330e-06
 -2.3194708e-01
  9.2878751e-02
 -5.9840798e-01
  2.9564698e-03
  1.4821995e+00
 -1.4191219e+00
  1.6623522e+00
  3.7447274e-02
  1.5495843e-01
 -4.4293178e-05
 -8.4917864e-04
  1.5398331e-03
 -5.7521026e-04
  1.3366258e-02
 -3.8183563e-05
 -2.0766541e-04
  1.3594183e+00
  5.4137671e-01
 -3.7063506e-01
  6.3958336e-03
 -7.0913576e-02
 -7.3369509e-01
 -1.2400232e-01
 -1.8822023e+00
 -1.4426295e-02
 -1.0631541e+00
 -1.7545433e-01
 -4.1418105e-01
  9.0989063e-04
  2.0934068e-01
  1.0723774e-03
  2.7329096e-01
 -5.1632917e-01
  5.7204918e-04
  2.8511116e-02
  5.1148905e-05
  5.1394867e-04
  4.5855901e-05
 -3.2341381e-04
 -5.7003536e-04
 -7.5437361e-05
 -5.4893363e-04
  6.2389045e-05
  2.7160326e-04
  2.9912384e-04
 -9.7186363e-05
 -6.0992251e-04
  1.5683007e-01
  2.0849276e+00
  3.0727875e+00
 -3.0365607e-03
  1.1066342e-04
 -3.8646802e-03
 -2.9356849e+00
 -1.8456562e+00
 -1.1188263e+00
  1.0219085e-04
 -3.1172001e+00
 -2.0992823e-04
 -6.9264990e-01
 -1.0113161e-03
 -8.3695364e-01
 -1.6662242e+00
  1.5611800e-03
 -2.0513216e-03
 -1.7320745e-03
 -9.3317086e-01
  6.2706709e-01
 -4.6797391e-02
  1.1928365e+00
  5.1908534e-02
 -4.5316594e-04
  8.2454735e-01
 -2.5980207e-05
  3.9800634e-03
  5.3338602e-02
  1.8340327e-04
 -3.6314198e-01
  4.6885270e-01
 -9.6767887e-02
 -4.9901780e-02
  1.5343722e+00
  4.5096320e-01
 -1.3312664e-03
 -3.7342468e-03
  1.2330592e-01
  3.2501188e-04
  6.7644835e-01
  2.2656065e-03
  1.0052952e-02
  1.2125142e+00
  1.4813897e-03
  4.1284841e-02
 -2.1396488e-02
  7.0501666e-04
 -3.3764700e-05
  3.0406939e-03
  9.0562418e-04
  7.9513754e-04
 -3.6616944e-04
  8.4996755e-05
 -8.7057924e-06
 -9.8554563e-05
 -7.5777389e-05
  9.0305199e-05
  9.4705319e-05
  5.2166120e-05
 -1.3472678e-04
 -4.0790565e-05
 -3.0259285e-05
  1.0594872e-04
  3.8336635e-05
 -7.1258783e-01
 -2.5301065e+00
 -1.4234316e-01
  5.1153284e-01
 -1.0113456e+00
  8.0778360e-01
  3.3835599e+00
 -1.4335111e-01
  5.9598869e-01
  1.2161406e-04
  1.8616873e+00
  2.1524436e+00
 -3.4949693e-01
  4.1088400e+00
  1.0304842e-02
 -1.1434144e+00
  1.0581932e+00
 -6.5007198e-01
  3.0539811e-01
  1.0316533e-04
 -1.2999469e-02
 -2.6841360e-01
  7.9932797e-01
 -6.9824547e-01
  1.1582531e+00
 -1.5437431e+00
  3.4850698e-05
 -5.1830053e-02
  1.2174594e-01
 -1.7402020e+00
  1.8710041e-03
 -1.4229541e+00
 -1.2902753e-01
 -4.9752396e-01
 -7.4251580e-01
  3.4749621e-01
  1.7538900e-03
  2.9099691e-01
 -5.0059013e-04
 -2.7290472e-01
 -4.1503173e-01
 -6.8654352e-01
  1.3366120e+00
  2.4643873e-01
 -1.7905256e-01
 -1.1371132e-02
  3.1604001e-01
 -1.2383178e+00
  1.3157112e-03
 -4.1582756e+00
  1.7096806e-01
 -5.2575576e-01
  7.1032703e-01
  3.3345891e-04
 -7.2301700e-05
 -2.2824787e-04
  1.2442273e-04
 -1.3741813e-04
  6.3165557e-04
 -1.7760976e-04
 -1.1959823e-04
  1.6829489e-03
  2.8429829e-04
  9.1262307e-05
 -5.1768831e-05
 -1.0157342e-01
 -4.3686328e+00
  2.0437878e-01
 -5.1716946e-02
 -4.9715695e-01
 -5.7424996e-02
  3.6871263e-01
 -4.6962581e+00
  1.6868613e+00
  9.3919080e-05
 -3.1256101e+00
 -3.4531152e-03
  1.2022629e-04
  4.1419891e-01
 -3.7919145e-02
  4.5549792e-01
  3.4769094e-03
  1.3294666e+00
  4.2003089e-01
 -1.6075958e-01
 -1.2553421e-02
  4.5675319e-04
 -1.0607867e+00
 -6.4648682e-01
 -2.1591996e-01
 -1.2999121e+00
  2.5402039e-01
  1.7380683e-02
  1.8379319e-01
 -1.4574292e-01
 -1.5704677e-02
  2.0674238e+00
  1.8749218e+00
 -1.2451048e-03
 -7.3244846e-01
  7.9352938e-02
 -4.0923187e-01
  5.7156421e-03
  8.3434153e-01
 -1.5787533e-01
  2.9627296e-01
 -8.3703861e-05
  3.4702402e-01
  1.3440237e+00
  2.4393806e-02
 -8.7296357e-05
  2.2112086e-04
 -2.1964628e-05
 -7.4417680e-04
 -1.4944618e-04
  5.6770717e-05
 -1.8269836e-04
  1.9396259e-03
  6.2175095e-05
 -1.1499401e-04
 -8.1157763e-05
  5.8378835e-05
  5.6442927e-04
 -6.3314059e-05
  2.6937944e-04
 -2.1451472e-04
  1.0277431e-04
  9.0226706e-05
  5.7407804e-05
 -3.2832935e-02
 -7.9188112e-04
 -2.4520060e-02
  5.7906318e-03
 -8.7534952e-01
  2.8864455e-01
 -2.0278646e-02
 -1.0648761e+00
 -6.5604442e-01
  1.8741820e+00
  1.5498670e-03
  4.8569608e-01
 -1.2309855e-04
 -1.4674143e-01
  2.0451415e+00
 -1.5686036e+00
  7.1847492e-01
  1.2000146e+00
  3.1281903e-01
  3.5206642e-04
  1.1633836e-03
  1.7052384e-02
 -1.5160824e+00
  1.0494730e+00
  1.8830386e-01
 -9.8292388e-05
 -1.8559372e+00
  3.8017724e+00
 -6.8066144e-01
 -1.0223447e-03
  5.4012376e-01
 -8.1762305e-04
  7.0974374e-01
 -4.2646661e+00
 -3.7678522e-01
 -9.9902940e-01
  6.4917140e-02
 -3.1326044e-02
  1.3131464e+00
  1.3866211e-01
  4.9045831e-01
 -7.4467158e-01
 -1.1170087e+00
  1.0571758e+00
 -2.7399614e-01
 -6.8935460e-01
 -2.9050601e-01
  1.8435332e-01
  9.5777179e-04
 -4.8244739e-04
 -6.9971528e-04
 -3.1840762e-05
 -7.4839569e-04
  5.7201064e-04
 -1.0495692e-04
 -4.0350133e-05
 -1.0339406e-04
 -1.0563640e-04
 -1.0766968e-04
 -2.9131488e-04
 -2.5518343e-04
  3.6397661e-04
  1.1101433e-04
  9.7503209e-05
  1.0879011e-04
 -1.6685807e-04
 -1.2800100e+00
  3.7015052e+00
  3.1812519e-01
 -3.9889941e+00
  2.1525083e+00
  3.1160433e+00
 -2.1042843e+00
 -3.7615867e+00
 -1.1716850e-01
 -2.5511293e-02
 -1.8981372e-01
  2.2142181e+00
  3.2557583e+00
 -3.5045037e+00
  1.3525329e+00
 -5.8257356e+00
 -2.3506811e-02
 -1.9788699e+00
  1.0204249e-02
  3.7778556e-01
 -1.6309337e-01
  8.3882734e-04
  4.6054137e-01
  7.9547101e-01
 -1.0287287e+00
  2.6084888e+00
 -1.7976766e+00
  1.8362533e+00
  8.8804001e-01
 -1.5963765e+00
 -1.8047802e-01
 -1.4614406e-02
  2.6310545e-01
 -1.4949812e+00
 -1.0714458e+00
 -6.9612080e-01
  1.7218331e+00
  2.4271479e+00
 -1.2595731e-01
 -3.7185125e-02
  1.3288784e-01
  2.2732081e+00
 -1.7910967e+00
  1.0977782e+00
  6.7928739e-02
  8.5521388e-01
  1.1360422e+00
 -2.5008738e-01
 -4.0076546e-05
  2.7586899e+00
  4.3785879e-01
  1.9744861e+00
 -2.5261724e+00
 -1.9919569e+00
 -7.3533808e-04
 -1.3130821e+00
 -3.8846454e-05
  1.0340298e-01
  1.6696775e+00
  2.8417740e-04
  1.1488589e+00
 -1.9888060e-04
 -3.3175960e-04
  1.5496168e-03
 -3.0149156e-05
  6.3685250e-01
  9.9068165e-01
 -3.9431831e-01
 -3.8358667e+00
  6.5584373e-01
 -1.4913440e+00
 -1.2276251e+00
  2.0104972e-01
  8.9879501e-01
 -1.5197662e-01
 -5.7909381e-01
 -1.1668541e+00
 -4.3516549e-01
  2.5750782e+00
  5.7289936e-03
 -7.8834772e-02
  1.1668252e+00
  2.6855884e+00
  1.0493194e+00
  5.2735758e-01
 -6.7484640e-02
 -1.8832701e+00
  3.4246042e+00
  1.3240942e-01
 -1.7157762e-01
 -4.7607774e-01
 -6.8906063e-01
 -6.2241238e-01
  5.8599204e-01
 -6.1597340e-03
  2.0961905e-01
 -4.5604956e-01
  1.7196277e+00
 -5.8523256e-01
  2.9049581e-01
  2.1066725e+00
  7.5704682e-01
  1.5468064e-03
  2.3025477e+00
  3.3877972e-01
 -1.1703182e-01
  1.1463193e+00
 -2.7926283e+00
 -1.2579571e-01
  3.8872698e-01
  5.6870938e-03
 -1.0864758e-01
  5.9807813e-04
 -1.8781042e-05
  1.5222205e-02
  1.9790316e-01
 -2.5374095e-03
 -1.3010188e-02
 -6.4714468e-04
 -1.7687196e-01
 -6.5594021e-04
  6.1235201e-05
 -1.0289727e-05
 -4.4908642e-04
 -1.2030244e-04
 -1.0376751e-01
 -2.9711766e-04
 -6.7906169e-04
  2.3139852e-05
  1.2120639e-04
 -6.8864407e-04
 -4.6543488e-03
  4.1767243e-02
 -1.1292940e-04
 -2.1005191e-04
  4.6332675e-06
 -3.7658112e-03
  5.6639290e-03
 -8.0093408e-01
 -1.3230074e-03
  7.7682117e-04
 -4.1550308e-04
 -1.6081707e-04
  3.9010756e-05
  3.4983249e-04
 -3.8777125e-05
 -2.0881352e-04
 -3.4089494e-04
  4.1784189e-04
 -2.1136238e-04
  5.0899852e-04
  2.6818721e-03
  7.2903364e-05
  9.2849782e-04
  4.5696124e-03
  1.8828521e-03
  5.3894386e-04
 -1.5497056e-04
  9.0741721e-04
  1.0884049e-03
 -6.4944616e-05
 -2.1456976e-01
 -5.0337776e-04
  2.2083604e-04
 -2.0252621e-02
 -4.0934753e-04
 -1.1816236e-04
 -1.5839425e-04
  1.4205492e-03
  9.0710804e-05
  5.1932340e-04
 -1.0733904e-03
 -9.2780341e-05
  1.5779256e-03
 -4.2382573e-05
  1.0082319e-04
  5.1293394e-04
 -1.3129173e-04
 -3.4374296e-04
  6.0004400e-06
 -3.5777219e-04
  3.3003348e-04
 -5.6445286e-05
  5.2088035e-07
  1.2144133e-04
  9.5855567e-06
 -8.6870554e-05
 -1.3201879e-04
 -4.5304836e-04
 -3.4616849e-05
 -1.1077401e-04
 -1.1763741e-05
  7.7095618e-05
  1.1997048e-04
  1.7249602e-04
 -1.5144565e+00
  1.8580517e+00
 -3.6317331e-05
 -7.3103205e-05
  1.9976038e+00
 -5.7245890e-04
 -2.0659983e-01
 -1.8756808e+00
 -3.6449764e+00
 -1.9282626e-04
 -2.4724517e+00
 -1.2900510e+00
 -1.5634739e+00
 -4.5615141e-04
 -3.0198708e+00
  5.0745821e-01
 -6.5256584e-01
  3.6817347e-04
 -1.2950362e+00
  3.8191608e-01
  2.7984241e-01
 -5.3158141e-04
  2.9519949e+00
 -2.7678664e+00
 -3.3132967e-01
  9.3896851e-02
 -4.9837696e-04
 -1.6873883e-01
 -3.5519210e-01
  8.2639267e-04
  1.6123673e-01
 -1.7012998e-02
  1.7659563e-01
  1.2487368e-02
  1.5761515e-03
 -1.0284329e-02
 -1.4241431e+00
 -3.2652563e-01
  7.6580641e-04
 -5.0123371e-02
  1.8537529e+00
 -1.1383947e-01
  1.2633041e+00
 -7.9213560e-01
 -2.0704526e-03
 -1.1922253e+00
 -1.4055821e+00
 -1.9304120e-04
  4.8486771e-05
  1.0225467e-04
  2.7377102e-05
  7.4232900e-01
 -8.8172565e-05
 -1.6060458e-05
  1.9609950e-04
  3.6625675e-04
 -2.0067724e-04
 -5.1253792e-05
  2.9757002e-04
  1.4374308e-04
 -5.6291607e-05
 -9.9094716e-05
 -6.9294598e-05
 -1.0286905e-04
 -2.7312171e-05
  4.2166317e-01
 -4.0471527e-01
  4.2774636e-01
  5.6307267e-02
 -9.4951920e-02
 -4.1752487e-01
  1.8656015e-01
  1.2583487e-01
 -7.2613144e-01
  3.1602088e-02
  1.0802995e-01
 -6.7758787e-01
 -2.8824160e-01
 -4.2235642e-03
 -1.9431223e-01
  4.0799710e-01
 -2.9867378e-01
  2.6268739e-02
 -1.3662507e-01
 -1.3647452e-01
 -7.5083300e-02
  6.4121693e-02
 -5.2344286e-01
 -7.4994735e-02
 -1.4896341e-01
  1.9873743e-01
 -7.4429554e-03
 -1.3073973e-01
 -2.6827225e-01
  9.3034208e-03
 -8.1358114e-03
 -4.8747063e-01
  9.5788397e-02
  1.0362853e+00
 -4.0581226e-01
  1.4949573e-02
 -4.6284577e-01
  3.4650567e-01
  2.9564780e-01
 -2.1263431e-01
 -1.9046302e-01
 -3.2008674e-02
 -3.6315545e-01
 -4.4100504e-02
  1.0983794e-02
 -9.4766182e-01
 -1.0592833e-03
 -8.3355182e-05
 -8.3035123e-01
 -5.7949584e-02
  3.7572125e-01
  1.1442088e-01
  4.8198092e-01
  4.3585166e-04
 -1.6394616e-03
  5.8226541e-02
  5.8029066e-03
 -1.2080825e-04
 -3.3666935e-02
  1.1869029e-03
  1.7892415e-04
  2.3398043e-05
 -5.6362426e-04
 -1.6057203e-03
 -8.2660647e-04
 -4.0102434e-01
  1.3214840e+00
 -4.2335299e-01
 -1.3113485e-01
  5.3169787e-01
  8.3081150e-01
  4.2485771e-01
  7.0474005e-01
 -2.8235599e-02
  1.0261888e-03
 -1.8896306e-01
  5.4051703e-01
 -2.1826585e-01
  8.0571079e-01
 -3.6755204e-01
  1.2459599e+00
 -8.9465542e-04
 -3.2456701e-03
 -7.6033866e-01
 -6.8749883e-04
 -1.1215572e-01
 -4.3591136e-01
  2.5508773e-02
  3.8933143e-02
  1.3721677e+00
 -2.7401246e-02
 -1.3381651e-01
 -2.2660092e-01
 -7.0423149e-02
  6.3771629e-01
 -5.6842919e-03
 -2.9016063e-01
 -1.2921085e+00
  2.2105394e-01
 -1.7813500e+00
 -1.0643068e-01
 -1.0235211e+00
  8.4860420e-01
 -3.7222758e-03
  1.4905336e-01
 -3.8898218e-01
 -2.5069684e-01
  7.0414387e-02
 -2.2981258e-01
  3.2483894e-04
  2.5815700e-04
 -4.1437108e-02
 -1.0299342e-04
 -5.1018687e-05
 -9.9975623e-02
  5.6287937e-04
  1.7426850e-01
  2.7306154e-01
 -3.5999630e-02
 -1.3072863e-04
  4.6066982e-01
  4.5552728e-04
 -7.2697094e-03
 -5.3846341e-04
  3.4996614e-04
 -1.3081661e-03
 -6.9838949e-04
  2.0122236e-05
 -1.8599302e-03
  2.9979926e-03
  1.9365888e+00
 -3.5271316e+00
 -4.1075373e+00
  5.6530094e-01
 -2.9204268e+00
  1.9871160e+00
 -9.1595078e-01
  3.3154094e+00
  3.1525495e+00
 -1.9120046e+00
  1.6695392e+00
 -1.8302461e+00
 -6.9152778e-01
  4.3739215e-02
 -1.0447971e+00
  3.1016507e+00
  1.2754235e+00
  5.2366376e+00
  1.0488949e+00
  3.2499334e-01
  1.0225222e+00
 -1.1104615e-01
  1.3940890e-01
 -2.2912159e+00
  8.1371987e-01
 -4.1694793e-01
  5.6690464e+00
 -2.4065717e-01
  2.1316729e-02
  1.4841357e+00
 -1.1856188e+00
  1.3269117e-02
  1.2277848e-01
  2.1707149e+00
  2.1731951e+00
  3.5968659e+00
 -4.2991066e+00
  1.4274893e-02
 -2.2514421e-02
  1.0416535e-01
  1.4124097e+00
  1.6955148e-01
  9.8748243e-01
 -8.8575357e-01
  2.5707585e-01
 -6.0976988e-01
 -4.7172022e-01
 -7.9796755e-01
  5.5846065e-01
 -1.6365440e+00
 -2.3010378e-03
 -1.2403614e-03
  5.4193888e+00
 -4.8594359e-01
 -6.9280076e-01
  3.4350145e+00
  1.3873652e-04
  1.5074845e-01
 -8.3357894e-01
  2.2601247e+00
 -6.2551999e-01
 -1.7555523e+00
 -1.5441068e-02
  5.2193308e-01
  5.6157936e-04
  1.8835719e+00
 -8.5859019e-01
 -1.1825685e-01
  1.5886840e+00
 -2.3350205e+00
 -5.8453250e-01
 -1.7274035e+00
  1.9883332e+00
  2.4610892e-01
  1.4110729e+00
  2.0516896e+00
 -3.9452832e-04
 -4.3588015e-01
 -8.4701788e-01
 -1.5173727e+00
  8.4237659e-01
  4.0756693e+00
  1.0136628e+00
  1.0575489e-01
  1.0902058e+00
  5.3514194e-01
  7.4619895e-01
 -2.4286232e+00
 -2.1067549e-02
  4.2206419e-01
  2.3561008e+00
  4.1204508e-02
 -2.3191392e-03
  6.0130769e-01
 -2.7194387e-01
  4.2677689e-01
  2.0194428e+00
 -1.5048999e-01
 -4.3280425e+00
 -1.1529685e+00
 -1.0652691e+00
  1.4709144e-02
 -4.1478512e-01
 -1.1681947e-01
  7.4083734e-01
  1.3841128e-01
 -1.4476596e-01
 -1.3016346e+00
  6.2433124e-01
 -2.3151611e-03
 -2.6944056e-02
 -2.5435546e-04
  7.3962390e-01
  4.9688628e-05
 -9.5732611e-01
 -4.1990457e-03
 -3.4914868e+00
  5.1551229e-01
  7.0378780e-01
  7.2649494e-03
  2.5998161e-03
 -5.8698639e-05
  3.5008244e-04
  3.2962570e-03
 -2.6096042e-05
  2.5061893e-04
 -2.6859896e-04
 -1.1554753e-04
 -2.5035979e-05
  1.4398363e-05
 -2.9161112e-02
 -1.9641979e-02
  3.1903866e-01
  1.8078382e-01
  3.3730316e-01
 -2.0676568e-01
 -1.7871729e-01
  1.6826690e+00
 -2.4308646e+00
  1.6770826e-03
 -1.1673509e-01
  9.5697204e-03
 -2.8780964e-01
 -1.8638211e+00
 -9.6493393e-01
 -1.4724387e+00
 -1.5869915e+00
 -8.6484998e-01
 -4.8342261e-02
  1.4995346e+00
  3.6531875e-01
  3.7301160e-02
  1.4424077e-01
  2.2861087e-01
  3.9066327e-01
  2.9642230e-02
  6.0043871e-01
 -5.3228480e-01
  3.6503816e-01
 -3.4503362e-03
 -9.6602208e-04
  2.6947835e-01
 -2.2709602e-04
 -4.9779576e-01
 -3.2205066e-01
 -2.1372798e-03
 -6.1722642e-01
  1.7411461e-01
 -6.7808586e-01
 -3.6387426e-01
  2.3325862e-01
  2.4739544e-01
  1.5242510e-01
 -1.2328116e-01
  1.1445242e-03
 -6.2670439e-01
 -3.6648256e-01
  1.8160703e-03
 -1.1822512e-02
 -5.8947611e-05
 -9.7234314e-03
  1.7273084e-03
  3.4987929e-03
  4.2185665e-04
 -8.0580008e-05
  2.4202050e-04
 -4.7253225e-06
 -1.0561442e-03
 -1.7844935e-01
 -1.3630835e-03
 -6.6233921e-01
  1.4502712e-03
 -6.6826440e-05
  2.3068079e-04
  3.1555905e-05
 -1.3282318e+00
  1.2519145e+00
  1.2213628e+00
 -7.9919928e-01
  1.0811644e+00
 -4.0180427e-01
 -1.0798845e-01
 -1.8378381e+00
 -2.5570035e+00
 -1.0699821e-03
 -7.9994780e-01
  6.2098026e-01
 -1.6390017e+00
 -1.2801341e+00
 -1.1664358e+00
  8.6370510e-01
 -1.8192781e+00
 -2.4535480e-01
 -1.5376608e-01
  1.9166516e+00
 -1.3912941e+00
 -9.0842611e-01
 -2.5878799e+00
 -3.4488875e-01
  9.0669036e-01
 -2.3671575e+00
  8.1117429e-02
  3.9598286e-01
 -5.0092208e-01
  2.0528510e+00
 -1.2937067e+00
  1.1903682e+00
 -9.5930773e-01
 -2.7918334e+00
 -2.2961266e-01
 -2.2322786e+00
  1.2343051e+00
 -2.0133582e-01
  9.0246397e-01
 -4.3138093e-01
  4.0634549e-01
 -3.9485145e-01
  3.6890808e-01
 -8.1802895e-03
  6.6267431e-01
 -1.5716017e+00
 -1.1405406e-01
 -1.7226827e+00
 -4.2492363e-01
 -6.2062391e-03
  9.6931833e-01
  8.4417172e-02
  5.4196715e-03
 -1.0148767e-05
 -1.4550809e-03
 -6.2861363e-05
  8.1753009e-04
  3.0463403e-03
  8.9812464e-05
  5.4112017e-01
 -2.4563164e-05
  2.2147890e-02
 -5.8941081e-05
  1.9648185e-03
 -1.2296776e-04
 -1.8301120e+00
  1.2379528e+00
 -2.3929722e+00
  1.1422771e-02
  1.3015870e+00
 -9.4570182e-02
  1.0438950e+00
 -5.1929969e-01
 -3.1463530e+00
  9.8782592e-05
  2.0320414e-02
 -1.1774902e-02
 -6.1238986e-01
 -1.4658375e+00
 -1.2253853e+00
  1.4217566e-01
 -8.6479074e-01
  1.0192482e-01
 -5.0767016e-01
 -1.6099125e-01
 -7.3110982e-04
 -6.4311332e-01
  5.2850735e-01
 -1.7149560e+00
  2.7383163e+00
 -3.1351661e-03
 -2.0386395e-03
 -1.2396983e+00
  4.2306306e-03
  1.9800156e+00
 -4.5418534e-01
  1.3269703e+00
 -1.3572992e+00
  4.8692986e-02
  7.1499818e-03
 -3.3636880e-04
 -2.3112263e-01
 -1.5050577e-03
  1.0701555e+00
  1.3597448e-01
  4.6885115e-01
 -1.6217014e+00
  5.2224442e-02
 -3.2580382e-01
  1.2838091e-03
 -1.4282041e+00
 -7.0547401e-05
 -1.5850341e-03
  9.0866648e-05
  2.0086095e-02
  1.6439108e-03
 -8.5469437e-05
 -7.5690252e-01
 -1.9082420e-04
  3.0636703e-04
 -7.7257631e-05
 -1.2483917e-05
  3.4900848e-04
 -2.1255542e-04
  1.5949167e-06
  1.2156727e-04
  5.3958731e-05
  2.5171228e-04
  1.2197779e-04
  5.1480369e-04
  2.0493989e-04
  5.0890725e-05
 -2.2959055e-03
 -1.8169163e-04
  4.3481879e-05
  2.7186607e-04
  4.3898923e-05
 -3.3353310e-04
 -1.0680045e-01
 -7.9680234e-05
 -2.4211594e-04
  2.0545260e-04
  4.3100654e-04
 -4.2594827e-04
  1.1294512e-06
  7.1349609e-06
 -9.2711736e-04
 -4.0267769e-04
 -1.4326497e-03
  1.3185258e-03
  1.0784121e-04
  8.8375833e-05
  5.8583026e-03
  7.9550239e-04
  1.0554197e-03
  2.2538167e-03
  2.5753030e-05
 -1.4655819e-03
  2.2198672e-06
  4.5784508e-04
 -7.5003481e-05
  1.2489497e-04
 -8.5252803e-04
  2.9888472e-06
  6.0722185e-05
  2.7035972e-05
 -8.1581733e-05
 -3.2077203e-04
 -2.1003810e-04
  5.9001445e-04
  1.2483609e-02
 -7.7236393e-05
  4.9081491e-04
  2.9328576e-04
 -1.0259089e-04
  5.9101083e-05
  1.8968098e-03
 -1.2157726e-04
 -5.4433226e-04
  4.4604650e+00
  9.8244476e-05
  5.7984413e-05
 -3.4375871e-03
  5.5527449e-05
 -3.8299916e-04
 -1.2907993e-04
 -1.2313930e-04
  3.6850464e-04
  5.5976951e-05
  9.1080889e-05
  1.3929319e-05
 -1.1885591e-04
  1.0984906e-04
 -8.1475380e-05
 -6.0943697e-05
 -2.5884595e+00
  4.8038721e+00
 -1.5149814e+00
  1.4711546e+00
  1.6481047e+00
  8.9337480e-01
 -1.2774786e-01
 -1.2531543e+00
 -2.0477273e+00
  7.7110439e-05
 -7.0749331e-01
  1.1353881e+00
  3.5298460e-03
 -3.0590451e-01
  6.8194789e-01
 -4.2364235e+00
 -2.1205275e+00
 -2.9822433e+00
  1.8027326e-03
  3.2943450e-03
  1.4551693e+00
  3.1981134e-01
 -1.4462680e+00
  5.6030190e-01
 -1.4883918e+00
  1.1235204e+00
  5.7865365e-04
  1.4314353e-02
  1.4236679e-03
 -3.1838547e-02
 -3.6909896e-01
  4.6823144e+00
 -1.2810903e+00
  3.1663089e+00
 -7.2635025e-01
 -3.6120589e-04
 -8.2359858e-02
  5.8443722e-04
 -1.4581740e-01
  6.4451462e-03
  9.2370009e-01
 -1.5499227e+00
  9.8113662e-01
 -6.1714923e-01
  2.1714396e-03
  6.3382006e-01
  1.4904974e-01
  1.0682516e-03
 -3.4334708e-04
  5.5803399e-04
 -2.4313378e-05
  2.0003453e-01
 -1.5317147e-04
  3.2798329e-03
 -1.0723519e-04
  2.9834926e-03
  2.9342350e-06
 -6.7294677e-05
  1.9630429e-04
 -2.4894852e-04
 -9.2334987e-05
 -1.3459461e-04
 -8.5638258e-06
 -3.3243279e-05
 -1.9210625e-04
  3.2582661e-04
  1.0497731e-04
 -1.2362485e-04
 -2.3679597e-05
  8.1503189e-05
  1.9195197e-05
 -6.6264991e-05
 -9.1710135e-05
  4.3808782e-04
 -1.0750480e-04
  8.3171217e-06
  3.8449343e-05
 -9.4035473e-05
 -5.1571394e-04
  3.8993137e-05
  1.0639911e-04
 -5.6084031e-05
 -2.6014015e-05
  1.2054498e-05
  7.3571860e-06
  2.3230008e-05
  5.1267489e-05
  7.1929426e-05
 -1.1753560e-04
  8.2884299e-06
  5.6373072e-05
  1.2873745e-04
  7.8214929e-05
  2.2145623e-05
  1.1439517e-06
 -5.4275060e-05
  6.0203142e-04
 -2.3595858e-04
 -9.4814486e-06
  3.5427688e-04
 -3.1192132e-04
  1.7318089e-04
  2.8769256e-04
 -3.3428645e-05
  6.3475025e-05
  4.3128712e-05
  3.1036743e-05
  6.6354718e-05
 -5.7597816e-05
  3.6502723e-05
  1.8711149e-04
  1.7246974e-03
  7.4401803e-05
  2.6376141e-04
 -3.6158689e-04
 -1.5111803e-04
  5.1611023e-05
  1.1955292e-04
  3.6131001e-05
 -4.2167949e-06
  4.6698318e-05
 -2.0952819e-05
  3.5969907e-04
  3.3682303e-05
  9.7503078e-05
  1.6565087e-04
  1.2197997e-04
  3.0405124e-04
 -2.7995935e-04
  3.5513943e-04
  4.8350947e-05
 -2.7556517e+00
 -1.0984854e+00
  1.5811846e+00
 -3.3453554e-01
  4.8255522e-02
  5.0934136e-01
  2.8720269e+00
  1.4584644e-01
  2.3374663e-04
  3.2937548e+00
  3.2996878e-01
  1.9693133e+00
  2.7108523e-03
  1.2595775e+00
  2.2104452e-05
 -5.4514903e-04
 -2.2094517e-05
 -6.8887857e-05
 -7.5635302e-01
  9.9578518e-03
  7.0439500e-01
  1.8821752e+00
 -1.4759381e+00
  1.9392432e-01
  7.6152056e-02
  1.2845314e-05
  6.8313813e-05
 -4.4270799e-01
 -3.0699446e+00
 -1.2770692e+00
 -1.4227198e+00
 -1.1526853e+00
 -1.1502398e+00
 -7.2269660e-01
 -3.1106204e-01
 -6.2205374e-01
 -5.0022807e-03
  3.0680993e-03
  1.2966005e-04
 -7.7799517e-01
  7.9401513e-04
  2.0177267e-04
  2.7208617e-01
  8.3077335e-05
 -2.1833925e-04
 -1.0825779e+00
  5.9236605e-05
 -1.0794487e-04
  3.4495384e-01
 -6.8319830e-05
  8.4056882e-03
  4.0223633e-05
 -1.4593359e-05
  3.4244938e-04
  1.1263855e-04
 -3.9293944e-05
 -3.0620789e-04
  5.6267745e-06
 -8.3106868e-05
 -1.0240074e-04
  1.0344115e-04
  4.2265249e-04
  9.8478115e-05
 -4.4949484e-04
  2.1263206e+00
 -4.5243182e+00
 -4.4172282e+00
 -1.1200799e+00
 -1.3297766e+00
 -2.1103003e+00
  2.0232029e+00
  2.5765212e+00
  1.6594852e+00
  2.0252485e+00
 -8.0868721e-01
  2.6714747e+00
 -3.0902605e+00
  3.1310909e+00
 -1.9785379e+00
  3.0767367e+00
 -1.0760235e+00
  2.4910166e+00
  1.0301102e+00
 -2.9553169e-01
  1.8845075e+00
 -1.2095400e+00
  3.5081324e-01
 -4.9984094e-02
  9.1705889e-01
 -1.5574800e+00
  2.0453920e+00
 -1.2539005e+00
  9.5376903e-01
  1.1751708e+00
 -8.4312868e-01
 -4.1857323e-01
  8.9556801e-01
 -1.5495316e+00
  7.5610876e-02
  5.1028614e+00
 -3.2792962e-01
 -1.9941247e+00
  2.1670528e-02
 -5.7253844e-01
 -6.1707729e-01
 -1.7602415e-01
 -5.6031692e-01
  3.8404280e-01
  2.6595018e+00
 -3.2406042e+00
 -6.1620697e-02
 -1.8089087e+00
  2.0652893e-01
  2.6851302e-01
  1.5315153e-01
  3.1319017e+00
  3.8147860e+00
 -8.1724888e-01
 -7.5467515e-01
 -1.7128959e+00
  1.0856733e-04
  7.0672162e-05
 -3.0635566e-01
  2.4074728e+00
 -1.3126787e-03
 -1.8144726e-03
  8.5179701e-05
 -1.0595299e-04
 -2.5935171e-04
  5.0000376e-01
 -2.7346823e+00
  1.8262472e-03
  2.7023992e-03
 -6.1012733e-01
 -1.9141305e-02
  2.4836957e-01
  1.7667766e+00
  3.7601599e-01
 -1.0381873e-04
  1.9136910e+00
  4.1877247e-05
  1.1903663e+00
 -8.1975351e-04
  1.2378565e-03
  1.1548326e+00
 -1.2679330e-01
  6.0296526e-05
  2.9666113e-05
  2.6376346e-01
 -1.0958510e-03
 -6.8884683e-03
  8.7657238e-05
 -1.0583304e+00
 -5.9503544e-04
 -1.3132880e+00
 -6.4700609e-05
 -6.0103638e-03
  1.7830598e-01
 -5.8792353e-05
  5.3379399e-01
 -2.1373928e+00
  6.5903775e-02
  2.4400227e-01
 -1.6154915e+00
 -3.5861048e-03
 -4.2983988e-01
  2.9730445e-01
 -5.8475259e-04
 -3.4458600e-02
 -4.9996190e-03
 -4.1579351e-01
 -6.8495143e-04
 -1.1442820e-04
 -5.2560199e-02
 -8.6213043e-03
  8.6187962e-03
 -1.0151542e-04
 -5.6505215e-04
 -8.0371072e-05
 -4.5072731e-05
  4.1298670e-05
 -1.0467242e-03
  1.1810526e-04
  3.4945228e-05
  3.4441147e-03
  1.4685107e-05
 -2.5535224e-04
  1.1418783e-04
  1.1703406e-04
  8.4151507e-05
  1.1102005e-04
  7.1885079e-05
  1.7715621e-04
 -1.1100441e-04
  3.5123105e-04
 -9.0652153e-05
 -1.3181653e-04
  6.2996154e-03
  1.1736999e-04
  3.1068668e-04
  1.7578311e-04
  6.8730296e-05
 -1.5208550e-03
  1.0531705e-04
 -9.5283729e-05
 -3.5686418e-05
 -2.0727584e-04
 -1.0329152e-04
  5.6932306e-05
  4.3683500e-05
 -3.7898415e-05
  2.8619685e-04
 -4.3257744e-05
  3.4309760e-05
  7.3484174e-05
 -1.2134675e-04
  6.1699342e-05
  1.6116649e-04
  2.5345491e-05
  1.7188622e-04
  9.2812603e-05
 -4.1218850e-01
  4.3857170e-04
  4.5946040e-04
  6.4070773e-05
  9.2096707e-05
 -2.7599841e-04
 -6.9365688e-06
  8.9499983e-05
 -1.0548768e-04
 -2.6223733e-04
  1.1649910e-04
  1.1415941e-04
  5.4457254e-04
 -2.2846773e-04
 -8.5650936e-05
 -1.5065844e-04
  2.2991200e-03
  3.9142725e-04
 -2.3140728e-08
  3.7495056e-06
 -1.1169664e-04
  3.1003688e-04
 -7.1270340e-05
  1.7411780e-04
 -9.9572091e-05
  4.3480602e-05
  1.8495421e-05
 -6.9205249e-05
 -9.5847587e-05
 -9.9040633e-05
  1.7130697e-03
  6.6096545e-05
  9.4886009e-06
 -6.3765139e-05
 -4.1228614e-04
  1.1213641e-04
 -5.6429504e-04
  3.0881816e-05
 -4.9743724e+00
 -1.2489010e+00
 -6.9030637e-01
  7.0495617e-01
 -5.8549128e+00
 -2.1399126e+00
 -3.3872950e+00
  6.2068939e-01
 -4.6913198e-01
  1.0492421e+00
 -2.0938213e-01
 -2.0854874e+00
  1.4457712e+00
 -1.9233983e+00
 -3.4043971e-01
 -4.3634084e-01
  2.7951484e+00
  2.5985732e+00
 -8.2249236e-01
  9.5653450e-03
 -9.2232835e-01
  1.1422956e-02
 -4.2156205e-01
 -8.1993347e-01
  1.3172992e+00
  1.4163555e+00
  8.4437561e-01
 -2.2924517e-01
 -8.7845343e-01
  7.7235174e-01
 -7.0514774e-01
 -1.9893650e+00
 -2.9656236e+00
  4.6732054e+00
  2.3971817e+00
 -4.0811601e+00
 -2.7205210e+00
  1.5679247e+00
  6.2645966e-01
 -7.6153457e-01
  2.1244732e-01
  6.5504098e-01
  1.5867803e+00
 -1.9759977e-01
 -2.3975234e+00
  2.0747109e-01
 -4.9889382e-02
  7.4567020e-01
 -1.1957436e+00
 -1.0392499e-01
 -2.6279110e-01
 -2.9562583e+00
 -2.3041811e+00
 -5.7604617e-01
  4.8622722e-04
 -3.2247600e-01
  3.1265643e-04
 -4.1066416e-02
 -8.4308773e-01
 -6.3086126e-04
  1.0022056e-04
 -5.9815934e-03
  6.8866349e-05
 -1.7406362e-03
 -1.4304696e-03
 -1.1990478e+00
 -6.6635805e-01
  1.1656049e+00
  6.0875213e-01
  9.6587932e-01
 -3.2986951e-01
  7.3766463e-02
  4.8917487e-01
  2.4469624e+00
 -5.5792730e-04
  6.7784816e-01
  7.8536559e-06
 -6.0556212e-04
  6.8017498e-02
  7.6499529e-02
 -8.2210783e-04
 -6.1663496e-04
 -1.6948391e-03
 -1.8164838e-02
 -3.6591257e-04
 -1.8350755e-01
  3.9598271e-01
  1.8266974e-01
 -3.5339367e-01
  1.6464745e-01
  6.4937872e-01
 -4.1649404e-01
 -5.0023687e-03
 -2.2566521e-01
 -6.2182522e-01
  1.6290937e-04
  1.8215666e+00
 -6.1436039e-01
  2.5645080e+00
  3.4784570e-01
 -6.0631620e-04
 -4.2350654e-05
 -8.9355312e-02
  4.9867705e-02
  2.3113522e-03
  1.0189326e-01
 -6.1974437e-03
  2.5609159e+00
 -1.2430984e-01
  5.0274299e-05
 -3.4678567e-04
 -2.4226467e-01
  2.8036512e-04
 -6.5450069e-05
  5.7134115e-05
  6.0470356e-04
  1.7339450e-03
  3.4052217e-05
 -2.3948976e-04
 -3.4513982e-05
  2.5734611e-04
 -7.3251012e-03
 -2.8672028e-05
  4.0147186e-04
  4.1024658e-05
 -2.4345707e-05
  3.5377110e-05
  7.2858347e-05
 -8.9826550e-05
  3.2921467e-04
  8.0723767e-05
  5.8334219e-05
  1.4707686e-03
 -9.1595270e-05
 -1.0131840e-04
  3.0452866e-04
 -5.0658203e-04
 -9.6423813e-05
 -1.1312610e-01
  3.5193145e-05
 -6.2632316e-05
  1.7751928e-03
 -5.0408620e-05
 -3.3250843e-05
  3.5033299e-04
  9.8175653e-05
 -6.5302833e-05
  3.6867590e-05
  7.1515664e-05
  2.0266964e-06
 -1.2931522e-04
  2.5247380e-05
 -2.5309098e-03
 -1.3719737e-05
  3.1674764e-04
 -9.6362401e-06
 -9.3076211e-05
 -7.9437879e-05
  4.5330676e-06
 -1.0166550e-03
 -4.1610350e-05
 -1.1633863e-04
 -6.4283013e-05
  2.0491157e-04
  3.4928522e-05
  5.8878306e-04
 -3.2714248e-04
 -8.1371996e-05
 -1.0098662e-04
 -4.2465553e-03
  1.3216487e-05
 -3.3445892e-04
  7.5021730e-05
  3.3958515e-04
  2.8814748e-05
  4.2976710e-04
 -4.2938434e-05
  1.1011348e-04
  5.7277495e-05
  2.6898619e-04
  2.2799782e-04
  5.6825462e-04
 -5.3290409e-05
  1.0763769e-03
  4.3271033e-05
 -7.7450954e-05
  9.9713572e-05
  3.2542905e-04
 -1.0880681e-04
  1.1695521e-04
 -1.1916101e-04
  6.2569030e-05
 -1.1569000e-04
 -7.7538127e-05
  5.2062322e-05
 -3.7353091e+00
  1.5310098e+00
 -9.8322278e-01
 -2.4217707e-01
  1.3907770e+00
  9.2740053e-01
 -8.5428558e-02
  1.3054703e-01
 -8.4616894e-01
  9.6761048e-01
  1.7478017e+00
 -3.2727364e-01
 -2.5274184e+00
 -1.3243289e+00
  3.5445150e-03
  1.1989573e+00
  2.5815660e-01
  1.5316164e-01
 -1.1608111e-04
  1.1846458e-01
  6.6009319e-01
 -2.4550864e-01
  7.9155707e-01
  4.9545452e-02
 -4.0440345e+00
  4.9970633e-01
 -3.4610262e+00
  2.3422714e-01
 -5.2172602e-03
  1.3197353e+00
  6.6378176e-02
  1.7205086e+00
 -8.9765859e-01
 -1.4215044e+00
  4.7933720e-02
 -1.8853422e+00
 -1.7315233e+00
  1.7524318e-01
  6.5615670e-05
  6.9164030e-02
 -1.0128204e+00
  4.6474183e-01
 -1.3016304e+00
 -1.9204925e-01
  1.1043680e+00
 -1.0716866e-04
  8.4012972e-05
  8.3989063e-03
  3.3634814e-04
 -1.2132531e-01
  1.5360672e-03
 -8.6756845e-05
 -1.0591121e+00
  5.1281732e-01
 -5.3047122e-05
 -4.4960243e-04
  4.1538160e-04
 -1.3712662e-03
 -1.1384974e-04
  6.8932139e-05
  9.8522232e-06
  1.5952824e-05
  1.0080635e-04
 -8.4330002e-04
  7.8475372e-05
 -5.0107026e+00
  2.7016032e+00
  1.4968573e+00
 -1.3154844e+00
 -1.4995787e+00
  1.9277003e+00
 -1.4119546e+00
  1.4458860e-01
  3.3722037e-01
  1.5486337e-01
 -2.6317129e+00
 -4.8660190e-04
 -7.8105682e-04
  3.5803363e-01
  3.3072352e+00
  5.5973607e-01
 -2.0361061e+00
 -8.4044598e-02
  1.6963155e+00
 -1.4493702e-01
 -9.5138729e-01
  1.9075397e+00
 -1.3613697e+00
  2.1503854e+00
 -3.7322116e+00
 -1.5601968e+00
 -1.4061190e+00
  2.4111464e+00
  3.4560847e+00
 -3.1589644e+00
  2.0558865e+00
 -1.2844887e+00
 -4.8154041e-01
 -2.2032468e+00
 -5.5188626e-01
 -6.4828545e-01
  1.0176677e+00
  8.3774203e-01
 -7.1244609e-01
  1.0227970e+00
 -4.8271641e-01
 -2.7867272e-01
 -3.0819247e+00
 -1.8180373e-01
  1.5184679e+00
  1.9720310e+00
  2.2080354e-01
 -1.2053699e-02
 -7.8227150e-01
 -1.8818280e+00
  5.0487351e-01
 -1.4631624e+00
  1.4768769e+00
 -1.0196167e+00
 -2.7268296e-04
  4.3776229e-02
  7.8862249e-05
 -4.0605856e-04
  1.6395748e-04
  3.4724158e-04
  6.3101383e-05
  2.2364820e-04
 -1.8274202e-05
 -1.5533900e-05
 -1.6376589e-04
 -3.4583104e-03
  4.2809385e-01
 -3.6611390e+00
 -1.1411301e-01
 -1.0064398e+00
 -3.2324457e+00
  1.2996023e+00
  2.6302872e+00
  1.1979863e-01
  8.3527446e-04
  1.1310767e+00
  5.7540415e-04
 -6.4512205e-01
  1.2677169e-01
  3.4913231e-02
 -4.0908393e-02
 -8.0734659e-03
  2.0317607e-01
  7.0677154e-02
 -9.8134880e-04
  3.9732116e-01
 -9.7746386e-05
 -8.6845708e-01
  1.1022703e-01
 -1.0519930e+00
 -9.5202768e-06
 -1.0656707e-03
 -9.4248074e-01
 -2.8586594e-04
  4.6642346e+00
  1.0356045e+00
 -7.1900821e-01
  1.1905262e+00
  4.0557221e-02
  3.1103393e-01
 -5.1557623e-02
  2.4295029e-04
  3.7826204e-03
 -3.2996917e-03
  6.3575044e-02
  2.4784385e-01
 -4.8748916e-03
  4.5710045e-01
 -1.3874654e+00
  3.5529371e-04
 -2.2860298e-01
  3.0382577e-02
 -9.3143788e-04
  1.0213005e-04
  2.6243448e-04
  3.4885397e-05
  1.0333510e-04
 -1.3748487e-02
  8.7873988e-05
  8.7333865e-05
 -9.7375043e-04
  3.0792893e-05
  1.1286925e-04
  9.6290132e-05
 -7.9634017e-04
 -4.0407831e-04
  1.1292384e-04
 -1.0773502e-04
 -3.5074545e-04
  2.4660301e-05
  1.4516037e-04
 -1.9819922e-04
  1.1372273e+00
 -4.1067179e-02
  1.5193695e-05
 -3.4960973e-04
 -3.1292990e-02
  3.5500132e-02
 -1.2649733e-02
  6.5097018e-05
  1.8178937e+00
 -1.6911804e-04
 -1.0099828e-03
 -3.6024113e-04
  1.1425758e-03
  1.2290832e-03
  8.0594262e-05
 -8.2182360e-04
  5.7476254e-06
 -4.4728957e-05
  1.0962593e-03
 -1.1332904e-04
 -1.1212299e-04
  2.1590383e-01
  9.8604313e-04
  2.8287253e-01
  3.1589400e-02
  6.5838512e-06
 -1.0166411e-04
 -7.0420757e-02
 -1.6248068e-04
 -1.3198974e+00
 -3.5677250e-02
 -3.2060705e-03
 -2.2048431e-03
 -4.9673504e-01
  1.1656148e-03
 -1.2902536e-03
  4.0973235e-05
  1.7068816e-03
 -6.5405271e-03
  6.7177962e-04
  1.2715264e-03
 -2.6290694e-03
 -1.4891075e-05
 -1.5666321e-04
  5.4864238e-05
  1.0574391e-04
 -5.9475344e-05
 -1.9880674e-05
 -1.8774938e-03
 -3.5629577e-03
 -1.4140835e+00
 -6.8581983e-05
 -3.7741738e-05
  4.5032568e-05
 -8.0733233e-05
 -3.8110657e-04
 -7.4251198e-05
  5.1643954e-05
 -3.0460491e-04
  3.9558523e-04
  7.5499651e-05
  2.2404850e-04
  2.8116532e-05
 -3.1971438e-03
  7.6978579e-02
 -4.9818304e-05
  3.7464192e-03
  1.3162099e-03
  2.4343815e-03
  3.1244269e-02
 -9.2910141e-02
  1.4919578e-01
 -6.0238567e-04
  2.6953017e-04
 -3.3593160e-04
  4.0176592e-04
  2.8834660e-02
  1.4828583e-03
 -6.4585904e-05
 -3.0239840e-04
  1.0928090e-03
  3.0281717e-02
 -4.4349553e-03
  2.6128112e-04
 -1.8724993e-02
 -2.9306922e-02
 -8.5385860e-04
 -8.5697299e-01
 -1.4920162e-01
  7.9142465e-06
 -2.4394831e-03
 -1.0572744e-04
 -2.8925318e-02
  8.3603216e-03
  1.0616609e-01
  8.5785575e-03
 -8.8080131e-03
  1.3289359e-01
 -1.8073549e-03
  2.7720109e-03
  1.8023573e-05
  5.9862051e-04
  2.9372300e-03
  1.9850165e-01
  1.0549057e-03
 -5.3952384e-04
 -6.9572208e-03
 -9.5422554e-05
 -4.7510894e-04
 -4.1571268e-05
  1.9464989e-03
  7.0579394e-05
  2.8738444e-04
 -1.0906112e-04
  9.2878254e-05
 -7.2613813e-04
 -2.5272212e-04
  5.9639866e-04
 -1.7845308e-03
  5.0208176e-04
 -1.0865051e-04
 -1.8509246e-04
 -2.7217378e-04
  1.1871006e-04
  8.0956306e-05
  3.8804625e-05
 -1.0940199e-04
  1.1302665e-04
  6.1597252e-01
  1.0362159e+00
 -3.6136881e-01
 -1.0919781e-01
  1.2557252e-01
