nep3 1 C 
cutoff 5 4 125 64
n_max 12 8
basis_size 16 12
l_max 4 2 1
ANN 100 0
  4.0483633e-01
  3.2490295e-01
  8.4256488e-01
 -8.7766528e-01
  2.1135981e+00
 -4.9518213e+00
 -2.9663911e+00
 -2.1311584e+00
  2.2505491e+00
  2.3480244e-01
  1.0931088e+00
 -4.5373794e-01
 -3.2748399e+00
  1.6005229e+00
 -3.2103449e-01
  1.6099006e+00
 -2.4129548e+00
  1.3054676e+00
 -3.7912300e-01
  1.2478498e+00
 -7.8946495e-01
 -1.5106551e-02
  1.8002135e+00
 -5.5274630e-01
  1.0492795e+00
 -2.8474805e+00
  1.6492463e+00
  3.9055920e-01
  4.0085852e-01
  4.5605171e-01
  1.2166959e-03
 -1.0480049e+00
  2.2492078e-01
  2.3978370e-01
  4.3773887e-01
  9.9835330e-01
  6.3921660e-01
  1.3682439e+00
  1.4146448e+00
 -6.3796759e-01
  5.2306199e-01
  4.1953123e-01
 -4.8170376e-01
  4.4693360e-01
 -5.7525450e-01
  9.4385773e-01
  1.1261590e+00
  7.0651507e-01
 -9.2911863e-01
  4.4310877e-01
 -6.1880477e-02
  2.9723389e+00
  2.2979677e+00
  8.4305185e-01
  6.3201576e-01
  1.4867053e+00
 -1.2139353e-01
  1.1260975e-01
 -4.8039600e-02
  2.4177651e-03
 -3.2366419e-01
  1.1600176e-01
  6.2354319e-02
  4.1952435e-02
  7.7810206e-02
 -5.2843106e-01
 -4.3687455e-02
  1.3858573e+00
  5.3554970e-01
  1.2885724e+00
 -3.1939119e-01
  1.5782174e+00
  4.4049674e-01
  2.2933378e+00
 -1.6032963e+00
 -7.7901500e-01
  4.9697760e-01
  2.6211119e+00
  4.2649370e-01
 -3.9855796e-01
 -4.4829178e-01
  3.2293934e-02
  9.8314083e-01
  2.2645953e+00
 -8.1457406e-01
  2.5012594e-01
 -7.4313873e-01
  1.7371143e+00
 -3.8870011e-02
  8.7834036e-01
 -9.9387103e-01
  2.1278105e+00
 -2.0041969e+00
 -3.2408771e-01
 -1.9607047e+00
 -2.5793048e-02
  1.9080203e+00
 -7.9091024e-01
  8.1471282e-01
 -6.8708187e-01
  5.4275280e-01
 -6.2830913e-01
  1.0659949e+00
 -9.2908275e-01
 -1.4340073e+00
  1.4365432e+00
 -1.4539907e+00
  1.5834060e+00
 -1.5738498e+00
  8.8542223e-02
 -1.4253906e+00
  7.5333613e-01
 -3.7911379e-01
 -1.6285573e+00
  2.0050428e+00
 -2.0997150e+00
  9.5778304e-01
 -3.3227661e-01
 -3.8889849e-01
 -5.5481172e-01
 -9.2027977e-02
  1.7353795e-01
  4.1004144e-02
  1.3081430e+00
  3.4521726e-01
  3.5691112e-01
  1.4744945e-01
  1.5404020e-01
  3.0398622e-01
  4.6989191e-01
 -1.5907647e-01
  1.2607659e-01
  2.7234489e-01
 -1.9359015e-01
  2.6089400e-01
 -2.1161711e+00
 -3.5664113e+00
  5.4600900e-01
  2.2942442e-01
  2.1847212e+00
  1.4399339e+00
  4.6021495e+00
  7.7859706e-01
  5.7779413e-01
 -2.2829168e+00
 -1.5844316e+00
  3.6779590e+00
 -2.1425798e+00
  1.2834813e-01
 -2.1230357e+00
  4.5168729e+00
 -1.3471854e+00
  9.3975419e-01
 -1.3884881e+00
 -1.9053675e+00
  1.4928395e-01
 -1.7668868e+00
  8.2721770e-01
 -2.5430193e+00
  9.6165389e-02
 -1.0755063e+00
 -7.0021892e-01
 -3.1645653e+00
  2.5381687e+00
 -1.0769825e+00
 -2.9552576e-01
  5.0143294e-02
  1.6998522e-01
  4.1777512e-01
 -2.0154238e+00
 -2.6706392e-01
  1.1614949e-01
 -1.1561038e+00
  2.1989675e+00
 -1.5470377e-01
 -5.2276462e-01
 -2.4141049e+00
  1.5156864e+00
  4.1872883e-01
  2.5678742e-01
  1.4673030e-01
  1.6068844e+00
  6.8404269e-01
 -4.0721732e-01
  2.3925540e-01
 -2.8881907e+00
 -1.8762025e+00
  4.3174062e-02
 -2.7377453e-01
 -1.4889761e+00
  8.3527792e-01
 -2.0781292e-01
 -2.0329206e-01
 -9.0470955e-02
  5.3591579e-01
  2.8056359e-01
  7.7374272e-02
 -5.8478899e-02
 -1.1489652e-01
 -2.0810677e-01
  1.1413625e-01
  3.5588896e-01
  1.0595624e+00
  1.4238495e+00
  2.6294816e+00
 -1.8005795e+00
 -3.5236648e-01
 -1.3293977e+00
  1.9163795e+00
  1.6291258e+00
  2.6999557e+00
  9.3521130e-01
  6.2185484e-01
 -2.5179846e+00
  1.4822634e-01
 -9.8656517e-01
 -1.8589988e+00
  1.3835731e+00
  7.2763675e-01
 -6.8284720e-03
 -2.9057175e-01
  4.6923980e-01
  4.9803093e-01
  5.3829408e-01
  1.3198066e-01
  1.4722743e+00
  1.5639920e+00
  9.3628109e-01
 -3.8910851e+00
  1.2677326e+00
  3.4299719e+00
 -7.6200086e-01
  1.6177860e+00
 -1.2895457e-03
  6.1205792e-01
 -6.0897553e-01
 -1.0803832e+00
  1.0761579e+00
 -1.9920886e+00
  2.2862725e+00
 -4.2203858e-01
 -1.1513344e+00
  7.2447228e-01
  3.0929823e+00
 -2.9302790e+00
 -6.5288651e-01
  1.3510621e+00
  1.5664639e+00
  6.4231008e-01
 -1.9670168e-02
 -2.5395635e-01
 -1.9539711e-01
 -4.6848884e-01
 -8.4886944e-01
 -2.1703097e-01
 -4.0414727e-01
 -5.4949290e-01
  2.7072756e+00
  1.7752375e-01
  8.3860695e-02
  1.8968526e-01
  2.8680682e-01
  5.7494838e-02
  5.0449420e-02
  3.5698824e-02
 -1.8162884e-02
  2.1566194e-01
  1.6960425e-02
 -6.6038299e-01
 -2.8302336e-01
  2.4025371e+00
  1.7067961e+00
  7.3523164e-01
 -1.2160324e+00
 -1.2294482e+00
 -3.4626768e+00
  1.8029031e+00
 -1.9810327e+00
  5.7329953e-01
 -1.6868580e-02
 -1.3351341e+00
  3.8750052e+00
 -1.1300144e+00
  5.3033772e+00
 -9.5141059e-01
  1.5077516e+00
 -2.7369545e+00
 -1.2387148e+00
 -2.6344178e+00
  1.6148990e+00
  3.9595199e+00
 -1.0449167e+00
  5.8182826e+00
 -2.6378846e+00
  3.5861118e+00
 -4.8018570e+00
 -1.7697593e+00
  4.2726022e-01
  1.0323267e+00
  4.3338189e+00
 -1.4672300e+00
 -8.4462762e-01
 -1.1899324e-01
 -2.1084979e+00
 -1.1646800e+00
 -5.1458162e-01
  1.5389745e+00
  4.3884430e+00
 -1.4900015e-01
 -1.7486498e-01
 -1.5279584e+00
  4.3539324e-01
 -7.9641902e-01
 -1.8199736e+00
 -5.6749511e-01
  2.9184742e+00
  2.4724026e-01
  5.2971452e-01
 -1.0808908e+00
  4.4665585e+00
  1.0489217e+00
  2.6830164e-01
  1.2229011e+00
  1.9895003e+00
  2.1215122e+00
  8.8542444e-01
 -4.9262846e-01
  1.2822540e-01
 -1.9133806e-01
  8.5261333e-01
 -7.4938811e-02
 -9.1284424e-02
 -4.9477011e-02
 -2.6421019e-01
  1.3618083e-01
 -1.8778507e+00
  1.5356257e+00
 -1.0403643e+00
 -2.1647422e+00
 -2.6697614e+00
 -1.2558691e-01
  9.8088515e-01
 -3.3755803e+00
  2.6207261e+00
 -2.3470452e-01
  4.2855173e-01
  7.2930135e-02
 -2.2479737e+00
  3.3794859e-01
  1.3189981e+00
  1.6607707e+00
 -1.2853167e+00
  9.5172787e-01
 -1.4628130e+00
 -1.0421323e+00
  1.1722013e+00
 -5.1656485e-01
 -8.9996558e-01
  1.3135254e+00
 -4.1418886e-01
 -3.5416167e+00
 -1.2749182e+00
 -1.4932725e+00
  7.8322220e-01
 -5.9630256e+00
 -1.2424093e+00
  2.7817423e+00
  1.4095211e+00
 -6.0863214e+00
 -1.8981366e+00
  3.5300505e-01
  1.1592107e+00
 -3.5288115e+00
 -2.4114909e+00
  7.9666114e-01
 -2.1619041e+00
 -1.3990588e-01
 -4.9012583e-01
 -1.5599209e-01
 -1.3500688e+00
  1.4129891e-01
  5.3982556e-02
 -3.4221315e-01
 -1.1758124e+00
 -6.9873768e-01
  2.7912289e-01
 -6.1632067e-01
  1.8110751e+00
 -6.7785239e-01
 -3.7208270e-02
 -1.3748509e-01
 -2.5204110e+00
 -1.1731265e-01
  6.8673822e-03
 -1.1949282e-01
 -1.1890827e-01
 -3.8298075e-03
 -2.7659725e-02
  1.8492271e-01
  3.8744688e-02
 -2.5427029e-01
 -1.6460476e-02
 -1.0600851e+00
 -9.3609744e-01
 -3.2127528e+00
 -1.8190439e+00
  2.3183179e+00
 -1.7424097e+00
  1.3403982e+00
  1.6151658e+00
  1.5809667e-01
 -1.2109312e+00
 -3.3035085e+00
  2.0833085e+00
  3.1938248e+00
 -2.9786491e+00
  1.7162169e+00
  2.1854529e+00
  2.0573525e+00
 -2.1601505e+00
  6.8243182e-01
  2.3616834e+00
  8.4901738e-01
 -3.1290216e+00
  5.2821136e-01
 -1.4957613e+00
 -4.9840206e-01
 -2.7002895e+00
  3.1580523e-01
  1.7752013e+00
 -7.6243043e-01
 -1.8284820e+00
 -3.5412104e+00
  2.3993781e-01
 -1.1101668e+00
  8.1296611e-01
  1.1643962e+00
  6.6979104e-01
  1.2419215e+00
 -5.1200056e-01
 -2.2464086e-01
 -2.4274592e+00
  7.7749950e-01
  3.6425772e-01
  1.5493146e+00
  1.6380079e-01
 -3.0668795e+00
  1.3837476e+00
 -5.2186489e-01
 -1.5698749e+00
 -2.4543405e+00
 -7.2811909e-02
  2.9504856e-01
  8.0131924e-01
 -1.5440310e+00
  4.3094227e-01
  1.3865295e-01
 -2.1695934e-01
  1.7870158e+00
 -6.2703617e-02
  5.1466063e-02
 -8.5942209e-02
 -7.2880703e-01
 -2.0942390e+00
 -3.7373066e-02
 -5.1302588e-01
 -3.7927216e-01
 -5.9234333e-01
 -1.0828220e-01
  2.3880394e+00
 -4.1544017e-01
  8.8408881e-01
 -3.1110579e-01
  1.0440816e+00
  1.0828165e+00
 -3.5071707e+00
 -1.7286301e+00
 -8.2239754e-02
  1.1614262e+00
  1.0845155e-01
  2.0260904e+00
 -1.5264485e+00
  3.5161760e-02
  9.7368568e-02
  2.0039386e-01
  4.6545374e-01
  4.9965551e-01
 -6.1704946e-01
 -1.1755356e+00
 -8.3910125e-01
  9.4750977e-01
  1.8462074e-01
 -1.8543102e-01
  3.9702293e-01
  8.6485136e-01
  7.3565465e-01
 -1.5310193e+00
 -3.6248788e-01
  2.4360619e-01
  6.5249968e-01
  1.6250930e+00
  9.5290326e-02
 -1.3205826e+00
  2.6749196e+00
 -3.5338515e-01
 -2.0296335e-01
 -9.9171221e-01
 -1.4362718e+00
  1.0760154e+00
  1.3353338e+00
  3.3164775e-01
 -1.3913338e+00
 -1.0357419e+00
  1.0983531e+00
  4.2807221e-01
  2.6257399e-01
 -7.2318691e-01
 -4.5948640e-01
  1.5098149e-01
  1.3500595e-01
  5.3840506e-01
  3.4783468e-01
 -7.9611853e-02
 -1.6398264e-01
 -1.2931137e-02
  1.3252981e+00
 -5.5168703e-02
 -2.0207386e-02
 -6.0242517e-03
  2.2381529e-01
  4.4138376e-03
  4.9055133e-02
 -7.5003505e-03
 -3.4206174e-02
 -3.0526655e-02
  4.0711846e-02
 -5.7774726e-02
  7.0975262e-01
  2.6408222e-01
 -1.7746761e-01
 -2.6166679e-02
 -3.2756381e-02
  4.9015617e-01
 -4.1989975e-02
  2.7523255e-01
  6.1754134e-02
 -3.0999342e-01
  3.8955942e-01
  2.0648667e-01
 -6.3599674e-03
 -5.8011907e-01
 -1.1357365e+00
 -2.6386940e-01
 -3.6963508e-01
 -1.9562012e-01
  4.5552173e-01
 -3.6141139e-01
 -9.3139124e-01
  2.2393210e-02
 -5.1719534e-01
 -4.1792789e-01
 -1.4969434e-01
 -2.0272279e+00
  1.7239465e-01
 -4.6470004e-01
  1.2320711e-01
 -3.5272852e-02
 -6.9791287e-02
 -7.2569467e-02
  1.6263935e-01
 -3.0090574e-02
 -4.0883070e-01
  2.7544266e-01
  3.0165896e-01
  1.6260478e-01
 -4.6907333e-01
 -1.6035578e-01
  2.5026867e-01
 -4.7732323e-01
  5.4524285e-01
 -8.5322756e-01
  6.6916220e-02
  5.2331752e-01
 -3.3461866e-01
  1.0923953e-01
 -1.9796468e-01
  2.6601690e-01
  6.5006822e-02
  5.8346599e-02
  2.6808026e-01
  6.8340622e-02
 -3.3923376e-01
 -4.4498929e-01
 -1.1857937e-01
  1.4520997e-01
 -1.2305509e-01
 -1.3340141e-02
  1.7830859e-01
 -2.3689670e-02
  1.2146711e-01
  7.1350530e-02
  1.5249047e-02
 -2.4019394e-02
 -6.5902688e-02
 -2.9406196e-02
 -1.3087549e-03
  6.0667634e-02
  5.8487680e-02
  2.7443841e-03
  1.7205726e-02
  6.1881002e-02
 -1.7477799e-02
 -4.2557962e-02
 -5.2123595e-02
 -8.3491325e-02
 -4.8690192e-02
 -5.5987020e-03
  2.6903169e-02
  7.9624794e-02
  4.2717978e-02
  5.6886055e-02
  7.2319917e-02
  4.1436251e-02
 -4.6527654e-02
  5.1605567e-02
  3.7101295e-02
 -1.3155764e-02
  9.8113596e-02
 -1.5431850e-03
  8.9259282e-02
 -1.0022374e-01
 -4.4076820e-04
 -1.7032089e-02
  2.4604354e-02
 -1.7611943e-02
  8.0812469e-02
  3.6872394e-02
 -5.7837561e-02
  6.2254589e-02
 -1.2492165e-01
  4.8925795e-02
 -1.1377970e-01
 -2.2299880e-02
  4.1597262e-02
 -2.2186883e-02
  4.2000081e-02
 -3.7673388e-02
  9.4409838e-02
  3.8733970e-02
 -1.0558789e-01
  3.7271161e-02
 -2.5509140e-02
 -5.5102035e-03
 -2.6910752e-02
  6.5346427e-02
  7.6022632e-03
 -3.3591647e-02
 -6.4873281e-03
  3.4372162e-02
  7.5385213e-02
  7.2850175e-03
  2.5672081e-03
  1.3493870e-02
  4.8348222e-02
 -1.2654261e-02
  1.1064226e-02
 -1.1663250e-02
  1.1628358e-02
  1.5926812e+00
  3.7304207e-03
  2.0120034e+00
 -2.7849634e+00
  3.5999055e+00
 -3.0984554e-01
  2.1742375e-01
  2.9716003e+00
 -6.4512596e+00
 -1.8955699e+00
 -2.7240729e+00
 -7.7293432e-01
 -2.2440062e+00
  1.0053225e+00
 -3.6576233e+00
 -1.3324015e-01
  1.9350915e+00
  2.4208431e+00
  2.8079560e+00
 -4.8310685e+00
 -2.6685376e+00
 -3.6809881e+00
  2.5285244e+00
  7.2890735e-01
 -3.5827658e-01
  9.8018801e-01
 -7.2456986e-02
 -9.6504344e-03
 -3.6347506e+00
  3.7280846e-01
 -6.1297476e-01
  3.8427224e+00
  1.9599850e-01
 -1.1498863e+00
  2.8038468e+00
 -1.6927837e+00
  2.2768280e-01
  1.5285040e+00
  9.1411155e-01
 -3.5679686e-01
  7.2434747e-01
  9.6164107e-01
 -8.9126110e-01
 -1.2968353e+00
 -4.7352102e-01
  8.0681509e-01
  2.8034558e+00
  1.3683444e+00
 -6.7225061e-02
  1.7390388e+00
  8.8819265e-02
 -1.9086307e-01
  2.0031975e-01
 -1.1845122e-01
  1.1331480e+00
  1.1955217e+00
  1.5020066e+00
 -6.0793114e-01
  1.9199859e+00
 -3.8535315e-01
  1.7422310e-01
  5.2164048e-02
  2.8494394e-01
  6.1432725e-01
 -2.6220492e-01
  3.7819151e-02
 -1.3856339e-01
 -4.8002192e-01
 -1.0972100e-01
  5.9638767e+00
 -4.3130598e+00
 -8.0047697e-01
  1.8761011e+00
 -3.6597388e+00
 -3.2875404e+00
 -4.5904279e+00
 -4.8262009e-01
  2.1210992e+00
  4.1886606e+00
  2.2620459e+00
  7.1236382e+00
  4.6322402e-01
 -3.6494979e-01
 -1.3321265e+00
 -2.3113768e+00
  1.5921348e+00
  2.1716602e+00
 -1.1946451e-01
  1.4740529e-02
 -2.8013015e-01
  6.7436659e-01
 -1.6287193e+00
 -4.1535687e-01
 -9.7513479e-01
  1.1925759e+00
 -4.0786278e-01
 -1.4053439e-01
 -2.5486672e-01
  6.8871301e-01
 -1.1624844e+00
 -1.9082887e-02
 -1.6390066e+00
 -7.2488993e-01
  1.3274341e+00
  4.3666488e-01
 -2.0959613e+00
  1.4330688e+00
  2.0578392e+00
  2.2258449e-01
 -1.1811287e+00
 -5.1756394e-01
  9.7908926e-01
 -4.1978669e-01
 -8.3722591e-01
  1.2533617e-01
  4.9837133e-01
 -1.2691195e+00
 -2.0983769e-01
  1.5648800e-01
 -7.3156871e-02
  3.1752515e-01
 -8.0962855e-01
  2.8075922e-01
  4.5951080e-01
 -2.9984728e-01
 -3.6191100e-01
  2.4166164e-01
 -4.6760827e-02
 -1.6282974e-02
 -2.7488643e-01
 -2.5716114e-01
  6.6398233e-02
 -4.1164649e-01
 -7.6545425e-02
  1.1970600e-01
 -8.1243768e-02
  1.6446210e+00
  3.8654475e+00
  1.3808475e+00
  1.4271823e+00
 -1.2680060e+00
 -1.0274589e-01
  1.6315728e+00
 -3.4435120e-01
 -1.2669042e+00
 -4.3156394e-01
  1.8104603e+00
 -1.5999116e+00
 -2.2819662e+00
 -1.6375487e+00
  5.0823838e-01
 -1.3735254e+00
 -1.8788022e+00
  1.3327823e+00
 -7.1536863e-01
 -1.0461153e+00
 -1.1229749e+00
  3.5652044e-01
 -9.7487640e-01
  6.6729859e-02
 -1.0265381e+00
 -1.1483327e+00
  1.1690793e-01
  1.7675109e-01
 -1.9370472e+00
  2.0935776e+00
  2.6184614e+00
 -5.5461008e-02
  6.5881722e-02
 -1.0438058e+00
  3.0904136e+00
 -4.3960628e-01
 -5.5521488e-01
 -5.6552877e+00
  3.7910025e+00
  2.5188196e+00
  1.9607269e+00
 -5.3323239e-01
  1.3463917e+00
 -5.1411980e-01
 -9.3031818e-01
 -1.2346835e+00
 -1.2567933e-01
  1.1513527e-01
  6.5267926e-01
 -8.7135845e-01
  1.3604144e+00
  1.6898921e+00
  2.6983385e+00
 -8.2281268e-01
 -4.8056462e-01
  3.6422682e-01
 -6.8661219e-01
 -2.3658167e-01
 -5.2982718e-01
  1.7216761e-02
  5.0008297e-01
  8.1541151e-01
 -1.8695666e-01
  5.8145547e-01
  4.8311297e-02
 -8.4825474e-01
  1.4313772e-01
  6.3124478e-02
 -5.3273894e-02
 -3.4339714e-01
  7.5476509e-01
  1.1774077e-01
 -3.6662262e-02
  6.0304757e-02
 -2.8164783e-01
 -1.4172152e-01
 -1.9766682e-01
 -3.9146245e-02
 -5.3215027e-01
  2.0005344e-01
 -8.6627029e-02
  8.0128931e-02
  3.9859208e-01
  7.1163940e-01
 -1.1551211e-01
  5.7690185e-01
  4.2858416e-01
 -3.6135057e-01
  1.1445793e-01
  1.1960729e+00
  5.2573287e-01
  5.6690890e-01
  6.1028606e-01
  1.8380879e-01
  4.0781060e-01
  3.2650173e-01
  3.6638129e-01
  3.6459294e-01
 -1.1157200e-01
  2.6662058e-01
  3.7863985e-01
  3.8769257e-01
  3.9876211e-01
  4.3131870e-01
  3.8240176e-01
  2.2879510e-01
  2.7286512e-01
 -1.3043982e+00
  1.6454514e+00
 -3.4273627e-01
 -7.0099568e-01
  3.1858226e-03
 -1.9558536e-01
 -5.2886033e-01
  2.7203608e-01
 -4.7028279e-01
  2.4267665e-01
 -1.5705420e-01
  1.3443746e-01
  2.0714350e-01
  1.8702061e-01
  2.0105016e-01
  3.0464676e-01
 -1.1945475e-02
  1.0907292e-01
 -9.8042980e-02
  2.5716949e-02
  1.4303578e-01
  5.7917893e-02
 -7.3138937e-02
 -9.3916729e-02
  1.7008904e-02
  1.6229382e-01
  5.9398457e-02
  1.0599315e+00
  1.6501067e+00
  1.1516664e+00
 -1.5203345e+00
  7.1528989e-01
 -1.0762577e+00
  1.0971166e-01
 -1.7483680e+00
 -2.0960937e+00
 -1.2885003e-01
  5.7816248e+00
  7.5395441e-01
 -3.2163315e+00
 -9.5521933e-01
  1.1961683e+00
 -2.2418461e+00
 -4.3421535e+00
 -1.3882887e+00
  3.3848758e+00
 -1.2377448e+00
  4.2714553e+00
  7.2107959e-01
 -1.1295015e+00
 -2.3379829e-02
 -1.3195527e+00
  1.4804647e+00
 -1.9344056e+00
  3.0802801e+00
 -7.1040964e-01
  1.3682278e+00
  2.9342151e+00
  3.1359471e-02
 -2.3477750e-01
  1.5476968e+00
  6.2833285e-01
 -1.3800534e+00
 -4.6408750e-02
 -2.5791818e-01
 -3.4442449e+00
  2.4090371e+00
 -8.5124260e-01
  4.5293599e-02
 -1.4899755e+00
  3.6092110e-02
 -3.2226917e-01
 -7.9439336e-01
  1.9495835e+00
  8.0161262e-01
  1.2186080e+00
 -1.9016507e-01
  1.6148617e+00
  3.4554558e+00
  3.1754191e+00
 -1.7667152e-01
 -2.9850893e+00
 -1.2656581e+00
  3.3937645e+00
  6.5807320e-02
 -6.0716248e-01
 -1.1640799e-01
  1.2822632e+00
  7.7527589e-01
 -3.8560808e-01
 -1.5901083e-01
 -1.5902826e-01
  3.2589054e-01
  1.6105627e-01
 -1.8916310e+00
 -1.5459758e+00
 -1.5828298e+00
 -1.6715704e-01
  1.1358883e+00
  5.0248814e-01
  1.0432557e+00
 -2.2063975e-01
  1.0296474e+00
  2.9080234e-02
 -2.3502031e-01
 -8.1696832e-01
  1.1651683e+00
 -7.0933171e-02
 -1.4670799e+00
 -1.6356574e+00
 -8.8449574e-01
  1.8193704e+00
  2.3036771e-01
 -2.0138907e+00
  2.0396831e+00
  2.4925892e-01
  5.1377839e-01
  6.9680494e-01
 -9.3611115e-01
 -1.5690782e+00
  1.6694773e+00
 -8.5008216e-01
  1.1363430e+00
 -1.2820232e+00
  9.1525090e-01
  3.0842239e-01
 -2.3425473e-01
  3.8970029e-01
  5.1338178e-01
  1.0005366e+00
  1.5519344e+00
 -4.3482035e-02
 -6.7401212e-01
  1.5669130e+00
  1.4864241e-01
  7.1424502e-01
 -1.9325435e+00
 -1.6636950e+00
  1.6265835e+00
  3.6519694e-01
 -1.4989719e-01
  9.8083359e-01
  2.6064334e+00
  5.1599568e-01
 -6.6253608e-01
 -3.0332801e-01
 -6.4404643e-01
 -5.6957126e-01
 -9.3377644e-01
  2.5861498e-02
  3.8072363e-01
 -6.3625816e-03
 -1.0214631e-01
 -9.6845642e-02
 -3.7300599e-01
 -2.8823215e-01
  9.7963838e-03
  1.2740912e-02
 -9.6360937e-02
  8.0968626e-02
 -5.3305347e-03
  6.9917887e-02
  3.9437538e-01
  3.5833129e-01
 -2.7061769e-01
 -4.4222593e-01
  9.0672404e-02
  3.5183355e-01
 -1.9700981e-03
 -2.8869852e-01
 -6.0517955e-01
  6.3330621e-01
  2.8705767e-01
 -6.5946281e-02
  3.9785030e-01
 -7.1167283e-02
  6.8958014e-01
  4.0015914e-02
  8.5387401e-02
 -1.0398658e-01
  1.0684400e-01
  1.3006237e+00
  3.6796531e-01
  7.5789994e-01
 -1.2445226e-01
  3.2265711e-01
  1.4477929e-01
  6.3763201e-01
 -3.8440412e-01
  1.6992044e-01
 -2.9596768e-02
  4.6020094e-02
  8.4617399e-02
 -7.5916433e-01
 -1.0423107e+00
  5.4829675e-01
 -1.0700668e+00
 -3.8676083e-01
 -4.7571969e-01
 -1.5428405e-01
  3.7312275e-01
 -4.7908077e-01
 -6.4216042e-01
 -3.7456244e-02
 -3.0281675e-01
  1.7752621e-01
  2.1096297e-01
 -9.6469648e-02
  6.5882030e+00
 -2.4014919e-01
 -1.3688324e-01
 -5.5591455e-03
 -3.1510046e-01
 -2.7778509e-01
  6.1436348e-02
 -3.7913766e-02
 -1.1339296e-01
 -3.0969840e-01
 -3.3662871e-02
  2.3200283e-02
  2.8538885e-02
  4.8837610e-02
 -6.1848434e-03
  3.8819015e-03
 -3.3458725e-03
  3.5679691e-02
 -3.3467419e-02
 -1.7348737e-02
 -1.1993595e+00
  8.0895317e-01
  4.5506539e+00
 -3.0472031e-01
 -3.0825818e+00
  2.7576599e+00
  9.9076533e-01
 -2.8280330e+00
 -7.8218544e-01
  1.1180719e+00
 -2.3982439e+00
 -1.4640143e+00
  8.0863371e+00
 -3.8317090e-01
  7.3068827e-01
 -1.9518172e+00
  1.1388426e+00
 -1.6360394e+00
  1.6951357e+00
 -1.0781801e+00
  7.5275874e-01
 -1.1321772e+00
 -6.7062662e-03
 -1.4247546e+00
  1.1919093e+00
 -9.7212619e-01
  2.8572576e+00
  2.8399485e-01
 -1.2377511e+00
 -4.8397943e-01
 -2.6912763e+00
 -1.9147521e+00
  1.4817147e+00
 -1.5700971e+00
 -3.8918529e+00
 -4.4659009e+00
  3.1444592e+00
  3.9484124e+00
  1.2846580e+00
  9.9537551e-02
 -9.5977283e-01
  5.7662851e-01
  7.8813297e-01
  1.1481895e-01
  1.3862495e-01
  2.3511292e-01
 -1.1129090e+00
 -2.5533562e+00
  3.5303402e-01
  1.6422932e-01
  3.3959374e-01
  9.6379322e-01
 -3.0761549e+00
 -2.1441031e-01
 -6.6895145e-01
 -9.8389786e-01
  1.1316609e+00
 -3.4272421e-02
  1.5141311e-01
  2.8523189e-01
 -1.1873545e-01
 -6.0383499e-01
 -1.2577485e-01
  3.2158006e-02
 -7.6069558e-01
 -2.9657655e-03
 -5.1019628e-02
  3.9814034e+00
  5.4677525e+00
  4.9245486e+00
  3.9278507e+00
 -3.2778058e+00
 -3.6162326e-01
  4.3559012e+00
 -1.7532406e+00
 -1.5979308e+00
 -5.4109210e-01
  5.4246750e+00
 -4.9936805e+00
  3.9236486e+00
 -4.0477571e-01
 -4.7572848e-01
 -1.5233449e+00
 -2.1378934e+00
  1.2287383e+00
  3.0957315e+00
 -6.5362555e-01
 -2.1967483e+00
  2.0592325e+00
 -2.0057912e+00
 -7.9997845e-02
 -3.7424784e+00
 -3.1521943e+00
 -1.4669718e+00
  5.5593333e+00
 -2.5332155e+00
  7.7905995e-01
  3.1404591e+00
 -2.0282907e+00
  5.4783902e+00
 -3.8056023e+00
 -9.0982813e-01
 -1.6499712e+00
  2.2868402e+00
  8.4420347e-01
  1.9554242e-01
  3.8800418e+00
 -1.0456657e+00
 -6.1558646e-01
 -1.0326018e+00
 -5.2610469e-01
  1.2095517e+00
  5.5981290e-01
 -3.4819889e+00
  1.6967808e+00
  3.8838468e-02
  4.8789448e-01
 -1.0896883e+00
 -4.3527746e-01
 -2.5837846e+00
 -8.2915597e-02
 -1.1099998e+00
 -7.7106059e-01
  3.1865212e-01
 -4.7646305e-01
 -3.7972128e-01
  8.5413508e-02
 -6.7112759e-02
 -7.0254900e-02
 -2.8186095e-01
 -1.8203203e-01
 -5.7311314e-01
  1.6164461e-01
  6.6857487e-02
 -1.0559930e+00
 -1.6585021e+00
 -5.1707997e+00
 -1.2946104e+00
  7.4999577e-01
  1.8899702e+00
 -8.0047911e-01
 -2.1928730e+00
 -5.8740443e-01
 -2.5550356e+00
 -2.8109112e+00
 -1.1948724e+00
  1.7918962e+00
  1.3071252e-01
  3.8673505e-01
  2.1044304e+00
  4.5460775e-01
  6.3137597e-01
 -6.4440161e-01
  7.7569532e-01
  2.6496890e+00
  2.6325211e-01
  1.0664718e+00
  3.0838600e-01
  1.1912370e+00
  3.9794081e-01
 -7.8807361e-02
 -5.9957832e-01
  5.9374732e-01
  2.4213952e-01
  7.1316761e-01
  3.6499354e-01
 -1.7034150e+00
  7.9783130e-01
 -8.9853865e-01
 -4.6146673e-01
 -9.9493754e-01
 -1.2792988e+00
 -9.2729497e-01
  3.1684521e-01
 -7.2819632e-01
 -3.6595067e-01
  1.5502056e-01
  4.7811505e-01
  7.0528150e-01
 -1.4858705e+00
  2.5979509e+00
  1.6303992e+00
  9.1034882e-02
  3.5074246e-01
 -1.7184924e-02
  6.5904617e-01
  1.8965205e+00
 -1.4831550e-01
  3.9608642e-01
  4.9890119e-01
 -8.7613219e-01
 -1.0465213e-01
  1.2012503e-01
  2.8080098e-02
 -3.6863184e-01
 -1.1350251e-01
  1.8316405e-01
  3.7899360e-02
  8.1307784e-02
 -3.1217608e-01
 -1.8956544e-02
 -1.0102401e+00
 -1.1302847e-01
 -3.6038823e-02
  1.6550268e-01
 -1.5629963e+00
  6.5265065e-01
  7.0174068e-01
 -1.3190147e+00
 -2.0778832e-01
  3.8045970e-01
  2.0757863e-01
  1.7756948e+00
  9.3038207e-01
 -7.0166373e-01
  1.0827018e+00
  2.1816208e+00
  6.3023764e-01
  9.0033430e-01
  1.9042610e-01
 -1.0338248e+00
 -7.1792260e-02
 -2.3191848e-01
  5.4321611e-01
  2.8923279e-01
 -1.4273318e+00
 -1.3219441e+00
  1.4846320e+00
 -1.0791616e+00
 -5.1336998e-01
 -2.5523716e-01
  6.9152169e-02
 -6.9974279e-01
 -7.7196866e-01
  3.3022832e-02
  4.9958694e-01
 -4.2871332e-01
 -8.7988384e-02
 -1.6353171e+00
 -6.1103076e-01
  2.6874319e-01
  8.0437440e-01
  1.9139619e-01
 -5.1543933e-01
 -5.7120103e-02
  1.3127863e+00
 -7.1074873e-01
 -6.7986482e-01
 -5.5912274e-01
 -3.9442712e-01
  2.5264430e-01
  7.5163826e-02
  7.7578974e-01
  7.7425641e-01
 -6.4730352e-01
 -3.6183029e-01
  1.0176653e+00
 -1.8680040e-02
 -5.8038458e-02
  8.3114244e-02
  8.7404577e-04
 -1.4934872e-01
 -2.3478222e-01
  5.5815864e-02
  2.5275966e-02
 -4.2301308e-02
 -2.5716162e-01
 -7.0435025e-02
 -1.8685706e+00
  2.2849729e+00
  3.9793465e+00
 -2.1953189e+00
 -2.0314798e+00
 -2.1294498e+00
 -3.9783826e+00
 -3.0686462e+00
  2.1104121e+00
  2.3695645e+00
  1.9419245e+00
  3.5355482e-01
 -5.7456656e+00
  9.9794126e-01
  6.9930565e-01
  3.5246366e-01
 -4.1201653e+00
  2.7798319e+00
 -3.7798791e+00
 -3.7215726e+00
  2.7860739e+00
 -1.5248326e+00
  2.3953552e+00
  1.4097718e+00
 -2.7942996e+00
 -3.1244192e+00
  3.6193416e-01
  1.1731642e+00
 -1.0614773e+00
  1.2381233e+00
 -7.4980742e-01
 -5.6971568e-01
 -5.5757797e-01
 -1.0223675e+00
  2.7093458e+00
  2.0616422e+00
 -9.4411767e-01
  2.2792444e+00
 -2.7074854e+00
  3.6915377e-01
 -4.6409401e-01
  1.5000847e-02
 -8.2855082e-01
  2.6422315e+00
 -2.3264517e-03
 -6.2000626e-01
 -5.8609015e-01
 -1.4151599e+00
  2.0162833e+00
  8.3732176e-01
 -2.9068926e-01
 -3.8943853e+00
 -5.2962751e+00
 -2.0098549e-01
 -9.9142891e-01
 -2.7731552e+00
 -1.1416310e+00
 -1.3298698e-01
  1.1346730e-01
 -2.4994667e-01
  7.3793739e-01
  6.8768919e-01
  5.2037889e-01
  2.8012117e-02
  2.7567351e-01
  5.1809645e-01
 -2.1939609e-02
  1.1924638e+00
 -1.8352818e+00
 -4.0500603e+00
  7.4107730e-01
  9.6827936e-01
  3.6594400e+00
  4.3172164e+00
  1.5160009e+00
 -1.4069959e+00
 -9.2495501e-01
 -3.5786557e+00
  1.1356459e+00
  4.0120959e+00
 -1.4395404e+00
  7.8069741e-01
  3.8245183e-01
  4.7754622e+00
 -8.8171458e-01
  2.0451229e+00
  2.5467808e+00
 -1.7882136e-01
 -2.8242272e-01
 -1.2068882e+00
  5.5989730e-01
  2.5422199e+00
  3.3319515e-01
 -8.9736199e-01
  1.1079978e+00
  6.6093999e-01
 -1.2242457e+00
 -6.8770659e-01
  3.3192008e+00
 -2.6962197e+00
  4.1032186e-01
 -2.9319119e+00
 -1.7958919e+00
 -1.8057265e+00
 -2.4339585e+00
 -1.8857080e+00
  2.0160677e+00
  1.1089861e+00
  4.2961770e-01
 -3.2966537e+00
 -1.6531615e+00
 -1.3775092e+00
  1.0047721e+00
  3.8467754e-02
  1.6940072e+00
 -5.2694058e-01
 -6.2467903e-01
  2.6486588e-01
  4.1019406e+00
  1.5641235e+00
 -3.0272484e-01
  2.4705182e-01
 -1.3363552e-01
  4.6359973e+00
  4.6800366e-01
 -2.1777436e-02
 -9.8578043e-02
  4.6202925e-01
  7.4416167e-01
  4.4433907e-02
  2.8549248e-01
  2.2828452e-01
 -3.6141348e-01
 -5.0015893e-02
  2.3067586e+00
 -3.9799100e-01
 -3.7734768e-01
  4.1757095e-01
 -1.0529365e-01
 -2.6649139e+00
 -8.5600324e-02
  2.1918724e-01
  3.2414910e-01
  1.1450914e+00
  9.1257876e-01
 -3.6459032e-01
  3.5906097e-01
  2.6844344e-01
  1.0279586e+00
 -6.7659521e-01
 -1.8123366e+00
 -1.2689188e+00
 -1.4384258e+00
 -1.5873212e+00
  7.3750727e-02
  2.3907711e-01
 -1.0997120e+00
 -2.2624959e-01
 -1.5120171e+00
  7.5081027e-01
  7.3495251e-01
  3.3854562e-01
 -4.8414818e-03
  1.5171407e+00
 -1.3121092e+00
  4.4572511e-01
  1.1658527e+00
 -1.6233494e+00
 -3.5021937e-01
  5.3112954e-01
  6.6830829e-02
 -2.6210632e+00
 -1.0654443e-01
 -9.2879260e-01
  2.7273813e-01
  2.0838740e+00
 -8.7394041e-01
  9.5225775e-01
  3.4048659e-01
 -9.3365538e-01
 -1.3449066e+00
 -1.7393177e+00
 -2.3039454e-01
 -2.6383829e-01
  4.7329557e-01
 -1.3412383e-01
 -3.1980714e-01
 -1.5357047e-01
  3.6798260e-01
 -2.0346312e-02
  3.3579913e-01
 -1.3282299e-01
  1.4213343e-01
  9.2907082e-03
  1.7232450e-02
 -2.6825345e-01
 -6.2173799e-02
  6.5290242e-02
  8.4800795e-02
 -5.0356172e-02
  3.0004798e-02
 -9.2736310e-01
  3.9917974e+00
  2.1893220e+00
 -4.0864429e-01
  3.0007050e+00
 -2.2980297e+00
  2.6508975e+00
  3.0782764e+00
 -3.8638484e+00
 -8.5708421e-01
 -8.4176952e-01
  7.4200492e+00
  2.3816624e+00
 -1.9147574e+00
  9.8299682e-01
 -2.1740355e+00
 -1.4996383e+00
 -1.1617329e+00
 -7.0691478e-01
 -2.7584198e-01
 -7.3448226e-02
 -1.0618261e+00
 -2.8039610e+00
  1.3946946e+00
 -3.5549486e+00
 -2.1963861e+00
 -9.7798252e-01
  5.5894333e-01
  7.8990228e-02
  3.7927327e-01
 -5.1880497e-01
 -3.3116560e+00
  2.5243411e+00
  2.1983335e+00
 -1.2469156e+00
  5.8028835e-01
 -1.2224290e+00
  4.5424080e+00
 -4.8219457e-01
 -1.4477631e+00
 -1.3578099e+00
 -8.9134383e-01
  2.5025799e+00
 -1.0181737e+00
 -3.9766166e-01
 -1.0104842e+00
 -5.0341625e+00
 -1.8579665e-01
  7.3269218e-02
 -7.6962344e-02
 -3.2806131e-01
 -4.6584895e-01
  5.5146903e-02
  1.5938683e-01
  1.9253887e-01
 -4.4259715e-01
  4.3121910e-01
 -1.8123204e-01
  2.7908497e-02
  5.8748707e-02
 -1.5838309e-01
 -1.5474892e-02
 -4.1796375e-02
  2.9949909e-02
  4.1283160e-02
 -2.0579398e-01
 -1.9975698e-02
 -3.0031943e+00
  1.6191859e+00
 -3.1916990e+00
  8.6549866e-01
  4.5077553e-01
  2.0996661e+00
  1.4652525e+00
 -1.4003103e+00
 -1.2479781e+00
  4.5482645e+00
 -1.3008214e+00
 -2.0520218e-01
  1.9111420e+00
 -7.4328315e-01
  2.5526922e-02
 -1.2881250e+00
  1.4075933e+00
 -1.7662821e+00
  1.9973013e+00
 -7.7409065e-01
 -3.0040665e+00
 -1.5377922e+00
 -2.4974110e+00
 -1.8890656e+00
  9.0839201e-01
  3.8776588e-01
  6.9528550e-01
 -2.2047472e-01
  1.1214198e-01
 -2.4457602e-01
 -1.2486815e+00
  1.8670865e+00
  8.9434075e-01
 -2.5544694e-01
  2.2620723e+00
 -1.5855696e+00
  8.5899013e-01
  6.2513751e-01
 -1.0748804e+00
 -4.7791982e+00
  1.6065091e-01
 -7.1527910e-01
 -7.9013631e-02
 -3.2280240e+00
 -6.4093924e-01
  1.1011972e+00
  3.0120697e+00
  3.5599965e-01
 -7.0573235e-01
  6.9759734e-02
  3.5181531e-01
 -4.7564477e-01
 -2.8840060e+00
 -2.2328259e-01
 -8.4660918e-01
 -7.6277792e-01
  1.7982622e+00
 -1.4904694e-01
  1.3052323e-01
  1.5214791e-02
 -8.3186649e-02
 -1.2740581e-01
 -1.3863327e-01
  1.7140025e-01
  4.5899406e-02
 -8.0833323e-02
 -5.7115823e-02
 -1.6337851e+00
 -4.7333431e+00
 -7.0241851e-01
 -1.4068898e+00
 -1.2071335e+00
  2.5342920e+00
 -8.5301465e-01
 -2.5920908e+00
  1.3266842e+00
  1.0922382e+00
 -2.7977934e+00
  1.3950980e+00
  7.6827008e-01
 -2.3008361e+00
 -1.4876578e+00
  3.9754603e+00
  1.5173104e+00
 -3.7390347e+00
 -3.2854509e+00
  1.1042565e+00
  1.9015766e+00
  3.2233454e-02
  8.3204383e-01
 -9.3744296e-01
  1.8738190e+00
 -9.7149181e-01
 -2.3952253e+00
 -1.6763525e+00
  2.1429031e+00
 -2.5063729e+00
 -7.8420788e-02
 -1.2689598e+00
 -3.6656480e+00
 -1.1568222e+00
  7.2280109e-01
  7.5375724e-01
  8.2940304e-01
  5.4756761e+00
 -3.4982574e+00
  1.8277767e-01
  1.2442051e+00
 -1.2442911e+00
 -1.5984622e+00
  1.5790838e+00
 -4.0208989e-01
 -2.2882621e+00
  1.0796022e+00
 -5.1433605e-01
  5.5527610e-01
  8.1165236e-01
 -1.1135027e+00
  2.9686706e+00
 -2.2412417e+00
  5.7985181e-01
 -1.1698767e+00
  1.7351220e+00
  8.9771396e-01
  5.6139582e-01
 -2.4160022e-01
  7.4865505e-02
  3.6860764e-01
  1.9160458e-01
  4.2831203e-01
 -5.5252826e-01
 -1.3134693e-01
  4.5496978e-02
  1.4115684e-01
 -4.6219030e-01
 -1.1932138e+00
  2.1508698e+00
  2.9490861e-01
  1.3839097e+00
 -1.1525346e+00
 -2.8356600e-01
  4.9891933e-03
  2.0335456e-02
  1.2374058e-01
  4.3944320e-01
 -9.6467525e-01
 -3.0793098e-01
 -4.1375056e-01
  1.8274248e-01
  4.3007040e-01
 -2.0184441e-01
 -2.6741782e-01
  5.1244628e-01
  1.1008433e-01
 -1.1541686e+00
  3.0923602e-01
 -2.9772353e-01
  1.6786803e-01
  4.7388580e-01
 -3.5000005e-01
  5.2460057e-01
  2.7242631e-01
  1.1281711e+00
 -2.7132273e-01
  1.8567336e-01
 -2.7649042e-01
  4.6738693e-01
 -1.3471024e+00
 -1.3684432e-01
 -4.5249128e-01
 -2.8132445e-01
 -2.6280257e-01
  1.8265402e-01
 -7.4607962e-01
  5.2516941e-02
  6.9455826e-01
  8.4546667e-01
  5.6731659e-01
 -1.1306007e-01
  1.8277177e-01
  1.3539346e-01
 -2.4359360e-02
 -2.9318991e-01
  1.7085065e-01
 -8.9919604e-02
  1.2542014e-01
  3.5392961e-01
 -2.5325323e-02
  4.3677531e-02
  3.4688348e-01
  5.3637314e-01
  1.3387622e-01
 -7.7773064e-02
  2.0727297e-02
 -6.7733362e-02
 -1.7230348e-01
 -2.1808952e-02
 -7.8786850e-02
 -1.1316229e-02
 -1.2156232e-01
 -3.9874800e-02
 -4.0322118e+00
 -7.7845657e-01
 -1.4053420e-03
 -1.4411807e+00
 -2.1845138e+00
 -3.3033383e-01
 -1.8958138e+00
  2.0250256e+00
  2.7238414e-01
  3.4603207e+00
 -1.2373787e+00
  7.4739200e-01
 -1.6896549e+00
  1.1237211e+00
 -1.1153516e+00
 -1.0622845e+00
  1.2327756e+00
  1.2653321e+00
 -6.4151073e-01
  3.9116982e-01
 -3.4029071e+00
  1.1606803e+00
 -9.7976409e-02
  1.0313239e+00
  5.6545222e-01
  1.4297174e+00
 -3.5210836e-01
  1.8193923e+00
 -1.5606010e+00
 -5.2439636e-01
 -1.1205317e+00
 -2.0339856e+00
  9.5237918e-02
  2.8834254e-01
  2.1447070e+00
  4.7418464e-02
 -3.6277218e+00
 -5.5710950e+00
  1.3175845e+00
 -1.3610352e+00
  1.0044070e+00
  4.8014951e-01
  1.2063146e-01
 -6.5144622e-01
 -2.2345559e-01
 -5.9076601e-01
 -1.4774787e+00
  1.9033331e+00
 -6.6095829e-02
  3.3396408e-01
  7.4528098e-02
 -2.0308694e-01
  4.8142409e-01
  6.3083434e-01
  9.5331258e-01
  8.8337429e-02
 -1.1191481e-01
  7.4712895e-02
  3.3106744e-01
 -8.9080498e-02
 -1.0490855e+00
 -2.9270688e-01
 -9.2034534e-02
  1.9433135e-01
 -9.2311718e-02
 -2.6465677e-02
 -5.5857703e-02
 -3.9695954e-01
 -3.1853971e+00
 -1.2215250e+00
  1.7420223e+00
  6.9857740e-01
  2.3042428e+00
 -2.9378676e+00
 -6.9535911e-01
  5.8696508e-01
  1.4901592e+00
 -2.0997379e-02
 -1.1383905e+00
 -2.0407331e+00
  8.5357565e-01
  2.2217710e-01
  1.7138133e+00
  3.0700219e-01
  7.4914920e-01
 -1.2587166e+00
 -1.0809274e+00
  2.3961031e+00
 -7.9333341e-01
 -2.4856877e+00
 -2.0814276e+00
  1.9082853e-01
  1.0558088e+00
  2.0225079e+00
  1.1663289e+00
  4.2849622e+00
 -5.4879169e+00
 -3.7422080e+00
  3.9267676e+00
  2.7472491e+00
  2.8874636e+00
 -4.6348858e+00
  1.5704085e+00
 -1.4101908e+00
  1.6853759e+00
 -1.1758396e-01
 -1.8104069e+00
 -2.1189821e+00
 -1.0716799e+00
 -1.9673741e+00
  1.7753664e+00
 -3.6201216e-02
 -1.0322218e+00
  1.9912510e+00
  5.5452651e-01
  3.1951556e-01
 -1.0908775e+00
  1.5283598e+00
 -2.5637918e+00
  3.8996509e-01
  2.0430739e-01
  8.6598834e-03
 -1.4073480e+00
 -2.5774756e-01
  1.3315495e+00
 -4.8779074e-02
  3.5439193e-02
 -2.4163354e-02
 -4.8930541e-02
 -3.0078900e-01
  2.4241497e-01
 -3.8864758e-02
 -6.1684090e-01
 -1.1539863e-01
  1.9377068e+00
 -6.8634839e+00
  2.3284185e+00
 -1.2465128e+00
 -8.6356997e-01
  4.0061197e+00
  2.4140518e+00
 -2.8670592e+00
  4.8387918e+00
  5.7101369e+00
  3.2303393e+00
  3.1564684e+00
  5.6961119e-01
 -5.9061569e-01
 -7.9656893e-01
 -2.5425675e+00
  1.4687714e-01
  2.1915622e+00
 -3.1583744e-01
  4.8035371e-01
  1.5892948e+00
 -1.0111556e+00
  1.3801168e+00
 -8.8511568e-01
 -1.7215388e+00
 -1.1357789e-01
  1.2665751e+00
  3.3541110e+00
  1.0177742e-01
 -8.9566630e-01
 -1.1384483e-01
 -3.0193362e+00
  2.1737645e+00
 -8.8173494e-02
 -1.6601034e+00
 -3.8564656e+00
  1.0512818e+00
 -2.1082394e+00
 -1.0761279e+00
 -3.2741189e+00
 -1.2067070e+00
 -4.7276703e-01
 -1.8186090e+00
  8.9638168e-01
  7.7547801e-01
 -1.4045757e+00
  4.8232791e-01
 -2.6080513e-01
  1.3267775e+00
  9.5920503e-01
 -2.8518713e-01
  3.5589701e-01
 -2.6194456e+00
  4.3596491e-01
 -4.4473240e-01
 -4.2082417e-01
 -1.0998523e+00
  4.0841749e-01
  3.6384601e-02
 -1.5049066e-02
  3.2504147e-01
 -3.7250406e-01
  1.2413980e-01
 -3.4684655e-01
  3.1795483e-02
  3.0844602e-01
 -5.4567989e-02
 -1.6661516e+00
  1.6262782e+00
  3.4518695e-01
 -5.3343940e-01
 -5.0134176e-01
 -3.1715789e+00
  2.2209404e+00
  2.9095238e-01
  2.7710290e+00
  1.7388853e-01
 -3.5400977e+00
  1.9822725e+00
 -2.8009522e-01
  3.2698798e-01
  1.4012952e+00
 -1.1026965e+00
  1.4375371e+00
 -4.4219890e-01
  9.8112082e-01
  2.0498192e+00
 -5.9399515e-01
  1.3499677e+00
 -1.3238398e+00
  8.9679044e-01
  9.9211925e-01
  1.4199611e+00
 -2.2315323e-01
  1.8111151e+00
 -9.1241145e-01
 -3.8372201e-01
  2.4838476e+00
  8.3780551e-01
 -2.7539372e-01
 -2.7543461e+00
  1.9920698e+00
  6.5285170e-01
 -3.8846919e-01
 -6.9975495e-01
  1.6199318e+00
 -1.2302651e+00
  9.1898394e-01
 -2.5914282e-01
 -7.7764618e-01
  1.7320791e+00
 -4.5237800e-01
  1.6379237e-02
 -1.2281830e+00
 -9.3721563e-01
  5.8174491e-01
  2.3586524e-01
  2.0446679e-01
 -5.4593337e-01
 -7.5177073e-01
  2.5829563e-01
 -4.6382111e-01
  6.4109606e-01
 -2.8410385e+00
 -1.4100523e-01
 -2.2552834e-01
  5.1198125e-02
  5.7431561e-01
  1.3414596e+00
 -9.2258587e-02
  2.8905788e-01
  1.3702573e-01
 -3.8242885e-01
  3.8983104e-01
  1.1607020e+00
  4.8111203e-01
 -2.0538523e+00
 -9.9531114e-01
 -3.3578780e+00
  1.8379819e+00
 -1.6237544e+00
  3.2258432e+00
 -1.6203403e+00
 -2.8674390e+00
 -7.5156569e+00
  1.4946805e+00
  1.9142781e+00
 -5.5325848e-01
 -6.4476120e-01
  3.2943895e+00
  1.6741802e+00
 -2.1101403e+00
 -1.7800732e-01
  5.1764652e-02
 -3.0901305e-02
  4.1806659e-01
  9.7210735e-02
 -6.4510995e-01
  3.1152919e-01
  1.1705319e+00
 -4.6500692e-01
 -3.0415487e-01
 -5.5676240e-01
 -2.0243144e+00
  9.0862256e-01
  3.0216489e+00
 -1.2067827e+00
 -3.0113034e+00
 -3.5487664e+00
  2.3895528e+00
  1.4475739e+00
  5.6007844e-01
 -7.5956452e-01
  2.3073311e+00
 -5.6986082e-01
  2.6630965e-01
 -3.0724130e+00
 -1.7283185e+00
 -1.0891461e+00
 -2.8455579e-01
  1.7936611e+00
  3.9709911e-01
 -5.2614307e-01
  4.3986389e-01
  2.5909305e-01
  1.0085491e+00
  9.5099169e-01
  1.7020372e-01
  3.2027611e-01
  7.3331654e-01
 -4.3086150e-01
  2.1624997e-02
 -3.4472432e-03
  2.0519137e-02
 -1.4060090e-01
  7.1047381e-02
  2.9138098e-02
  7.7996729e-03
  5.8080100e-02
 -2.4384545e-01
 -2.6842024e-02
  5.1564326e+00
 -1.8970628e+00
  3.3222370e+00
 -8.6656356e-01
  1.8878946e+00
 -3.8750939e+00
 -4.8849040e-01
  5.1711984e+00
  4.0232101e-01
  3.3728511e+00
 -9.6466041e-01
  1.9337288e+00
  1.3505383e+00
 -4.1180307e-01
  4.5288226e-01
 -2.4796286e-01
 -1.1204382e-01
  1.0611794e+00
  1.1468986e-01
  3.4244767e-01
  1.1579936e-01
 -7.1201348e-01
 -5.7318884e-01
  1.3429140e-01
  1.0527160e+00
  2.6318169e-01
 -1.6119306e+00
  1.2682548e+00
  1.5348159e+00
  1.5978354e+00
 -7.3862118e-01
 -1.4467701e+00
  6.5561479e-01
 -3.3978879e+00
  6.2978234e+00
 -1.5169814e+00
  1.6137184e+00
  2.7265491e+00
  1.0487156e+00
 -2.5360671e-01
 -1.2965410e+00
  1.6872122e+00
  6.1710864e-01
 -2.2073346e-01
 -7.2490549e-01
 -7.0620216e-02
  3.2952225e-01
 -3.3283341e+00
 -1.0527552e+00
  1.3708052e-01
  9.9338897e-02
  3.6778957e-01
  1.2926058e+00
 -1.5147538e-01
  2.2350961e-01
  4.5312381e-01
 -6.2900096e-01
 -1.3887741e-01
  1.6443500e-02
 -1.3597405e-02
 -1.4489233e-01
 -6.2841490e-02
  8.6343177e-02
  3.7920874e-02
  1.9471677e-02
  3.7247907e-02
 -2.5539223e-02
  9.4994782e-03
 -2.1328716e+00
  1.4731641e+00
  1.1299811e-01
 -1.2093077e+00
  3.3440205e-01
 -3.1608067e+00
 -2.2321954e+00
  1.1657411e+00
 -6.5749389e-01
  2.3965254e+00
 -1.4998999e+00
 -1.3047844e+00
  5.2583370e-02
 -1.0673443e+00
  6.3488846e+00
  1.1060016e+00
 -5.1256043e-01
 -3.0630238e+00
 -2.3339460e+00
 -2.7451556e+00
 -7.3672044e-01
 -1.2590990e+00
 -3.7389355e+00
  3.0078592e+00
 -1.6853639e+00
  4.6257138e+00
 -6.4284053e+00
  2.2822483e+00
 -2.3417256e+00
 -3.3800325e+00
  2.8712246e+00
 -2.0924954e+00
 -5.6450886e-01
 -6.9788426e-01
  4.9321876e+00
 -4.0403986e+00
  9.5273620e-01
 -9.6900231e-01
 -1.3072245e-01
  1.3188950e+00
  2.0884209e+00
 -7.0151055e-01
 -2.1809452e+00
 -1.7865930e+00
 -1.8565841e-01
  2.2689188e+00
  1.1263230e+00
  2.0287557e+00
  1.2658695e+00
 -1.4364669e+00
 -2.8340027e+00
 -3.9959592e-01
 -2.7461714e-01
  1.8099418e+00
  4.7004253e-01
  1.0337750e+00
  7.1294272e-01
 -1.3467345e-01
 -8.1324026e-02
  4.8638788e-01
  7.8329057e-02
  1.0472925e-01
 -6.2154490e-01
 -6.9663443e-02
  7.8509831e-01
 -3.0751145e-01
  2.6911030e+00
  4.2563161e-01
  1.4638892e+00
  1.6486028e+00
 -1.9733876e+00
 -6.7601190e+00
  3.0764086e+00
 -2.7537351e+00
  2.1473236e+00
  7.5651282e-01
 -5.7229133e+00
  1.1335435e+00
 -6.0415587e+00
  3.2546657e-01
 -5.9124410e-01
  1.4242368e+00
  5.6500854e+00
 -1.1596146e+00
  1.1809827e+00
 -2.5369182e-01
 -5.6763077e-01
 -6.8113661e-01
 -2.0710678e+00
 -8.1571162e-01
 -2.5994053e+00
  3.5166452e+00
  2.4557543e+00
 -2.6791123e-01
 -7.7033645e-01
  1.1115673e+00
  2.0710295e-01
  5.4722772e+00
 -4.9475321e-01
 -1.6949257e+00
 -3.2026522e+00
 -3.1453633e-01
  2.3386836e+00
 -2.6365402e+00
  7.6224828e+00
 -3.2753992e+00
  1.3306659e+00
  1.2256163e+00
  2.2538204e+00
 -4.5047693e+00
 -6.8704128e-01
 -1.2352251e-01
  1.7957693e+00
  2.1469440e-01
  3.4384087e-01
 -6.2218297e-01
  3.5999393e-01
 -2.2905669e-01
  3.2066286e-01
  1.3286467e-02
 -1.0487687e-02
  1.0032408e-01
  4.9434578e-01
 -1.5124410e-01
  2.1236336e-01
 -5.3529099e-02
  5.5380607e-01
  3.0802020e-01
  9.5691651e-02
  1.4232731e-01
  7.1324237e-02
  4.3822014e-01
 -3.7153240e-03
  5.3814507e+00
 -2.7071819e-01
  3.2241940e+00
 -4.1186106e-01
 -1.7500925e+00
  8.0342382e-01
  3.5802333e+00
  2.4946086e+00
 -1.4640478e+00
 -1.6031732e-01
  4.5514011e+00
  2.2770701e-01
  4.9373257e-01
 -2.1919146e-01
  7.7598190e-01
 -9.2531782e-01
 -5.9850997e-01
 -4.1786212e-01
 -1.5149984e-01
  7.3674344e-02
 -6.2036395e-01
 -8.5796112e-01
  2.6398787e-02
  7.0096944e-03
  1.0007116e-01
 -8.3046287e-01
 -3.4277163e-02
 -4.7088817e-01
 -1.8063098e-01
  1.7260268e+00
  1.9751908e-01
  1.1348127e+00
 -6.9603376e-02
  2.1149399e+00
  1.5106214e+00
  1.3276793e+00
  2.1238382e-01
  1.1833117e+00
  2.5371544e+00
  4.6388835e-02
 -4.7476150e-02
  5.3450137e-01
 -1.9368753e+00
  2.3221447e+00
 -8.4240925e-01
  6.4126313e-01
  2.7156299e-01
  3.5022340e+00
 -1.4287005e-01
  3.3433206e-02
  4.0889900e-02
  1.9719183e-01
  1.9975924e-01
 -1.8246979e-01
 -3.7814651e-02
 -7.4781395e-02
  1.8226446e-01
 -4.9024895e-02
  5.4587907e-01
  6.6380046e-02
 -2.2412578e-02
 -1.0140751e-02
  8.5128900e-03
  4.9563020e-04
  1.3533022e-02
 -1.1377665e-03
 -2.0267265e-02
 -7.5560883e-02
  1.7922774e-01
  4.7045657e-01
  5.1771376e-02
 -2.5397604e+00
 -3.1130412e-01
 -4.7719212e+00
  1.4759501e+00
  1.4647487e+00
  8.6781520e-01
 -3.3237208e-02
  2.2950028e-01
 -1.7987815e+00
  6.5487385e-01
 -9.7862005e-01
  1.2532828e+00
 -7.5518495e-01
  7.2737384e-01
 -2.8367031e+00
 -2.6098320e+00
 -1.4184750e+00
 -8.0804884e-02
  1.3332597e+00
  6.1510999e-02
  1.8510219e+00
  4.8783690e-01
 -1.6194168e-01
  9.0782320e-01
 -3.3370175e+00
 -3.5374548e+00
  3.7149861e+00
  2.8842175e+00
 -9.8362869e-01
 -3.8699737e+00
 -3.2542052e+00
  3.4543054e+00
 -2.4050152e+00
  8.9411509e-01
  3.1975677e+00
  3.1454315e+00
  1.1282065e+00
 -1.6674390e+00
  5.5710390e-02
  2.6274979e+00
  2.0745120e+00
 -3.2665396e+00
 -2.0182570e-02
 -7.6777852e-01
  1.6162986e-01
  2.9787034e-01
 -6.2845850e-01
  1.2647699e+00
  3.1037755e+00
 -6.3399023e-01
 -2.3270732e-01
 -2.1344779e-01
 -1.6274040e+00
  7.1240008e-02
 -1.7254438e-01
 -8.3169945e-02
  4.8066235e-01
  1.5807155e-01
  4.4344223e-01
 -4.5789772e-01
  4.8373826e-03
  8.0279875e-01
  1.1017366e-01
  1.0104303e+00
 -3.4007111e-01
  9.5112592e-01
  1.8461899e+00
 -1.5905231e-01
  2.6923048e-01
  8.8581300e-01
 -3.4063223e-01
  2.6542566e+00
 -7.8998810e-01
  4.4362454e+00
 -4.4616958e-01
 -2.2684453e-01
  2.2673159e+00
  1.0831949e+00
 -2.0062399e-01
 -1.3882681e+00
  1.2777369e+00
  1.0411315e-01
 -3.9465272e-01
  3.9672145e-01
  9.3733996e-01
  1.3543193e+00
  1.0840663e+00
  1.0804174e+00
 -2.1345477e+00
  1.2869272e+00
  6.6909838e-01
  2.1919882e+00
 -5.3754687e-01
 -1.5042529e+00
 -9.8669791e-01
  3.8333442e+00
 -1.2356600e+00
  4.4942906e-01
  2.0501328e+00
  6.6399711e-01
 -3.5924861e+00
 -1.5386015e-01
 -8.5300624e-01
 -1.3544772e+00
 -1.1690701e-01
 -5.3979319e-02
  1.0010477e+00
  2.0548117e-01
  1.4142225e+00
 -1.2889218e+00
  1.1295497e+00
 -2.8578908e+00
 -1.2364789e+00
  1.2033014e+00
  2.5012910e+00
 -3.6453001e-02
 -4.9754706e-01
 -6.3769609e-01
  8.0047685e-01
 -2.5184588e+00
  3.4196341e-01
 -3.5011733e-01
  8.5852049e-02
 -1.6860299e+00
 -7.3459256e-01
 -3.7526211e-01
 -4.3583187e-01
 -3.7399122e-01
  1.1391106e-01
  3.3120319e-02
 -1.7209798e-01
 -1.2934581e+00
 -1.2234151e+00
 -1.4839064e+00
  2.1435063e+00
 -5.7878691e-01
 -7.6739997e-01
  9.3415993e-01
  6.4148712e-01
 -1.7546722e-01
  6.2195033e-01
 -8.7772089e-01
  2.4516423e+00
 -1.5816871e+00
  2.3433670e-01
 -2.2900114e+00
 -1.2472374e+00
  8.5003841e-01
 -1.4648567e-01
 -1.1941211e+00
  4.8051482e-01
  1.9929861e+00
  4.7028974e-01
 -2.0583487e+00
 -1.8230911e+00
 -8.7138778e-01
  2.5517052e-01
  2.0538862e+00
 -3.9073688e-01
 -3.4074776e+00
 -4.2223397e-01
 -1.6364019e+00
  1.5626774e+00
  2.7855785e+00
 -6.1554182e-01
  9.2988390e-01
 -1.3199484e+00
  4.2340517e-01
 -1.5856087e-01
 -2.4599941e+00
 -2.0703037e+00
  6.5779459e-01
  7.0569700e-01
  8.0612892e-01
 -1.5294011e+00
  4.2985737e-01
 -5.3008032e-01
  1.5815766e-01
 -6.4079487e-01
 -8.9638537e-01
  1.7532887e-01
 -1.3872316e-01
  1.0868379e+00
 -2.0742673e-01
  1.1107515e+00
  5.3720254e-01
 -2.4815824e+00
  1.8449079e-01
 -2.2804035e-02
  2.9790857e-01
 -3.3340007e-02
 -3.2432175e-01
  2.5076920e-01
 -1.5982708e-01
  5.9891820e-02
 -7.4842954e-01
  9.9648550e-02
 -3.6645481e-01
 -1.7645369e+00
  2.1294057e+00
  7.8222835e-01
  2.5421298e+00
 -3.5421176e+00
  1.6176145e+00
  8.0897546e-01
 -5.6280124e-01
  2.7014439e+00
  2.0455976e-01
 -2.6409652e+00
 -1.7888056e-02
 -5.1210320e-01
  1.1307542e+00
 -1.1686584e+00
 -1.6103643e+00
 -8.3076519e-01
 -7.7269453e-01
 -8.3684641e-01
 -2.4173248e+00
 -5.7538271e-01
 -2.8346074e-01
 -5.8874422e-01
  5.7024896e-01
  1.0875583e+00
 -1.6910948e-01
  2.9495890e+00
  4.9830863e-01
  3.8091537e-01
 -7.3965675e-01
  3.2373983e-01
  1.1572502e+00
 -3.8457492e-01
 -1.1375480e+00
 -5.0567806e-01
  1.9294485e+00
  1.3135200e+00
 -6.2313950e-01
 -8.1680083e-01
 -4.7602949e-01
  1.9129997e-01
 -3.1915095e+00
 -6.8611138e-02
 -5.8142334e-01
 -3.9860317e-01
 -9.4991520e-02
  4.8052809e-01
 -1.0208829e-01
  7.9985380e-02
  2.6377207e-01
  1.2641647e+00
  2.3279999e-01
 -7.3035911e-02
  2.2753659e-01
  1.5834707e-01
 -2.6902995e-01
  3.9772797e-02
 -4.3340087e-02
 -2.1177452e-02
  1.8808064e-01
  2.8160959e-03
  6.7477472e-02
 -3.5716422e-02
  3.9383661e-02
  4.1205004e-02
  2.2297541e-02
 -5.4771608e-01
 -6.0748792e-01
 -9.4150144e-01
  9.9426294e-03
 -1.9139926e+00
  1.2004620e+00
  7.5490433e-01
  1.5039726e+00
  1.5969726e+00
  1.1081395e+00
 -5.1073533e-01
  1.8293107e+00
  1.1875947e+00
  8.8125312e-01
 -5.5393708e-01
  7.3697007e-01
  1.5148979e-01
 -1.8682179e-01
 -2.4227848e+00
  1.8523332e-02
 -3.4331763e-01
  2.7562183e-01
  1.2985493e+00
  2.3535314e+00
  2.9929236e-01
  2.1581447e+00
 -7.8788352e-01
 -1.2644768e+00
 -6.2173057e-01
  2.9850173e+00
 -3.5885367e-01
  6.3666290e-01
 -3.2943204e-01
  4.8792936e-02
 -2.1111841e+00
  2.8570434e-01
  6.6047448e-01
 -1.0853294e-01
  8.8655633e-01
 -2.1733096e+00
  4.8830438e-01
  5.3234577e-01
 -2.6759448e+00
  1.6206224e+00
  1.0359221e+00
  3.8301137e-01
  5.8125752e-01
 -5.0283933e-01
 -4.6783730e-01
  3.0517119e-01
  5.1898229e-01
  5.9945546e-03
 -6.4671434e-02
 -2.2923014e-01
  4.4983327e-01
  9.3350106e-01
  1.2713735e+00
 -4.5248486e-02
  3.5559151e-01
  1.6497824e-01
 -2.8003737e-01
  1.2543280e-01
  3.2955518e-01
 -9.0155318e-02
  5.9693586e-02
 -6.0926324e-01
 -8.4916972e-02
  4.9048314e+00
 -3.3208281e-01
  1.0282215e+00
 -3.7804738e-01
  5.2994089e+00
 -1.4664193e+00
  8.1824815e-01
 -4.5885649e+00
 -1.5299751e+00
  1.4047329e+00
  1.8466648e+00
 -3.9142120e+00
 -1.2203676e+00
 -1.9214634e+00
  2.5843918e-01
 -8.1082916e-01
  2.7132680e+00
 -1.5890219e+00
  8.1739461e-01
  8.0034828e-01
  3.0169084e+00
  2.8507247e+00
 -5.2114052e-01
  1.0220199e+00
 -1.8018661e+00
  2.7036285e+00
  1.3012667e+00
 -1.9340585e+00
 -2.3731155e+00
 -3.1454227e+00
  7.0325857e-01
 -2.6791201e+00
  1.7957689e+00
 -1.5960852e+00
 -4.0912738e+00
  1.5455902e-01
 -5.6797749e-01
  3.6489418e+00
 -2.0502734e+00
  1.4096851e+00
  1.0388176e+00
  3.3137375e-01
 -1.7216016e+00
 -2.1543829e+00
  8.6390132e-01
 -7.7048218e-01
 -5.9913337e-01
 -5.6819558e-01
  1.4075394e+00
 -5.1782858e-02
 -8.2408577e-01
 -2.8354490e+00
  3.0484605e+00
 -6.6147321e-01
  8.4298474e-01
  3.5220414e-01
 -2.3886349e+00
  3.4603220e-01
 -1.1213793e-02
  1.5986189e-01
  6.8788715e-02
  2.7510485e-01
 -1.2263319e-01
 -1.7227763e-01
  8.6359540e-03
  2.5287151e-01
  6.0485728e-02
 -7.5771445e-01
  1.6203945e+00
  1.9695053e+00
 -2.4841626e+00
  2.7053688e-02
  3.1379714e+00
  9.7330922e-01
  8.7718445e-01
 -8.1898797e-01
 -2.0527828e-01
  3.5728610e-01
  1.9251379e+00
  4.1923900e+00
 -6.2158561e-01
  4.6295426e-03
  1.3280432e+00
 -3.1795168e+00
 -1.1879734e+00
 -9.6073198e-01
 -5.0020665e-01
 -7.1545862e-02
 -1.9472761e+00
  3.2205907e-01
  1.6616189e+00
 -2.7040584e+00
 -3.9713215e-02
 -3.8859823e+00
 -1.6449145e+00
 -1.2261882e+00
  2.8535609e+00
  8.9943200e-01
 -2.7689652e+00
  1.0332067e+00
  2.2330616e+00
 -2.3417301e+00
 -4.8069868e+00
  1.1701593e+00
 -1.0687067e-01
  5.1633084e-01
 -3.3596331e-01
  8.0149150e-01
 -4.9429306e-01
 -5.3635678e+00
  2.8773549e+00
 -5.8734190e-02
  4.5362806e+00
  4.3765521e+00
 -2.2376494e+00
 -1.0079844e+00
  8.6695319e-01
 -8.5520834e-01
  2.9951332e+00
  2.1195250e+00
  9.2701972e-01
 -7.5143206e-01
  6.9419652e-02
 -1.9968645e-01
  5.6979847e-01
 -1.3173415e-01
  6.7208102e-04
 -2.4062712e-02
 -2.6801044e-01
 -1.6812235e-01
 -2.4460962e-02
 -6.1944608e-02
 -2.0889342e-01
 -8.6106449e-02
 -3.8857794e+00
  1.1801776e-01
 -9.5281786e-01
 -4.1085768e-01
 -1.0628940e+00
 -2.6036830e+00
 -1.5574521e+00
  1.0536737e-02
  4.6165271e+00
 -1.1658909e+00
 -8.2958885e-02
  1.9974885e+00
 -1.1555758e-01
  6.4080477e-01
  9.8962957e-01
 -2.8063273e-01
 -1.2342750e+00
 -3.0939555e-01
  1.2000591e-01
  2.0323734e-01
 -8.1666499e-01
  2.6787758e-01
  8.8389504e-01
  9.6008611e-01
  1.4742751e+00
 -1.1473155e-01
 -1.3387750e-01
 -6.0708243e-01
 -1.4713547e+00
 -6.2394249e-01
  1.3895223e+00
 -1.0558019e+00
  2.3570304e-01
 -9.6458030e-01
 -1.1231294e+00
  6.4287871e-01
 -5.4063010e-01
  2.0395806e+00
 -6.3383818e-01
  1.5163957e+00
  1.4419823e+00
 -6.2789667e-01
 -7.5056881e-01
 -1.0159742e+00
 -4.4930834e-02
  2.4093254e-01
 -1.0778657e-02
  5.3034687e-01
 -7.9417336e-01
 -4.4841495e-01
  8.2509957e-02
 -1.4530946e+00
 -1.3037754e+00
 -4.5217237e-01
 -7.6720798e-01
  4.1541092e-02
 -1.2376295e+00
 -2.1446059e-02
 -1.7468181e-01
 -6.2176913e-02
  1.8020976e-01
 -2.5722873e-01
 -1.8489169e-01
  3.3696696e-02
 -7.3653825e-02
  1.0300898e-01
  7.6199643e-02
  8.9818817e-01
  2.1676164e+00
 -1.7565787e+00
  5.8480483e-01
  1.5959250e+00
  2.7406654e-01
  3.2504528e+00
  5.4926194e-02
 -2.1673334e+00
  2.8161316e+00
 -8.2741064e-01
 -1.0654402e+00
 -3.8163197e-01
  1.9014169e-01
 -2.7731192e-01
  1.6993753e+00
 -3.9987485e+00
  1.9550059e+00
 -9.3728435e-01
  6.1126304e-01
 -9.1521746e-01
 -6.9085956e-01
 -3.9579451e-01
 -2.2685958e-02
 -1.6565955e+00
  1.1255127e-01
  1.2425793e+00
 -1.2354536e+00
 -1.9145484e-01
 -4.7957504e-01
 -1.2374241e+00
  1.2464360e+00
 -1.6259389e+00
  2.9676805e+00
 -9.4281518e-01
  1.2866784e+00
 -8.2161240e-02
  5.1400775e-01
  1.6483407e+00
 -1.2980005e+00
  1.0797597e+00
 -1.4128247e-01
  2.1958418e+00
 -5.8108455e-01
 -3.0516246e-02
 -1.0828551e+00
 -2.3683845e-01
 -1.7369549e+00
  1.1386602e+00
 -2.2283679e-01
 -1.8416367e-01
 -3.9463690e-01
  6.0521865e-01
  3.6473837e-01
  4.5540559e-01
  3.8804287e-01
 -1.0453837e+00
  2.8130460e-01
  2.3248015e-01
 -3.2358613e-02
 -1.0475568e-01
  9.1927782e-02
  1.2187659e-01
 -1.6120449e-01
 -1.1892048e-01
  4.5783162e-01
  8.5611656e-02
 -3.9792001e-01
 -1.8219515e+00
  5.3260201e-01
 -5.8753133e-01
 -1.4318045e+00
 -3.5598877e-01
 -3.1432972e+00
 -4.4016538e+00
  9.3463749e-01
 -2.6428840e+00
 -1.9828970e+00
  1.3932880e+00
 -2.2351606e+00
  2.9828987e+00
  1.7853440e-01
 -2.1587466e-01
 -3.2733283e+00
  5.4445112e-01
 -5.1645309e-01
  2.4414238e-01
  7.6019615e-01
 -6.6445553e-01
  1.5325980e+00
 -9.8546661e-02
 -2.1070797e+00
 -4.5732498e+00
 -1.0860660e+00
  8.7978804e-01
 -1.6853416e+00
  9.4373450e-03
 -1.5066680e+00
 -1.6387161e+00
  1.5476521e+00
  1.0957531e+00
 -2.5829986e-01
 -1.2207882e+00
 -9.1701025e-01
 -2.2997575e+00
  5.2359438e-01
  2.8131357e-01
 -1.5663595e-01
  7.0528996e-01
  8.1952885e-02
  1.7390202e+00
  3.8912442e-01
  2.1088605e+00
  3.1755583e-03
 -1.0860903e+00
 -1.3057450e+00
  6.9026107e-01
 -2.8142503e-01
  4.1062123e-01
  4.1224232e-01
  6.6490614e-01
  1.1373312e+00
  4.0843630e-01
 -5.0375599e-01
  2.4321146e-01
  6.6554524e-02
 -4.3010194e-02
 -4.0782090e-02
  4.4912402e-02
  2.6159504e-01
 -7.7667408e-02
  1.6401008e-01
  3.2112819e-01
 -1.0050328e-02
 -2.8267150e+00
 -1.2632867e+00
 -2.3094723e+00
 -1.8043702e+00
  9.2380846e-01
  2.9681030e-01
 -2.0165300e+00
  1.0098770e+00
 -3.9190313e-01
 -5.5777311e-01
 -1.1391995e-01
 -1.2288539e+00
  2.0748043e+00
  6.3451874e-01
 -6.3356203e-01
 -1.6935953e+00
  5.5099297e-01
  1.8162975e+00
  1.4204359e+00
  1.3169962e+00
 -1.6125748e+00
 -1.5107290e+00
  6.7227948e-01
 -1.5904726e+00
  1.2172401e+00
 -4.2591438e-01
 -2.3326061e+00
  1.3250618e-01
  1.1226810e-01
  3.5514667e+00
 -3.2296963e-02
 -4.3308946e-01
 -4.8128593e-01
  2.7713134e+00
  1.2736216e+00
 -6.0418141e-01
 -9.1762328e-01
 -1.5351032e+00
 -1.4641143e+00
  5.2781448e-02
 -6.3863456e-01
 -7.6114583e-01
 -2.6822262e+00
  1.1244677e+00
  1.1072810e+00
  2.3366758e-01
  6.9489789e-01
  8.7297541e-01
 -4.2801075e-02
  2.4206017e-01
 -1.5024912e-01
 -1.7792065e-01
 -6.9136530e-01
  2.2752857e-01
 -1.0078268e-01
 -2.3206165e-01
 -1.8077155e+00
  2.2911379e-01
  1.8858731e-01
 -4.7789919e-03
 -5.4552108e-01
  5.3213978e-01
  2.2281373e-01
  4.7418982e-02
  2.0837463e-01
  1.3678773e-01
 -6.8513319e-02
  2.7198079e+00
 -2.1690550e+00
 -1.3276795e+00
 -2.8940742e+00
  1.0612196e+00
 -9.8271042e-01
  6.2977284e-01
  1.2977650e+00
  7.7644372e-01
  1.4722171e-01
 -7.8479254e-01
  3.0166674e-01
  1.5828484e+00
  1.4036736e-01
 -2.9372046e+00
 -1.0333680e+00
 -2.6439686e+00
  2.6758540e-01
  3.0088773e-01
  1.4122175e+00
 -1.0548226e+00
 -6.4562017e-01
  2.8152995e+00
 -3.1319749e-01
  2.4566770e+00
 -1.5896527e+00
  9.9256051e-01
  3.7033093e-01
  1.1141051e+00
 -2.8543350e-01
 -2.6282811e+00
 -5.1804191e-01
 -2.6267159e+00
 -8.0455907e-02
 -2.5731125e-01
  1.7166859e+00
 -1.3617656e+00
 -1.1778895e+00
 -2.6089692e-01
  2.4380319e+00
  2.0023286e+00
  1.0787574e+00
  1.2790089e+00
 -3.2775865e+00
  5.5139858e-01
  8.0043936e-01
 -3.2536731e+00
 -1.9901654e-01
  2.1608462e+00
 -8.7231010e-01
  4.8535320e-01
  1.0682718e+00
 -2.1688993e-01
  2.9678005e-01
 -1.4159983e+00
 -1.2358154e+00
  1.6393912e+00
 -3.2972139e-01
 -3.7096485e-01
  3.1102669e-01
  1.1151329e+00
  5.2298379e-01
 -3.4828624e-01
  7.7076373e-03
 -7.7173695e-02
 -4.8699397e-01
  4.1905958e-03
 -3.6646625e-01
  5.5038959e-01
 -4.5051056e-01
 -3.7330201e-01
 -2.8776214e+00
 -2.5494521e+00
 -2.7634609e+00
 -2.0517330e+00
  1.0173348e-01
 -9.1551721e-01
  2.8818223e+00
 -7.8277773e-01
 -3.6522357e+00
 -1.5862401e+00
 -6.5347493e-02
  4.1939197e+00
  7.2591287e-01
 -3.6778855e-01
 -6.5818213e-02
  1.8271028e+00
 -1.5821899e-01
 -2.3235952e-02
 -1.4896824e+00
  5.4038328e-01
  1.8833042e+00
  2.5100791e+00
 -3.3341339e+00
 -1.6401139e+00
 -1.1373750e+00
 -4.1324970e-01
  1.6824270e+00
  6.2234193e-01
  3.2482183e-01
 -2.7681351e-01
  1.7052274e+00
  2.8310218e+00
 -2.4630512e-01
  2.5844972e+00
  2.0781062e+00
 -1.0137846e-01
 -4.8230720e-01
  8.4892726e-01
  1.9135580e+00
 -1.7530774e+00
  1.3672475e+00
 -1.0276330e+00
 -1.0223378e+00
  1.3889978e+00
  1.6000932e-01
  9.8677522e-01
 -6.1745979e-02
  1.4531475e+00
 -1.5952222e-01
  5.0120455e-01
  1.4381596e-01
 -2.8882900e-01
 -6.3510376e-01
 -1.3791974e-01
 -6.4411074e-02
  1.7979693e-02
  3.7906614e-01
  2.2323927e-01
 -3.3583563e-02
 -4.8356466e-02
 -7.8949928e-02
 -5.0040597e-01
 -1.3643890e-02
 -3.5763916e-01
  5.2545530e-01
 -8.7152816e-02
 -4.9804586e-01
 -2.7073446e-01
  9.2855060e-01
 -2.0360585e-01
  3.8078624e-01
 -4.4551489e-01
 -3.9557526e-01
 -2.0852144e+00
 -1.5232183e+00
  6.7214981e-02
 -5.9391998e-02
 -4.0632719e-01
 -8.4804945e-02
  1.5379998e-01
 -1.9240721e-01
 -2.2792800e-01
  1.3749371e-01
  6.4858896e-01
 -4.8349464e-01
 -2.8693014e-01
 -7.3938809e-02
 -3.9358154e-01
 -2.9401302e-01
 -1.7667779e-01
  1.5576638e+00
 -5.1550433e-02
 -3.4631583e-01
 -5.3254861e-01
  7.8150773e-01
  2.6491472e-01
 -6.4976680e-01
 -6.9890928e-01
 -3.6133307e-01
  3.5531363e-01
 -3.5192490e-01
 -1.2009400e-01
 -4.1384453e-01
 -1.0382993e+00
  4.6459343e-02
  2.8836986e-01
  1.2161636e-01
 -9.9231126e-03
 -1.6760263e-01
  9.1562724e-01
 -6.4601481e-01
  3.2614285e-01
 -5.4426152e-02
  1.0787316e-01
 -6.8928504e-01
 -6.4574912e-02
  1.0511839e-01
  1.7794678e-01
 -1.7924426e-01
 -9.2852861e-01
 -1.2343004e-01
  3.6715314e-02
 -4.8146654e-02
 -2.4853386e-01
  1.5130900e-01
  9.9445350e-02
  8.9279786e-02
  3.7897080e-02
 -9.8184198e-02
 -4.9091324e-02
 -4.0276667e-01
  1.2930387e+00
 -7.8715247e-01
  9.5572674e-01
  6.5496176e-01
 -2.8177521e+00
 -1.8334142e+00
  2.7644544e+00
  2.8844805e+00
 -8.5144883e-01
  1.1566132e+00
  2.7919751e-01
 -6.3848920e-02
 -1.2616824e+00
 -1.7008547e+00
 -3.9928937e-01
  4.4487553e+00
 -4.0909181e+00
 -1.8708898e+00
 -3.5477312e+00
 -3.3997196e-01
  9.8341221e-01
 -2.3248813e+00
 -7.3519129e-01
 -1.0230314e+00
  2.6087604e+00
 -1.6588234e+00
 -1.2158555e+00
 -3.8284893e+00
 -3.5195079e+00
 -2.7506933e+00
 -4.6860833e+00
 -7.6440299e-01
 -2.5125506e+00
  3.2697208e+00
  1.7744876e+00
 -3.3502891e+00
  2.8133443e-01
  2.3310685e+00
 -8.0954057e-01
  1.6680808e+00
 -1.8643627e+00
  8.4073579e-01
  8.7514812e-01
  4.7033408e-01
 -2.7088518e+00
 -1.0805949e+00
  6.0390341e-01
 -2.8807206e+00
  5.2625477e-01
  4.7495148e-01
 -2.7459838e+00
 -1.1273016e+00
 -5.2197319e-01
  3.1568161e-01
 -6.1111081e-01
 -2.0609450e+00
 -3.3510845e-02
  3.5388455e-01
 -4.1515976e-02
 -1.3711871e+00
 -7.3175676e-02
  5.7807916e-01
 -3.4436196e-02
  5.9358373e-02
  7.4361488e-02
 -5.3603243e-02
  7.4569637e-01
  1.4345424e-01
  7.7356893e-01
 -3.4118600e-02
 -1.1632304e-01
 -5.4349303e-01
 -5.3512549e-01
  3.8921037e-01
 -8.8028833e-03
  1.8190097e+00
  1.0264814e-01
  7.7184564e-01
 -8.2490109e-02
  2.2420658e-01
 -5.6322739e-03
  5.9985518e-01
  1.1750577e-01
 -1.8097003e-01
 -1.3521648e-02
 -6.1894968e-02
 -1.7770992e-01
  7.4285269e-01
 -2.9675627e-01
  1.4425074e-01
  4.9472634e-02
  9.1428369e-01
  4.2265606e-01
 -8.2181305e-01
 -4.8312034e-02
 -2.2960714e-01
  3.5505366e-01
  1.7745821e-02
 -1.1720591e-01
 -5.1197344e-01
  3.8451359e-03
 -1.1963732e-01
 -3.2541367e-01
 -7.7087179e-02
 -3.6071452e-01
  3.9408628e-02
  5.4139549e-01
  2.7718598e-02
  1.1533887e-01
 -1.4648873e-01
  4.1439448e-02
 -5.1161960e-02
 -3.0527508e-01
  6.1663955e-01
  1.1046806e-01
 -6.3744977e-02
  4.5307353e-02
  2.7852753e-01
 -2.3623772e-01
 -4.5743674e-02
 -5.1374581e-02
  7.9954430e-02
  5.7241577e-01
 -7.9035446e-02
 -4.5041457e-02
  6.8444096e-02
  1.4431527e-01
 -1.3612010e-02
 -3.1685948e-02
 -3.6247034e-02
 -3.5891674e-02
 -7.8573495e-02
  2.8780414e-02
  3.5902208e-01
 -5.5534081e-03
 -1.4267272e-02
  4.9408566e-02
 -4.0196291e-01
  7.7214605e-01
 -2.9175925e-01
  6.1371440e-01
  9.0852164e-02
 -1.4274180e+00
 -1.9636142e-01
 -6.1512130e-01
  1.7214099e-01
 -2.3873274e-01
  1.2835469e-02
 -2.0845360e-01
  9.0489280e-01
  6.7534769e-01
  3.3873135e-01
 -2.6475027e-01
  4.1234785e-01
  4.8860228e-01
 -2.8359160e-01
  3.1471208e-01
 -1.2167761e-01
  9.4378537e-01
  4.4895637e-01
 -1.7724031e-01
  6.3000685e-01
  1.8597161e+00
  9.5988077e-01
 -5.0294083e-01
  3.7548181e-01
 -1.6999788e+00
  2.0309675e-01
 -1.4926942e-02
 -4.7753281e-03
 -2.3328418e-01
 -1.2217585e+00
  5.7802334e-02
  7.8810352e-01
  4.8909497e-01
 -5.2769947e-01
 -1.3159412e+00
  8.9380646e-01
  4.3874033e-02
 -5.9871238e-01
  1.8815739e-02
 -6.0446042e-01
  1.3758861e-01
 -1.9697148e-01
 -6.8819791e-01
 -1.0504540e+00
 -2.5800329e-01
 -2.1675427e-01
 -5.7584781e-02
 -8.3175677e-01
 -1.0512570e-01
 -5.7559222e-02
  3.4763973e-02
 -9.7310662e-02
 -1.2465712e-01
 -3.6281091e-03
 -4.7814004e-02
 -1.6526517e-02
  5.6655068e-02
  3.6635183e-02
 -2.9113588e+00
 -6.1185136e+00
 -3.2454143e+00
 -2.4591062e+00
  4.5406523e-01
  3.7203436e+00
  6.9226301e-01
 -1.2248169e+00
 -2.7150724e+00
  3.6767168e+00
 -5.1778593e+00
  6.9143134e-01
  5.7232280e+00
 -8.6256295e-01
  2.0623076e+00
 -3.2369301e+00
  5.3623533e+00
 -2.0675421e+00
  2.0035835e-01
  9.3525988e-01
  1.1988213e+00
 -1.8142360e+00
 -8.8938391e-01
  1.6072710e+00
 -1.0061613e+00
  5.6552272e+00
 -1.5570071e+00
 -1.8275670e+00
  1.8039455e+00
 -3.5359168e+00
 -1.6127058e+00
  1.6610094e+00
  1.7105261e+00
  6.6312283e-01
  6.0946083e-01
 -3.8615489e+00
 -9.1240716e-01
  5.0281429e+00
 -7.4843740e-01
 -1.4585428e+00
 -1.8148330e-01
  3.9924869e-01
  1.1664512e+00
  1.7803149e-01
 -3.9312843e-02
  5.7355309e-01
  2.1284282e-01
  5.6424364e-02
 -4.1494756e+00
 -4.3615505e-01
 -1.9787422e+00
 -2.8005550e+00
  4.9697936e-01
 -1.6597440e+00
  1.1118857e+00
  1.5283334e+00
 -6.7989573e+00
  2.8597674e-01
 -2.3856167e-01
  1.3524361e-01
 -1.1571463e+00
 -1.0551453e+00
  6.5244126e-01
  8.9333487e-01
  2.9842265e-02
 -5.9889144e-01
  1.1534547e-01
 -3.7593475e-01
 -9.0108258e-01
 -2.1055320e-01
  6.4856052e-01
 -9.3691334e-02
 -3.4759836e+00
  1.4193015e-01
 -2.5312462e-01
  4.7475514e-01
  1.9017080e+00
 -2.2571344e+00
  6.1173928e-01
  7.0098776e-01
  5.5290576e-02
 -1.1975148e-01
 -1.2098358e-01
 -4.0994084e-01
  3.2776788e-01
 -4.6491462e-01
  1.1046215e-01
 -1.3968928e+00
 -4.3051481e-01
  3.0621070e-01
 -8.2314414e-01
  2.3905936e-01
 -1.2882557e+00
 -1.9614104e+00
 -2.0975597e+00
 -2.4828501e+00
 -2.2236097e+00
  7.6567048e-01
 -2.0677226e+00
  4.9029940e-01
 -1.1196100e+00
  1.6351001e-01
  1.7137390e+00
  1.1655519e+00
  2.2111008e+00
 -8.6178076e-01
 -5.5370313e-01
 -2.6746643e-01
  8.5443002e-01
  8.1491631e-01
 -3.8733650e-02
 -1.7671540e+00
 -1.5971866e+00
  1.8003380e+00
 -6.9787651e-01
  4.5920768e-01
 -2.2282600e-01
 -5.2038722e-02
  1.6736959e-01
 -6.8414026e-01
 -5.5022720e-02
 -5.9651321e-01
 -5.1391703e-01
 -9.9705958e-01
 -1.4720240e-01
 -8.8709686e-03
 -2.0503188e-02
  1.4949423e-01
  3.0928511e-02
  3.7019730e-02
  5.8015082e-02
  3.0910507e-02
  4.1437726e+00
  3.6702962e-03
 -2.0299938e+00
  3.5033557e-01
 -6.8590283e-01
 -2.0658596e-01
  2.8887194e-01
 -1.6773493e+00
  4.1042838e+00
 -6.9973516e-01
  8.0914682e-01
  1.0510623e-01
  3.2327062e-01
  1.6299930e+00
  5.1802945e-01
 -6.0371482e-01
 -3.4765229e-01
  1.1853132e+00
  1.4758563e+00
  1.0601258e+00
  5.3211850e-01
  8.2164502e-01
  1.5101532e+00
  1.3373250e+00
 -8.0509198e-01
  1.8607359e+00
  1.1664104e+00
 -3.6697400e+00
 -1.7105924e+00
 -6.2105393e-01
  1.3079722e+00
  7.2549868e-01
  1.6561246e+00
 -1.9426863e-01
  5.8715022e-01
 -3.2008765e+00
 -8.2963997e-01
  3.0830130e-01
  4.2646506e-01
  7.0451552e-01
 -2.6856077e-01
  2.8218716e-01
 -1.7037793e+00
  3.2666337e-01
  1.2600569e-01
  7.6889503e-01
 -6.8967372e-01
 -3.1008297e-01
 -2.3575802e-03
  3.0475563e-01
  7.1554951e-02
 -2.3036252e-01
 -3.1058300e-01
 -2.0841584e+00
 -1.6053710e+00
 -4.6444023e-01
 -4.7049171e-01
 -2.7778980e-01
 -2.0868254e+00
 -4.3467394e-01
 -9.8820359e-02
  3.4894163e-03
 -6.4774871e-02
  8.5095815e-02
 -3.4863379e-02
 -2.3291381e-02
  3.8101582e-03
 -9.3737304e-02
  7.9589881e-02
 -6.7742223e-01
 -2.7974996e-01
  1.7602127e-03
  1.4038081e-01
 -5.4859754e-02
 -6.3508880e-01
  1.0131264e-02
 -6.4431107e-01
 -7.6315790e-02
  2.9981056e-01
  9.0965581e-01
 -4.2069644e-02
 -2.0602307e-01
  2.4122368e-01
 -3.2653055e-01
 -3.3475426e-03
 -8.5576408e-02
  1.9841510e-01
 -7.8014053e-02
  7.6862954e-02
  8.8729340e-01
  4.4342643e-01
 -1.9986747e-01
 -1.5083322e-01
 -6.5832472e-01
 -9.0310061e-01
 -1.1539908e-01
 -6.6130912e-01
 -1.2408169e-01
 -3.1944644e-01
  3.9183038e-01
  1.0519289e+00
  2.4249503e-01
  2.3043644e-01
 -4.9994022e-02
  3.3423081e-01
 -2.5654662e-01
 -9.7819370e-01
 -6.7184901e-01
  4.8043787e-01
 -4.1718021e-01
  1.6038886e-01
  3.7718627e+00
  7.1829098e-01
 -1.2999287e-01
  1.6032523e-01
  3.3554044e-01
  1.6830191e-01
  2.1581322e-01
 -1.6663197e-01
 -1.8044615e-02
  3.8648035e-02
 -5.7528043e-01
 -2.4391310e-01
 -3.0778310e-01
 -1.4971668e-01
  2.3855090e-01
 -1.4437586e-01
 -7.0177644e-02
  4.9159739e-02
 -3.3029508e-02
 -2.1930911e-02
 -2.1636436e-02
  4.6839312e-02
 -2.1091751e-03
 -6.2269103e-03
  1.0699968e-02
  2.6416414e+00
  1.9919492e+00
  2.5421221e+00
  1.5547144e-02
  1.1176538e-02
 -1.4308163e+00
 -2.3225322e+00
 -2.0407393e+00
 -4.7834355e-01
  2.6768550e-01
  2.1430798e+00
 -1.0837840e+00
 -1.3750508e+00
  2.8064084e+00
 -2.7058554e-01
 -8.9024119e-03
 -3.9453528e+00
  1.2653044e+00
 -1.5416970e+00
 -1.3692390e+00
  1.4334689e+00
  7.8889704e-01
  8.2401496e-01
 -8.8520157e-01
  1.3529731e+00
  1.2839741e+00
  3.0201828e-01
  2.6202440e-01
  1.5716422e+00
  1.2399906e+00
  4.2571926e-01
 -4.7245136e-01
 -6.3751888e-01
  5.0495934e+00
  3.2405005e+00
 -5.8797795e-01
 -9.1831368e-01
  1.8755137e+00
  1.8217354e+00
  2.2572517e+00
  7.0722800e-01
  8.3858877e-01
  2.6775589e+00
  1.6767455e+00
 -6.1980850e-01
 -6.7882098e-02
 -2.7092087e-01
 -2.2428505e+00
  6.4967054e-01
 -3.3723438e-01
  1.5500228e-01
  1.5833806e+00
  1.8878317e+00
  3.3086661e-01
  3.7085041e-01
  2.8141388e-01
 -4.3544650e-01
  6.5372035e-02
 -7.6951901e-03
 -6.3958281e-04
  5.7754493e-01
 -9.5857374e-02
 -4.5835454e-02
 -1.9082716e-01
 -1.3478966e-01
  1.1187114e-01
  1.9667178e-02
  2.2306992e-01
  5.5813801e-01
 -1.8271248e-01
 -5.2311361e-01
 -1.1364328e+00
 -6.9153953e-01
 -1.2411987e+00
 -1.4325466e+00
  3.0247623e-01
  7.8421049e-02
 -3.8058788e-01
 -7.1362060e-01
 -1.3386813e+00
  5.1185381e-01
  4.1392598e-01
  1.9917061e+00
 -1.2024813e+00
 -5.4764479e-01
 -2.9162588e+00
 -5.8449763e-01
 -2.4448612e-01
  1.6461484e-01
 -8.4439315e-02
  2.9014969e-01
 -1.2507252e+00
 -4.2323855e-01
 -1.4250005e+00
  6.8113482e-01
 -4.7264102e-01
 -6.6764593e-01
 -1.7658985e-01
  2.0253979e-02
 -2.4645668e-01
  1.1155525e-01
 -1.1717762e+00
 -7.3670512e-01
 -1.6590182e+00
 -1.4253417e+00
  2.7599704e-01
 -6.2890559e-01
 -1.9868605e-01
 -8.6595833e-01
  2.3948865e-01
  2.3982033e-01
 -7.6128453e-01
 -5.8386441e-02
  4.4631031e-01
 -1.0349126e+00
 -7.7139926e-01
  1.6507533e+00
 -1.8075658e+00
  3.7706587e-01
 -2.3103866e-01
 -6.6963278e-02
  3.0356812e-01
  1.9685334e+00
  2.4770127e-01
  6.0411769e-01
 -1.8160045e-01
 -1.8156517e-02
  9.2762806e-02
 -1.6070318e-01
  1.0375323e+00
 -4.6581319e-01
 -2.4584603e-02
  1.0800878e+00
  2.3642938e-01
  8.2514000e-01
  1.4423415e-01
 -3.8500351e-01
  6.5858185e-01
 -1.2495959e+00
 -4.1861013e-01
 -9.4224560e-01
  5.6085274e-02
 -8.1050865e-02
  1.2473680e+00
  4.2021126e-01
  8.9944619e-01
  4.0113708e-01
 -7.9530627e-02
 -1.1867277e-01
 -4.7973663e-02
  8.5491365e-01
  1.3738136e-01
 -3.2370694e-02
  1.7774513e-01
  6.6592914e-01
  1.5063465e-01
 -3.5887685e-01
 -4.1949835e-01
 -1.3035169e-01
 -6.2353903e-01
  2.6099005e-01
 -7.5468026e-02
 -2.9400831e-01
 -2.1199559e-01
 -3.1618398e-01
  4.1509122e-01
  8.6930737e-02
  4.8459885e-01
  1.2265104e+00
  1.5435125e-01
  3.6000210e-01
  1.0633228e-01
  1.9817122e+00
  3.6964428e-01
 -1.7111309e-01
 -4.3528605e-02
 -2.4470235e-01
 -1.8218143e-01
  1.0880400e-01
 -2.4185633e-02
 -9.5840335e-02
 -9.4603759e-04
 -1.5596877e-01
 -2.8520434e+00
  3.1124588e-02
  6.9905937e-02
  7.9520322e-02
 -3.6105490e-01
  4.2102374e-02
  7.5509183e-02
 -9.6019372e-02
  6.7453764e-02
 -6.9926292e-02
 -1.4546149e-03
 -3.1416308e-02
  7.6069698e-02
  7.7197842e-02
  5.4259919e-02
 -2.4297165e-02
  9.8368965e-02
 -3.6865233e-03
 -3.9059776e-01
 -1.4174167e+00
 -4.0332918e+00
 -1.4458392e+00
  5.4487121e-01
 -4.1320276e-01
  9.7732460e-01
  4.9494588e-01
 -1.1657728e+00
  1.3854178e+00
 -2.2468736e+00
  3.2290298e-01
 -6.2097716e-01
 -7.2379601e-01
  8.9887667e-01
 -2.4344325e+00
  1.4105113e+00
 -1.7638810e+00
 -2.2389233e+00
  5.8979589e-01
  9.8288611e-02
 -3.0386543e+00
 -7.4135804e-01
  1.5871400e+00
  1.7167667e+00
  9.9922580e-01
  5.4467463e-01
 -4.5107598e+00
  2.4429073e+00
 -8.8373220e-01
 -1.4694003e+00
  2.9468513e+00
 -3.1003757e+00
 -4.2234349e-01
  6.0116255e-01
 -3.1281445e-02
 -1.5967517e+00
  1.7826979e+00
 -9.9159211e-01
 -1.8643012e+00
 -6.2357455e-01
 -1.5255755e+00
  1.7426530e+00
 -1.3780059e+00
 -2.3969267e-03
  7.5662240e-02
 -9.8136961e-01
  6.4776641e-01
 -3.2617326e+00
 -4.8050925e-01
 -2.4836648e-02
  4.2774892e-01
 -4.1190836e-01
 -3.0733982e-01
  9.5151490e-01
  1.4342511e+00
 -1.1021502e+00
  5.5537683e-01
  9.1661227e-01
 -1.8069670e-01
 -1.2327368e+00
  1.4925572e-01
  3.1770918e-01
  3.0856678e-01
  4.6279347e-01
  1.0798680e+00
  8.8884279e-02
  1.9178113e+00
 -2.9653788e-01
 -1.6171666e+00
 -9.0300184e-01
  8.1961446e-02
  4.1099530e-01
 -2.5533192e+00
  4.1716358e-01
  2.0823613e-01
 -1.6111610e+00
  4.3688431e-01
  2.8050852e+00
 -2.8797818e-02
 -9.0940106e-01
  5.0305694e-01
 -2.6289754e+00
 -1.1596138e+00
  1.3148155e+00
 -1.6492001e+00
  1.5886180e-02
 -2.0961144e+00
 -1.3174790e+00
 -1.3456255e+00
  6.8976402e-01
  2.3475437e+00
  2.4385586e+00
 -2.3157747e-01
  4.1719437e-01
  5.9528399e-02
  2.2856259e+00
 -1.6783509e-01
  1.5798340e+00
 -1.1184434e+00
 -2.3234427e+00
 -1.4925065e+00
 -4.7298771e-01
 -1.9267346e+00
  1.4208996e+00
  3.8423908e+00
 -4.1556180e-02
 -3.8012585e-01
 -4.1335359e-01
  2.8722921e-01
  8.6852157e-01
  1.8055271e-01
 -5.8746105e-01
  4.6241254e-01
  1.6999394e+00
 -1.4187002e-01
  4.6005536e-02
 -7.3037453e-02
 -5.4351735e-01
 -1.0094028e+00
  5.3806119e-02
  2.7414247e-01
  1.9986252e-03
 -1.5137923e-01
 -1.4281774e-01
  3.2454684e-02
 -2.3782328e-02
 -5.1452142e-01
 -7.7067566e-01
  7.2538100e-02
 -2.9368600e-01
 -2.6764238e-01
 -7.8713015e-02
 -7.9559721e-02
  8.7917209e-01
  3.6896236e+00
  2.9502048e+00
  5.1557559e-01
 -1.4540640e+00
 -3.1495130e+00
  1.6308331e+00
 -2.6533256e+00
  6.2420905e-01
 -2.9733123e-02
  5.0676733e-01
 -1.5438093e+00
 -1.7237045e+00
  3.1473598e-01
  4.6051484e-01
 -1.8563364e-01
 -1.2408458e+00
  1.4699455e+00
 -1.0020185e+00
  1.3341558e+00
  3.4281805e+00
  6.2239873e-01
 -2.6293311e+00
  2.1203108e-01
 -2.8263474e+00
 -2.2632794e+00
  1.4778597e+00
  1.8357724e+00
 -8.1429052e-01
  3.3872173e+00
  7.4004430e-01
  7.9393971e-01
 -1.9020070e+00
  2.6842013e-01
  1.7970098e+00
  1.6350648e+00
 -7.6123726e-01
 -4.5703344e+00
  4.4097003e-01
  1.7461294e+00
 -1.6228965e-01
  1.1769469e-01
 -5.5563527e-01
  2.6157961e+00
 -7.6894045e-01
 -1.9453156e+00
 -2.8074138e+00
 -2.6672585e-02
  4.3572485e-01
 -3.1937003e-01
 -1.1679355e-02
 -2.8386354e+00
 -1.9118891e+00
 -4.4688481e-01
  7.4937826e-01
  1.2397820e+00
 -3.0306058e+00
  1.4149703e-02
 -1.7780675e-01
  1.3682994e-01
  2.9508874e-01
  1.8119492e-02
  2.6630682e-01
  3.2334575e-01
  1.6943510e-01
  6.2817353e-01
  2.9227895e-01
  1.1849681e+00
  9.2338853e-02
  2.8146727e+00
  5.0321406e-01
  1.6653879e+00
 -1.4088291e+00
 -6.5317316e+00
 -3.9322498e+00
  2.8677243e-01
 -1.3575377e+00
 -8.9358634e-01
 -2.6401684e+00
  7.4160713e-01
  4.8305452e-01
  9.1163552e-01
 -1.0246370e+00
 -3.3198528e+00
  7.1765095e-01
  3.6483970e-01
 -2.6179928e-01
  2.3454325e+00
 -1.7643111e+00
 -1.1022936e+00
 -1.3931810e+00
  7.3800594e-01
  5.4504836e-01
  3.8435504e+00
 -1.3033183e+00
 -1.5211122e+00
 -2.8238225e+00
 -1.4172578e+00
 -5.8369112e-01
  6.5933937e-01
 -2.7602839e+00
 -2.3622787e+00
 -2.9866095e+00
 -8.8457215e-01
 -1.4095274e+00
 -5.4660207e-01
  1.1242751e+00
  2.4755991e+00
 -4.7103947e-01
 -7.8714734e-01
  3.6071986e-01
 -8.7971747e-01
  1.1283109e+00
  1.7081444e+00
 -1.1735027e+00
  8.9370149e-01
 -2.5397785e+00
  1.4865994e+00
 -2.0410450e+00
  3.4280184e-01
 -5.5110800e-01
 -1.9385710e-01
 -1.2562362e+00
 -1.7880193e+00
 -9.1535431e-01
  4.8872344e-02
  2.1841433e-02
  2.1279337e-01
  3.5139668e-01
 -1.0391844e-01
  6.2259120e-01
  1.0054652e-01
 -2.8585708e-01
  1.3797079e-02
  2.0738246e+00
 -1.4143860e+00
  3.7566812e+00
 -7.8859836e-01
  1.4616847e+00
 -1.8600973e+00
 -2.6982353e+00
 -2.6189027e+00
  3.0397837e+00
 -1.1944575e+00
  2.7624831e+00
 -8.9483434e-01
 -4.8197249e-01
  4.3195372e+00
 -2.7369175e+00
  3.8984609e+00
 -5.9290543e+00
  2.2223396e+00
  7.8587472e-01
 -1.3621842e+00
  7.4467134e-01
  4.9016886e+00
  2.8226003e-02
 -2.2160265e+00
  1.4185594e+00
 -3.2172894e+00
  5.8628020e+00
  2.6373616e-01
 -2.6105244e+00
 -9.2467837e-02
  3.4227750e+00
  4.5001569e+00
  1.0944068e+00
  1.4778155e+00
 -3.4822364e+00
  2.2502041e-01
 -4.5638517e-01
 -3.8953688e+00
  1.0835997e+00
  2.1743929e+00
 -2.5042260e-01
  3.7629235e-01
  1.9536752e-01
 -7.7833690e-02
 -8.7003541e-01
 -2.2571068e-01
 -3.1505537e+00
  1.5040622e+00
 -1.3578683e+00
 -1.8816930e+00
 -2.5147409e+00
 -3.0955346e+00
  3.1964159e+00
 -2.0059615e-01
  6.4617646e-01
  9.5218790e-01
  1.4181192e+00
 -1.0455878e+00
  1.0476237e-02
 -1.1824984e-01
  3.4313075e-02
  9.4399101e-01
 -4.3169570e-01
  4.5546231e-01
  1.2197066e-01
 -2.7323192e-01
 -5.6804303e-02
 -5.5915689e-01
  8.3118916e-01
  2.6114690e+00
  1.0835098e+00
 -1.2946681e+00
 -2.6762012e-01
 -2.1778810e+00
 -5.4440635e-01
  1.3733981e+00
  2.3278580e+00
 -2.6078433e-01
 -2.5558550e+00
 -2.4155615e-02
 -1.3572408e+00
  7.6610231e-01
 -4.5350337e+00
  1.6323961e+00
 -5.3603137e-01
  2.4692025e+00
 -2.8932500e+00
  1.5361210e+00
  5.4195382e-02
 -3.1398687e+00
  3.1671722e-03
 -2.3022609e+00
 -4.5254716e-01
  1.0531443e-01
 -1.3668472e+00
 -1.6707774e+00
  4.0493253e-01
 -5.0493580e-01
 -6.5610029e-02
  3.4784225e-01
 -1.8899629e+00
 -1.5057571e+00
  5.8337431e-02
  2.1382148e+00
 -2.1320157e+00
  3.3237643e+00
 -8.6049616e-01
  1.8397796e-01
  9.1153449e-01
  2.0632291e+00
 -6.5155321e-01
  1.7403185e-01
 -1.0580481e+00
  6.0360551e-01
 -8.1175841e-02
  4.8452488e-01
  1.7104742e-01
  1.1598164e+00
 -2.1648712e+00
  1.5577206e-01
  1.6252981e-01
  5.5140942e-01
  7.4744529e-01
 -2.2205706e+00
  8.0191153e-01
 -3.5373023e-01
 -1.3024764e-01
 -1.0638284e-01
 -1.6469640e-01
  1.5449670e-01
  6.1344770e-03
 -1.1837458e-01
 -3.8302749e-01
  1.2308055e-01
  1.4900930e+00
  1.5607796e+00
  1.7573475e+00
  2.1632321e+00
  3.3312411e+00
  8.3715731e-01
  2.6433501e+00
  1.5343513e+00
 -1.5286825e+00
 -6.3565296e-01
  9.4968021e-01
 -6.8367839e-01
  6.2121058e-01
  1.4296378e+00
 -1.2492983e+00
 -5.3905094e-01
 -2.6051429e-01
  5.8690991e+00
  3.2900548e+00
 -9.4871327e-02
 -4.3642340e+00
 -1.1223041e-01
 -2.5015953e+00
 -1.1986617e+00
  3.1219327e+00
  2.0905986e+00
  3.5418134e+00
 -9.1434067e-01
 -2.0939918e+00
  3.4862075e+00
  1.3846679e+00
  4.8880634e+00
  2.5317206e+00
 -4.9820769e-01
  1.1311283e+00
 -4.9805121e+00
 -9.7924471e-01
 -2.5768919e+00
  2.2866380e+00
  1.4413863e+00
  2.3881429e-01
  1.6321824e+00
 -2.6892760e+00
  8.9859951e-01
 -2.0769858e+00
 -8.8717538e-01
  4.0636129e+00
  1.3869432e+00
 -7.6107669e-01
 -7.9695314e-01
  5.4138643e-01
  1.6628624e+00
  1.9795076e+00
 -5.4245975e-02
  3.4047213e-01
  3.2336262e-01
  3.9479742e+00
 -3.3142695e-01
  7.3238894e-02
 -2.3054570e-01
 -2.2202981e-01
 -3.3527172e-01
 -3.2657847e-01
  4.9026850e-01
 -3.3539079e-02
 -9.5365620e-01
 -5.0362896e-02
 -1.9134835e+00
 -1.8042365e+00
 -3.1429825e+00
 -1.2614356e+00
 -2.7051463e+00
  8.7179899e-01
  5.5132520e-01
 -7.2743696e-01
  3.6761242e-01
  1.2760496e+00
 -2.2911708e+00
  1.4717211e+00
 -8.2736439e-01
  3.3453333e+00
  6.1127320e-02
  1.2671928e+00
 -1.3644670e+00
  1.0364563e+00
 -8.0114496e-01
 -1.8649383e+00
  7.2795540e-02
  1.5510124e+00
  4.1211720e+00
  1.2030208e+00
  1.1800840e+00
  1.2281644e-01
  1.6578363e-01
  1.2661792e+00
 -4.0795925e-01
 -2.5126920e+00
  1.2720095e+00
  5.9546471e-01
 -1.8485478e-01
 -1.7226404e+00
  2.9863698e+00
 -8.9197683e-01
  2.8437537e-01
  2.9375536e+00
 -1.8671581e+00
 -1.6085775e-01
  2.1801491e+00
 -7.9382312e-01
 -2.0469003e+00
  4.9440357e-01
 -1.8794705e+00
  7.2488391e-01
  2.1782520e+00
 -7.1102285e-01
 -1.4088835e+00
 -1.0709715e-01
  7.7650142e-01
 -9.3229795e-01
  1.3494127e+00
  2.1625440e-01
 -5.2314591e-01
  1.8666139e-01
 -6.8760896e-01
  3.4917630e-02
 -4.8450693e-01
 -1.5453969e-01
  3.1523097e-01
 -2.8857979e-01
 -5.9495974e-01
  3.4388907e-02
 -1.3067067e-01
 -2.5659347e-01
  2.3247033e-01
 -2.7674224e+00
 -1.0259396e+00
 -4.4638567e+00
  1.5624753e-01
  2.9601426e+00
  4.1309838e+00
  1.5737774e+00
  3.2775123e+00
  4.5276964e-01
 -3.5299152e-01
  2.1329961e+00
  4.8780364e-01
  1.0652494e+00
  1.2336079e+00
 -4.3101954e+00
  3.3149161e+00
 -3.1693822e-01
  7.3713559e-01
 -7.6671147e-01
 -2.6596162e-02
  9.6546167e-01
  4.6067268e-01
  3.3814971e+00
  1.2036022e+00
  4.6808157e+00
 -3.8048065e+00
  1.5818387e+00
 -1.5148485e+00
 -3.0595841e+00
  2.0023012e+00
  1.4220865e+00
 -1.9667714e+00
 -1.0428495e+00
 -1.3309342e+00
  3.8585123e-01
  3.2462206e+00
 -8.2695645e-01
  2.3912168e+00
 -4.0106497e+00
  2.4915638e+00
  7.1268988e-01
 -7.4691612e-01
  3.0845571e-01
 -1.0394887e+00
 -7.8997010e-01
 -7.1050543e-01
 -1.8223785e-01
 -4.0717089e-01
 -2.9195340e+00
  4.9048278e-01
  2.3705602e-01
  1.1378893e+00
 -9.4275486e-01
  1.7344254e+00
 -5.1956666e-01
 -7.6513064e-01
  5.6377965e-01
 -1.3690573e-01
 -1.6060653e-01
  1.1664696e-02
  5.3509760e-01
  4.3420991e-01
 -6.9766021e-01
  3.4545507e-02
 -5.8627119e-03
 -9.4563210e-01
 -8.6615786e-02
 -9.0611398e-01
 -8.7804693e-01
  6.4527446e-01
 -3.5252109e-02
  1.7608199e+00
 -2.0878627e+00
 -5.0084555e-01
 -2.7181790e+00
  1.8440156e-01
 -3.2343772e-01
 -1.4797643e+00
 -1.1695312e+00
 -8.4392035e-01
  3.2241702e-01
  1.5373358e+00
 -8.3192998e-01
 -5.7647294e-01
  1.0135241e+00
  3.5950872e-01
  1.9354142e+00
  2.8241575e+00
 -7.4414298e-02
  1.4867369e+00
  2.1159589e-01
  1.4201418e+00
  2.5099413e+00
 -3.9413700e-01
 -2.4713740e+00
  8.0483593e-02
  1.7405673e+00
 -2.6041785e-01
  1.7814002e+00
 -9.3759708e-02
  2.8300214e+00
 -2.5989363e+00
 -1.2614245e+00
  1.6238728e+00
 -1.4971120e+00
  2.0958464e+00
  2.9116435e+00
 -6.1940271e-01
 -1.0280387e+00
  1.1071604e+00
 -2.3722086e+00
  2.2139733e+00
  1.4155285e+00
 -1.0439242e+00
  1.4325091e+00
  8.4449178e-01
  5.7612199e-01
 -1.0729557e-01
  2.9486558e-01
 -2.0230601e+00
  8.1037700e-01
 -3.5682846e-02
  3.8563353e-01
 -9.0052187e-03
  8.7649219e-02
 -7.3796079e-02
  8.4561795e-02
 -7.5798787e-02
 -9.5250565e-01
  1.3030437e-01
 -5.6117857e-01
 -9.4256215e-02
  1.2942290e-01
  1.5597670e-01
  2.9920135e+00
  9.7891495e-02
  2.5959072e+00
  2.7847328e+00
 -9.8942006e-01
 -1.7228549e+00
  8.6415905e-01
 -4.0365868e+00
 -1.1521441e+00
  2.8299847e+00
  3.1330657e-01
  1.2249004e+00
 -1.5996234e+00
  2.8686407e-01
  2.4125154e-01
  1.6948632e+00
  2.0411909e+00
  3.8398793e-01
  4.4295669e-01
 -6.2599897e-01
  1.2738730e+00
  6.6798425e-01
  1.0851775e+00
  5.5230081e-01
 -1.6084609e+00
  6.7727274e-01
  2.0112703e+00
 -2.6621330e+00
 -9.8022425e-01
  1.9352536e+00
  3.0188146e-01
  1.9364277e+00
  4.0851134e-01
 -1.3457698e+00
  2.6517813e+00
 -1.3695063e-02
 -8.6077929e-02
 -1.9057918e+00
  1.7416998e+00
  1.2071751e+00
 -2.4272507e-01
  2.9988256e-01
  6.3156694e-01
 -1.1679247e-01
 -8.6886652e-02
  2.8633893e-01
 -4.8331374e-01
 -5.6603241e-01
 -5.7243463e-02
 -1.6147669e-01
  1.6633769e-02
 -2.4092525e-01
 -6.1718255e-01
 -3.6344808e-01
 -3.9138439e-01
 -3.9076674e-01
  1.6311875e-01
 -1.7528163e-01
 -1.3823967e-02
  2.9790025e-02
  5.1647705e-01
 -2.0080191e-01
 -3.2786101e-02
 -7.8502372e-02
 -5.3320695e-02
  1.8432540e-01
  1.1879828e-01
  1.2328664e-01
 -1.5081441e-01
 -1.3444513e-01
 -2.5235897e-01
  4.1351980e-01
 -4.7345292e-02
 -4.7994965e-01
 -2.0661241e-01
 -9.1517419e-02
 -4.7425178e-01
  1.5050279e-01
  3.9353773e-01
 -1.6824669e-01
 -3.4328211e-02
 -1.8992274e-01
 -6.0069466e-01
 -5.4848492e-01
 -6.2988396e-03
 -3.3557174e-01
 -1.7685200e-01
  2.0452140e-02
 -4.7024512e-01
 -8.5546595e-01
 -2.0370242e-01
 -3.3285597e-01
 -1.6095355e+00
 -2.8352600e-01
 -2.6280349e-02
 -5.0688934e-01
  2.5645137e-01
 -2.2311702e-01
  3.0987635e-01
 -1.3622425e-01
  5.4340822e-01
  3.9240435e-01
  4.2394497e-02
  3.4218630e-01
  8.2411267e-02
  9.5034271e-02
 -7.7688965e-05
 -4.4105208e-01
  1.8559976e-02
 -2.5484946e-02
  2.6419586e-01
 -5.4388785e-01
 -1.3189855e-02
  2.4042828e-01
 -2.0739114e-01
 -1.2592199e-01
  2.2951199e-03
  9.0981953e-02
 -1.6290063e-02
  4.6377499e-03
  8.1550822e-02
 -1.1172148e+00
 -1.8919936e-01
 -1.8124840e-01
 -3.6739510e-02
 -3.1859279e-01
 -5.5837709e-02
 -7.8233793e-02
  3.2697622e-02
  3.2979950e-02
  4.5489110e-02
 -2.3612829e-02
  4.0042674e-04
 -1.8738618e-02
  9.4850260e-01
 -1.5275158e+00
  1.0988358e+00
  3.3305579e-01
 -1.5565549e+00
 -4.3393055e-01
 -1.5247962e+00
  3.2895249e-01
  1.5299890e+00
  1.5344011e+00
  5.1946247e-01
 -8.2674295e-02
  6.2516570e-01
 -2.6327019e+00
  6.2410718e-01
  6.6057509e-01
  1.7447486e+00
  1.2180505e+00
 -6.0132611e-01
  1.7276752e-01
  2.5821934e+00
 -1.0171418e+00
 -1.2878933e+00
 -3.2856980e-01
  1.2288245e+00
 -4.1817376e-01
 -1.3213980e+00
  2.8286743e+00
  2.4024835e+00
 -1.5140029e+00
 -8.0666143e-01
 -6.2640774e-01
  1.7747942e+00
  1.7800558e+00
 -8.1535554e-01
 -1.0714725e+00
  1.0152390e+00
  7.4359006e-01
 -8.9010751e-01
 -7.3212318e-02
  8.9742708e-01
  3.2906649e-01
  3.5631430e-01
  8.0620104e-01
 -5.9373242e-01
 -2.1817142e-01
 -5.4590076e-01
  1.6036740e-01
 -2.2651285e-01
  1.5560125e+00
 -1.4368333e-01
 -2.3144994e+00
  9.9582511e-01
 -8.0522895e-01
  4.4150731e-01
  4.6018064e-01
 -3.6976008e+00
  9.2743933e-02
  2.8072926e-01
 -1.4033927e-01
 -6.3819879e-01
  1.3041583e-01
  4.3118957e-01
 -2.0324898e-01
  8.4503777e-02
  6.6836858e-01
 -1.7077777e-01
  1.2277573e-01
  1.5104892e+00
 -4.7292680e-02
  1.2460489e+00
  5.3033143e-01
 -4.0278706e-01
 -4.3296841e-01
  1.0594260e+00
 -5.8548391e-01
  2.5999215e-01
 -1.0857477e+00
  5.1342726e-02
  9.8990165e-02
 -1.1929282e+00
  8.4838456e-01
  4.2421576e-01
  2.2139923e-01
  2.7841741e-01
 -1.3026783e-01
 -8.7840915e-01
  4.2160705e-01
 -1.7231377e+00
  4.7422242e-01
 -1.4918165e-01
 -2.4238130e-01
 -3.2011443e-01
 -1.2639609e-01
 -2.0416917e-01
 -3.2372832e-01
  1.3666714e+00
  5.8199489e-01
  2.7286953e-01
 -1.7366052e+00
  8.7246522e-02
  9.5990437e-01
 -2.1343164e-01
  1.5950718e+00
  4.4001704e-01
  1.1818863e+00
  1.1120177e-01
  1.1871269e+00
  1.1500233e+00
  6.0459429e-01
  9.5174682e-01
 -1.0624200e+00
  4.0810794e-01
 -4.4069511e-01
  5.9843380e-03
  5.4319692e-01
 -3.3228713e-01
  1.2635694e+00
 -5.9124577e-01
 -2.8930381e-01
 -1.7534620e-01
 -2.4646632e-01
 -9.5767689e-01
 -6.9854595e-02
 -2.0317531e-01
  1.2742863e-02
 -2.1713442e-01
 -6.4419866e-01
  2.4267134e-01
  1.2637107e-01
  4.1579726e-01
  1.8856783e-01
 -3.6482760e-01
 -1.2278279e-01
 -5.8532101e-01
  2.3310940e+00
  5.0134087e+00
 -4.6742317e-01
  9.0449983e-01
  3.2625983e+00
 -3.3668604e-01
  3.3967981e-01
 -2.3506663e+00
  1.9666815e+00
 -1.9965036e+00
 -5.5843323e-01
 -5.6934112e-01
  2.1719287e-01
 -3.3281797e-01
 -2.6276698e+00
 -6.0225325e+00
  4.5148664e+00
  2.1126680e+00
  2.3604224e+00
 -2.9650064e+00
 -9.0531045e-01
 -2.0722063e+00
  9.2348826e-01
  3.8194304e+00
 -2.3964514e-01
  1.1976753e+00
  1.8235989e+00
  2.1008623e+00
 -2.6072114e+00
  1.8687129e+00
 -3.1451893e-01
 -2.5363557e+00
 -3.9792469e+00
  1.5550418e+00
  3.9296036e+00
  2.0511971e+00
  3.1082718e+00
  4.3779185e-01
  2.5824165e+00
  3.1844211e+00
  1.8478341e+00
  3.5246623e-01
 -2.8970292e-01
 -1.3505439e+00
  2.9779756e+00
 -3.1696670e+00
 -9.8104686e-01
  1.1360013e+00
  2.2842702e-01
 -1.8971239e-01
  7.0513076e-01
  4.5456133e+00
 -3.7018180e-01
  1.4053165e+00
  2.0002789e+00
 -1.9519465e+00
  5.0467038e-01
 -1.7627223e-01
  5.4809544e-02
  2.2170569e-01
 -7.1982570e-02
 -4.8850007e-02
 -1.8076117e-01
 -1.3382923e-02
  3.8551217e-01
  3.1792599e-01
 -3.5470012e-01
  2.9081011e-01
  3.1211588e-01
 -1.1675606e-01
  2.9329172e-01
  5.4266286e-01
 -4.5166025e-01
  1.2916116e+00
 -2.5550944e-01
 -1.3748820e+00
  5.6632638e-02
 -1.1558379e+00
  3.1150118e-01
 -4.4788536e-01
  2.5230141e+00
  1.0695169e+00
  1.2722710e-01
  6.0812163e-01
  2.5145650e-01
  5.0910360e-01
 -4.7341681e+00
 -1.5481246e+00
  4.1090056e-01
 -5.2331442e-01
  1.4371358e+00
  2.0395951e+00
 -2.5828223e+00
  4.7848004e-01
  1.9380673e+00
  1.2468847e+00
  5.9620345e-01
  1.1624134e+00
 -2.4009488e+00
 -2.2797483e-01
 -1.0660709e+00
 -5.2450156e-01
 -1.3263197e+00
  3.3882436e-01
 -7.6216477e-01
  3.2357314e-01
 -1.2084351e+00
 -1.4058312e+00
 -1.1524575e+00
  5.3737062e-01
 -5.5244064e-01
  1.4528188e+00
  1.0847806e+00
 -7.7535194e-01
 -5.6797427e-01
  3.2474440e-01
 -4.1140988e-01
  1.4349272e+00
 -4.7315788e-01
 -5.7485598e-01
 -1.7444146e-01
  1.4323738e+00
  4.4536573e-01
 -6.2043810e-01
 -1.9506574e-02
 -1.6189232e-01
 -5.0716132e-01
 -8.2549030e-01
 -1.4662214e-01
 -1.0051023e-01
 -1.4423592e-01
 -6.5124583e-01
 -1.6916603e-01
  5.3700364e-01
  1.9091460e+00
  1.0809370e+00
  6.9956452e-01
  2.2756896e+00
 -1.8163972e+00
 -2.2501624e+00
 -2.5881689e+00
 -2.0354469e+00
 -2.3262844e+00
 -1.6137466e-04
 -1.0993005e+00
 -5.9953833e-01
  1.7997016e+00
 -1.2969521e+00
  2.7302804e+00
 -1.5139171e+00
  8.2416506e+00
 -2.7213230e+00
  4.5165956e-01
  1.1899916e+00
  3.2603762e-01
 -5.6214726e-01
  9.3475127e-01
  1.4318214e-01
 -2.8755019e+00
  2.2381763e+00
  2.3549471e+00
 -2.3920906e+00
  3.0927255e+00
  3.4247146e+00
 -1.5855134e+00
 -1.9127973e+00
  1.1898665e+00
  2.8086419e+00
  2.1930008e+00
 -2.0334976e+00
 -4.1218475e-01
 -9.6670628e-01
  4.4041924e+00
  2.9883640e+00
 -3.9762351e-01
  2.4271309e+00
 -1.6069134e+00
 -7.2973526e-01
 -8.4202105e-01
  2.1712687e+00
 -5.5467349e-01
 -2.1112444e+00
  4.1095313e-01
 -8.7131512e-01
  7.2719976e-02
 -4.5414171e+00
  5.7653856e-01
 -1.7920094e+00
 -1.4445215e-01
  3.1478849e-01
  4.8125601e-01
 -2.3146273e-01
  5.7742510e-02
 -2.4875541e-01
 -6.7590511e-01
 -4.1828528e-01
 -2.0085196e-01
 -1.4735653e-01
 -1.6563334e-01
  1.0080190e-02
 -5.1435512e-01
 -2.2494805e-01
  6.0960764e-01
  4.2063621e-01
  5.1205343e-01
 -3.4459704e-01
  6.0710740e-01
  4.1936475e-01
  5.5169129e-01
  6.1622268e-01
 -4.8046568e-01
 -1.1182749e-01
  3.5763267e-01
  1.1841495e-01
  2.4868578e-02
 -1.5413210e-01
  1.2690653e-01
 -2.2909132e-01
 -9.4374552e-02
 -2.7461299e-01
  6.7962623e-01
 -1.6114536e-01
 -1.5026519e-01
  1.6364431e-01
 -5.4887909e-01
 -2.3167263e-01
  3.0102414e-01
 -1.2154936e-01
 -2.1742508e-01
 -9.2807001e-01
 -2.8720018e-01
  6.0943507e-02
  3.9953107e-01
  1.9372710e+00
  2.8529641e-01
 -1.6325183e-01
  6.2581144e-02
  1.0060073e-01
 -9.7653225e-02
  1.6708918e-01
 -3.5627071e-02
  1.8729638e-02
  6.4646953e-01
  4.5331866e-01
 -4.5721319e-02
  9.4423033e-02
  2.3695175e-01
  5.8942258e-01
 -2.5843817e-01
  4.4504851e-02
  3.8218919e-02
 -2.5982043e-01
 -7.1344519e-01
 -1.0812207e-01
  1.4092784e-01
 -6.7643918e-02
 -1.1039806e-01
  4.3343823e-02
  6.9581009e-02
  3.7751537e-02
 -1.0579404e-01
  3.0795278e-02
  7.2661318e-02
  1.9333795e-02
  5.7978697e-02
  2.8833639e-02
 -1.1935432e-02
 -6.9857180e-01
 -2.6595566e-01
  3.2694146e-01
  1.6175580e-01
  2.9448682e-02
 -2.1233679e-01
 -7.8495272e-02
  1.9272001e-01
  1.5543628e-01
  6.4463472e-01
  1.1969447e+00
  5.7991803e-02
  3.6127334e-03
 -5.6739941e-02
  7.3039025e-02
  1.0063923e-01
  1.3113475e+00
  1.2536024e-01
  1.7530228e-01
  1.3406031e-01
 -1.2228701e-01
  1.1889769e-01
 -1.0079658e-01
 -3.1337030e-02
  4.1541007e-01
  2.2966132e-01
  5.8817130e-02
  5.2395812e-03
  2.8493252e-01
  1.5575399e-01
  1.6769165e-01
  6.5984301e-02
  2.2805174e-01
  1.3950889e-01
 -2.5876135e-01
  1.4486772e-01
 -1.8283670e-01
  1.3523264e-01
 -1.3160988e+00
 -1.0961206e-02
  1.3913141e-01
 -5.3659827e-02
  3.2938216e-02
 -2.4064592e-01
  1.4064664e-01
 -8.2789429e-02
 -4.7468539e-02
  3.6104807e-01
  1.0651736e-01
 -2.0162988e-02
 -8.4770188e-02
 -3.4945723e-02
  1.7673559e-01
 -8.3466070e-03
 -3.4043714e-02
  1.1344116e-01
  9.5991921e-03
  3.4711305e-02
 -2.2089262e-02
  3.3098188e-01
 -1.5925908e-02
 -4.0511084e-03
 -1.7573502e-02
 -2.9675564e-02
 -3.3018366e-02
  4.1272226e-03
  1.8418306e-02
 -2.8530269e+00
  2.1547167e+00
  4.9876663e-01
 -1.3846966e+00
  2.0504735e+00
  7.1918583e-01
  1.7762738e+00
  3.7416551e-01
  5.1931316e-01
  1.6762596e+00
 -2.2444448e+00
 -2.2308679e+00
  9.9350303e-01
  1.4794679e+00
 -6.7487115e-01
 -3.0364361e+00
 -3.9761667e+00
 -8.1935990e-01
 -5.4499853e-01
 -1.1835594e+00
 -7.0339155e-01
  3.9943752e-01
 -8.5100293e-01
  1.8718691e+00
  8.8777834e-01
 -5.5108762e-01
 -2.8281376e+00
  1.9302840e+00
  1.1243336e+00
  2.7627430e+00
 -1.9488953e-01
 -3.1678016e+00
 -1.3152828e+00
 -3.8422909e-01
  1.1982832e+00
  3.0989754e-01
 -1.0831826e-01
  1.5915767e+00
 -3.8152971e+00
  5.7047731e-01
  2.1021819e+00
 -1.6904441e+00
 -1.4851385e+00
 -3.9098924e-01
  7.7138823e-01
  9.5381266e-01
 -3.5487506e-01
 -8.6694843e-01
 -1.3027364e-01
  7.0328730e-01
 -1.9238158e-01
  1.0012484e+00
  4.5653558e-01
  2.6410627e-01
  3.3659241e-01
  3.9428797e-01
  3.2120292e+00
  1.1834960e-03
  5.5550259e-02
 -3.6081649e-02
 -4.1966259e-01
 -1.5080993e-01
 -2.3403262e-01
 -1.3751337e-02
 -1.4447460e-01
 -5.4601216e-01
 -6.9587663e-02
  5.1807307e-02
  8.8237748e-02
  2.3589465e-01
  3.1822261e-01
  1.3634767e-01
  1.3208131e-02
 -5.2628696e-02
  4.8890509e-02
  1.4378892e-01
  1.0768691e-02
  2.8797923e-02
 -1.5012042e-01
  5.1723194e-01
 -6.3891396e-02
  2.4391610e-02
  4.9532169e-01
  3.7346497e-01
  1.4750715e-01
  5.0627154e-01
  4.0642500e-01
 -5.7337053e-02
  6.5302074e-01
 -3.2695818e-01
  4.3510199e-01
  3.7084508e-01
  3.9781737e-01
  2.8029534e-01
 -1.8070118e-01
  3.4841728e-01
 -4.4043291e-02
  4.4002545e-01
 -7.2306558e-02
  8.6348668e-02
 -4.3209880e-03
 -2.6894462e-01
  1.2992616e-01
 -4.7839242e-01
  2.7905807e-02
 -1.2615438e-01
  2.3613203e-01
  1.9321565e-01
  8.5793093e-02
  3.0617440e-01
  9.0316180e-03
  1.9775824e-01
 -9.6147910e-02
 -1.4779837e-01
  2.3183878e-01
 -7.7595755e-02
  5.5055175e-02
 -1.1214678e-01
  7.9116523e-02
 -1.8466413e-01
 -2.1222095e-01
 -4.8240475e-02
 -4.1854876e-01
  3.4390661e-01
  1.3055860e-01
 -1.6320795e-01
  1.9111158e-02
 -1.6485064e-01
 -6.7350276e-02
 -2.9193447e-03
 -8.7757029e-02
 -6.7982465e-02
  5.8451522e-02
  6.4905465e-02
 -4.4460231e-01
  3.5522532e-01
  1.3730139e+00
 -1.9342656e-01
  3.1548131e+00
  5.9969449e-01
  2.8485518e+00
 -1.7669523e+00
  5.3225756e-01
  2.1361065e+00
  2.8045223e+00
 -2.5647886e+00
 -1.9780934e-02
  3.3680837e+00
  1.1681876e+00
  2.6890161e+00
 -9.2798728e-01
 -2.3404489e-01
 -3.1317592e-01
  5.5522996e-01
  2.7338727e+00
  4.0537125e-01
  1.9625422e+00
 -4.1826296e-01
  8.8395071e-01
 -5.9793204e-01
  2.6786182e+00
 -1.2919725e+00
 -1.1741484e+00
  5.7404035e-01
 -3.4468180e-01
  1.1945662e+00
  6.9807684e-01
  4.8995485e+00
  8.2812071e-01
  1.2176062e+00
 -3.0239053e+00
 -4.5780449e+00
 -2.4161771e-01
  1.6855778e-02
  1.3358984e+00
 -1.2880183e+00
  5.8830947e-01
  2.7796903e+00
  7.3048788e-01
 -8.4866488e-01
 -1.5146976e+00
 -1.6256207e+00
  2.4232466e+00
  2.9003590e-01
 -3.4121716e-01
  1.9575307e+00
 -7.2444612e-01
  5.4729575e-01
  6.4728683e-01
  2.6316313e-02
  2.2823148e+00
  2.9217187e-01
  3.3064675e-01
 -1.5638711e-01
 -9.4480589e-02
  7.5541818e-01
  1.2129637e-01
  3.8282990e-01
  4.6845306e-02
  8.2637227e-01
  9.9649861e-02
  6.9351143e-01
  3.2730830e+00
  2.1977847e+00
  6.3777171e-02
 -1.5751750e+00
  7.8262466e-01
 -1.3791701e+00
  1.8962326e+00
 -3.0972984e+00
 -1.1475457e+00
 -2.0959958e-01
 -2.3472349e-01
 -3.2037571e-01
 -1.1297442e+00
  2.8906050e+00
  8.5379219e-01
 -4.9738762e-01
  7.2699213e-01
  6.1304931e-02
  7.9051530e-01
 -1.1120299e-01
  1.1098050e+00
 -2.4371870e-01
 -2.4206336e-01
  2.3804209e+00
 -2.9449861e+00
 -2.8344443e-01
  3.3459709e+00
  6.0449016e-01
 -3.3462589e+00
  7.9879129e-01
  1.8349370e-01
 -1.4486726e-01
  1.7821329e+00
  1.8642317e-01
  1.3163485e-01
  1.1630372e+00
 -6.0190767e-01
 -2.0523000e+00
  7.7882349e-01
 -3.9705265e-01
 -1.1399057e-01
 -2.7860396e+00
  4.9585185e+00
  4.9437872e-01
 -1.0267304e+00
  2.2348216e+00
 -1.2957613e+00
 -2.7296039e-01
 -6.0851556e-01
  4.8953542e-01
  2.6312396e-01
  3.7114015e+00
  3.4395646e-02
 -2.6997396e-01
 -3.3343086e-01
  4.1897697e+00
 -1.1862304e-01
 -3.0770630e-01
  2.5479782e-01
  1.2223591e+00
  8.7156087e-01
 -1.8502617e-01
  2.3984918e-03
  2.9538905e-02
 -4.5753244e-01
  2.3059177e-01
  2.6361841e-01
 -7.2103304e-01
 -3.9183810e-01
  8.6304861e-01
  5.2786198e+00
  1.0112637e+00
 -1.3320515e+00
 -8.7102640e-01
 -4.1242604e+00
  4.9934176e-01
  4.3905690e-01
 -3.3872232e+00
 -1.6691200e-01
  6.0308772e-01
 -9.2371488e-01
  1.4615318e+00
  4.4178709e-01
  2.0262416e-01
 -7.4581689e-01
 -1.6067100e+00
 -2.0226686e+00
  4.5886067e-01
 -8.9079344e-01
 -9.9656147e-01
  8.0434072e-01
 -3.7573925e-01
 -1.3715398e-01
 -1.5465333e+00
 -1.8606497e+00
  5.0993681e-01
  2.4621263e+00
 -2.0184247e+00
  3.8565761e-01
 -8.0821735e-01
 -4.8871603e+00
  3.4200056e+00
 -1.7222902e+00
 -4.5474377e+00
  5.5867801e+00
  2.9284155e+00
  1.4927306e+00
  6.0311589e-02
  2.0728443e+00
 -1.4209852e+00
 -1.2756215e+00
  3.2186460e-01
 -1.1310714e+00
 -2.1121462e-01
  1.3290688e-01
 -9.3035483e-01
  2.1692669e-01
  1.2927927e+00
  2.3263116e-01
  1.1723856e-02
 -1.9843017e-01
 -1.3578086e-01
  1.2031217e+00
  1.0432745e-01
 -3.1004229e-01
 -1.0148834e-01
  8.0188119e-01
  9.6270762e-02
 -3.2695603e-01
 -8.4082186e-02
 -1.6583101e-01
 -1.4846246e-02
  9.5762275e-02
 -7.3138946e-01
 -2.0500188e+00
 -1.8203081e-01
 -7.7075350e-01
  4.0350074e-01
 -4.5435306e-01
  2.0384610e-01
  4.9383175e-02
  4.0717793e-01
 -4.1872647e-01
  6.6952795e-01
 -1.5239795e-01
  4.7700676e-01
  6.4797366e-01
 -9.0313613e-01
  2.2023988e-01
  1.4788501e-01
  8.1818509e-01
  1.3028841e-01
  1.7966032e-01
  8.1574041e-01
  6.9100451e-01
  7.1972823e-01
 -2.7119511e-01
  5.3305876e-02
  1.0442255e+00
 -6.4216882e-01
  1.0270362e+00
  9.7597122e-01
 -4.5916706e-01
  4.7720012e-01
 -2.0820458e+00
 -3.6072546e-01
 -9.6898633e-01
 -1.0342698e+00
 -1.1356678e+00
 -7.3381203e-01
 -6.0493720e-01
 -1.6196926e+00
  3.9227399e-01
 -5.4432142e-01
 -9.0212739e-01
 -7.9057169e-01
  9.4642460e-01
  3.5783601e-01
 -3.4812790e-01
  1.5825413e-01
 -1.4391826e+00
 -2.5489143e-01
 -6.2621824e-02
  1.9450683e-02
 -2.5350216e-01
 -3.5248885e-01
 -8.8594489e-02
  5.4623250e-02
 -6.2386519e-03
 -2.4838771e-01
  4.9357828e-02
  3.2464936e-02
 -4.1521385e-02
 -9.5178314e-02
  6.6030130e-02
  6.2531672e-02
  7.3305422e-01
  7.9554640e-02
 -6.5908030e-02
  8.2860608e-03
 -3.2930917e-01
  4.1639957e-01
 -3.6556217e-01
  6.6583896e-01
 -1.7082537e+00
  9.2604697e-01
  1.2539084e+00
  1.5484098e+00
 -1.2060467e+00
  1.9697658e+00
 -1.5743868e+00
 -4.4566563e-01
  9.5832628e-01
  1.3626668e-01
  5.8416992e-01
  1.7249514e+00
 -1.4745687e-01
 -2.3665540e+00
 -2.8105101e-01
 -9.9682730e-01
  6.1018097e-01
  1.9787005e-01
 -1.3641027e+00
 -1.1291476e+00
  3.7427357e-01
  3.4553742e+00
 -1.6495715e+00
  4.1022131e-01
  1.5561558e+00
  3.9857203e-01
 -4.5043227e-01
 -1.0611506e+00
  1.3271978e+00
 -1.1272243e+00
  7.7557200e-01
 -1.6218019e+00
  1.7896527e+00
 -2.3618724e+00
 -2.9221997e+00
 -1.7776692e+00
 -6.9043684e-01
  1.0259765e+00
 -7.3678249e-01
 -1.4254973e+00
 -9.6521586e-02
 -2.0086107e-01
 -1.9716054e-01
 -1.2257168e-01
 -1.8299919e+00
 -2.9718846e-01
  3.7023109e-01
  7.7807981e-01
  8.8534009e-01
 -1.2926375e-02
  1.1696812e+00
  1.5450472e-01
 -2.2133141e+00
  4.8539802e-01
 -1.4729753e-01
  9.8278977e-02
 -2.9553908e-01
  9.8099068e-02
  2.5895801e-01
  1.0810059e-01
  2.0436026e-02
 -4.2515507e-01
  6.4350791e-02
 -6.9023663e-01
  4.3112630e-01
  1.0636729e+00
 -1.1818345e+00
 -5.5888253e-01
  6.0375398e-01
  1.0991448e+00
 -2.9380369e+00
  9.5998222e-01
 -7.1590704e-01
 -1.6179668e+00
  1.3251468e+00
 -1.7892228e+00
  1.9387351e+00
  1.1292994e+00
  3.2579889e+00
  3.3511537e-01
  1.2825450e-01
  2.0701585e-02
  1.9825860e+00
 -2.6198623e-01
 -1.2602257e+00
  2.1279737e-01
  1.2096006e+00
  3.0634160e+00
 -2.9454203e+00
  8.1844414e-03
 -1.6592312e+00
  5.2980226e-01
 -3.7253219e-01
 -1.0689260e+00
 -1.2686061e+00
 -9.2566967e-01
 -5.0281441e-01
 -1.5411618e+00
 -5.1994359e-01
 -4.1090190e-01
 -2.6308438e-01
 -2.0982854e+00
 -1.6718984e+00
  5.3260469e-01
  1.1533896e+00
  1.2138283e+00
 -1.5166866e-02
 -7.8894359e-01
 -2.4838145e+00
 -1.7675099e-01
  8.5046637e-01
  5.3481025e-01
  8.2302302e-01
 -1.2953050e+00
  3.8410071e-01
 -6.2049979e-01
  8.9479107e-01
  4.2920503e-01
  6.0161643e-02
  3.8330066e-01
  1.7520463e-01
  2.2756538e-01
 -1.1420523e-01
  2.3640914e-01
  9.4086453e-02
 -1.4004101e-01
 -9.6136309e-02
  1.7971709e-01
  5.5904424e-01
 -1.8662926e-02
  2.3048960e-01
  2.3747668e-01
 -1.2978774e-01
 -2.4146196e-01
 -1.0510148e-01
 -8.0599329e-03
 -1.1228427e-01
  9.2061371e-02
  4.0841594e-02
  3.2015439e-02
  4.8719253e-02
  3.4011278e-01
 -8.2396336e-02
  4.2902090e-02
 -6.1060861e-02
 -1.2554130e-01
 -2.1862134e-01
 -2.4538618e-01
 -3.3314505e-01
 -1.2063383e-01
  7.7029504e-02
 -4.0018639e-01
  1.5733747e-01
  9.7078808e-02
 -3.5482615e-01
 -2.7362901e-01
 -7.8054346e-02
  1.9214949e-02
 -2.4208814e-01
  9.7626835e-02
 -2.7313420e-01
  6.9738112e-02
 -2.5327262e-01
  6.2043883e-02
  4.1220853e-01
 -1.5793309e-01
 -3.0835131e-01
  1.6608441e-01
  2.7651310e-01
 -3.7528973e-02
 -5.3552307e-02
  4.7008436e-02
 -3.0712566e-01
  8.3511412e-02
 -2.9088694e-01
  1.6946933e-01
  2.9988417e-01
 -2.0971318e-01
 -1.8502992e-02
  4.7241256e-02
  8.6237699e-02
 -2.6126249e-02
 -1.3893984e-02
  1.0877211e-01
  5.4334879e-02
 -1.9455270e-01
 -1.3744706e-01
 -7.1983069e-02
  7.6980308e-02
  1.2866184e-03
  3.3971362e-02
 -1.0575309e-01
  5.9490707e-02
  1.0932380e-01
  2.5492834e-02
  2.1165272e-02
 -3.3977862e-02
 -2.0798082e+00
  6.6048312e-01
 -1.8864252e-01
 -3.1350315e-01
  7.3805267e-01
  1.7739984e+00
 -1.4873918e+00
 -6.0947251e-01
 -3.4217796e-01
  1.1863105e+00
  3.1053081e+00
 -1.0941079e+00
  3.1974980e-01
  1.7343938e+00
  1.2401651e+00
 -1.3387457e+00
  2.9762242e+00
  3.4320199e-01
 -5.2136391e-01
 -2.4553428e+00
  9.1080660e-01
  1.9394110e-01
  2.7089912e-01
  6.9960213e-01
  1.7826567e+00
 -1.7541829e+00
 -1.4464670e-01
 -5.9403437e-01
  7.0826650e-01
  1.2298031e+00
 -1.1764589e-01
  1.2975444e+00
  1.6664723e+00
  8.0130160e-01
 -3.8719342e+00
 -1.5900173e+00
  2.6378820e+00
  2.4797483e-01
 -5.9290314e-01
 -2.4933004e+00
 -8.9435136e-01
 -2.8888091e-01
 -2.6391582e+00
  2.5539464e-01
 -1.8173655e+00
  5.9473145e-01
 -3.4861714e-01
  1.4000810e+00
 -9.1027794e-03
 -3.8534901e-01
  5.1390427e-01
  2.0988884e+00
  2.5038030e+00
 -8.6398309e-01
 -3.1154868e-01
  3.0256182e-01
  3.5961282e+00
  5.8147180e-01
  6.5828031e-03
  2.1301088e-01
 -1.4807512e-01
  8.1543699e-02
  2.0569523e-01
  1.4979771e-01
  8.3151748e-03
  6.4436376e-02
 -2.1594122e-02
  4.1102333e+00
  1.1844058e+00
 -1.8002957e+00
  3.0695325e-01
  8.4568816e-01
  2.7063961e+00
  2.8441304e-01
 -9.2553234e-01
  1.3538374e+00
 -1.5749192e+00
 -2.4443755e+00
  3.2638822e+00
 -2.7315545e+00
 -7.7840632e-01
  4.7459719e-01
 -2.2389539e-01
 -1.7960652e+00
  9.7647041e-02
 -8.1754637e-01
  2.9843274e-01
 -2.4004292e+00
 -2.8279793e-01
  3.2210875e-01
  2.8279877e-01
 -3.2390413e+00
  7.1152115e-01
  1.5846330e+00
  4.1481823e-01
 -1.0556325e+00
 -2.3621380e-01
 -4.4123220e-01
 -8.7187171e-01
 -1.1928928e+00
 -1.4461076e+00
 -1.5675123e+00
  2.4907053e+00
  2.6487563e+00
 -1.8905604e+00
 -7.1571488e+00
  8.0029237e-01
 -4.5805089e-02
 -6.3219064e-01
 -2.3870420e-01
  4.8971953e+00
 -3.0607650e-01
  1.3156573e+00
  7.1283364e-01
 -1.8059993e+00
  3.6751810e-01
  9.9903637e-01
 -4.6567726e-01
 -2.1631666e-02
 -1.0427524e+00
  9.1418469e-01
 -1.2203699e-01
 -1.3646550e-01
 -3.1318474e-01
  2.2767581e-01
 -7.2652616e-02
 -1.7015694e-02
  8.3475173e-02
 -5.0129700e-01
  5.0626162e-02
 -2.8892955e-01
 -6.4453453e-02
  1.8836321e-01
  5.7287677e-03
  1.3340151e+00
  3.1815341e+00
  5.6449327e+00
  3.4153283e-01
 -4.2535999e-01
 -4.4098347e-01
  9.6717286e-01
 -2.5308414e+00
 -2.8262320e+00
  9.8108374e-02
  2.6239743e+00
 -2.5630105e-01
 -2.6336520e+00
  1.5340427e+00
  4.2621455e-01
 -1.8548890e+00
 -5.4151716e+00
  3.3447940e+00
  2.9682887e+00
  2.0574506e-01
 -9.9431956e-01
  1.8696600e-01
 -1.4629866e-01
  7.9827166e-01
 -8.4210336e-01
 -1.9486278e+00
  3.9556160e+00
  1.6983812e+00
 -1.2213105e+00
  1.6443056e+00
  1.4718500e+00
 -6.8262672e-01
  2.6827450e+00
 -5.3262061e-01
 -1.4244612e+00
 -1.1365064e+00
  3.7737427e+00
 -2.7429729e+00
  1.0042640e+00
  3.8213613e+00
 -6.1427975e-01
  3.2363769e-01
 -1.0577681e+00
  4.6431670e-01
  4.8114902e-01
 -2.7687114e-01
 -8.1561220e-01
  2.0660858e+00
 -6.1053121e-01
 -1.5184528e+00
  1.7424313e+00
 -1.1930083e+00
  1.2504638e+00
 -7.0359141e-01
  1.6899558e+00
 -2.9166806e+00
  3.5182557e+00
 -1.8884110e+00
  4.7300108e-02
 -2.8027436e-01
  3.9744489e+00
  2.9620636e+00
 -2.5383839e-01
 -9.9909657e-01
  3.9166927e-02
  1.8053896e+00
  1.2674637e-01
 -1.1577550e+00
 -2.3409255e+00
 -1.8407327e-01
 -2.0727618e+00
  1.0968982e+00
  2.7794579e-01
  2.7801366e+00
 -3.3855741e+00
 -2.7576748e-01
  8.7679379e-02
  3.5578027e+00
  9.1589659e-01
  1.0323751e+00
  4.4964653e-02
  9.4321765e-02
 -7.0442837e-01
 -1.0112177e-01
  8.1249416e-01
  1.9109502e+00
 -1.0753688e+00
 -3.4865460e+00
  2.6123142e+00
  8.3584052e-01
 -8.1147021e-01
  5.7547790e-01
 -3.8466224e-01
  9.4367319e-01
 -4.0156919e-01
 -1.7926289e-01
  1.9350857e+00
 -4.1026521e-01
  1.9629720e-01
  2.0532887e+00
 -3.2021585e+00
  1.9658973e+00
 -3.5529361e+00
  1.7861079e+00
  7.9595141e-02
  3.2073264e+00
 -1.9682679e+00
  1.8668985e+00
  9.0054566e-01
 -1.0665532e+00
  1.6642727e+00
  1.2712929e+00
 -1.7012774e+00
  7.9570097e-01
 -4.2317951e-01
  3.4555727e-01
 -6.8547088e-01
  3.0883604e-01
  1.1609745e+00
 -1.3336515e+00
  3.4289685e-01
 -5.6257272e-01
 -2.2981216e-01
  3.3531175e+00
  1.2158801e-01
 -2.3956096e-01
  1.6302665e-01
 -1.8540032e-01
 -5.4798162e-01
 -1.6344981e-01
  1.0971945e-01
 -1.0926364e-01
 -1.3205416e+00
  3.6185759e-03
  7.5683683e-01
 -5.5089968e-01
 -1.4631921e+00
  1.0966376e+00
  2.8305290e+00
  6.3181657e-01
 -6.8759322e-01
  7.8924400e-01
  1.7803643e+00
 -1.1202612e+00
 -4.2959967e+00
  2.0109456e+00
 -1.1336658e-01
  2.3599496e+00
