nep4 1 C 
cutoff 8 4 532 71
n_max 12 8
basis_size 16 12
l_max 4 2 1
ANN 100 0
 -3.6863813e+00
  2.8069310e+00
 -1.5867412e+00
  1.5930258e-02
 -1.5890523e+00
 -2.1196298e-01
 -4.2791778e-01
 -8.6383647e-01
  3.1119210e-01
  2.3364961e+00
 -1.4026532e+00
  1.4656856e+00
 -2.9107471e+00
 -5.7810408e-01
  1.3975220e+00
 -1.2329499e+00
 -7.0349288e-01
 -3.2703300e+00
 -2.5323954e+00
  1.4307235e-01
  3.1657524e+00
  1.8710971e+00
 -3.0209308e+00
  6.3546050e-01
 -1.5934408e+00
  2.6490111e+00
 -1.1357774e+00
  1.4182897e+00
 -2.6020315e-01
  3.4307303e+00
 -1.2740704e+00
  3.1084850e-01
  3.2453054e-01
  2.4589181e+00
  3.3916649e-01
 -7.5959563e-01
  4.3223205e-01
 -8.3236462e-01
 -1.6960466e-01
 -2.4421177e+00
  1.4837517e+00
 -7.9813242e-01
  1.8666005e+00
 -9.6306616e-01
  4.0948454e-01
 -2.4412392e-01
  1.0058865e-01
  2.0708277e+00
 -1.4668943e+00
 -5.1347852e-01
 -5.9501227e-02
  2.5914913e-01
  5.5183655e-01
 -4.6942127e-01
 -4.0292034e+00
 -1.2618234e+00
  3.4154835e-01
  8.6993921e-01
  4.1155779e-01
 -1.5541381e-01
 -9.6506345e-01
  6.3578218e-01
  8.2956970e-02
 -1.6246229e-01
  7.3623049e-01
  5.2577221e-01
 -6.1387241e-01
  3.1192560e+00
 -1.1663117e+00
 -2.3061624e+00
  1.6172411e+00
 -3.8345036e-01
 -2.5238736e+00
  2.9552355e+00
  2.9003367e-01
  1.0269628e+00
  2.2501936e+00
  3.2741109e-01
  9.3054187e-01
  1.9472656e+00
 -1.1401683e+00
  1.2542954e-01
  1.3077772e+00
  2.6968641e+00
 -1.6526406e+00
 -3.8454535e+00
 -6.5282285e-02
 -3.2283938e+00
 -4.6754766e-02
  1.6315826e+00
  8.5512531e-01
  1.5880587e+00
 -7.0694792e-01
 -2.5025146e+00
 -2.5980384e+00
  7.9591519e-01
 -1.2084464e+00
  3.2053230e+00
  2.5496330e+00
  1.6663796e+00
 -2.9605293e+00
 -2.0315168e+00
  2.5980239e+00
  1.0861273e+00
 -1.5165039e+00
  6.1973077e-01
  1.4969107e+00
  2.2983494e+00
 -8.0692190e-01
 -1.1439002e+00
  2.0173615e-01
 -1.7802111e+00
  8.0344176e-01
  3.7652254e+00
  1.7732397e-01
  4.1391405e-01
 -1.4211619e+00
  8.2949144e-01
 -6.5911725e-02
 -5.9666753e-01
 -1.2377069e+00
  3.4204748e+00
 -8.6958826e-01
 -8.1748617e-01
 -2.5373058e+00
  3.2619655e-01
 -1.8281460e-02
  3.8422877e-01
 -6.3909388e-01
  4.2303351e-01
  6.5975398e-02
  7.6687336e-04
 -1.0177211e+00
  1.4117433e-01
  6.7997879e-01
 -1.1255078e+00
  1.5238225e+00
  1.4366779e-02
  2.1291037e+00
  1.8087531e+00
  1.0515805e+00
 -7.6252460e-01
  1.6254952e+00
  3.9197141e-01
  1.4188638e+00
  1.0056695e+00
  9.1058207e-01
  8.5758591e-01
  1.1653048e+00
  1.3464900e+00
  1.1674000e+00
  3.5158870e-01
 -2.0824961e-01
 -1.5874952e-04
  1.3893838e+00
  2.1327951e+00
  5.6323779e-01
  1.2640367e+00
  1.5342488e+00
  1.0565093e+00
 -1.3385823e+00
  2.8709924e+00
  2.2270739e+00
  7.9603493e-01
  7.6881731e-01
  8.7018394e-01
  1.6462134e-02
  7.3201531e-01
  5.0601494e-01
 -6.2770821e-02
  7.5295448e-01
  1.9234388e+00
  2.9837045e-01
  5.0325298e-01
 -2.0302628e-01
  5.6112146e-01
  3.5962072e-01
  9.3236631e-01
  1.7066877e-01
  2.0537140e+00
 -1.7806041e+00
  7.5808418e-01
  3.2873410e-01
  3.7018180e-01
 -7.5174403e-01
 -5.9811854e-01
  9.9078810e-01
  5.6439340e-01
 -1.6345892e+00
 -9.1793001e-01
 -4.2086357e-01
 -6.4048326e-01
 -1.0972822e-01
 -1.7241336e-01
 -1.4621538e+00
 -3.8913757e-02
 -6.7528766e-01
  3.4406528e-01
  2.0535849e-02
  5.2678421e-02
  1.2041849e+00
  5.1526141e-01
  8.6170089e-01
  9.7899009e-03
  4.0345713e-01
  9.0945196e-01
 -2.8183341e-01
 -1.5701928e+00
  1.1822745e-02
 -6.3399142e-01
 -6.1101997e-01
  5.5640328e-01
  1.0137171e-01
  1.2763250e-01
  1.2330666e-02
 -3.1362651e-03
 -1.7203632e-01
 -3.8468170e-01
 -1.9306835e+00
  2.3135692e-01
 -4.7138102e-02
  6.4241576e-01
 -2.0626645e-01
 -5.1148415e-01
 -2.9837033e-01
  6.9507158e-01
 -9.4508046e-01
  9.5420724e-01
 -9.0879637e-01
 -8.0616641e-01
 -6.2045276e-01
 -3.9109570e-01
 -5.7664609e-01
 -8.7469447e-01
 -1.6253279e+00
 -6.7910767e-01
 -9.7131926e-01
 -1.2329546e+00
  5.1689643e-01
  8.1100279e-01
  2.0572005e-01
  7.1765071e-01
  2.3240292e-01
 -3.0195293e-01
 -5.5725151e-01
 -3.7502855e-02
 -5.8484185e-01
 -4.7880173e-01
  1.5646151e-01
  1.1265563e+00
  7.6023978e-01
 -2.1799508e-01
 -3.0784109e-01
 -6.4849007e-01
 -7.0786305e-02
 -3.1366467e-01
  5.4401594e-01
 -2.4570695e-01
  7.2945595e-01
  9.0310180e-01
 -5.1860869e-01
  1.4685348e-02
 -2.9127657e-01
  7.6842588e-01
  1.1844172e+00
 -7.0890948e-02
  3.8055804e-01
 -1.3516386e-01
 -5.8949256e-01
  3.2560292e-01
  7.8595906e-02
 -6.3154733e-01
 -8.5813552e-01
 -6.0275650e-01
 -4.4407949e-02
 -1.2295409e+00
  7.3890984e-01
 -7.5248098e-01
 -4.1289693e-01
 -6.7802221e-01
 -6.8738836e-01
 -1.5251185e-01
 -1.5433967e-01
  4.0624785e-01
 -7.8903335e-01
 -1.7151916e-01
  7.0348322e-01
  3.5204899e-01
  1.8582654e-01
  1.7915663e-01
  3.3052272e-01
 -1.5135613e-01
 -8.9742303e-01
 -6.7203701e-02
 -1.0694604e-01
  1.5407302e+00
 -2.3425001e-01
  4.0310177e-01
  2.9371557e-01
 -4.3676436e-01
  6.1767352e-01
  3.4129653e-02
  4.0994394e-01
 -4.4222513e-01
  1.5937597e-01
 -7.2776461e-01
  4.1703779e-01
 -7.2275656e-01
 -1.5142685e-01
 -2.6030087e-01
 -1.3580214e+00
  6.4671284e-01
  3.7568080e-01
  2.2599293e-01
  5.7333076e-01
  1.0983568e-01
  5.8184934e-01
  1.7460026e-02
  2.9476762e-01
 -8.7415583e-02
  1.4855020e-02
  1.2166205e-01
 -7.5932257e-03
  5.8172995e-01
  7.5603557e-01
 -1.0983627e-01
  1.0365785e-01
  8.0087103e-02
  8.0372274e-01
 -2.7847248e-01
 -1.0304501e+00
 -4.2311665e-01
 -1.0489674e+00
 -1.4193406e+00
 -5.6117880e-01
  2.3804051e-01
 -1.9351163e+00
 -1.0232008e+00
  7.2176725e-01
  2.9204601e-01
  3.6729354e-01
 -5.1150596e-01
 -2.1941608e-01
 -1.3561955e-01
 -2.7620962e-01
  8.4802723e-01
  1.5405777e+00
  4.4222024e-01
  2.1839178e-01
 -8.4737933e-01
  1.1385015e+00
 -4.5276752e-01
  2.0844667e+00
  2.7816703e+00
  6.2688971e-01
  3.3639216e-01
  2.1596551e+00
  2.5602606e-01
  3.8960332e-01
 -2.2913800e-01
  1.2938595e-01
 -1.0494723e+00
  1.2698138e+00
  1.3608795e+00
  2.2730555e-01
  2.6865464e-01
 -1.8946602e+00
  1.1648161e+00
 -5.7229507e-01
 -2.5637358e-01
 -1.3251318e+00
 -3.9565602e-01
  1.0321131e+00
  8.4184897e-01
  1.5017207e-01
 -2.4754250e+00
  2.3694865e-01
 -2.8371000e-01
 -1.6080044e-01
 -1.4606721e+00
 -2.1027863e+00
  9.3851209e-02
 -1.1578412e-01
 -1.1743056e+00
  2.2803774e-01
  1.8803785e+00
  2.8202337e-01
 -2.7253520e-01
 -1.7008731e+00
  1.2687662e+00
 -2.2256120e-01
 -4.9719974e-01
  2.0506361e-01
  2.1079649e-01
  4.1748437e-01
  1.9875698e+00
  7.9504287e-01
  5.5429041e-01
  5.1910132e-01
 -3.2730070e-01
 -1.2430817e+00
  2.2037071e-01
 -1.0265081e+00
 -1.6052891e+00
  5.0404125e-01
  2.3001812e+00
  1.4697505e+00
 -2.5318036e+00
 -9.8385803e-02
  5.4381394e-01
 -1.1552160e+00
  1.8541760e+00
 -6.9205779e-01
  9.3438756e-01
  1.0790019e+00
  1.1605521e+00
  1.8351586e+00
 -1.4264624e+00
  6.6609514e-01
 -1.6532969e+00
 -2.9693320e+00
  1.5500803e+00
  8.6533087e-01
 -2.6503909e+00
  2.7222891e+00
  8.6568278e-01
 -3.2164025e-01
  5.6948209e-01
  2.1119325e+00
 -3.7972212e+00
 -1.4841256e+00
 -3.2289374e-01
  1.4475463e-01
 -3.8996680e+00
 -4.0958427e-02
 -9.0243512e-01
  1.6774117e+00
  2.5825195e+00
  3.6283839e-01
 -2.2727103e+00
  1.1485755e-01
 -1.0504881e+00
 -1.9705666e+00
 -7.8532690e-01
  1.3279300e+00
 -5.7082224e-01
 -8.3138222e-01
  2.3827150e+00
 -1.1087409e+00
  1.0827160e+00
 -9.5890164e-01
  5.6231809e-01
 -2.4838027e-02
 -1.0172046e+00
  1.4127334e+00
  2.1177809e-01
  2.8460114e+00
  1.2085395e-01
 -1.1068234e+00
  2.3971349e-01
  4.6746039e-01
  1.3670626e-01
 -3.3255112e-01
  5.7009757e-01
  1.6828792e-01
  4.7135365e-01
 -1.6976294e-01
 -4.6721163e-01
 -3.8408065e-01
  3.3710107e-01
  6.6410828e-01
 -8.5166669e-01
 -1.8982235e-01
  5.6157738e-01
  1.0815219e-01
  1.5853739e-01
 -5.7957041e-01
  1.5689062e-01
 -5.6889143e-02
  1.1353757e+00
  2.4647240e-03
  5.0731975e-01
 -3.2323825e-01
 -7.6224715e-02
  8.5968739e-01
 -1.4465173e+00
  1.5029370e+00
  2.6222074e+00
 -2.2528312e-01
 -1.0660136e+00
 -6.8897200e-01
 -1.6572917e-01
  4.1997176e-01
  8.5767514e-01
 -5.4323304e-01
 -4.7036281e-01
 -2.9797387e-01
 -3.3247113e-01
  1.2887919e+00
  4.6138212e-01
  3.6387685e-01
 -2.0169647e-01
  1.1299525e+00
  5.8920717e-01
 -2.4106300e+00
  1.1590852e+00
  2.7901943e+00
 -4.7274545e-01
  3.7631810e-01
  3.5880291e-01
  5.5291325e-01
  9.5204359e-01
 -1.9013885e-01
  6.8995816e-01
  4.5795545e-01
 -8.9184618e-01
 -1.6615064e+00
 -7.1780294e-01
  1.3565379e-01
 -6.7454386e-01
  1.8151674e-02
  1.1602451e+00
  1.2101673e+00
  4.3652034e-01
 -8.3450711e-01
  5.0601023e-01
  6.8273520e-01
  1.4047391e+00
  4.0271848e-01
 -3.3779025e-01
 -5.0497048e-02
  7.9560304e-01
 -3.0340368e-01
  6.4445597e-01
 -9.6935678e-01
 -5.7192463e-01
 -1.0391932e+00
  2.7042922e-01
  1.2986208e+00
 -9.2892087e-01
  4.0701241e+00
 -2.2208869e+00
 -6.0453397e-01
  1.8698688e+00
 -1.4825635e+00
  2.2829315e-01
 -3.4795877e-01
 -5.7992125e+00
  3.3726361e+00
  1.3719056e+00
 -7.5704294e-01
 -1.0277109e+00
 -1.2575551e+00
 -1.2238967e+00
 -4.8955140e+00
  1.2695048e+00
 -2.3365670e-01
  9.6718514e-01
 -2.2435756e+00
  2.8063204e-02
 -4.5543522e-01
  5.6847596e-01
 -1.8298537e+00
  5.2465922e-01
  3.6507875e-01
 -7.1588880e-01
  1.7245114e+00
  4.5513457e-01
 -4.2842131e+00
 -3.7424371e+00
  8.7857343e-02
  2.4037464e+00
 -1.2881174e+00
 -3.0628002e+00
  3.7295136e-01
  3.8480108e+00
  4.9537328e-01
  5.9969825e-01
 -1.2044798e-01
 -1.1542497e-01
 -2.0729654e+00
  6.5485328e-01
 -2.6396260e-01
  2.0044761e+00
 -2.6169798e+00
  2.9083891e+00
  2.3004780e+00
  1.7219418e+00
 -5.3456455e-01
 -1.8230288e+00
 -4.5233426e+00
 -2.4981427e-01
  2.6333311e+00
  1.3197640e+00
  3.5327947e-01
 -9.3549234e-01
  9.3340985e-02
  2.5217703e-01
  3.9072456e+00
  1.9154131e-01
 -6.3900155e-01
 -2.9096800e-01
 -4.2909384e-04
  1.3528211e+00
  3.0919218e-01
  9.6905604e-02
 -8.2465714e-01
 -4.0881470e-01
  6.2553491e-03
 -1.0830485e+00
 -8.5873741e-01
  4.5222420e-01
 -9.2159843e-01
  5.5732876e-03
 -1.7897316e+00
 -5.8197975e-01
 -3.3631214e-01
 -2.3955517e-02
  1.1112431e+00
 -8.1908947e-01
 -2.4776256e-02
 -1.3257966e+00
 -1.1679186e+00
 -3.5500352e+00
 -1.2301046e+00
 -2.4160447e+00
 -1.4829319e+00
 -5.6754071e-01
  2.1272120e-01
 -1.4494149e-01
 -5.1698738e-01
  1.6373522e+00
  9.0239275e-01
  8.2675867e-02
 -1.0423622e+00
 -6.7926264e-01
  1.0272743e+00
  1.4609849e+00
  1.6317494e+00
 -2.0434418e+00
 -6.0382688e-01
 -1.8904260e+00
 -2.1871014e+00
  5.4652840e-02
  2.2406699e-01
  2.9798901e-01
 -9.2383033e-01
  1.2894315e-01
  8.5790294e-01
  6.6954261e-01
  8.3638966e-01
  7.9575855e-01
  7.0909552e-02
  1.4166337e-01
  3.4705696e-01
  1.0857121e-01
 -5.7725406e-01
  5.5002767e-01
  1.1578668e+00
 -8.0414343e-01
  6.0559487e-01
 -4.0845683e-01
  1.3727801e+00
  7.8410923e-01
 -4.6294272e-01
  2.2290261e-01
 -7.2871931e-02
  1.6795565e-01
  3.3119276e-01
  8.0139041e-01
 -5.6069595e-01
 -3.1865513e-01
 -1.2889607e+00
 -2.1822762e+00
 -8.4384215e-01
 -1.7495782e+00
 -1.0013200e+00
  1.2113272e+00
  8.0548865e-01
  2.7770537e-01
 -1.6721678e+00
 -1.4534311e+00
 -2.4571849e-01
  4.9511233e-01
  2.1319265e+00
 -2.3981912e+00
 -1.0593035e+00
  4.0940410e-01
  1.2260206e+00
  3.3690405e+00
 -2.6643759e-01
 -9.0596445e-02
  5.0673261e-02
  9.4183856e-01
  3.8511097e-01
 -3.3388388e-01
 -2.1840634e+00
 -2.8107360e-01
  1.9779840e+00
 -5.7208675e-01
  3.4847971e-02
 -3.4419951e-01
  4.6459064e-01
 -1.0390131e+00
 -1.5099385e+00
 -1.7262585e+00
 -2.6769571e+00
 -2.1791394e+00
 -8.4737676e-01
  2.2880828e+00
  1.3544542e+00
  1.8619989e-01
 -4.2958060e-01
 -1.7136176e-03
 -4.1807336e-01
 -1.5143733e+00
 -3.5815675e+00
 -2.7651930e-01
  5.0120777e-01
  3.5158420e-01
  2.7423379e+00
 -2.6850289e-01
  5.6753117e-01
 -4.2006186e-01
  9.2768687e-01
 -2.6954734e+00
  2.6812942e+00
  9.8643374e-01
  1.1977347e+00
  1.1378046e+00
 -1.4179325e+00
 -2.5096363e-01
 -3.6874980e-01
 -1.7796719e+00
  2.9605767e-01
 -3.0182716e-01
 -4.7476307e-01
  2.3906909e-01
 -1.3427685e+00
  4.7468480e-02
 -1.1197138e+00
  1.2102916e-01
  2.6496975e+00
 -4.2391998e-01
  1.2531513e+00
 -1.6834586e+00
 -1.0179945e+00
 -5.6150532e-01
 -3.6528891e-01
 -1.7864874e-01
 -1.5206680e+00
 -2.0730326e-01
 -1.4760106e+00
  8.1285578e-01
  2.0886838e+00
 -9.4617717e-02
  3.8678694e-01
  6.5571129e-01
  8.0326569e-01
  6.9111151e-01
 -6.0108328e-01
  1.9637196e-01
 -2.0428712e+00
  2.7265296e+00
 -6.9262201e-01
 -1.5716232e+00
  1.8026593e-01
  5.4219043e-01
  4.6850413e-01
  1.8071947e-01
 -1.8120624e+00
 -2.0019662e+00
  2.5227330e+00
  1.4326320e+00
 -1.8885362e+00
 -1.0297933e+00
 -3.1162465e-01
  1.8900136e+00
  1.2714918e-01
  2.4325876e-01
 -1.0830098e+00
  1.3899710e+00
 -7.1004343e-01
 -3.8616389e-02
  9.6183753e-01
  4.5647794e-01
 -7.2022527e-02
 -5.1953423e-01
  1.5310763e+00
  5.6764293e-01
 -1.8113074e-01
 -2.1277264e-01
  2.0074187e-01
 -8.2894492e-01
 -6.0832554e-01
 -5.3203714e-01
  3.6741093e-01
 -2.0093322e-01
 -2.4851473e-01
  1.1745338e+00
  9.0646878e-02
  1.2009481e-01
  4.3668446e-01
 -8.7387592e-02
  1.4348063e-01
  5.7363129e-01
  3.1628075e-01
 -4.6466184e-01
  4.3102682e-01
  3.7997067e-03
 -2.6125979e+00
 -4.0734595e-01
  3.0377787e-01
  9.9563009e-01
  6.5434754e-01
 -3.1662002e-01
  3.2710263e-01
  5.0604755e-01
 -2.5633830e-01
  2.0214532e-02
  5.3043133e-01
  2.4050838e-01
 -7.5636226e-01
  2.7421050e-02
 -8.9993551e-02
 -4.3039230e-01
  1.2905899e-01
 -2.0286827e-01
  2.2598904e-01
  1.2132990e-01
  4.2359851e-02
 -3.6871731e-01
  1.3030223e+00
 -1.8564398e+00
  3.1824109e-01
  1.0564046e-01
  5.0789350e-01
 -4.6346593e-01
 -6.8946636e-01
  8.7923688e-01
 -7.2911465e-01
  6.9058442e-01
 -7.7688062e-01
  4.6412683e-01
 -1.1198931e+00
 -1.1615496e+00
  6.0759401e-01
  3.5633644e-01
 -1.9049667e-02
 -1.2482371e+00
 -8.2117878e-02
  1.1566582e+00
 -1.8330115e+00
 -3.8814157e-02
  1.3077854e+00
  3.2348505e-01
  8.6475855e-01
 -6.3313246e-01
  1.1791970e+00
  2.1328361e-01
 -1.1180316e+00
 -6.5860748e-01
  5.5669546e-02
 -3.9057654e-01
  9.3783922e-02
 -3.7328047e-01
 -6.5542048e-01
 -4.4683763e-01
 -7.4594164e-01
 -2.6845452e-01
  2.5592464e-01
  6.3162631e-01
  1.6597593e+00
 -3.8909498e-01
 -7.4588871e-01
 -6.3690656e-01
  5.7541752e-01
  9.1096395e-01
  1.8481159e+00
 -1.2777948e+00
 -1.1871201e-01
  5.9224689e-01
 -1.3969989e+00
 -5.6512285e-02
  1.2235336e+00
  1.2140586e+00
 -1.1200855e+00
 -3.4695747e-01
 -2.0872619e+00
 -2.0159030e+00
  6.8255675e-01
 -1.2598515e+00
  2.1274672e-01
  2.1172113e+00
  9.2900455e-01
  8.2290113e-01
  9.1948128e-01
  2.4915459e+00
  2.1877565e+00
  9.3727833e-01
 -1.2731445e-01
  2.2204990e+00
 -2.5041741e-01
 -7.0446360e-01
  7.1426415e-01
  4.7129360e-01
  1.2034000e+00
 -1.4006997e+00
  2.0132303e-02
  1.6285393e-01
 -8.6613041e-01
  6.5982169e-01
  4.0433738e-01
 -6.7218655e-01
 -7.8354084e-01
 -1.2875657e+00
 -8.7995702e-01
  3.6490199e-01
 -1.8138878e+00
 -9.7663319e-01
  1.8412033e+00
 -7.1502179e-01
 -3.1069314e-01
 -3.0387764e+00
  3.8646045e-01
 -5.4775679e-01
  6.5115309e-01
 -1.3734207e-01
 -3.0139235e-01
  2.7461562e-01
  1.4853440e-01
 -1.0927458e+00
 -2.1238887e-01
 -1.3533758e-01
 -7.6842111e-01
  9.0959013e-01
 -8.5691237e-01
  3.1106457e-02
 -1.9083419e+00
  2.9031420e+00
  1.7632357e+00
 -5.5398188e+00
  3.7820146e+00
  4.3404050e+00
 -3.1505158e+00
 -3.9979401e+00
 -2.4806497e-01
 -2.7052314e+00
 -2.0180008e+00
  1.6083540e-01
  2.6514891e-01
  1.0127826e+00
 -1.0523741e+00
  2.7271631e+00
 -1.5013882e+00
 -1.5872085e-01
  2.2261469e-01
  1.4041566e+00
 -1.5101171e+00
  2.2128572e+00
  3.0370822e+00
  1.1245223e-01
  1.5341556e+00
 -3.9906850e+00
 -7.3255718e-01
  2.1151195e+00
 -3.8209741e+00
 -3.0206829e-01
 -1.2350985e+00
  1.8826963e-01
 -1.2889084e+00
 -5.0513631e-01
 -4.9086884e-01
  2.0566695e+00
 -2.7149916e+00
 -3.4039566e-01
 -1.0881486e+00
  2.5267081e+00
  8.0172169e-01
  3.6392212e-01
  9.1102642e-01
 -1.3770058e+00
 -2.1782403e+00
 -1.2821288e+00
  1.2466190e+00
 -4.8282582e-01
  4.0599853e-02
 -4.9504224e-02
 -2.3811763e-02
  4.0657100e-01
  1.8455254e+00
 -6.0899049e-01
  7.3565352e-01
  1.5320721e+00
  1.2899636e+00
  7.1100175e-01
  2.5185913e-01
 -2.2332767e-01
 -2.0630053e-01
  5.9169078e-01
 -4.3503222e-01
  3.4913021e-01
 -8.0308872e-01
 -1.4403172e-02
 -1.0825144e+00
  9.4871050e-01
 -2.3024590e-01
  1.1972946e-02
 -7.1849322e-01
  5.9809870e-01
  4.7963113e-01
 -2.7966344e-01
 -6.3514453e-01
  5.8145773e-01
 -5.3998761e-02
  9.0244971e-04
  1.2497736e+00
  1.3256949e-01
  1.9418690e-01
  1.3201144e-01
 -1.3686192e+00
  9.7716466e-02
 -1.2950084e+00
 -1.3826795e+00
  4.8698890e-01
  1.0584155e+00
 -1.1101551e+00
 -3.3102274e-01
 -1.4071796e+00
  9.0233654e-01
 -6.0461205e-01
  2.1443571e-01
 -3.2168837e+00
 -1.6955421e+00
  1.3083117e+00
  7.4747163e-01
  3.2337549e-01
  4.2757204e-01
 -2.4420059e-01
 -8.8457948e-01
 -7.5816923e-01
 -3.8526207e-01
 -1.1694260e+00
  1.4470160e+00
  1.8563412e+00
  1.6820500e+00
  1.7309231e+00
 -6.0232890e-01
 -1.9859155e+00
 -1.2853861e+00
 -6.1218864e-01
 -2.4632525e+00
 -9.3100381e-01
  8.4290761e-01
  5.4865038e-01
 -5.2839714e-01
 -5.2704728e-01
 -6.1519438e-01
 -2.8037092e-01
 -1.7530519e+00
  3.7723979e-01
 -1.9560888e-01
 -2.3061916e-01
 -5.5434432e-02
 -2.3596036e-01
 -6.6685811e-02
 -2.1128163e-01
  1.2914244e-02
 -1.8633999e+00
 -7.5019372e-01
 -7.8207970e-02
  4.5646000e-01
  1.3529280e+00
 -1.0984235e+00
  1.0777813e+00
  7.6941895e-01
  1.5465596e+00
  2.7495492e-01
 -6.3084364e-02
 -2.6343513e-01
 -1.5437945e+00
  1.3161284e+00
  1.9997526e+00
  2.5331897e-01
 -4.0466642e+00
  1.7052598e+00
  1.4011381e+00
  2.8153017e-01
  6.2030989e-01
 -1.4362698e+00
 -5.1232415e-01
 -4.9040303e-01
 -3.1909261e+00
 -1.5510906e+00
  1.7454466e-01
 -1.4720507e+00
 -1.5385528e+00
 -2.4606590e+00
 -4.3608654e-01
  3.1349686e-01
 -9.4614732e-01
  9.0747577e-01
  1.2865726e+00
 -2.5157948e+00
 -8.7437171e-01
  5.0596821e-01
 -7.9670794e-02
 -2.5031990e-01
  3.7794037e+00
  4.7474079e+00
 -1.0465983e+00
 -2.9589567e+00
  1.3992529e+00
 -9.2885119e-01
  6.5553719e-01
  1.1521870e+00
 -5.2789462e-01
  3.7427023e-01
  1.3594376e+00
  8.1714071e-02
  9.6202946e-01
 -6.3166636e-01
 -9.6716529e-01
 -6.7544848e-02
  1.1572447e-01
  1.2245361e+00
 -2.0697470e+00
 -1.3789464e-02
  3.8081431e-03
  7.4910797e-02
  1.5979800e-01
  3.0023655e-01
  5.4299727e-02
 -6.8086386e-01
  9.9291325e-01
 -5.1367950e-01
  5.3217697e-01
  2.1038668e+00
  4.4346938e-01
  2.2561586e+00
 -7.9345208e-01
  1.7333528e+00
 -2.0288733e-01
 -1.2142711e+00
 -8.5789400e-01
 -8.8537031e-01
  2.8924460e+00
 -4.1961458e-01
 -1.9882530e+00
 -2.6435735e+00
 -2.0783458e+00
  8.1032073e-01
  2.8494134e+00
 -6.4924043e-01
 -3.3745286e-01
 -6.1823573e+00
 -8.1704277e-01
  7.2915149e-01
 -5.3861529e-01
 -7.3672868e-02
  2.8664267e+00
  3.2863903e-01
  2.1301754e+00
 -8.7744021e-01
 -1.4221159e+00
  1.3234532e-02
  2.5765915e+00
 -1.3977214e+00
 -9.3997061e-01
 -1.8047336e-01
 -1.4830859e+00
  2.9422018e-01
  6.1607295e-01
  7.7894883e+00
  1.9310138e+00
 -1.5697650e+00
  1.5927873e+00
 -2.1704862e+00
 -2.4547870e+00
 -2.8319523e+00
  1.1925162e-01
 -7.2013742e-01
 -1.2394462e+00
  7.0967281e-01
 -2.1076386e+00
  3.8255148e+00
  1.1042980e+00
  3.3019769e-01
 -5.0265735e-01
 -4.8973703e-01
  1.4619354e+00
  1.3389623e+00
 -4.9724156e-01
 -2.6918521e+00
 -1.7605419e+00
 -2.1488864e+00
 -8.4453219e-01
  1.9207940e-01
 -3.7588379e-01
  2.3540556e-01
 -4.6035099e-01
 -2.5703126e-01
  2.4677087e-01
 -1.0391394e+00
 -9.1321841e-02
 -2.0957288e-01
  3.0016214e-02
  7.3438030e-01
  2.9842172e+00
  1.4440355e+00
  2.7290211e+00
  2.7991750e+00
  1.9466436e+00
 -4.5590277e+00
 -8.7966329e-01
  1.5555220e+00
  9.5076525e-01
 -1.1543953e+00
 -6.7407459e-01
  1.9385538e-01
  1.6098806e+00
  1.3759214e+00
 -2.2133467e+00
 -4.2771941e-01
  8.1299925e-01
 -2.8478640e-01
  9.9842453e-01
  1.3965608e+00
  3.5389921e-01
  2.5528164e+00
  5.5501854e-01
 -9.8096594e-02
 -1.4916668e+00
 -1.8962186e-02
  1.3135819e+00
  1.6527542e+00
  2.6783035e+00
  6.5933305e-01
 -6.9675505e-01
  5.9674323e-01
  3.6588308e-01
 -8.1124139e-01
  8.0808264e-01
  2.0401325e+00
  2.5765655e+00
 -1.2406136e+00
  2.8584477e-01
  5.2184528e-01
 -2.4406610e-01
  7.5947708e-01
  7.8034246e-01
  6.2758315e-01
  1.4168589e+00
 -6.1991006e-01
 -1.5835401e+00
  6.6775857e-03
 -3.0226380e-01
  8.2020760e-01
 -2.0485818e+00
  8.5954082e-01
  2.4523087e+00
 -6.3724555e-02
  6.4779580e-01
 -1.2708707e+00
  1.2574457e+00
  1.1793994e+00
 -4.8273706e-01
 -2.5853232e-01
  1.7084455e-01
 -5.3779191e-01
 -1.1463718e+00
 -3.2626244e-01
  5.5122215e-01
 -4.2442775e-01
  1.5653591e-01
  1.3376673e+00
  1.1805746e-01
  1.4290997e-01
  5.8577299e-01
  8.5331514e-02
 -6.5779066e-01
  3.4609663e-01
 -1.0361417e-01
 -1.7550209e+00
  6.0862660e-02
  2.8140894e-01
  2.1003863e-01
  3.5781661e-01
  9.8182511e-01
  1.2080792e+00
 -1.9980735e-01
  5.3767717e-01
  6.5971136e-01
  3.5877138e-01
 -1.7195269e-01
  4.7292316e-01
  1.8151160e+00
  3.1194115e-01
 -8.2826138e-01
  9.9276692e-01
 -6.3877249e-01
  1.1176324e+00
  2.6732850e-01
 -8.7414020e-01
 -7.4235189e-01
  2.3566532e-01
  3.9401595e-02
 -4.8399940e-01
 -2.1200243e-01
 -1.3625787e-01
 -2.6715940e-01
 -1.2705794e-01
  6.0459073e-03
  1.4807883e-01
 -3.6907533e-01
 -1.3294796e+00
  1.4706200e-01
 -1.0353818e+00
  5.9779495e-01
 -1.5970853e-01
 -3.9715791e-01
 -7.0252359e-01
 -9.5638263e-01
  1.9252401e-02
  1.7939596e-01
  2.2596340e-01
 -3.4522524e-01
 -3.1525081e-01
 -4.7758099e-01
 -1.0345876e-02
 -7.6710880e-01
 -3.4013540e-01
  1.3982333e-02
  2.7016532e-01
 -2.5208792e-01
  3.6272794e-01
 -1.8849990e-01
 -2.2757381e-01
 -9.7353500e-01
 -3.4989682e-01
 -6.1061120e-01
 -1.2849478e-01
 -2.7641696e-01
  1.5255327e+00
 -2.8624517e-01
 -3.0540140e+00
  1.4726777e+00
 -1.0131839e-01
  1.8613380e+00
  1.3659035e+00
 -6.5198833e-01
 -1.1099806e+00
 -2.2754900e+00
  1.3449728e-01
 -7.4252450e-01
 -1.2410665e+00
 -4.9662519e-01
 -1.2732277e+00
  8.1600046e-01
  4.4366670e+00
  3.4575851e+00
 -2.0492535e+00
 -1.3648643e+00
  1.2950367e+00
 -1.7945560e+00
  2.2924409e+00
 -1.3921273e+00
  1.6917629e+00
  3.1690369e+00
  3.4589937e+00
 -2.3675971e+00
 -4.9370561e+00
  2.2434731e+00
  7.2104478e-01
  3.1307950e+00
 -2.2046175e+00
  2.4726707e-02
 -5.7445902e-01
  3.1179667e-02
  1.0978181e+00
 -2.4847882e+00
  3.0162454e+00
  1.2404387e+00
  8.9454877e-01
  3.4727778e+00
 -6.0253310e-01
 -7.2097999e-01
  2.5290282e+00
 -9.9946582e-01
 -1.0115805e+00
  1.3198668e+00
  1.3912543e+00
 -1.5339534e+00
 -5.3253794e-01
 -6.5905461e+00
 -2.9254165e+00
  1.7328532e-02
  1.4500937e+00
 -1.0237060e-01
 -1.5208779e-01
 -9.0831518e-02
 -1.1520920e+00
  1.7121978e+00
  5.8355743e-01
 -5.1210994e-01
 -4.6262544e-01
 -2.6278341e-01
 -1.8101100e+00
  4.8283176e+00
  4.0777844e-01
 -2.4119563e+00
 -1.3203777e+00
  2.1387870e+00
 -6.0019910e-01
 -1.9184302e+00
  1.0500193e+00
 -2.1686776e+00
 -1.2453449e+00
 -1.2383582e-03
  1.0873058e+00
  1.3417697e+00
  1.5618846e+00
  9.2486426e-02
 -8.4593201e-01
 -1.4993253e+00
 -5.3907361e+00
 -2.4334314e+00
  9.1798574e-01
 -2.9531252e+00
 -2.5034468e+00
  1.2361581e+00
 -1.9451035e+00
  8.5897768e-01
  2.2367566e+00
  2.3487413e+00
 -1.4819889e+00
  1.4676051e+00
  1.1513358e-01
  8.4121084e-01
  8.7969255e-01
  1.9517586e-01
  3.0299053e+00
  1.0975878e+00
  2.6695166e+00
  1.9432176e+00
  2.9646754e-01
 -1.2680761e+00
  1.1845999e+00
  7.7836055e-01
  2.6673311e-01
  1.4215060e-01
 -1.6127305e+00
  1.9322884e+00
  1.3177248e+00
  1.0478303e+00
 -8.4088260e-01
  5.5509764e-01
 -3.9928859e-01
 -9.7620195e-01
  1.4240412e+00
  7.8924763e-01
  2.9577472e+00
  1.4172944e+00
  1.5316658e+00
  2.9525936e-01
  6.0409206e-01
  5.1349163e-01
  6.1766589e-01
 -3.9004815e-01
  5.6039107e-01
  2.2182400e+00
  7.1866351e-01
 -2.2825928e-01
  8.6707580e-01
  1.2378544e+00
 -1.4893795e+00
  6.8390071e-01
 -1.0572763e-01
  9.6697956e-02
  1.6865107e+00
  7.9978055e-01
 -1.8966858e+00
  6.6885233e-01
 -1.9383085e-01
  1.5462549e+00
  1.1591529e+00
  3.0409122e-01
  5.5229217e-01
  2.6145747e-01
  3.8119096e-01
 -7.6771915e-01
 -4.0494868e-01
  9.1573858e-01
 -7.9269290e-01
 -4.6833801e-01
  1.5544586e+00
  4.0134865e-01
 -1.4172512e+00
  1.1658558e+00
 -3.1607289e+00
 -1.6713532e+00
 -2.2925127e+00
 -2.0903816e+00
 -2.3140993e+00
  3.4493473e+00
  4.0228948e-01
  9.1649753e-01
  7.5881970e-01
 -2.1982889e+00
  2.0664351e+00
 -2.5178796e-01
  2.0070276e+00
 -3.7211932e-02
  1.3304150e+00
 -7.2451437e-01
 -8.2226539e-01
  6.7061543e-01
 -1.0654131e+00
  1.1750571e+00
 -1.3027362e+00
  2.5156033e-01
  8.8648099e-01
  1.3637515e+00
  2.4423587e+00
 -1.8224258e+00
 -5.1206887e-01
  2.0004353e-01
  9.4248265e-01
 -5.4676127e-01
  9.0628341e-02
  1.2898810e+00
 -3.9006433e-01
 -6.7019641e-01
 -6.0150646e-02
 -1.1266187e-01
 -1.9338469e-01
  8.0499256e-01
 -4.3924436e-01
 -2.0877013e-01
 -3.4115618e-01
  5.4907620e-01
  1.9574850e+00
 -1.1638709e+00
 -1.8081709e+00
  8.6419708e-01
  1.8932496e+00
  1.1959212e+00
  9.3319690e-01
 -8.6984426e-01
 -3.5886151e-01
 -1.6240075e+00
  1.5792249e+00
  4.3246436e+00
  2.8005626e+00
 -4.6843696e-01
 -2.6406648e+00
  3.0896242e+00
  1.2566574e+00
  8.0854899e-01
 -1.8447231e-01
  1.5206531e+00
 -8.1150353e-01
  1.5167689e+00
  7.3474836e-01
 -4.8284221e-01
 -6.2220633e-01
 -6.9413238e+00
  4.1139621e-01
 -5.6100518e-01
  1.1842500e+00
  1.3170463e+00
 -1.6980299e+00
 -5.7541126e-01
 -1.6117427e+00
  9.9859033e-03
  5.5752867e-01
 -1.0483165e+00
 -2.4421327e+00
  2.5912684e-01
 -1.5134486e+00
  1.5687592e+00
  1.4526342e+00
  4.2523065e-01
 -3.2175538e-01
  5.7379520e-01
 -5.8309901e-01
 -1.8839862e+00
 -7.1905398e-01
 -8.4843910e-01
  1.0679945e+00
 -1.1445438e+00
  4.3741998e-01
  3.7761956e-01
  1.0647724e+00
  3.1093111e+00
 -6.1990507e-02
  4.5614377e-01
  9.1202134e-01
  1.0243086e-01
  3.9931972e-02
  2.3044436e-01
  2.6404324e-01
 -2.9149133e-01
 -7.7434480e-02
 -1.9994724e-01
  8.7101346e-01
 -4.6596724e-01
  5.6862617e-01
  6.9986707e-01
 -6.6840196e-01
 -7.2195911e-01
 -1.0424779e-02
  2.6658610e-01
 -1.9316387e-01
 -4.4778779e-01
  3.0722424e-01
  2.9092479e-01
  2.4058802e-01
  2.8273439e-01
  2.3117042e-01
  2.0787323e-01
  3.2359433e-01
 -5.3407466e-01
 -5.6744826e-01
  5.1482815e-01
  3.6571744e-01
 -5.7376623e-01
  9.9488229e-02
 -6.1112881e-01
  1.2800794e+00
  5.9861785e-01
 -6.1720741e-01
  2.9200796e-02
 -3.2607138e-01
 -3.7737377e-02
 -6.0074282e-01
  1.2257576e+00
 -8.5931458e-02
  4.2362842e-01
 -5.2890712e-01
  4.9302098e-01
  5.7402956e-01
 -2.4650128e-01
  3.9949763e-01
 -3.3517751e-01
 -6.2527817e-01
 -5.7694054e-01
  1.1271904e+00
  1.1385185e-01
 -4.1247293e-02
  2.9492867e-01
 -1.9205589e+00
 -9.7720370e-02
 -7.8452939e-01
 -8.8401365e-01
 -7.7384710e-03
  2.9926932e-01
  1.5751960e+00
  3.8901702e-02
 -5.2376471e-02
 -1.7893167e-01
  2.1090725e-01
  3.8696763e-01
  1.1522087e+00
  1.8486820e-01
 -2.1619251e-01
  5.4639590e-01
 -4.0810218e-01
 -3.0564029e+00
 -9.6264327e-01
  1.0208683e-01
 -2.1351650e-01
  1.4476775e+00
 -2.4537161e-01
 -8.4350437e-02
 -1.0211980e-01
 -3.3491132e-01
 -5.8258623e-02
  6.2914664e-01
  1.4567997e+00
  3.2058671e+00
  8.0949843e-02
 -1.5223299e+00
  1.4519979e-01
 -7.0968372e-01
  2.6777937e+00
  2.0257168e+00
 -1.6514157e+00
 -2.4392897e-01
 -2.7179825e-01
 -1.1579200e-01
  7.3013252e-01
 -2.2429097e+00
  1.8791729e+00
  1.8070089e+00
  1.2285880e+00
 -1.8374732e+00
 -4.8005897e-01
  3.5479434e+00
 -1.0052059e+00
  1.2070055e+00
 -3.5235493e+00
  1.7814920e+00
 -1.9336466e+00
 -3.6640221e-01
 -2.9470208e+00
  8.8010770e-01
 -1.1912909e+00
  7.5734973e-01
  9.5717996e-01
 -4.2260695e-01
  1.2009699e+00
 -8.3654732e-01
  1.6028049e+00
 -8.8909227e-01
  2.2945282e+00
  2.0333858e+00
  6.0994154e-01
  3.2500503e+00
  2.0285529e-01
  2.4928317e+00
 -5.8232225e-02
  1.9566828e+00
 -5.2152878e-01
  3.1902653e-01
 -1.2588874e-01
 -5.9546357e-01
 -5.5820656e-01
 -1.7746276e-01
  2.9242533e-01
 -5.7144129e-01
  1.0780908e+00
 -4.4742936e-01
 -1.0673079e+00
 -4.7455868e-01
 -6.8992287e-02
  6.4100021e-01
  1.8343198e+00
  1.4818335e+00
  8.9379251e-03
  1.1299033e+00
  9.9471211e-01
 -9.2757213e-01
  2.8571022e+00
 -3.1395718e-02
 -2.8437452e+00
 -6.0841469e-03
  1.3672423e+00
 -1.9609485e+00
 -3.7048788e+00
  1.7492249e+00
 -1.5164474e+00
 -9.3860996e-01
  7.3035136e-02
  6.8064731e-01
  7.1727002e-01
 -8.4964371e-01
  8.1224000e-01
 -1.3336586e+00
 -3.7575725e-01
 -2.6860116e+00
 -1.1383687e+00
  2.3553665e+00
  1.8173555e+00
  3.4474653e-01
 -5.0019439e-02
  5.3737170e-01
 -2.7428944e+00
  2.2618940e+00
  3.1773992e+00
 -2.0912919e+00
 -3.5439414e-01
  1.4923589e-01
 -2.4312148e+00
  1.8135118e-01
 -1.4523265e+00
 -3.3697945e-01
 -4.5870805e-01
 -7.3326832e-01
 -5.5722058e-01
 -9.8347449e-01
 -9.6962148e-01
 -1.9198614e+00
 -1.6787431e-01
 -1.5143239e+00
 -1.0661662e+00
  1.4204940e-01
 -1.5300068e+00
 -8.8008654e-01
  2.1414189e+00
  1.0857761e+00
  1.1925735e-01
 -1.2428678e+00
  7.4624777e-02
 -3.4437564e-01
  3.9630872e-01
 -3.0418010e+00
 -1.5837827e+00
  3.3348820e-01
  1.6057481e+00
 -1.5528625e-01
 -1.0568659e+00
  2.8402787e-02
 -1.1284724e-02
 -1.1991693e-01
  4.8616099e-01
 -1.3938860e+00
 -1.2865064e+00
  1.0544221e+00
  6.8742877e-01
 -1.3209957e+00
 -1.1105213e+00
 -4.7248992e-01
 -1.0440816e+00
  3.5989225e-01
  1.0598788e+00
 -3.9842865e-01
  1.5468585e+00
  1.2793728e+00
 -7.7508718e-01
 -1.1980383e-01
 -3.6590925e-01
 -1.1313272e+00
 -3.8260579e-01
  3.5297492e-01
  2.8317885e-02
  2.0332956e+00
  1.4176363e-01
 -6.4783949e-01
 -3.1961378e-01
  2.0077653e-01
 -4.8900969e-02
  1.7036074e-01
 -1.2517304e+00
 -1.7408377e+00
 -3.0449345e+00
 -1.8307716e-01
  1.7506447e+00
 -1.5203509e+00
 -9.8756927e-01
 -1.7318616e+00
 -5.5510169e-01
  1.8877022e+00
  2.2702239e+00
 -1.4753360e+00
 -2.5217173e-01
 -1.2727275e+00
 -3.1127656e+00
  7.5010759e-01
  1.4065635e+00
 -8.2850970e-02
  2.7408221e-01
  6.5019786e-01
  1.7015071e+00
  1.0691442e+00
  3.2141858e-01
  2.1080413e+00
  1.5760232e+00
  1.1855758e+00
 -3.8051209e-01
  2.4671194e-01
 -4.8024064e-01
  1.5760534e-01
 -1.7257097e-01
  4.2873718e-02
 -1.4049760e-01
  4.4679731e-01
 -1.7989878e-01
  6.4508075e-01
  2.9828817e-01
 -5.1054686e-01
  1.1391456e+00
  1.1964037e+00
 -2.2459884e+00
 -6.5674973e-01
 -3.9509562e-01
  2.1318636e+00
  6.2291913e+00
 -2.9725474e-01
 -4.4721479e+00
  2.4720109e+00
 -5.2696066e-03
 -3.0815053e+00
 -6.2441926e+00
 -1.2511969e+00
 -5.8219352e+00
 -1.6455672e+00
  1.0783019e+00
  1.5542258e+00
  1.2482665e+00
 -1.7579669e-01
  3.0087211e+00
 -1.0488915e+00
  7.5602102e-01
  1.0646549e+00
 -1.2162586e+00
 -2.5047765e+00
  1.7707094e+00
  1.7052208e-01
 -6.4197570e-01
  8.0271667e-01
 -1.7559057e+00
 -2.8890955e+00
 -1.0968246e+00
 -1.5367157e+00
 -1.8783001e+00
  2.8616474e+00
 -6.5504223e-01
 -5.6113094e-01
 -2.3733240e-01
 -4.0746469e+00
 -8.4025413e-01
  1.7734280e-01
 -7.3675072e-01
  2.6257310e+00
  9.2664594e-04
 -3.2193649e+00
 -1.0320621e+00
 -5.1462866e-02
  1.4650519e+00
  5.3108144e-01
 -9.4327927e-01
 -1.8131241e+00
  7.8803766e-01
  2.2185402e+00
 -4.5181072e-01
 -4.5106968e-01
 -3.6396599e-01
  5.8270448e-01
 -9.6127218e-01
  7.1881218e+00
  4.0423623e-01
 -1.2951842e-01
 -1.0197520e+00
 -7.2492793e-02
 -8.0395001e-01
 -1.9732257e+00
  6.4110368e-01
  4.6264386e-01
  1.2108166e+00
  1.1483706e+00
  1.4714946e-01
  2.6298633e-01
  1.5285531e+00
 -5.7656610e-01
  2.4477217e+00
 -2.0474098e+00
  2.2728140e+00
  2.4437051e+00
 -1.9923694e+00
 -1.2923295e+00
 -1.7719650e-01
 -1.3347056e+00
  1.8479396e+00
 -1.3898454e+00
  3.1768515e+00
 -4.8974335e-02
 -6.5924418e-01
  1.1307658e+00
 -1.8303611e+00
  1.2523086e+00
 -7.2997518e-02
 -3.3295507e+00
  1.9207160e-01
  1.6653730e+00
 -3.1896338e+00
 -1.1418455e+00
 -6.3657865e-02
 -3.0529122e+00
 -1.3055826e+00
 -8.8638753e-01
 -3.1687601e+00
 -1.2211828e+00
  5.4013211e-01
 -2.4875634e+00
 -2.5726271e-01
  1.0843798e-01
 -1.0618218e+00
 -2.0905635e+00
 -2.4113104e+00
  1.9097365e+00
 -1.2128917e+00
 -7.3902264e-02
 -8.9168638e-01
  8.6368877e-01
  1.1518795e+00
 -1.4233086e+00
 -2.0997686e+00
 -1.8005446e+00
  1.7990675e+00
 -2.8956956e-01
 -1.7937549e+00
  6.8347412e-01
 -1.3041553e-01
  6.0619694e-01
 -7.3258466e-01
  4.8229352e-02
 -6.4730889e-01
  4.5567915e-01
 -1.4618334e+00
  2.5358856e-01
  1.1511402e-01
  3.6566681e-01
 -1.2214656e+00
  6.0972023e-01
  7.0088559e-01
  3.9414769e-01
  2.7070776e-01
  2.9270643e-01
  4.4650421e-01
  5.0512135e-02
  8.0024141e-01
  3.8828126e-01
 -5.4478365e-01
 -1.7672795e-01
 -3.7688065e-01
  4.5127708e-01
  7.6635516e-01
  4.1898793e-01
 -1.1760217e+00
 -3.2571855e-01
  5.1101542e-01
 -8.5895628e-02
  1.1929188e+00
 -1.1824895e+00
 -5.5586511e-01
  1.2399218e+00
 -2.0113073e-01
 -7.5400013e-01
 -9.3142688e-02
  1.0626595e-01
 -2.0891363e-03
 -1.6666017e-01
 -1.7023146e-01
  1.2242621e+00
  7.5567532e-01
 -1.9512064e+00
  5.2693599e-01
 -8.8752151e-01
 -4.1193911e-01
 -2.6392144e-01
  6.2519091e-01
  7.4640495e-01
 -2.4131235e-01
  5.3298169e-01
  1.5317547e-01
 -1.4874262e-01
  2.6790835e-02
  2.6339316e-01
 -8.4007971e-02
  6.2359661e-01
 -4.5910105e-01
  9.6430555e-02
  7.5465545e-02
  1.3634887e-01
 -6.7487979e-01
 -7.7924252e-01
 -1.5182650e+00
 -1.1019254e-01
 -1.0757539e-01
 -6.0094887e-01
  3.6963424e-01
 -1.0727973e+00
  2.4628878e-01
 -8.3177173e-01
 -3.8591635e-01
  2.9881123e-01
  9.8771119e-01
 -4.0508729e-01
 -7.5156385e-01
  9.9415243e-02
 -2.2759348e-01
  7.1820760e-01
  5.3963190e-01
  5.6501579e-02
  1.8351924e+00
  2.5024518e-01
 -2.6892126e-01
 -3.1460230e+00
  7.9840618e-01
  7.9551923e-01
  2.8294125e-03
  3.9535654e+00
 -4.4285339e-01
  1.5983950e-01
 -5.6699491e-01
  1.4225671e+00
  1.1507545e+00
  2.4816999e+00
 -3.7742636e-01
  4.4811609e-01
  5.9963536e-01
 -9.5779657e-01
  7.8998500e-01
  1.5816787e+00
 -1.7316071e+00
  3.7714319e+00
  2.4360807e-01
 -4.4576162e-01
  2.9087205e+00
  7.6064229e-01
  1.7584760e+00
  3.6380780e+00
 -1.5974998e+00
  1.3251170e+00
 -4.3942003e+00
  1.9985096e+00
  3.6150887e+00
  2.8748640e-01
 -4.0824938e-01
  3.0421782e-01
  7.1977913e-01
 -2.2549033e+00
 -8.8787031e-01
 -8.8318098e-01
 -4.2282301e-01
  1.7035192e+00
  2.7762663e+00
  1.0222200e+00
  9.5286258e-02
 -1.6724859e+00
  2.0564890e-01
 -8.0698699e-01
  2.6141808e+00
 -3.3738169e-01
 -2.8524957e+00
 -2.3609821e-01
 -1.1549667e+00
 -3.5036230e-01
  1.1049207e+00
 -3.5945901e-01
  3.5256693e-01
 -1.4103718e+00
 -2.3093545e+00
  5.6241840e-01
  2.5406453e-01
 -2.1427619e-01
 -1.2006907e+00
  3.5840020e-02
  1.3662790e+00
  2.9660025e-01
 -7.0960931e-02
  6.3818204e-01
 -3.1102547e-01
 -1.1020461e+00
 -7.6115596e-01
  5.7587895e+00
 -2.7091000e+00
 -1.1220851e+00
 -2.5040188e-01
 -1.7260422e+00
 -8.2387042e-01
 -7.4462944e-01
 -4.9714568e-01
 -1.0553505e+00
 -1.7489191e+00
 -1.7569259e+00
  1.5303445e-01
  9.2660004e-01
  2.6181502e+00
 -1.7389495e+00
  1.4598064e+00
  1.3671534e+00
 -1.9390813e+00
 -8.5678589e-01
  1.0151641e+00
 -8.1204361e-01
  1.5495328e+00
 -2.0114860e-01
  3.3216727e-01
  1.9550619e+00
  6.5106362e-01
  1.2829591e+00
 -2.9015830e+00
 -2.6339796e+00
 -9.1723174e-02
 -7.2969520e-01
  1.0499920e+00
 -2.2757374e-01
  1.4312402e+00
 -6.9928741e-01
 -5.3723679e+00
 -8.5026300e-01
 -5.3692555e-01
 -5.6497633e-01
  2.2010658e+00
 -1.6605324e+00
  1.1358117e+00
 -3.2944685e-01
 -3.0551276e-01
 -1.9056749e+00
 -1.2270999e+00
 -1.3421485e+00
 -1.8031411e+00
 -1.5726316e-01
  1.1427004e+00
  9.5410436e-01
 -1.9799391e+00
  1.5989536e+00
  2.9435456e+00
 -7.6840065e-02
 -4.6161431e-01
 -4.1121781e-01
  5.7048684e-01
 -4.2258981e-01
  1.7524453e-01
 -7.2520131e-01
  6.2924320e-01
 -5.4088861e-01
  8.7044138e-01
 -9.0573883e-01
 -1.3665061e+00
  1.3845513e+00
  1.0812444e-01
 -1.5192798e-01
 -2.1145877e-01
  8.1335348e-01
 -8.4624594e-01
 -9.6740139e-01
  5.1839274e-01
  2.1639806e-01
 -3.0338261e-01
  6.7991161e-01
  2.3599347e-01
 -1.1330049e-01
 -2.3569791e+00
 -4.5501161e-01
 -1.3191110e+00
 -3.4561425e-01
 -1.0064995e-01
 -9.3094230e-01
  1.3582978e-01
  4.7737551e-01
  7.4829924e-01
  4.0117133e-01
  6.0551453e-01
  6.3794009e-02
 -1.6107517e+00
 -5.4424703e-01
  5.0850607e-02
  4.7015709e-01
  6.1069739e-01
 -6.1737585e-01
 -7.1257895e-01
 -4.0747622e-01
  2.7025887e-01
  3.8825700e-01
  1.1221012e-01
  1.4540102e-01
  3.7686008e-01
  1.0515769e+00
 -4.9772781e-01
 -2.8963923e-01
 -1.1826359e+00
 -1.0363881e-01
  4.3883765e-01
 -3.3635342e-01
 -1.9495322e-01
  6.6158569e-01
 -9.7822361e-03
 -8.4999897e-02
 -9.4253385e-01
  4.3650430e-01
 -1.2339492e-01
 -3.0342871e-01
  2.1452134e+00
 -4.9298033e-01
  2.8953042e-02
  6.4354163e-01
 -4.4684497e-01
 -2.4092352e-01
  1.6806293e-01
 -3.0847880e-01
 -7.0139933e-01
  6.6271758e-01
 -3.8133064e-01
  5.7155263e-01
 -8.3794102e-02
 -1.0388675e+00
 -7.4653304e-01
  4.5301169e-01
  2.2493301e-01
 -2.6409695e-01
  5.2727950e-01
 -2.3208335e-01
  5.0142026e-01
 -3.5078606e-01
  4.2515823e-01
 -1.0891446e+00
  4.5474842e-01
 -1.8893154e-02
 -3.3029944e-01
  4.7369784e-01
 -1.0570618e+00
 -2.6450855e-01
 -5.7299364e-01
  5.9212977e-01
  3.2213995e-01
 -4.0084638e-02
  1.0716014e-01
  1.2015183e+00
 -4.5523441e-01
 -1.5044973e+00
 -1.6714895e-01
 -9.2669123e-01
  3.8295227e-01
 -4.3730012e-01
  1.4285027e+00
 -4.9770442e-01
 -1.1870704e+00
 -3.9367872e-01
  6.5513253e-01
  4.9974903e-02
  5.5190647e-01
 -2.5332260e-01
 -9.4128780e-02
  7.9346544e-01
  5.2393633e-01
 -8.3375978e-01
  4.7761434e-01
 -1.7458928e+00
  1.6800195e-01
 -3.3095485e-01
 -7.5632945e-02
 -5.3622895e-01
 -3.4588194e-01
  4.7110096e-02
 -5.9685820e-01
  9.8645055e-01
 -3.5343185e-01
  7.3937792e-03
 -3.5549033e-01
 -5.8721489e-01
  4.8901728e-01
  4.3736887e-01
  7.3838621e-01
  5.9730351e-01
  2.5217572e-01
 -4.3803382e-01
 -3.5844535e-01
 -1.1530401e+00
  5.7204455e-01
 -8.8463908e-01
 -8.7075639e-01
 -2.1683767e-02
  1.2894211e+00
 -2.9919710e+00
  1.0097494e+00
 -1.6269138e+00
  2.7886814e-01
  1.2877965e+00
 -4.4127530e-03
 -3.5582954e-01
 -2.8834786e+00
 -1.5773853e+00
  2.2078295e+00
  5.2868950e-01
  2.0801632e+00
 -1.8457177e+00
 -1.4051055e+00
 -2.6219085e-01
 -9.6711308e-01
  1.6779264e+00
 -7.7999867e-02
 -1.8765016e+00
  1.0440786e+00
  3.4476752e+00
  3.0422244e+00
 -3.7082645e-01
  9.0479173e-02
 -4.1316562e+00
  3.7646499e+00
 -2.0117233e+00
 -3.0011830e+00
  3.2420027e+00
 -1.8007840e+00
  4.0792322e-01
  2.1185133e+00
  1.9474666e+00
 -4.3374319e+00
  2.0396023e+00
 -8.0056548e-01
 -2.2858238e+00
 -1.3463584e+00
 -3.1482348e+00
 -2.6102054e+00
  3.3310628e-01
  2.4833724e+00
 -5.7382506e-01
  2.3267728e-01
 -1.9759926e+00
 -1.2452335e+00
 -1.6874264e+00
  1.0222595e+00
 -9.7864616e-01
  7.7421889e-02
 -2.8892225e-01
  8.1795269e-01
  3.4478182e-01
 -6.2012893e-01
 -1.5938243e+00
  6.1569273e-01
 -2.1041577e+00
  3.8022831e-01
  2.9274493e-02
 -5.1888722e-01
 -4.7994500e-01
 -1.1362724e+00
  5.3880185e-01
  3.3743212e-01
  9.1479427e-01
 -7.8891045e-01
 -1.6317590e-01
  1.0542150e+00
 -8.3168769e-01
 -6.3615870e-01
  3.4955686e-01
 -1.7100555e-01
 -8.5584462e-02
  5.7078320e-01
  5.2672094e-01
 -5.2724808e-02
 -8.5626937e-02
 -2.5272403e+00
  1.6711371e-01
 -7.7966772e-02
 -5.6545272e-02
  1.6986112e-01
 -1.3885400e+00
  1.5502846e+00
  8.9121455e-01
  9.2149985e-01
  4.5279345e-01
  5.1263648e-01
 -5.4578686e-01
  7.2255439e-01
  1.1975786e-01
 -6.5522224e-02
  1.4717816e+00
  1.7792197e+00
  1.8990472e-02
  1.0402136e+00
  8.4305692e-01
 -1.4303254e+00
 -8.4435725e-01
  4.3942994e-01
 -1.4506344e+00
  9.5090657e-01
  1.7455441e+00
  6.5442026e-01
  9.6170741e-01
 -2.5912988e-01
  7.1973658e-01
 -1.0058451e+00
 -9.0690124e-01
  1.8978591e+00
  1.0261686e+00
  1.1857473e+00
  2.5844267e-01
  6.7282039e-01
  1.1989961e-01
 -1.2173404e-01
 -3.2010320e-01
  2.9246018e+00
  8.5482651e-01
 -1.9596511e-01
  1.4554921e+00
 -1.6540225e+00
 -6.9817823e-01
 -4.9764371e-01
  3.1071904e-01
 -4.5956397e-01
 -5.4455638e-01
 -1.9628905e-01
 -2.6643679e-01
 -5.5621558e-01
  4.0754867e-01
  5.8650827e-01
 -4.1778356e-01
 -1.6820419e+00
  3.0459857e+00
 -3.2168984e-02
 -3.8807948e+00
  2.2193735e+00
 -5.2031082e-01
  1.2448949e+00
 -1.1317677e+00
  3.1233234e+00
 -7.9624468e-01
  3.2388535e-01
 -1.6602563e+00
 -1.2330621e+00
 -1.5924144e+00
 -5.4443741e-01
 -2.6237204e+00
  2.9642351e+00
 -4.6130981e+00
 -1.3757654e+00
  4.1927671e-01
 -1.2036978e+00
 -3.2550883e+00
  6.8405920e-01
 -1.5087774e-01
 -7.9483829e-02
  4.0525007e-01
 -1.2470591e+00
  5.0837499e-01
  1.8112926e+00
  2.4877913e+00
 -1.7796144e+00
  8.7752670e-02
  1.3353724e+00
  1.1228251e+00
  2.5224967e+00
 -1.0866019e+00
  2.5750146e+00
  1.8718227e+00
 -1.4684926e+00
 -6.0800129e-01
 -2.5999761e+00
  1.6455193e+00
 -1.9096467e+00
  1.8194500e+00
  3.8112431e+00
 -2.2881892e+00
 -5.6431826e-02
  7.6030773e-01
  4.0660572e+00
 -1.3203938e+00
 -6.1067718e-01
 -3.1312326e-01
  7.6189619e-01
  1.7793267e+00
 -3.7087250e+00
 -3.0602437e-01
  9.6020508e-01
 -4.8119467e-01
  7.6440179e-01
 -2.5970650e-01
 -2.2987220e-01
 -4.0809676e-01
  3.7836447e-01
  3.8334697e-01
 -2.7678285e-02
  4.1273844e-01
 -2.1210200e-01
  1.3071141e+00
  4.8828000e-01
  1.3347260e+00
 -1.0796825e+00
  1.7062584e-02
 -2.0545112e-01
 -1.5991867e+00
 -1.5443170e+00
 -6.9630337e-01
 -3.0046976e+00
 -1.0701790e-01
 -1.7643335e+00
  3.0516033e+00
  1.9916784e+00
 -1.7084472e+00
  6.9752049e-01
 -4.2857105e-01
  5.3528833e-01
 -1.4509680e+00
  4.7537145e-01
 -1.9197524e+00
 -6.4722681e-01
 -3.5523841e+00
 -1.0993927e+00
 -4.8372038e-02
  5.7255065e-01
 -1.9278606e+00
 -2.0786109e+00
 -2.0092952e+00
 -2.4400306e+00
 -8.7428272e-01
 -2.6546566e+00
 -2.4751232e+00
  1.1666018e+00
  3.6496076e-01
  3.9874108e+00
 -2.3289311e+00
  2.5209627e+00
  5.5109572e-01
 -1.7490016e+00
  2.9792511e-01
 -1.6162716e-01
  3.8946581e-01
 -2.2453034e+00
  3.1027582e-01
 -7.1139205e-01
  1.9835536e+00
  2.2332631e-01
 -4.0106469e-01
  3.4748393e-01
 -1.2560279e+00
  7.4858308e-01
  1.7917278e-01
 -3.8838121e-01
  1.0634191e-01
 -1.5589875e+00
 -1.6078493e-01
 -1.9996483e+00
 -8.3659321e-02
 -2.7000934e-01
 -7.4507900e-02
 -1.1970884e+00
 -3.9914280e-01
 -1.8312675e+00
 -1.2828366e+00
 -2.9025060e-01
  5.8023465e-01
 -4.4561449e-01
  8.1435615e-01
 -1.3828251e-01
  1.0760901e+00
 -1.2828541e+00
 -7.8270435e-01
 -4.8832044e-01
  1.4215354e+00
 -7.7150083e-01
 -1.3157393e+00
 -1.8553650e+00
  2.2180829e+00
  2.2481263e+00
 -8.8897163e-01
  1.3371267e+00
  5.1494986e-01
  1.1442763e+00
  2.0844519e+00
 -7.5775027e-02
 -8.8556617e-01
 -2.1052624e-01
 -2.4638994e+00
 -2.0861008e+00
  9.5399040e-01
 -3.2094231e+00
 -5.1220700e-02
  2.6052721e+00
 -1.3759873e+00
 -3.3763391e-01
  2.6109621e-01
  2.6089566e+00
  1.3592732e+00
  2.2649765e+00
 -2.3088822e+00
 -2.3501453e+00
  7.7808571e-01
 -3.3711452e+00
  1.4027257e+00
  3.8279566e-01
 -2.5581846e+00
 -7.6015282e-01
 -8.2622927e-01
 -8.1249136e-01
 -8.4115493e-01
  3.9447227e-01
 -1.5345168e+00
 -9.1180074e-01
 -4.9658850e-01
 -9.5249638e-03
  1.9548672e+00
  3.6968663e-01
 -1.4766080e+00
  1.3546896e-01
  1.0255342e+00
 -4.7513647e+00
 -1.1457889e+00
 -1.0905881e+00
  2.3667467e+00
 -2.3095343e+00
  1.0431275e+00
  1.2045482e+00
  3.9038038e-01
  5.6836736e-01
  1.1581181e+00
  5.8793491e-01
  1.3079191e+00
  3.3891955e-01
 -5.6882209e-01
  3.3021772e+00
 -6.6646934e-02
  1.7125791e-01
 -6.1210752e-01
 -3.6544363e+00
 -2.3493101e-01
  2.8609409e+00
 -2.0538437e+00
 -1.3227475e+00
 -2.4236109e+00
 -9.8864913e-01
  3.3756466e+00
  2.9591045e+00
 -1.5296272e-02
 -2.5400887e+00
  9.2172050e-01
 -2.5844684e+00
 -4.2221684e+00
 -2.0353503e+00
  1.0506421e+00
  2.6811557e+00
 -2.1136076e+00
  1.6692989e+00
 -1.3511996e+00
 -7.9395950e-01
 -3.9674413e-01
  5.2438468e-01
 -1.4807428e+00
  1.9137646e+00
 -1.3073049e+00
 -2.5902218e-01
 -1.5995140e+00
 -6.5813047e-01
  3.1113968e+00
  1.3856050e+00
 -1.8356019e+00
  2.8737649e-01
  3.8490918e+00
  1.0028362e+00
 -1.8527892e+00
  2.3346755e-01
 -1.6693868e-01
  4.9449340e-01
 -2.0158269e+00
  1.0869652e+00
  2.9063612e-02
 -8.3273745e-01
  3.7701219e-01
 -9.0713596e-01
  7.4931461e-01
 -9.0374607e-01
 -1.6140002e+00
  3.7634724e-01
  1.0992424e+00
  1.3142095e+00
 -1.2304550e+00
  6.2574643e-01
  9.6891069e-01
 -4.0764585e-02
  8.0875087e-01
 -8.6090550e-02
  2.4608114e-01
 -3.0706039e-01
 -1.1998682e-01
  6.4684314e-01
  8.4827858e-01
 -2.8659385e-01
  9.0757036e-01
 -2.9200826e-02
  3.2683349e-01
 -6.0801640e-02
 -9.8518431e-02
 -2.2504163e+00
 -1.7915639e-01
  6.9209802e-01
 -1.4378321e+00
 -9.2964339e-01
 -2.2006273e+00
  5.9173483e-01
  1.0527258e+00
  1.1050634e+00
  4.5403534e-01
 -3.3905876e-01
  1.5643629e+00
  1.5625964e+00
  7.6496583e-01
  3.5875162e-01
  9.2868251e-01
  4.7046539e-01
  8.8750058e-01
 -1.5957706e-02
  1.4236929e+00
  6.6813540e-01
  1.1621487e+00
  1.0560944e+00
  4.1170131e-02
 -1.3748845e+00
 -2.5886399e-01
 -2.9256493e-01
  1.0466621e+00
 -8.3719337e-01
 -9.9077338e-01
  1.4078517e+00
 -7.5378704e-01
 -6.2900102e-01
 -1.0175518e+00
 -2.5264183e-01
  5.5593669e-01
  9.2979038e-01
 -4.5526704e-01
 -6.3392349e-02
  2.0360082e-01
  5.1846247e-02
  1.9610503e-01
 -7.5415975e-01
 -2.7991936e-01
 -2.9465947e-01
  1.2283107e-01
 -1.0206366e+00
 -8.4773874e-01
 -1.2096281e+00
 -1.3692391e+00
 -4.9711585e-01
  3.6082757e-01
 -9.0026414e-01
 -6.1854321e-01
  4.7060847e-01
  6.5918112e-01
  1.4545195e+00
 -7.5852764e-01
  2.8361464e-01
  3.8887626e-01
 -9.8904356e-02
  3.9514652e-01
 -2.7518946e-01
 -1.5960005e-01
  9.1074431e-01
  7.4044406e-01
 -9.1943157e-01
 -7.4227437e-02
 -6.9359392e-01
 -1.9135781e-01
 -9.5859075e-01
  7.8806686e-01
  1.2540922e-01
 -6.5122682e-01
  6.0154617e-01
  1.2652525e-01
  1.4593178e+00
 -1.1386654e-02
  5.3048223e-01
  2.9917322e-02
  6.0426843e-01
 -8.7602633e-01
  1.3250430e-01
 -5.8073127e-01
 -2.1558535e-01
 -3.2092834e-01
  9.3243468e-01
  3.6838165e-01
  4.3664289e-01
  3.8105363e-01
  1.5963742e-01
  7.8609067e-01
  3.5695010e-01
 -8.7054306e-01
  1.9322021e-01
  2.9746113e-02
 -4.2104346e-01
  3.4844092e-01
 -2.6417980e-01
 -1.2116026e+00
  5.8119774e-01
  1.5449742e+00
 -1.1820326e+00
  9.8654211e-01
  1.2207342e+00
 -8.6475015e-01
 -8.8031930e-01
  5.5494291e-01
  1.1971080e-01
  1.8651772e+00
  7.8978980e-01
  6.5308794e-02
  1.8891830e-02
 -4.1254267e-02
  1.1386774e-01
  3.8032930e-02
  7.8703105e-01
  4.7943726e-02
  4.9138513e-01
  4.9065569e-01
 -3.0690366e-01
 -3.1735352e-01
  3.7652738e-03
 -7.8210777e-01
 -2.8720313e-01
 -5.7877344e-01
 -4.7201461e-01
 -2.0785809e-01
 -3.6331642e-01
 -1.1872611e+00
  2.1990077e+00
 -1.0690271e+00
  5.0138718e-01
  1.7540659e-01
 -1.7433125e-01
 -3.3804219e+00
  3.1330246e-01
  1.2418345e+00
  5.1754389e+00
 -1.4175919e-01
  9.7530919e-01
  2.1498442e+00
 -1.5274215e+00
 -3.4830284e-01
 -4.9963258e-02
  3.3385513e+00
 -2.1963310e+00
  9.0440309e-01
  6.1806804e-01
  8.0486560e-01
 -8.9213103e-01
  3.3322427e-01
  1.9425977e+00
  4.4428760e-01
  3.7341421e+00
 -6.9913727e-01
 -4.3291953e-01
 -1.0408614e+00
 -4.8436275e+00
 -2.4498193e+00
 -1.0964847e+00
 -7.6602900e-01
  4.9598031e-02
  3.9855739e-01
 -1.0005291e+00
 -2.3009477e+00
  3.8335066e+00
 -3.2263416e-01
 -4.8130250e-01
 -2.0044596e+00
  2.0893963e-01
  3.4730998e-01
 -1.4274123e+00
 -1.2929775e+00
 -4.7350985e-01
  8.9531571e-01
  3.2781713e+00
 -4.5174968e-01
  1.2379071e-01
  1.1806258e+00
 -8.6113471e-01
  1.1332464e+00
  1.2251823e+00
 -3.0297631e-01
  1.6342537e+00
 -2.6884582e+00
 -2.8674191e-01
  5.3021695e-02
  2.4928389e-02
 -1.4170059e+00
  2.5067039e+00
  7.8063619e-01
  1.0349549e+00
  8.6631417e-01
 -1.3557991e-01
  1.5472877e-03
  3.4869817e-01
 -8.2749873e-01
 -2.2326682e+00
 -6.9089860e-01
 -1.8570918e+00
 -2.8501539e+00
 -6.3083825e+00
  4.7078481e+00
 -3.0161116e+00
 -3.7435284e+00
 -9.4415873e-01
 -4.0278850e+00
  1.1409651e-01
  5.9503403e-02
 -6.0405992e-02
 -9.0897334e-01
 -1.2576497e+00
  1.9955618e-02
  1.7683520e+00
  7.3447442e-01
 -2.5619216e+00
  2.2231321e+00
  2.1858606e+00
  1.7271941e+00
 -9.2639107e-01
 -1.9856958e+00
  1.5220385e+00
 -1.6732215e+00
 -7.2389686e-01
 -2.2456894e+00
  6.3142604e-01
 -4.2130500e-01
 -3.9946193e-01
 -8.0081135e-01
 -1.3594431e+00
 -1.3373356e+00
 -1.2108640e-01
 -1.2546529e+00
  1.7047797e-01
  9.9358803e-01
 -1.4385787e+00
  2.4654145e+00
 -6.1829448e-01
 -2.4381247e+00
  5.1401955e-01
 -5.4913121e-01
  2.1341622e+00
 -8.8985896e-01
  1.5584836e+00
  1.9850031e-01
 -1.3674524e-01
 -4.6312898e-01
  5.2899653e-01
  8.9851135e-01
  2.7779794e-01
  8.3980125e-01
  7.8807068e-01
 -9.4599694e-01
 -1.3623832e+00
  3.9212593e-01
  7.5796854e-01
 -1.3976246e+00
 -6.1834222e-01
 -4.0063941e-01
  1.1043184e-01
  4.2028913e-01
  1.9210844e-01
  1.5727783e+00
 -1.0981277e+00
  1.0757164e+00
 -1.1942865e-01
 -1.0487322e+00
 -1.0106632e+00
  4.7247970e-01
  8.7024707e-01
  6.1702073e-01
 -7.4365193e-01
 -5.5446291e-01
 -5.2146450e-02
 -1.7424577e-01
  9.7318918e-02
 -6.6738057e-01
  5.9315556e-01
  9.3132213e-02
 -8.5673654e-01
  1.3495896e+00
  5.6410294e-02
  5.9168112e-01
  5.3497761e-01
 -4.1742998e-01
 -8.5412043e-01
 -8.3503759e-01
 -1.8478163e-02
 -1.4398515e+00
  4.8016617e-01
 -1.2959360e+00
  7.2805661e-01
 -1.2278363e+00
 -9.6209764e-01
 -1.3930594e+00
  8.3681756e-01
  1.3191984e+00
 -1.8352840e+00
  2.3839192e-01
  4.5604244e-01
 -1.3833483e+00
  2.7666619e-01
  3.4622601e-01
 -3.2303190e-01
 -5.4002434e-01
  7.7785373e-01
  1.6619906e+00
  4.2938372e-01
 -4.7054592e-01
  1.0521822e+00
  6.7226869e-01
 -6.0258418e-01
 -1.3258417e+00
 -2.4423094e-01
  1.9257447e-01
 -5.3393382e-01
  9.0681557e-03
  9.3499076e-01
 -1.3558344e+00
  7.2887242e-02
 -7.7761605e-02
 -6.1338222e-01
  3.9823306e-01
  2.2533655e-01
 -1.3203830e-01
  2.4833816e-01
  1.0691379e+00
  5.5386573e-01
  2.9902905e-01
 -9.1012466e-01
 -2.3212659e-01
  1.2057444e+00
  1.1411943e+00
 -4.6467561e-01
 -7.2339296e-01
 -6.9119108e-01
  1.4066339e+00
 -7.5684184e-01
 -1.1677305e+00
  2.5782933e+00
  1.4773877e+00
 -1.4246404e-01
  8.3458513e-02
  2.2327475e-01
  2.2923680e-01
  6.7377895e-01
 -8.6710677e-02
 -1.0617987e+00
 -4.2045295e-01
 -1.5263325e-01
 -1.0907147e+00
  1.2019650e+00
  2.7845687e-01
  2.2604620e+00
 -8.9036512e-01
 -1.6737310e+00
 -1.6828920e+00
 -4.9388528e-01
  2.2908635e+00
 -2.0107236e+00
 -2.4359735e-02
  8.6662769e-01
  8.4301758e-01
  3.5954821e-01
  3.3777453e-02
  3.9119811e+00
  9.2831695e-01
  4.3314463e-01
 -1.0149792e+00
  4.6340013e-01
 -2.8243383e-02
  6.6364104e-01
 -1.1871901e+00
  1.9342006e+00
  1.4241084e+00
 -1.3659319e-01
 -3.5843137e-01
 -7.3445499e-01
 -1.5739521e-01
  5.2261598e-02
  7.2036207e-02
 -1.5262836e+00
  5.7120830e-01
 -8.8056016e-01
 -9.2424947e-01
 -9.4664469e-02
 -3.4223944e-01
  2.3128310e-01
  2.1942203e-01
 -4.5226452e-01
 -7.6707855e-02
 -1.3268878e+00
  1.0809957e-01
  1.1887151e-01
 -8.1257915e-01
  1.4067376e+00
 -1.7574998e+00
 -2.6211977e+00
  1.8371785e+00
  7.7999020e-01
  2.0327342e-01
  1.7543281e+00
  2.3922937e+00
 -6.5669560e-01
 -6.7163241e-01
  2.2697844e-01
 -6.8845475e-01
  2.6709049e+00
 -1.3630204e+00
  2.2923149e-01
  1.4300648e+00
  1.2425786e+00
 -4.6587510e+00
  2.2342721e-01
  2.3962060e-01
  2.7523739e+00
  4.5625469e-01
 -2.5345101e+00
  1.1983510e+00
  8.8152421e-01
  6.8276900e-01
  6.9768347e-02
 -5.3503412e-01
 -1.2304645e+00
  2.6501551e+00
 -1.0719817e+00
 -1.3671110e+00
 -1.8749204e+00
  3.2061183e-01
 -2.6124942e-01
 -3.1573346e+00
  1.7508078e+00
 -8.4186023e-01
 -6.1257017e-01
  1.1902876e+00
 -8.0644238e-01
  1.6070158e+00
 -1.8142788e-01
 -7.2342891e-01
  1.2539902e+00
  2.1602957e+00
 -1.7911606e+00
  7.5116104e-01
 -8.9230758e-01
  2.3337735e-01
  1.3975376e+00
  1.0616384e+00
  3.6174959e-01
  5.0230169e-01
 -3.3453386e+00
 -2.3180671e+00
  3.9940190e-01
  1.7332998e-01
 -2.9016444e-01
  9.5843214e-01
 -1.7414372e-01
 -7.8332877e-01
 -8.8557041e-01
  4.7636047e-01
  1.0405874e-01
 -1.6118019e+00
  5.4337305e-01
  1.8391740e-01
  5.5295205e-01
  1.5722998e+00
 -1.5006276e+00
  1.2592285e+00
  6.1548773e-02
  5.3674430e-01
  2.8980020e-01
 -4.7300738e-01
 -7.2095740e-01
  5.4702442e-03
  5.4966789e-01
  9.3451488e-01
  1.3208818e-02
 -1.2897636e+00
  1.4784545e-01
 -1.1740444e+00
  1.4907326e+00
  1.3436406e+00
 -1.7862862e+00
  2.2312891e+00
  3.6471087e-01
 -1.4907640e-01
  1.6270832e+00
  1.6225103e-01
 -3.0772701e-01
  2.3839953e+00
 -2.9479809e+00
 -7.2694850e-01
 -1.0669395e+00
 -1.4616071e-01
 -6.2398410e-01
 -6.6903579e-01
 -8.3355010e-02
 -2.6394598e+00
 -1.9167800e-03
 -1.3214127e+00
 -1.2452974e+00
  1.0792791e+00
  1.8837584e+00
 -2.4184487e+00
  1.0155303e+00
  2.2689296e-01
  3.7431207e-01
  2.9018879e+00
 -1.2670897e+00
 -3.4884608e-01
 -1.4059007e+00
 -3.5204825e-01
 -1.5538335e-01
 -1.5422668e-01
  5.6463742e-01
  3.6525285e-01
  1.7782134e-01
  6.2107903e-01
  3.7080264e-01
 -4.1334882e-01
 -6.4242989e-02
  4.1886091e-01
  1.6301368e-01
 -6.2236202e-01
  6.5368652e-01
 -5.0031438e-02
  1.5411427e+00
  7.5193411e-01
  5.1673234e-01
 -1.3134631e+00
 -1.2593088e-01
 -4.6797475e-01
  4.3638277e-01
 -9.0008324e-01
 -4.9272090e-01
 -1.5643134e+00
  1.1062987e+00
  4.7008604e-02
 -1.3666536e+00
  1.5142557e-01
 -6.4289242e-01
 -9.6024269e-01
  3.0168224e-02
 -1.9409207e-01
  6.3986909e-01
 -7.2067177e-01
 -5.6907392e-01
  6.7145020e-02
 -8.2799718e-03
 -6.7367363e-01
  1.2181600e+00
 -7.4554646e-01
 -5.7611398e-02
  4.1290888e-01
 -1.2400798e+00
 -2.2104973e-01
  1.7317393e+00
  1.0204384e+00
  6.7393142e-01
 -9.7286606e-01
 -4.5117277e-01
 -6.5243864e-01
 -4.8020917e-01
  1.2052918e-01
  2.3622711e-01
 -3.6123970e-01
  1.0352852e+00
 -8.6703882e-02
  6.8172115e-01
  1.1161180e+00
 -1.0044485e-01
 -2.1758741e-01
  7.6059133e-01
  1.0955175e+00
  7.6284957e-01
  5.2647555e-01
  8.6805344e-01
 -1.0085150e+00
 -1.9851667e-01
 -7.3264182e-01
 -6.0865599e-01
  1.6796881e-01
  1.6071600e-01
  1.0862782e+00
 -2.0014174e+00
  2.8094578e-01
 -8.2202470e-01
 -4.6656474e-01
  1.2057592e+00
  7.8649879e-02
  3.4017965e-01
 -2.6769304e-01
  4.8474187e-01
 -7.7795696e-01
 -8.8826853e-01
 -2.4010673e-02
  2.7823049e-01
  1.2077729e-01
 -2.9927163e+00
 -9.5545039e-02
  3.8285035e-01
  7.8997874e-01
  4.5941162e+00
 -5.5013335e-01
 -1.5623499e+00
 -4.6245247e-01
  3.4853487e+00
 -3.7801036e-01
  2.4435883e+00
 -4.2251287e+00
 -1.3565373e+00
 -1.2283466e+00
  1.7249955e-01
 -7.1632123e-01
 -3.0285576e-01
  3.3715196e+00
  1.4777492e+00
 -4.6536856e+00
 -1.1359365e+00
  2.9243784e+00
  1.4867625e+00
  7.0218861e-01
 -2.7288647e+00
 -2.5616233e+00
 -3.4498806e+00
  2.8852385e-01
 -7.2803468e-01
 -2.0389643e+00
  4.9348297e+00
 -3.6448434e-01
 -4.4703993e-01
  7.5273389e-01
 -5.8974993e-01
  1.4068887e-01
 -3.8822448e+00
  1.2637892e-01
 -6.2539214e-01
  6.9716018e-01
 -2.3845141e+00
  2.1884999e+00
 -6.9187462e-01
 -1.0311370e+00
  5.5742496e-01
  1.1845431e+00
  1.8386334e+00
 -1.2140486e-01
  1.7001988e+00
  2.5596173e+00
  9.7376221e-01
  1.0031171e+00
 -3.2754722e+00
  4.6217504e+00
 -1.0117370e+00
  1.2496340e+00
 -1.2460680e+00
  7.5648999e-01
 -6.4553392e-01
  2.7866036e-01
 -3.6791962e-01
  8.2933086e-01
  6.9749080e-02
 -9.3743616e-01
  2.4553316e+00
  1.6105365e+00
 -7.8748930e-01
  9.2818552e-01
  1.6383371e+00
 -1.8158406e+00
  2.4402021e-01
 -7.0802289e-01
 -1.4324661e-01
 -3.1902131e-01
 -1.9001669e+00
 -4.8933330e-01
 -1.1787505e+00
 -2.1570930e+00
  7.7807862e-01
 -1.1654499e+00
 -6.9868320e-01
  5.8244926e-01
  9.6021384e-01
  8.4295845e-01
 -2.5470591e+00
 -3.4012359e-02
 -2.5406644e-01
 -6.3466370e-01
  2.6292098e-01
 -1.6461550e-01
  1.3130140e+00
  8.9715737e-01
  3.0405176e+00
 -2.5174255e+00
  2.6021442e+00
  5.8755320e-01
 -1.9398700e+00
 -6.2543404e-01
 -7.8260487e-01
 -8.9477634e-01
  1.2290980e+00
  1.1768695e+00
  2.8045173e+00
 -3.1983287e+00
  1.8953872e+00
  1.1791838e-01
 -1.2569937e-01
 -1.5458440e+00
 -7.7388930e-01
  2.3432530e-01
  5.1769805e-01
  6.4778024e-01
 -8.9777786e-01
  9.8456818e-01
 -1.9238859e+00
 -2.6938266e-01
 -5.3430063e-01
 -6.8831450e-01
 -4.9680769e-01
 -1.2154315e-01
  1.4237933e+00
  4.0950868e-01
 -5.6967471e-02
 -1.2116809e+00
 -4.9962640e-01
  3.8755905e-02
 -6.3205189e-01
 -6.5311676e-01
  2.1454786e-01
 -1.7276061e-01
 -3.6370280e+00
 -6.7309684e-01
  3.7498128e-01
 -1.1846608e+00
 -3.5197697e+00
  2.7361650e+00
  2.9889596e+00
 -9.0182424e-01
  1.2621810e+00
  1.1772677e+00
  2.3775697e+00
 -2.8920314e-01
  3.6747499e+00
  1.1828848e+00
  4.4758801e+00
  5.0479984e-01
  2.3078201e+00
  1.1016951e+00
  2.3361425e+00
 -5.3529060e-01
  1.5314389e-03
  1.3998880e+00
  2.5485120e+00
 -3.3931771e-01
 -2.1412752e+00
  2.7682784e-01
  1.5234995e+00
  2.7056485e-01
  7.2266012e-01
 -8.5717894e-02
 -9.9149919e-01
  3.0746114e-01
  1.7287791e-01
 -2.2049379e+00
  2.4814405e+00
 -2.0661254e-01
 -5.1499927e-01
 -3.6878568e-01
  1.0571932e+00
 -5.6368929e-01
  4.4495583e-01
 -1.7324977e+00
 -6.8409967e-01
  1.3750786e+00
  3.7058792e-01
  3.4067562e+00
  5.4458493e-01
 -1.7181830e-01
 -5.5107504e-02
 -9.2789584e-01
  1.7527261e-01
 -3.8649926e-01
 -2.9918262e-01
 -8.2903045e-01
  7.0736982e-02
  2.1737506e+00
  1.3614296e+00
  3.0710539e-01
  2.3627865e+00
 -1.1958266e+00
 -4.2994618e+00
 -2.2973233e-01
  3.4909564e-01
  1.0357245e+00
  1.4574304e+00
  9.2038089e-01
 -1.4689534e+00
 -2.7055490e-01
 -6.2033881e-02
 -8.8389999e-01
 -9.8916203e-01
  9.0471274e-01
 -1.0540113e+00
  1.2880732e+00
 -3.3159888e+00
 -8.1235647e-01
  1.7019668e-01
  1.6573573e+00
  2.4738362e+00
  2.7775524e+00
  1.1507598e+00
 -8.2601917e-01
 -2.0420930e+00
 -2.3997532e-01
  1.8207964e-01
 -2.1643737e-02
  2.6833208e+00
 -3.4775181e+00
  2.1763341e+00
 -1.2818964e-01
  6.5381639e-02
 -6.1555147e-01
 -9.7881758e-01
  1.3698682e+00
 -1.4222618e+00
  1.6021749e+00
 -7.0404381e-01
  2.4395258e+00
  2.1901088e+00
 -1.0197995e+00
  1.3852224e+00
  2.3039045e+00
 -1.7271407e-01
 -1.0927349e+00
  3.9727476e+00
  4.6500311e+00
  1.2267615e+00
  4.2455414e-01
 -1.1698684e+00
  7.6195568e-02
  2.5615683e+00
 -7.9365426e-01
 -6.1520714e-01
  1.7249035e+00
  3.3324409e-01
  8.5910255e-01
  1.4375895e+00
 -8.6825490e-01
  2.0587084e+00
 -1.4892212e-01
  7.5058788e-02
  1.0836259e+00
  6.6428715e-01
 -5.0933939e-01
  4.2157683e-01
  9.6670210e-01
  1.4486423e+00
  4.5830822e-01
  6.5644783e-01
  6.6409349e-01
  4.4066823e-01
  9.6776438e-01
 -1.3233317e+00
 -3.7476265e-01
 -3.5730228e-01
  1.8931486e-02
 -1.2181823e+00
 -1.7932222e+00
  1.7815781e+00
 -2.5233665e+00
  7.4034339e-01
 -4.0706620e+00
 -1.6644036e+00
  4.2614993e-01
  2.0072062e+00
  2.3941789e+00
  1.1775779e+00
 -2.8202757e-01
  1.1993574e-01
 -1.6766143e+00
  1.6417257e-01
  9.2812037e-01
  1.1386342e+00
  4.1565394e-01
 -1.4113691e+00
  1.5934508e+00
  3.5738289e+00
  2.0113840e+00
  1.6600699e+00
  1.2182027e+00
  2.7438989e+00
 -1.8428050e+00
  2.4497077e+00
 -8.6679691e-01
  2.6002407e+00
  1.9451550e+00
 -1.6831261e+00
 -2.2051663e+00
  7.9902160e-01
  1.8539654e+00
  5.7973510e-01
  5.6348151e-01
  2.5074118e-01
  3.3288486e+00
  1.1008625e+00
 -8.7250960e-01
  2.4708610e+00
  1.0803733e+00
  7.2802955e-01
 -2.2890872e-01
 -1.8500257e-01
  1.4174691e+00
 -3.9172298e-01
 -4.7501123e-01
  7.9779357e-01
  8.4280282e-01
  1.5857383e+00
 -2.2819059e-01
  1.2982322e-01
  4.9801905e-02
 -8.5506719e-01
 -2.3261881e+00
 -1.7730585e-01
 -1.2775663e+00
  1.5919245e+00
 -4.3219525e-02
 -1.0612170e+00
  1.6443159e-01
  1.8813744e-01
  1.0159962e+00
  1.1550698e+00
  2.0062560e-01
  1.0299747e-01
 -7.8989148e-02
 -1.6942142e+00
  3.7308886e+00
 -1.2551916e+00
 -2.9957111e+00
  8.3754390e-01
 -3.2456857e-01
 -2.9150991e+00
 -2.1698079e+00
  1.1216112e+00
 -1.7723051e+00
  9.3327397e-01
  3.9622554e-01
  1.6780585e+00
  5.6145316e-01
 -3.6097482e-01
  1.0203259e+00
 -1.5256375e+00
  9.2027217e-01
  5.4035993e+00
  6.3078564e-01
  1.8080190e+00
  1.2094908e+00
 -1.1221364e+00
 -2.5204533e-01
  1.6779202e-01
 -5.4325253e-01
 -2.7038407e+00
 -1.8427448e-01
  6.0287273e-01
  3.0220919e+00
  1.7724943e+00
 -3.3889742e+00
  1.6899922e+00
  2.5547838e+00
  1.8796303e+00
 -7.2417003e-01
 -3.9175135e-01
 -2.1176329e+00
  1.1310228e+00
 -1.1856760e+00
 -2.4541876e+00
  4.9203664e-01
  1.5083978e+00
  7.2394669e-01
 -1.3335856e+00
 -1.7465413e-01
  3.2515666e+00
  3.8405907e-01
 -6.8716025e-01
  1.4562124e+00
 -7.1295238e-01
  7.1949047e-01
 -6.6522831e-01
 -1.7859420e+00
 -1.9432093e+00
  4.6915907e-01
  8.9877528e-01
  1.1227076e+00
 -2.9727337e-01
 -9.3615216e-01
 -1.3993590e-01
  8.2811102e-02
 -7.0906764e-01
 -6.7794085e-01
 -1.1625921e+00
  3.6443174e-01
  4.6131662e-01
  1.2129177e-01
  1.1127106e+00
  2.6306994e+00
 -8.9896762e-01
 -2.5985563e+00
  4.2476408e-02
 -1.8399400e-01
 -2.0590234e-01
 -1.9439064e+00
  1.5480742e-01
  2.8852808e+00
 -1.6437145e+00
  1.5112835e-01
 -1.9614341e+00
 -6.9105518e-01
 -1.7735143e+00
 -1.0744801e+00
  1.0068932e+00
 -4.6642250e-01
  5.0612867e-01
 -2.2975492e+00
 -3.1438088e-01
  2.2820227e+00
  1.0684112e-01
  8.5732229e-03
 -1.6785333e+00
 -3.9540508e-01
 -6.8553436e-01
  6.9809735e-01
 -6.4510673e-01
 -5.3098208e-01
 -1.8347667e+00
 -4.8711175e-01
  1.4806489e+00
  4.5939617e+00
 -1.5664524e+00
 -6.7259349e-02
 -2.4345849e+00
  7.1049613e-01
  1.8852974e+00
  1.4907734e+00
 -1.6988159e+00
 -1.6429311e+00
 -3.6694441e+00
  4.3160570e-01
  8.1544465e-01
 -1.1144073e+00
  2.6958327e+00
  1.0091183e+00
  4.7641855e-01
 -1.3283165e-01
  4.3911129e-01
 -1.8451810e+00
  1.4821166e-01
  3.3061788e+00
  2.4241717e-01
  4.4746849e-01
  1.4729187e+00
  1.7776321e-01
  1.0691290e+00
 -3.7488252e-01
 -9.7293472e-01
 -1.3148819e-01
  1.7419046e-01
  7.0055589e-02
  7.8962731e-01
 -1.7728651e-01
  3.2899380e-01
 -1.8918079e-01
 -3.8538711e+00
  5.4202545e-01
 -2.0556993e+00
  1.8546799e-01
 -7.7175570e-01
 -4.2804778e-01
 -3.6640754e+00
 -2.5724976e+00
  1.5484712e+00
 -1.3822336e+00
  2.6776650e+00
 -3.3018696e-01
 -1.4210297e+00
  2.7624371e+00
  3.7195006e-01
  5.0758986e+00
 -1.5762856e+00
 -1.9085562e+00
  1.7206384e+00
  2.4852362e+00
 -2.0381519e-01
 -5.6943762e-01
 -3.6556277e+00
  1.7230272e+00
  1.2384154e+00
 -2.3771157e+00
  1.3186561e+00
 -2.5253465e+00
  2.5223897e+00
  1.4192801e+00
 -3.5005934e+00
  1.9675848e-01
  2.0057888e-01
  3.2474893e-01
 -4.2769414e-01
  1.1264311e+00
  3.8226795e+00
  1.7926917e+00
 -2.8016915e+00
  2.6649394e+00
 -9.9049002e-02
  2.6428387e+00
 -4.7252421e+00
  1.2153847e+00
 -2.1263368e-01
 -2.1957312e+00
 -1.6296211e+00
  8.0901694e-01
  2.4125141e-01
 -6.6587293e-01
  1.7088860e-01
  2.1439445e-01
 -1.3031728e+00
 -7.5941843e-01
 -3.3914130e+00
  2.9459125e-01
 -6.5770322e-01
 -9.5758313e-01
  2.9474118e-01
 -4.1850337e-01
  7.5217921e-01
 -1.2620667e+00
  7.3840803e-01
 -4.8999965e-01
 -9.8805559e-01
 -3.5476872e-01
  2.4016058e-01
 -9.1182917e-01
 -3.8643420e-02
  3.9463598e-01
  1.9440609e-01
 -7.8058410e-01
  6.3807070e-01
  2.5564466e+00
  1.7304764e+00
  1.6931891e-01
  2.2007544e+00
 -1.2960111e+00
  1.5650172e+00
 -6.4114320e-01
 -3.9700395e-01
 -1.3188728e+00
 -3.9512825e-01
 -1.3642066e+00
 -2.5214860e+00
 -2.0045767e+00
  1.5728228e-01
  1.0461677e+00
  4.4305870e-01
  1.1095792e+00
  1.0521661e+00
  4.6242073e-01
 -1.3268834e+00
 -3.1447673e-01
 -4.0979138e-01
  1.3756256e+00
  5.2708459e-01
 -1.6683836e-01
  1.1638231e+00
 -9.6065032e-01
 -4.3859667e-01
 -2.5284071e+00
 -3.1458714e+00
 -2.6980660e+00
 -2.7548861e-02
  1.7970676e+00
  1.0967645e-01
 -8.4684426e-01
  8.8602263e-01
 -1.4438386e+00
 -2.9372936e-01
  1.0044591e+00
  1.0183750e+00
  7.0794225e-02
  3.4943148e-01
 -2.5129715e-01
 -9.8649897e-02
  1.8623725e-01
 -1.4167151e+00
  1.1660137e+00
  3.0282274e-01
 -5.2657509e-01
 -6.9000578e-01
  2.8638199e-01
  4.6819204e-01
 -6.4911380e-02
  5.9216093e-02
 -7.2519606e-01
 -9.6221220e-01
 -6.8935400e-01
 -1.7502509e-01
  1.8648647e-02
  4.0748110e-01
  1.2456443e+00
 -9.7174048e-01
  3.7341225e-01
 -7.0177495e-01
  3.8367413e-02
  1.0279382e+00
 -8.2032335e-01
 -1.1120369e-03
  3.7860945e-02
  7.7740148e-02
 -1.5779911e-01
  4.4046643e-01
  7.1993369e-01
 -1.0797563e-01
  1.4076278e-01
  6.3199317e-01
  3.1834757e-01
 -6.7735982e-01
 -6.1089319e-01
 -9.1220492e-01
  1.1659324e+00
 -5.8128345e-01
  4.0768591e-01
 -6.7796522e-01
 -2.0331918e-01
 -6.2989455e-01
 -5.4149711e-01
  4.9283502e-01
 -2.8791644e-02
  1.2399815e+00
 -4.3652156e-01
  6.1101252e-01
 -2.4831292e-01
  7.3215121e-01
  6.0141963e-01
 -8.2491857e-01
 -5.0708573e-02
 -1.8498098e+00
 -9.3626183e-01
 -6.4856678e-01
 -1.1859865e+00
  5.1171643e-01
  9.4909966e-02
  1.9078226e-01
 -2.0920798e-01
  5.6185019e-01
 -1.9193527e-01
  2.4097380e-01
  2.4261355e-01
  1.9816421e-02
 -1.3274074e-02
 -6.4286721e-01
  1.6919076e-01
  6.1549032e-01
 -2.4033196e-01
  7.6041657e-01
  1.3906825e-01
 -4.2124248e-01
 -4.2626625e-01
 -1.0916481e+00
 -1.0862130e+00
  4.6049979e-01
 -4.6753585e-03
 -1.6134968e-01
  9.3201840e-01
  6.2892759e-01
 -3.9426029e-02
  1.2619432e+00
  1.9861668e+00
  1.3736268e+00
  9.3172663e-01
  3.8137293e-01
  1.2947822e+00
  1.9233786e-01
  1.6846222e+00
  1.3075061e+00
 -5.3647554e-01
  3.3392394e-01
  3.9986563e+00
  1.6601485e+00
  6.7561072e-01
 -1.0520614e+00
 -7.0060194e-01
  1.6209997e+00
  2.2370470e+00
 -7.8761721e-01
  1.1692768e+00
  1.3171951e+00
  2.7819297e-01
 -9.8523659e-01
 -1.4512686e+00
  7.6121056e-01
 -8.4281766e-01
  2.6759854e-01
  6.1858255e-01
 -8.3708787e-01
  2.4103100e+00
  6.4819849e-01
 -3.1819630e+00
  2.1226634e-01
 -2.4037356e+00
  2.5985136e+00
 -7.5004786e-01
 -2.3481681e+00
  9.7081852e-01
 -8.0998980e-02
 -1.0239626e+00
  1.1380401e+00
 -5.4195201e-01
 -6.5058988e-01
 -2.6236234e+00
 -7.6571947e-01
 -4.2803866e-01
 -8.6174849e-03
 -1.0062791e+00
 -5.9933990e-01
 -1.9360858e-01
  5.9621006e-01
 -2.4767502e-01
 -9.6743387e-01
  1.0831451e+00
 -7.7544069e-01
 -6.1705703e-01
 -2.2094460e+00
  6.3451111e-01
  1.2425987e-01
  6.3047874e-01
 -5.7934415e-01
  1.1724275e+00
  2.3265755e-01
 -1.3382479e+00
  1.1683333e-01
 -5.2991563e-01
 -1.0616589e+00
  6.2827086e-01
  2.0830429e+00
  1.2944290e-01
  3.8864532e-01
 -2.2640217e-02
  1.2679487e-01
 -2.2624056e+00
  1.7905583e+00
 -4.4625863e-01
  1.0456727e+00
  1.1507411e+00
 -3.2530880e+00
 -1.2369900e+00
 -7.7517951e-01
 -7.4111485e-01
  2.1289046e+00
 -1.3272367e+00
 -2.8035572e-01
  2.0791810e+00
  3.6692126e+00
 -1.0770528e+00
 -4.3279412e-01
  1.1160837e+00
  5.0111306e-01
 -3.1327114e-01
 -8.4747776e-02
  3.8927084e-01
  1.0653660e+00
 -2.6487112e-01
 -3.4314270e+00
  8.2067746e-01
 -1.0685071e+00
  9.3649995e-01
  9.1420996e-01
  1.7878482e+00
  7.5338066e-01
 -8.0467433e-01
 -2.6184788e+00
 -6.3639000e-02
  3.6499140e-01
 -9.1474354e-01
 -8.5604799e-01
  3.0516491e+00
 -7.1167302e-01
 -4.3332198e-01
 -1.3108784e+00
  5.1274526e-01
 -9.6336728e-01
 -4.0280706e-01
 -1.1438893e+00
  3.8129175e-01
  6.3253111e-01
 -2.1531165e-01
 -2.1434319e+00
 -7.2156113e-01
  1.2300227e+00
 -3.2777852e-01
  1.2868638e-01
  1.2201692e-01
  1.5138251e+00
  9.2030689e-02
  7.4144512e-01
  4.2655587e-01
  5.5002815e-01
  1.1501423e+00
  4.4280842e-02
 -2.9744601e+00
  3.1090486e+00
  1.8138064e+00
 -3.9958990e+00
  6.7379427e-01
 -2.3374771e-01
  8.8586879e-01
  1.4368176e-01
 -2.7354307e+00
 -1.9731413e+00
 -2.1898952e+00
 -4.3236253e-01
  3.2226341e+00
 -1.2721348e+00
  3.7510553e-01
 -1.8685521e+00
 -1.3891963e+00
  9.4434506e-01
 -4.0598526e+00
  9.1861588e-01
  8.2564491e-01
 -4.5942202e+00
 -2.6976583e+00
 -4.4244000e-01
  1.7562428e-01
  4.3693814e-01
  1.3341943e+00
  2.7819210e-01
  1.6274765e+00
 -2.5179300e+00
 -2.2510746e+00
  1.2228525e+00
 -5.8223212e-01
  3.9947295e+00
 -2.6739392e+00
 -1.1580710e+00
  4.1554794e-01
  7.9003906e-01
 -2.3370724e+00
 -1.1456802e+00
 -1.3635703e+00
  7.2114182e-01
 -9.5980597e-01
 -4.9961185e+00
  3.9106436e+00
 -6.1743069e-01
 -3.6641192e+00
  1.7611309e+00
  2.0954051e+00
 -8.0190521e-01
 -1.2687086e+00
 -4.4663680e-01
  1.1594571e+00
  2.3947209e-01
 -1.1915706e+00
 -3.4346433e+00
  7.5307059e-01
  4.4583207e-01
  6.2376642e-01
 -9.0176684e-01
  7.6775044e-02
  1.4182045e+00
 -5.3325921e-01
 -9.9847984e-01
 -8.4916186e-03
 -1.3392842e+00
  1.2934326e-01
 -1.4179680e+00
  1.2634320e+00
 -1.1983756e+00
  2.3528476e+00
 -1.6589067e+00
 -2.4943377e-01
  1.2494999e-01
 -4.7891790e-01
 -4.5127928e-01
  6.6059804e-01
 -1.2550825e+00
  1.6547543e+00
  1.7243658e+00
 -5.9541691e-02
 -2.2306478e+00
  8.0593866e-01
  3.4249562e-01
  1.7498894e+00
  1.7762207e+00
 -3.5530937e-01
  2.2881548e+00
  1.7887537e+00
  1.3010176e+00
  4.2499581e-01
 -3.8534683e-01
 -7.8519648e-01
 -1.8116304e+00
 -1.0608344e+00
 -2.4225729e+00
  5.6620717e-01
 -1.1282272e+00
  1.3750449e+00
 -7.8272961e-02
  1.2852119e+00
 -6.2447631e-01
 -8.8788398e-02
 -6.2717986e-01
 -2.3155604e-01
  1.4025687e+00
  6.4219898e-01
 -6.5493804e-01
  2.2681816e+00
 -1.0852547e-01
  2.3981877e-01
 -9.4404000e-01
  4.4352919e-01
  2.3684764e-01
 -2.0771231e-01
  2.8519550e-01
 -7.6892328e-01
  6.8308949e-01
 -6.2696892e-01
  2.9265147e-01
  5.2964993e-02
 -1.1385841e+00
  3.7161109e-01
  6.9079868e-02
  5.1027542e-01
  5.9803313e-01
 -5.4925752e-01
 -2.4883056e-01
  2.1368918e-01
 -7.6804087e-03
 -7.5580992e-02
 -1.4522088e-01
 -8.5122657e-01
 -8.2318467e-01
 -5.9417266e-01
 -8.1829935e-01
  7.3899493e-02
  1.2011542e+00
 -2.2904941e-01
 -2.0031822e+00
  1.3338782e+00
 -3.6080840e-01
  1.6753795e+00
  1.3734415e+00
 -1.3026013e+00
 -1.7553663e+00
 -8.6244166e-01
  6.1715072e-01
  8.6609066e-01
  5.4008609e-01
  7.0283484e-01
  6.8166411e-01
  1.1145080e+00
  2.7947280e+00
  2.1700413e+00
 -8.9994925e-01
  1.7345438e+00
  2.2847662e+00
  5.6832105e-01
 -7.0327044e-01
 -3.8613948e-01
  2.8100225e-01
  1.9157797e-01
 -8.7018722e-01
 -2.2223462e-01
  4.4726932e-01
 -2.3929820e+00
  1.9989222e-01
  6.2247139e-01
  1.6517868e+00
 -1.7828789e+00
 -1.7762171e+00
 -3.1823543e-01
  3.9670673e-01
 -9.2813611e-01
  2.0952241e+00
 -7.2499645e-01
  1.3677444e+00
  2.2708614e+00
  1.9427059e+00
 -1.7623798e+00
  2.0375001e+00
 -1.4867693e+00
 -9.5086324e-01
 -2.7781039e-01
 -5.6161016e-01
 -7.2518152e-01
 -1.9699448e-01
  5.8161342e-01
 -1.1119841e+00
 -5.9507316e-01
  1.4398953e-01
  3.8594842e-02
  7.6859158e-01
 -1.3391909e-01
 -8.9946352e-03
  4.9021238e-01
  1.2297285e+00
 -2.4469948e-01
 -5.0101990e-01
  1.4511324e-01
  1.9922863e+00
 -1.2261709e+00
  1.8991657e-01
 -1.5787637e+00
  3.6660981e-01
  4.0090042e-01
 -7.4496561e-01
  5.4218024e-02
 -1.7267672e+00
 -1.2784292e+00
 -9.7032052e-01
  2.3074286e+00
 -5.4081601e-01
 -4.4841391e-01
 -9.8425156e-01
  7.9396510e-01
 -7.6213753e-01
  1.8952116e-02
 -9.0004212e-01
 -4.6163675e-01
  4.2259946e-01
 -1.3419150e+00
  9.6225858e-01
 -4.8771796e-01
 -2.0800805e+00
 -1.0552109e+00
  9.7366238e-01
 -4.0676270e+00
  1.1200215e+00
 -3.1117624e-01
 -2.0339762e-01
 -1.6312209e+00
 -8.1355667e-01
 -5.2066493e-01
 -1.7113688e+00
  2.0322061e+00
 -7.1457908e-02
 -1.8614682e+00
 -8.1446075e-01
 -2.3079572e+00
  7.6638401e-01
  1.5583581e+00
 -8.3016759e-01
  7.7847999e-01
  2.7878696e-01
  2.4903400e+00
 -8.3499062e-01
 -7.4607509e-01
 -4.5195609e-01
  4.8953313e-01
 -2.9216364e-02
  8.2748079e-01
 -9.8894036e-01
  8.3080733e-01
  4.6367499e-01
  5.8987897e-02
 -3.7577948e-01
 -1.1374904e+00
 -4.7929317e-01
 -7.5487256e-01
 -8.2778597e-01
  8.1045359e-02
  7.6467103e-01
  3.7951884e-01
  2.6545870e-01
  2.0966657e-01
  9.6112996e-02
  3.7120652e+00
 -5.0049772e+00
  5.1688805e+00
  5.6443787e-01
  2.9629703e+00
  4.2526164e+00
  3.6074402e+00
 -6.9865594e+00
 -2.0890803e+00
  5.2137966e+00
  4.0739050e+00
  8.3146706e+00
  1.3007442e+00
 -6.3564849e-01
 -9.0697914e-01
  2.4327974e+00
 -1.9678146e+00
 -8.3377564e-01
 -2.0283191e+00
  1.2226403e-01
  1.2003516e+00
  9.9471438e-01
  8.7958449e-01
 -3.0804345e-01
  3.3005171e+00
  1.4707074e+00
 -4.2728612e-01
  2.2393556e+00
  1.2899705e+00
 -5.3985476e-01
  9.6396363e-01
  3.3662608e+00
  6.3539422e-01
  2.1033588e-01
  1.3808385e+00
  4.7857764e-01
  3.7402686e-01
  1.5978000e+00
  7.6065707e-01
  3.1159277e+00
  5.2274013e-01
  8.9868164e-01
  1.8178164e+00
  4.5825836e-01
 -1.1268003e+00
  1.7478039e+00
  3.1520388e+00
  2.1370810e-01
  2.1549265e+00
  1.2749732e+00
  1.3880362e-01
  4.8952490e-01
  1.2398311e+00
 -2.9924569e-01
 -1.0977755e+00
 -9.0602107e-02
  7.2567260e-01
 -9.5276213e-01
 -1.9626279e-01
  9.7110319e-01
  1.0655962e+00
 -9.5759177e-01
  7.4669075e-01
  2.0614491e+00
 -6.0159099e-01
 -7.9358816e-03
  1.3187748e+00
  2.8399646e-01
 -1.5051982e-01
 -2.8263009e-01
 -1.4471014e+00
 -1.8720277e-01
  7.7169257e-01
  4.3948507e-01
  8.8535301e-02
  7.2959912e-01
  2.5621724e-01
  6.9238770e-01
  3.7859209e-02
  5.3939533e-01
  8.9074564e-01
 -8.0468915e-02
 -4.5911744e-01
  1.8456022e-01
 -1.1238794e-01
  2.4205652e-01
 -7.5981772e-01
  5.7913673e-01
  3.9348003e-02
 -1.3762072e-01
  9.6444882e-02
 -1.1693504e+00
  7.4001372e-01
 -1.1253309e+00
  6.3367569e-01
  7.5112857e-02
  9.7318363e-01
  6.7452556e-01
  6.3955492e-01
 -1.6949062e-01
 -4.5298901e-01
  9.4513428e-01
  1.6892132e-01
  2.1942499e-01
  5.3865451e-01
 -7.0141822e-02
 -1.0280414e-01
 -2.2595389e-01
 -2.6917231e-01
  1.0690176e+00
 -4.5607704e-01
  9.0201214e-02
 -8.7609470e-01
  3.6533773e-02
 -6.5515727e-01
 -2.5974232e-01
  8.1549096e-01
 -3.1132051e-01
  7.8855678e-02
 -2.2948632e-01
 -5.1243758e-01
  1.8363400e-01
  5.0878787e-01
  4.2682999e-01
 -3.7062222e-01
 -1.2897347e+00
  2.1891257e-01
 -5.8725303e-01
  7.9098821e-02
 -3.8102964e-01
  3.4307519e-01
 -6.0721058e-01
  6.2975180e-01
  3.8628751e-01
  3.4501264e+00
  9.1149253e-01
 -1.2399021e-01
  2.5037565e+00
 -4.4632804e-01
  2.7845399e+00
  1.7436337e+00
  4.1046563e-01
  6.4408857e-01
 -7.7471823e-01
  8.0960208e-01
 -7.3355943e-01
  1.4339539e+00
 -9.0064120e-01
 -1.3058413e+00
  9.1820341e-01
 -1.2340040e+00
 -8.0826735e-01
 -3.3292648e-01
 -4.2105074e+00
  1.2410703e+00
 -3.6611381e-01
  8.0531108e-01
 -3.3627397e-01
  2.6895952e-01
 -2.3536341e+00
 -3.0176861e+00
 -5.0961572e-01
  1.0393368e+00
 -2.3287561e+00
  1.9653003e+00
 -4.7585618e-01
  1.7336777e+00
  3.8031656e-01
 -4.1394587e+00
  4.1420631e+00
 -4.7210026e+00
  1.4262116e+00
 -3.5197144e+00
  9.7117260e-02
  1.1520085e+00
  1.5680823e+00
 -2.5547793e+00
 -8.3860689e-01
 -2.0448816e+00
 -3.2343512e+00
  1.8936516e+00
  8.1226927e-01
  7.5859755e-01
 -1.0290624e+00
  7.5118184e-01
 -6.1958939e-01
  2.6906508e-01
 -1.4932767e-01
 -2.5331142e+00
 -1.2720853e+00
  1.0274307e+00
 -2.3595691e+00
 -4.5612362e-01
  1.0402467e+00
 -1.3029028e-01
 -4.6915787e-01
 -4.5946217e-01
 -8.4382582e-01
 -3.2672554e-01
  4.2330632e-01
  5.1593888e-01
 -1.6759363e-01
 -1.7636359e+00
 -1.1931498e+00
  1.3270780e+00
 -1.5374355e+00
 -3.2048893e+00
  1.3867372e+00
  4.6639323e+00
  1.6156133e+00
  9.2972958e-01
 -2.0909904e-01
 -1.1540564e+00
  8.0158785e-03
 -7.0026445e-01
 -7.3934585e-02
 -3.6582391e+00
  2.7523973e+00
 -1.6764802e-01
 -2.3061082e+00
  1.2851841e+00
  1.8519721e+00
 -9.0803587e-01
  2.2470579e+00
  9.5313466e-01
 -3.5585256e+00
 -4.3631491e-01
 -2.2554035e+00
  6.3385695e-01
 -5.6028461e-01
  1.7895529e+00
 -5.3289527e-01
 -5.6386900e-01
 -2.5690490e-01
 -1.2956597e+00
 -1.6432685e-01
  1.5912293e+00
  1.4649903e+00
  3.7846613e-01
 -4.5480717e-02
 -1.6199331e+00
  2.2749910e-01
 -1.1812831e+00
 -4.1886431e-01
  2.8468844e-01
  1.3065261e+00
  1.2003592e-01
 -2.1189553e-01
  1.0710448e+00
 -1.4048152e-01
  3.8995045e-01
 -1.4737929e+00
  2.2267368e+00
  3.5690367e-01
  1.2881505e+00
 -2.4774175e+00
 -4.6660754e-01
 -1.1593806e+00
  1.5527707e-01
  4.0653473e-01
  5.2903134e-01
  4.9398966e-02
  7.3518956e-01
 -5.1202029e-01
  3.8217950e-01
  2.8616092e-01
 -3.4528869e-01
  1.1043462e-01
 -4.3465501e-01
  1.9910866e-01
  3.4815568e-01
  2.1570092e-01
  5.1674873e-01
  2.0802567e+00
  3.3380836e-01
  9.5894086e-01
 -2.4494700e-01
  4.3514609e-01
  8.8205981e-01
  9.1015214e-01
 -7.6463002e-01
  1.0727302e-01
  2.6194766e-02
 -1.3403723e+00
  3.2334742e-01
  4.8131791e-01
  3.8413250e-01
  5.9415674e-01
  1.5494485e-01
  9.5895696e-01
 -9.7020948e-01
  4.8215237e-01
  5.3901905e-01
  5.1349717e-01
  1.2568119e-01
  8.0449805e-02
 -2.3267794e-01
  4.9588639e-01
 -7.1114862e-01
  2.3796150e-01
  1.8319097e+00
  1.4057872e-01
 -6.8422198e-01
  1.7538795e-01
  4.8402804e-01
 -2.6875906e+00
  6.1337298e-01
 -6.5787953e-01
  5.6753874e-01
 -5.6024182e-01
 -2.0493135e-01
  3.7615031e-02
 -9.3100005e-01
  2.0999795e-01
  6.3134682e-01
 -1.9866940e-01
 -1.4705209e-01
  2.3664039e-01
 -4.3547720e-02
  3.5456991e-01
  3.0018026e-01
  1.6853544e-01
 -2.9797718e-01
 -2.2716594e-01
 -5.7909274e-01
 -9.4543509e-02
  5.8545291e-01
 -4.8984692e-02
  1.5655208e+00
 -2.8005537e-01
  1.8133645e-01
  4.6976683e-01
  1.5953138e+00
  4.3617189e-03
 -2.6108217e-01
 -2.2897122e+00
  1.6625799e+00
  3.2468009e+00
 -4.9716024e+00
  1.6503315e+00
  6.8434267e+00
 -4.3505998e+00
 -5.9710116e+00
 -1.1601939e-01
 -7.1627188e-01
 -1.0222065e+00
  2.6882437e-01
 -5.5478897e+00
  1.9385391e+00
 -1.1852186e+00
  3.4854421e-01
 -2.8758698e+00
  1.2559521e+00
 -1.0521282e+00
  1.7585809e+00
 -6.7429811e-01
  5.1282935e+00
  2.2593381e+00
 -5.8411609e-02
  7.8358454e-01
 -7.5170112e-01
 -1.7162330e+00
  1.5017478e+00
  4.7239077e-01
 -9.2291141e-01
  1.5532557e+00
 -1.5041541e-01
 -2.6125669e-01
 -2.9113907e-01
  9.5443225e-01
 -1.2113496e+00
 -1.0723162e+00
  7.6878148e-01
  1.0563129e+00
  1.4281727e+00
  1.5836567e+00
 -1.7866727e+00
  9.6101594e-01
  4.8082852e-01
 -1.8020154e+00
 -5.7865065e-01
  1.2667751e+00
 -3.2757983e-02
 -5.5142635e-01
  7.9513586e-01
  7.5642842e-01
  5.0111371e-01
 -6.9420161e-03
 -8.9939642e-01
 -3.7463027e-01
 -3.4844497e-01
  2.1468680e-01
 -6.1079776e-01
  5.2922571e-01
  7.6825017e-01
 -5.7819057e-01
  3.1711051e+00
  7.0360214e-01
  7.2296947e-01
 -1.0746549e-01
  1.2778807e+00
 -3.7379184e-01
  4.9083643e-02
 -1.7841527e-01
 -1.1711764e+00
  5.0954014e-01
  2.5962310e+00
 -2.3115447e+00
  3.4308618e-01
  2.2115269e+00
  7.5795811e-01
 -8.2521945e-01
 -1.6829495e+00
 -1.9613358e+00
 -2.3182497e+00
 -3.1316057e-01
  1.0774776e+00
 -5.0330335e-01
 -2.9846755e-01
 -1.5367180e+00
 -2.5858767e+00
 -8.1595290e-01
  1.2749470e+00
 -6.6895592e-01
 -1.5440187e+00
  6.1531579e-01
 -6.1368477e-01
  2.9271120e-01
  1.4339151e+00
 -8.7095785e-01
  1.4343303e+00
 -2.3061712e+00
  5.7774925e-01
 -8.7155342e-01
  9.4342399e-01
 -9.9829352e-01
  8.0109483e-01
 -3.5081906e+00
 -6.7028165e-01
  4.5795938e-01
  2.6758270e-02
 -8.0451375e-01
  3.4107220e-01
  3.7604442e-01
 -4.2960820e-01
  1.2752874e+00
  9.2476737e-01
 -1.7281461e-01
  1.2448183e+00
 -8.5419166e-01
  7.4740931e-02
  1.6453081e-01
  1.5943408e-01
 -5.8055258e-01
 -1.3056681e-01
 -1.2631153e+00
  3.9429939e-01
  2.4694249e-02
 -2.0289344e-01
 -7.5009358e-01
 -5.3879499e-02
 -5.1203483e-01
 -1.1413321e+00
  8.8249022e-01
  2.8571546e-01
 -5.4837716e-01
  1.5688244e-01
 -2.0336977e-01
  7.4515343e-01
  1.7005756e-01
 -2.8545222e+00
  1.4896630e+00
  1.2459601e+00
 -1.0748183e+00
  3.4124334e+00
 -5.3740501e-01
 -3.6176660e+00
  2.1432543e+00
  4.3587494e-01
  2.3705516e+00
  1.8798598e+00
 -1.2402127e+00
  1.6492495e-01
 -1.3306606e+00
  3.1538978e+00
  5.1655585e-01
  5.1105599e+00
 -5.3952581e-01
  7.8649275e-02
 -5.0381225e-01
 -1.4748089e+00
 -1.2569220e+00
  3.8107890e-03
  2.7220173e+00
  1.8276596e+00
 -6.1326265e-01
  6.7860478e-01
 -1.3924268e+00
  2.8864422e-01
  2.5092893e+00
  1.2718438e+00
  2.9269025e-01
  2.9495828e+00
 -7.8463113e-01
 -1.0037625e+00
 -1.5186568e+00
 -1.9426512e+00
  4.5507187e-01
  2.3749750e+00
  2.6006701e+00
 -1.8950222e-01
 -1.9985703e-01
  1.7980300e+00
  2.1187787e+00
 -2.2891181e+00
  8.0552167e-01
 -8.9388460e-02
  4.5312998e-01
 -3.6546755e-01
  6.4563459e-01
 -2.3169369e-01
  4.4693932e-01
  1.8299267e+00
  2.1033223e+00
  8.5220170e-01
  9.8960340e-01
  2.7284846e-01
 -3.3399689e-01
  8.2246238e-01
 -8.5052228e-01
 -3.8764718e-01
  5.7487881e-01
 -4.2926624e-01
 -4.4231915e-01
 -5.6105131e-01
  5.9980100e-01
 -1.6714542e+00
 -3.1939730e-01
  1.6187742e-01
 -1.6774671e+00
  2.9027832e+00
  3.4971569e+00
 -4.3152213e+00
 -5.2753717e-02
 -1.2794509e+00
 -2.1346047e+00
 -1.6681033e+00
 -2.5339148e+00
  8.2613707e-01
 -3.0035102e-01
 -5.0427300e-01
  6.8031770e-01
 -2.1359568e+00
 -2.6969111e+00
  4.9329501e-01
 -1.1149527e+00
  1.0774152e+00
  3.8143904e+00
 -3.1067607e-01
  4.3492785e-01
  1.6630551e+00
 -1.8578418e+00
 -1.9720759e+00
 -8.7289107e-01
 -2.0007405e+00
  1.2476652e+00
 -3.8786265e-01
 -3.5623400e+00
 -2.5584333e+00
  6.0846424e-01
 -4.7400308e-01
 -3.7362808e-01
 -7.4656320e-01
  6.3547242e-01
 -5.5862075e-01
  1.3910025e+00
  5.6627381e-01
  6.9561714e-01
 -9.5610750e-01
 -1.3921067e+00
 -1.8194212e-01
 -9.1045558e-01
 -8.1089085e-01
  1.1779720e-01
  4.5336115e-01
  1.2864219e+00
  1.1460674e+00
  5.2019268e-01
 -5.8343476e-01
  4.0141597e-01
  2.0719039e+00
  2.1478422e-01
 -1.0438424e-01
 -3.4122154e-01
 -9.0092778e-01
  7.2536111e-01
  3.3201325e-01
  6.0915136e-01
  4.0176862e-01
 -2.4221137e+00
  8.3538562e-01
 -2.9845235e-01
  1.9053533e+00
 -1.5319873e-01
  7.9507204e-03
  1.8053056e-01
 -3.3853513e-01
  5.8165300e-01
  1.5849746e+00
  6.8946004e-01
 -2.9526651e-01
 -3.5769287e-01
  9.5434368e-02
  5.5958790e-01
 -1.2897860e+00
  5.6292892e-02
  7.0702928e-01
  2.2021112e-01
 -8.7485723e-02
 -4.2777097e-01
 -1.1303773e+00
  3.0922419e-01
  5.8667469e-01
  6.0995626e-01
  2.9512647e-01
  1.6756049e-01
 -5.0527692e-01
 -2.4368483e-01
 -4.4460458e-01
  7.2487628e-01
  1.4433190e-01
  2.3052773e-01
 -1.0577035e-01
 -4.2929542e-01
 -4.0170866e-01
 -8.1371027e-01
  5.8293808e-01
  5.8559585e-01
 -2.8565663e-01
 -3.1635022e-01
  5.0803101e-01
  1.1742772e-01
  3.1758121e-01
  4.9060169e-01
  8.2459283e-01
  1.6497931e-01
  6.4877170e-01
  6.4397484e-01
 -1.0005841e-01
  1.9966102e+00
  3.7204349e-01
 -2.6877487e-01
  3.0680904e-01
 -4.8498946e-01
 -7.8089648e-01
  3.9180771e-01
  2.6198527e-01
 -3.4920627e-01
  5.3374803e-01
  2.0393899e-01
 -6.6721737e-01
 -5.9660906e-01
 -4.7970092e-01
 -3.3485556e-01
  6.5093833e-01
  2.1815503e+00
 -2.4771784e-01
 -5.1801898e-02
 -9.9688008e-02
 -7.4193573e-01
  6.9830406e-01
 -1.0710948e+00
 -2.8008113e+00
  3.6839363e-01
  4.6411350e-01
 -1.2323267e-01
  3.4756348e-02
 -2.8550479e-01
 -4.3252200e-01
 -1.6205171e+00
 -9.9022132e-01
 -1.6347073e-01
  6.5141213e-01
 -1.3554913e-01
  1.1312483e-01
  3.2618186e-01
 -5.2747589e-01
 -6.2174165e-01
  8.9854521e-01
 -8.6735415e-01
 -1.7219483e+00
 -8.9548874e-01
 -5.7606226e-01
  7.9461855e-01
 -2.5589204e+00
  2.3515750e-01
  2.1572293e-01
 -1.4656506e+00
  4.7955444e-01
  2.1175086e-01
 -1.9262067e+00
 -1.0726167e+00
  4.2474627e-01
  8.7853622e-01
  7.5980246e-01
  4.2126894e-01
  8.7977958e-01
 -1.2181298e+00
  3.6629686e-01
  1.4997180e+00
 -5.9472692e-01
  3.5246682e-01
 -5.6186205e-01
  7.1391422e-01
 -4.8956271e-02
  2.9914668e-01
 -3.6971830e-02
  1.8303826e+00
 -1.2577485e-01
 -1.5079856e+00
 -1.2900822e-01
 -3.3148962e-01
 -1.9126277e-01
  6.5361339e-01
 -1.2293724e-01
 -8.7386078e-01
  3.0125958e-01
 -6.0526597e-01
  2.8263769e-01
  5.2131885e-01
  4.7138378e-01
  6.3972378e-01
 -5.7880676e-01
 -1.4275014e-03
  3.5733995e-01
 -5.3933740e-01
 -1.7060059e-01
 -6.6829717e-01
 -5.0183600e-01
 -5.4230183e-01
  2.9717684e-01
 -9.7145259e-02
 -5.5939808e-02
 -2.4286029e-01
  2.4929890e-01
 -6.2605947e-01
  2.8231552e-01
  2.9583299e-01
 -7.0337850e-01
  1.5657287e+00
  2.2684231e-01
  6.1664903e-01
  1.3741580e-01
  7.5312860e-02
  2.3119397e-01
  1.9702709e-01
 -1.2372606e-02
 -3.8094419e-01
 -7.2871643e-01
  4.7919181e-01
 -1.5746220e+00
 -2.8226417e-01
  6.4308625e-01
 -5.5092078e-01
 -2.1429625e+00
 -1.9407332e-01
 -7.3125124e-01
 -5.2206045e-01
 -3.0452758e-03
 -5.8580166e-01
  9.9842656e-01
  1.0645516e-01
  3.3075789e-01
  1.0981063e-01
  6.7960024e-01
 -5.9126329e-01
 -5.4144365e-01
  4.0151277e-01
 -3.0173731e-01
 -1.9883230e-02
 -1.9979565e-01
 -2.6429537e-01
  9.4256461e-01
 -2.1459864e-01
  5.8306262e-02
 -9.3908733e-01
 -4.6152878e-01
 -4.8677933e-01
 -4.7199941e-01
 -3.2501206e-02
 -7.5920773e-01
 -5.0630611e-01
 -6.1438853e-01
  1.4241137e-01
  2.9757842e-01
  1.5712967e+00
 -1.8255174e-01
 -7.6993245e-01
 -1.3138803e+00
 -6.8557590e-01
 -4.8139334e-01
 -1.6985577e-01
  8.7514818e-03
 -7.9066807e-01
  7.1796769e-01
 -2.1123991e+00
  2.4074562e+00
 -1.9336355e+00
 -2.3630500e+00
  9.3877417e-01
  7.0778763e-01
 -1.5773035e+00
 -1.8795749e+00
  1.0245130e+00
 -3.9681089e-01
  1.7703234e+00
  6.0641825e-01
  3.7897379e+00
  8.6576152e-01
 -1.5625592e-01
  6.2291896e-01
 -1.1550629e+00
  1.1963326e+00
  1.4448194e-01
  1.3092721e+00
  1.5603226e-01
  1.2107865e+00
 -4.4761065e-01
  1.3822418e+00
  1.3166108e+00
  1.5813624e+00
  5.2155191e-01
 -1.1221088e+00
  1.2019845e+00
  5.4963672e-01
  2.2345923e-01
  1.5102142e+00
 -4.5778853e-01
 -8.1791866e-01
 -3.8231844e-01
  7.7889514e-01
  1.1271015e+00
 -9.4008797e-01
 -7.6732785e-01
 -8.9133985e-02
 -9.4437532e-02
 -6.9308192e-02
  1.0278810e+00
 -2.1443017e+00
 -1.6322911e+00
  5.5291706e-01
  1.2403483e+00
 -1.1277018e+00
 -1.4443420e+00
 -7.4320734e-01
  1.3320487e+00
  1.0297835e+00
 -1.3781337e+00
  2.5733979e+00
 -1.0497031e+00
 -7.9576933e-01
 -1.0113420e+00
 -8.2258445e-01
  1.0663468e-01
 -2.7417704e-01
 -6.9825649e-03
 -7.4797338e-01
  1.6635166e-01
 -3.0039120e-01
 -1.3840374e-01
 -9.3611948e-02
 -3.6487654e-02
 -1.6548860e+00
 -3.1136459e-01
  1.4474198e+00
  1.4433844e+00
 -3.2643044e+00
  1.7772423e+00
  2.3663437e+00
 -1.2462637e+00
  1.9066731e+00
  1.8961133e-01
 -2.1865396e+00
  5.8902001e-01
 -3.5453877e-01
  1.9494284e+00
 -1.5366240e+00
  4.1464443e+00
  7.9319917e-02
 -1.6451865e-01
  1.5706728e-01
  2.0598953e+00
 -1.1161509e+00
  8.1368494e-01
  3.0691788e+00
 -2.5652125e-01
  1.9942003e+00
  1.1938724e-01
  9.6062642e-01
 -4.8481631e-01
  2.6557565e+00
 -4.2710376e+00
 -1.5600473e+00
  2.8554959e+00
  2.1620746e+00
  4.9629992e-01
  1.0682157e-01
 -7.3212576e-01
 -1.2599938e+00
  1.0872530e+00
 -2.2091639e-01
  1.5940031e+00
  1.8768579e-01
  1.6958058e+00
 -1.4464228e+00
  2.5903354e+00
  6.0392725e-01
 -4.4939065e-01
  1.1888194e+00
 -2.6439795e+00
  6.5501072e-02
 -3.0528815e+00
 -1.6929101e+00
 -6.8044603e-01
 -1.4445047e+00
  2.0097306e+00
  2.7921269e+00
 -1.9592583e+00
  7.3721331e-01
  2.4961534e+00
 -1.9520789e-01
  8.1986392e-01
 -2.0180702e-01
 -9.3903154e-01
 -2.9007667e-01
  4.3946928e-01
  8.2795268e-01
 -4.3901302e-02
 -1.0525844e+00
  2.8172579e+00
  1.6270058e+00
 -6.8281722e+00
  1.0812157e+00
  3.6019681e+00
 -3.3972216e+00
 -7.8739271e+00
  1.1247005e+00
 -1.7325326e+00
 -2.3862367e+00
 -2.8533063e+00
 -3.2699182e+00
  3.2559831e+00
  3.3942217e-01
  1.9823105e+00
  3.2029608e-01
 -1.5641782e+00
  1.1297847e-01
  8.3837122e-02
  2.5755847e-01
  1.9364632e+00
  3.4704621e+00
  5.9848648e-01
 -1.4722092e+00
 -7.9379225e-01
 -2.2775307e+00
 -1.6869110e+00
 -9.9324006e-01
  1.2169952e+00
  4.2874241e+00
  8.6810780e-01
  1.4585479e-01
 -6.4411059e-02
 -1.0564955e+00
 -3.4438425e-01
 -9.7628981e-02
  1.1241767e+00
  2.3247120e+00
 -1.1044307e+00
 -3.5557296e+00
 -7.6130122e-01
 -5.5078393e-01
 -1.2268644e-01
 -9.7287208e-02
 -5.8536643e-01
  5.0963229e-01
 -3.0772772e-01
  3.1199646e+00
  1.3182070e+00
  5.7232344e-01
 -6.5196991e-01
 -5.2827787e-01
 -2.4029758e+00
  2.1174645e+00
  1.9343619e+00
  5.8570087e-01
 -7.1316406e-02
  1.4144258e-01
  4.8723915e-01
  3.0221245e-01
 -1.9275397e-01
 -2.6383203e-01
 -3.3393973e-01
  1.5933605e+00
  1.0834980e+00
  1.6879125e+00
  6.0140902e-01
  1.8404516e+00
  4.3734103e-01
  5.6687635e-01
 -1.2849740e+00
  1.0656802e-01
  6.1437750e-01
  2.9160514e-01
  2.3187956e-01
  4.4904369e-01
  8.4800231e-01
 -2.5693557e+00
 -6.8380111e-01
 -1.4771622e+00
 -6.2795812e-01
  9.7608775e-01
  7.9513490e-01
  8.4328550e-01
  6.7833096e-01
  1.4781650e+00
  3.3833718e+00
 -4.1406281e-02
 -1.2923051e-01
 -1.1022311e-01
  7.4473447e-01
 -3.4507912e-01
  5.1852065e-01
  3.8712797e-01
  9.5669264e-01
 -5.2402115e-01
  1.7550879e+00
 -9.8585725e-01
  4.2335075e-01
  8.4560859e-01
  1.9999563e+00
 -1.3555722e-01
  1.6355129e-01
  3.7011337e+00
 -5.5224991e-01
 -1.9473271e+00
 -1.5714339e+00
  1.0197605e+00
  4.6162393e-02
  1.4327034e-01
 -2.1805638e-01
 -1.3812304e-01
  1.7395984e-02
 -7.5249088e-01
 -6.9421995e-01
 -1.0869290e+00
  1.3319391e-01
 -2.3848562e-01
 -1.0619897e+00
  2.1397205e-01
  2.0426590e+00
  1.3758013e+00
  1.2713175e+00
 -4.9804690e-01
 -1.3168262e+00
 -6.2731606e-01
 -2.0215872e-01
 -4.0290725e-01
 -4.0504754e-01
  2.6379704e-01
 -7.2905463e-01
 -5.5020028e-01
  2.0352086e-01
  6.5756702e-01
  1.3128107e+00
  1.3759392e+00
 -8.7211394e-01
 -4.1325149e-01
  9.4282679e-02
 -7.8735137e-01
 -1.1426268e+00
  1.5892160e+00
 -6.5994310e-01
  1.3421488e+00
  3.7140846e-01
 -1.4705387e+00
 -9.3744642e-01
 -1.9594312e+00
 -1.1204369e+00
  9.7214925e-01
  1.5398304e-01
  1.0448008e+00
  1.7524045e+00
  1.0885773e+00
  2.6087224e+00
  1.4438489e-01
 -2.3345920e-01
  7.0820940e-01
 -1.9806424e-01
  4.1678467e-01
 -1.8478438e+00
 -1.2346195e+00
  8.3983284e-01
 -2.6207070e+00
  3.0402648e+00
 -4.4184664e-01
 -4.8472488e-01
 -1.2329363e+00
  2.0498639e-01
  6.4818788e-01
  1.7738094e+00
 -5.1873314e-01
  6.4877950e-02
 -7.4722350e-01
  9.3176126e-01
 -5.8004570e-01
  5.0019258e-01
  9.3152589e-01
  1.3578517e+00
  6.4953971e-01
 -9.3354726e-01
 -1.2698493e+00
  2.7838542e+00
 -7.9892969e-01
 -1.7162977e+00
 -3.8968127e-02
 -1.3326869e+00
 -1.9365588e+00
  1.5722845e+00
  9.6636690e-02
  2.0305290e+00
 -1.5553831e-01
 -4.2199397e-01
 -9.7320819e-01
 -1.0566491e+00
 -1.5336543e-01
  6.2590100e-02
 -1.4919564e+00
  1.0728312e+00
 -1.7373759e-01
  1.9552082e+00
  1.9467556e-01
 -4.6762991e-01
 -2.9681835e-01
  7.5134695e-01
  4.8330340e-01
 -1.4514972e+00
  1.4880395e+00
 -3.3471194e-01
 -6.8068647e-01
 -3.2791045e-01
  1.4641101e+00
 -3.1327572e-01
  1.2334527e+00
  1.3060515e+00
  6.5051967e-01
  1.4711347e+00
  1.0793290e+00
 -4.2101181e-01
  1.6441450e+00
  3.6471382e-01
  3.3533207e-01
 -5.2600332e-02
 -1.8167241e-01
 -1.0704598e+00
  1.8720245e+00
  8.2045722e-01
 -2.7383953e-01
  4.3038464e-01
  1.4123183e+00
 -8.9716023e-01
  3.5704580e-01
 -5.6899512e-01
  1.1901096e+00
 -5.6670088e-01
  6.7018586e-01
 -3.4900326e-01
 -9.8940134e-01
  2.0535760e-02
 -6.8892658e-01
 -8.4655023e-01
  1.6800889e-01
  7.1656531e-01
  1.4263968e-01
  4.0502712e-01
  3.1230676e-01
  1.8317732e-01
  9.7189653e-01
 -9.3459880e-01
  4.1310611e-01
  1.4289343e-01
 -8.9223227e-03
 -4.6442416e-01
  9.5676559e-01
  2.1272676e-01
  6.0513330e-01
 -7.2745210e-01
  9.4117790e-01
  7.6441061e-01
  2.2558261e-01
 -1.0282627e+00
 -2.7731270e-01
 -4.1944626e-01
  1.0636408e+00
 -4.8165536e-01
 -4.4832662e-01
 -2.9413231e-02
 -3.7310556e-01
  3.1250969e-01
  2.8219259e-01
  4.8477700e-01
  6.8061125e-01
  4.1137579e-01
  1.4294568e+00
  7.2362894e-01
  6.9600737e-01
  3.8665198e-02
  2.2703554e-01
  5.8824056e-01
  1.1536632e-01
 -4.9529219e-01
 -2.9523522e-01
  9.8198384e-02
  5.5331748e-02
 -6.8872333e-01
 -6.8229091e-01
  5.4348275e-02
 -4.1916463e-01
  6.4795107e-01
  3.8432792e-01
  7.0675051e-01
  4.4788885e-01
  1.9966114e-01
  1.5007697e-01
 -1.2708155e-02
  5.0442114e-02
  6.6260672e-01
  1.3598800e-01
  5.6673354e-01
  5.1525015e-01
  3.5573089e-01
  6.9107912e-02
 -4.8851117e-01
  8.9747988e-02
  1.9835588e-01
  2.5997069e-02
  1.8123290e-02
 -4.6834189e-01
  1.7869331e-01
 -1.9149791e-01
  1.1290548e+00
 -3.8872235e-02
  4.9788707e-01
  1.0202097e-01
  6.6565591e-01
  9.5532203e-01
  9.6314687e-01
 -1.8839324e-01
 -3.6267582e-01
  1.8123143e+00
 -3.7156349e-01
 -3.7153810e-01
 -5.0355557e-02
 -2.1490488e+00
 -2.5648755e-01
  1.2027773e+00
  1.9161310e+00
  9.9060845e-01
  1.0442998e-01
 -7.7616996e-01
 -1.6520098e+00
  8.4534115e-01
  2.1772176e-01
  3.3881456e-01
 -2.1148496e+00
  3.4327044e+00
  1.2820494e+00
 -3.1353798e+00
 -3.8356893e-04
 -9.4445485e-01
 -1.4301808e+00
 -2.4868430e-01
 -5.5759066e-01
 -2.2747808e+00
 -2.1494086e+00
  8.3412737e-01
  3.5464885e+00
 -2.2055280e+00
 -8.2486771e-02
  7.2703427e-01
  9.1243100e-01
 -8.1783962e-01
 -3.6538072e+00
 -2.2605367e+00
  2.9050705e-01
 -3.1710045e+00
 -8.2423335e-01
 -3.5228965e+00
  5.1362012e-02
 -1.4966628e-01
  3.0373168e+00
 -1.2045048e+00
 -8.3351296e-01
 -3.2262697e+00
 -1.8030990e+00
  2.6688874e-01
 -7.3794998e-02
 -3.6546749e-01
 -1.0289035e+00
  2.9748828e+00
  6.8831660e-02
 -1.0835709e-01
 -4.8026128e+00
 -3.0851707e+00
  2.5129158e+00
 -2.3024333e+00
 -2.2829483e+00
 -1.2452716e-01
 -1.7310675e+00
  7.0605403e-01
 -4.7027167e-02
  6.6836458e-01
 -5.2005565e-01
  3.6759654e-01
 -2.9953032e+00
  9.4312656e-01
 -2.9997596e-01
 -5.9524167e-01
 -2.7971885e+00
 -9.5406067e-01
 -1.3034592e+00
  1.7605486e+00
 -7.7686691e-01
  8.4759724e-01
 -1.1301770e+00
 -1.0915202e+00
 -7.5501055e-01
 -5.6162286e-01
  1.3176587e+00
 -1.2443188e+00
 -2.6782703e-02
  3.3452529e-01
  3.8781384e-01
  1.9459449e+00
  1.9087978e-02
  1.1268993e-01
 -1.3332520e-01
 -1.8450466e-01
 -8.2682210e-01
  6.7106777e-01
  9.0831155e-01
 -6.0170257e-01
  2.3491244e+00
 -1.4465696e+00
 -1.6414915e-01
  6.2191558e-01
 -4.5816889e-01
  5.2342474e-01
 -2.6573255e+00
  4.8027182e-01
  4.3200739e-03
 -4.4662926e-01
 -6.4563686e-01
 -3.9643869e-01
  3.4047005e-01
 -4.1318744e-01
  8.4271836e-01
 -1.0403185e+00
  3.1218687e-01
 -5.1761758e-01
  1.3706323e+00
  2.3912642e-02
 -3.2701893e+00
 -3.2097852e-01
 -9.1912246e-01
 -1.3364003e+00
 -1.0082935e+00
  5.5502856e-01
 -1.7716303e+00
  8.4141053e-02
 -1.6699173e-01
  7.1467888e-01
  9.6379292e-01
  9.3446754e-02
 -4.2559347e-01
 -2.7948895e-01
 -9.3053263e-01
  9.1512926e-02
  3.1395841e-01
 -4.0978161e-01
  1.5703246e-01
 -4.9314022e-01
 -3.6116394e-01
  6.1526573e-01
  1.6922255e+00
  2.5037599e-01
 -4.5273623e-01
 -1.2652872e+00
 -7.4788421e-02
 -4.2477030e-01
  8.9166367e-01
 -4.3771681e-01
 -3.3635622e-01
 -4.0178016e-01
 -9.8094031e-02
 -3.9524865e-01
 -6.6911197e-01
  6.4366883e-01
 -7.1688735e-01
  1.0061210e+00
  4.0079570e+00
 -2.2777913e+00
  5.4064906e-01
 -1.7713372e+00
 -1.2334273e+00
 -2.4733114e+00
 -2.1163306e+00
 -4.5080814e-01
 -4.0601382e-01
  4.1256163e-01
  7.9579872e-01
  9.7576332e-01
 -1.7322530e+00
  1.0236332e-01
 -8.4236139e-01
  2.8317593e-02
 -2.3656616e+00
  3.6582460e+00
 -2.4390302e+00
 -2.2756741e+00
  2.1229818e-01
 -1.6496114e+00
  1.4344199e+00
 -4.6155334e-01
  1.0214033e+00
 -3.8903530e+00
  2.3645043e+00
  1.5582554e-01
 -2.5890388e+00
  1.0205647e-01
 -4.0825582e+00
 -3.4093833e-01
 -9.3231922e-01
  6.3907963e-01
  9.0502501e-01
 -2.0154824e+00
 -4.2748722e-01
  1.0355468e+00
 -2.8418481e-01
  3.5543978e+00
  1.7687109e+00
 -1.1674160e+00
  1.9782282e+00
  7.8727031e-01
 -2.5075686e-01
 -9.6756727e-01
 -2.4391286e+00
 -1.4954805e+00
 -4.3593645e-01
  2.4158032e-01
 -3.3446187e-01
  2.7220669e+00
  1.1886334e+00
 -4.9669400e-01
  1.1311773e+00
 -2.9318397e+00
 -7.7862561e-02
 -8.3636329e-02
 -1.0087324e-01
 -1.6718574e-01
 -7.4836189e-01
 -1.2955025e+00
  8.2901180e-01
 -7.1562901e-02
  2.3404469e-01
 -1.7327182e+00
  1.4720820e+00
  1.0617880e+00
 -1.4092408e+00
  3.8333780e-01
  1.5040512e+00
 -1.0871313e+00
 -3.4647231e+00
 -6.9595182e-01
  1.9177325e+00
 -4.0672353e-01
  1.3278332e+00
 -3.4763688e-01
  9.6545655e-01
  9.3461668e-01
 -1.7474943e-01
 -1.2745603e+00
  1.4987247e+00
  1.8253726e+00
  1.2902272e+00
 -9.8297518e-01
  4.3605418e+00
  6.0986906e-01
  2.4271593e+00
  1.8928735e+00
 -1.3223772e+00
  3.5585034e+00
  1.3044515e+00
  2.5948915e+00
  7.5405610e-01
  1.6914235e-01
 -3.2771525e+00
  3.2139206e-01
  1.7258714e+00
  4.9558748e-02
 -1.1083398e+00
  1.1209314e+00
 -1.7155765e+00
  1.2065827e+00
  6.4209843e-01
 -1.6186461e+00
 -9.8494744e-01
  5.6884247e-01
  3.0068882e+00
 -4.4483134e-01
 -1.5467421e+00
 -5.8247739e-01
  1.5621382e+00
  1.9263421e+00
 -8.8211101e-01
 -1.0415812e+00
  8.4562302e-01
  3.8236511e-01
  6.1321491e-01
 -1.4942437e+00
 -1.8143793e+00
 -6.5687990e-01
  1.1901108e+00
 -1.9667050e-01
  7.9194844e-01
 -7.5363296e-01
  1.4412898e-01
  2.7873701e-01
  1.4326453e+00
  6.1291444e-01
  6.9722538e-03
  9.7861087e-01
 -8.5795349e-01
 -1.0248802e+00
  1.3498715e+00
 -1.9483671e+00
 -6.2779021e-01
 -3.6291316e-01
  1.5639658e+00
  3.5049540e-01
  1.8819848e-01
  4.9998769e-01
 -3.2070036e+00
  7.1330047e-01
 -5.4508906e-02
 -1.8604650e+00
 -1.0165634e+00
  1.0561894e+00
 -3.4627383e+00
  1.9195685e+00
 -1.3723643e+00
 -2.6068225e+00
 -7.9917157e-01
  1.7565386e+00
 -2.2166310e-01
 -3.6595142e-01
 -1.2078812e+00
 -2.6021686e+00
  1.0361377e+00
 -2.5224905e+00
 -7.7442950e-01
  1.2104260e+00
  3.0811791e+00
  3.8710954e+00
 -1.4976629e+00
 -4.4723496e-01
 -1.7775334e+00
  9.8946768e-01
 -1.0759164e+00
  2.7981460e-02
 -2.4100230e+00
 -7.0343703e-01
  2.7550349e+00
 -1.3081177e+00
 -1.7633748e+00
  3.7922511e+00
 -1.5441322e+00
 -1.4658393e+00
  2.3069248e+00
  4.4238961e-01
 -9.1015768e-01
 -5.9330428e-01
 -3.7298128e-01
 -2.0021265e+00
  1.4665684e-01
  5.0457710e-01
 -3.1374758e-01
 -4.2909566e-01
 -8.2088435e-01
  1.0957874e+00
 -7.2302151e-01
  1.1943333e+00
 -3.9828787e+00
  1.0632113e-01
 -6.8447435e-01
  3.0503029e-01
  8.1703681e-01
  2.3582196e-01
 -4.4504234e-01
 -2.6734817e-01
 -1.2771479e+00
  1.4580843e+00
  1.2413745e+00
  7.4307120e-01
  9.6560335e-01
 -7.1046710e-01
  1.9793603e+00
  2.3690004e-02
  8.8810009e-01
 -4.5626968e-01
  8.4849292e-01
  3.1342085e-02
  3.5344568e-01
  1.8997589e-01
 -1.0084829e+00
 -1.5415331e+00
 -2.8582842e+00
 -3.5055988e+00
 -2.0875680e+00
  7.5395548e-01
 -1.8638391e+00
  4.5466533e-01
  3.4560019e-01
  5.4181528e-01
 -1.3399934e+00
 -2.2729294e+00
 -1.5728927e+00
 -1.3169305e+00
  3.0985765e+00
 -7.5440949e-01
  2.2226925e+00
  1.0194448e+00
  8.9137447e-01
  6.9035336e-02
  2.0602589e+00
  1.2331371e+00
  2.4635270e+00
 -2.1052031e-01
  4.9609900e+00
  2.3297535e-01
  1.5573188e+00
  1.8676346e-02
  9.8990655e-01
 -3.1353953e+00
  2.0979717e+00
  1.7270455e+00
  3.4931985e-01
  2.4929669e+00
  9.2910808e-01
  1.0053222e+00
  1.7232612e+00
  2.7201596e-01
 -4.7069713e-01
 -1.5668901e+00
 -1.0045294e+00
 -5.5461776e-01
  1.8260038e-01
  7.0229942e-01
 -2.8427774e-01
 -1.5354145e-02
  4.6838629e-01
  1.8654912e+00
  1.1602273e+00
  1.1526657e-01
 -2.1529086e+00
  8.0090696e-01
 -1.3809773e+00
  4.6746922e+00
  1.3270104e+00
 -8.7446842e+00
  2.6738195e+00
  3.5972168e+00
 -6.6114120e+00
 -5.4191737e+00
 -3.5833118e+00
 -3.5528784e+00
 -4.9906068e+00
 -8.3419675e-01
  1.6052585e+00
  2.5436655e-01
 -3.4132075e-02
  2.4931786e+00
 -2.8321414e+00
  2.0191076e+00
 -2.1743922e+00
 -5.2065821e+00
 -1.5242374e+00
  3.1234366e-01
  1.7463447e+00
 -4.3441573e-01
  1.8209398e+00
 -2.3365159e+00
 -1.8067159e-01
 -2.0106797e+00
 -2.0485437e+00
 -3.3700931e+00
  3.8207960e+00
 -2.1481787e-01
 -6.8922973e-01
  2.6843641e+00
 -3.3967495e+00
  3.7325180e-01
 -2.7442055e+00
  2.1889737e+00
 -4.2101245e+00
  9.3306571e-01
  1.3052407e-01
  9.7278202e-01
 -1.2422034e+00
 -2.3026657e+00
 -8.1738693e-01
 -8.1852242e-02
 -9.5255774e-01
 -1.4188935e+00
 -5.5158202e-02
  2.7166800e+00
  1.3934700e+00
  9.1891116e-01
 -3.2967305e+00
 -1.0359864e+00
  4.1379933e+00
 -2.4999990e+00
  3.1691124e+00
  2.5589938e+00
 -1.3447952e-01
  1.2660927e+00
  1.0098162e+00
  8.8674480e-01
  7.7138150e-01
 -8.9187086e-01
 -3.4223777e-01
  1.3632349e+00
  1.2567735e-01
 -1.9436832e-01
 -8.2469910e-01
  3.7080160e-01
  1.4623073e+00
 -2.6052779e-02
 -1.2570758e+00
 -5.4933727e-01
  5.6402695e-01
 -2.2812310e-01
  4.1069996e-01
  4.1251719e-01
 -9.2289996e-01
  6.8802202e-01
  2.8874330e-02
 -4.0852445e-01
 -5.4951370e-01
 -1.2529218e+00
  2.8064999e-01
  7.9829621e-01
  8.0392092e-02
  2.1586652e+00
 -1.3470295e-02
  4.2053357e-01
 -6.5726435e-01
  4.0967354e-01
  7.1134949e-01
  8.4889907e-01
  6.1689222e-01
  7.9796004e-01
  1.1261827e-01
 -4.9336895e-02
  8.6520714e-01
 -9.1879740e-02
  2.7806684e-04
 -2.5307801e-01
  6.9122064e-01
  1.4091004e+00
  5.9670180e-01
 -3.8197267e-01
 -3.9151475e-01
  3.4127599e-01
  7.2720903e-01
 -6.3048780e-01
  9.9391580e-01
 -1.1760170e+00
  6.6481435e-01
 -1.4914064e-01
 -5.0745922e-01
 -9.7232419e-01
 -1.1693444e-01
  2.3948193e-01
 -2.5134528e-01
  2.1644620e-02
 -5.3276974e-01
 -1.3729239e-01
 -8.3312953e-01
  1.1302478e+00
  2.2530425e+00
  5.7726634e-01
 -2.1018140e-01
 -7.9334247e-01
 -7.7952340e-02
  3.5885051e-01
 -5.1217788e-01
 -4.4073614e-01
  5.9838945e-01
  6.0728139e-01
  2.5650594e-01
 -1.0098976e+00
  3.1160948e+00
 -1.4295790e-01
 -5.7587284e-01
  1.1846924e+00
  1.1897614e-01
 -8.3202356e-01
  1.3586625e+00
 -1.0785505e+00
  4.1072166e-01
  1.6398374e+00
 -1.6029727e+00
 -1.6834407e+00
